nep4 2 Ga O 
cutoff 6 4 90 32
n_max 8 8
basis_size 8 8
l_max 4 2 0
ANN 50 0
 -4.4651366e-05
  1.6546841e-05
  8.3990353e-06
  4.5834706e-05
  1.4084496e-04
  5.3139727e-05
 -1.1814448e-06
  2.4434759e-05
 -5.8207552e-05
  1.1513341e-04
 -1.5125037e-04
  8.1704216e-05
 -1.3603237e-04
  7.4615120e-05
  8.9330017e-05
 -1.4299984e-05
 -1.5514750e-06
  1.1368649e-04
  1.1050978e-04
  2.0741370e-04
  5.5360539e-05
  2.6534110e-05
  3.1062020e-05
  1.2363543e-04
 -6.6756082e-05
  7.1589326e-05
 -1.6676552e-04
  1.5286732e-04
 -1.3397125e-06
  4.9333870e-05
 -4.9122300e-05
 -9.6734191e-05
  1.6675607e-06
 -1.1116799e-04
  2.2258389e-05
  8.3199620e-06
 -1.6101041e-05
 -6.1108476e-05
 -3.4430268e-05
  1.6996931e-04
  1.4498903e-05
  1.4634109e-04
  2.4334717e-05
  1.5854837e-04
 -1.2684928e-04
  1.8893414e-05
  4.6233203e-05
 -1.0708264e-04
 -1.9682280e-05
  6.3894993e-05
  5.8900663e-05
 -1.4387100e-04
  5.7249894e-05
  3.6694841e-05
 -5.5697615e-06
  1.1767561e-02
 -8.5402506e-05
  1.6814240e-04
 -1.1606814e-03
 -2.1482083e-01
  4.7149514e-03
  1.2264727e-02
  1.0744409e-05
 -1.9986523e-04
 -1.7152875e-04
 -4.4318604e-05
  2.0122672e-04
 -1.3602285e-04
 -3.7440575e-05
 -1.4677593e-05
  5.5528784e-05
 -2.5699790e-05
  7.3976342e-05
  1.5666526e-05
  1.2841495e-04
 -2.2349095e-05
 -2.4296623e-05
  5.8808707e-02
 -5.1456915e-05
 -3.1215735e-05
 -3.1650366e-04
  5.5683169e-05
 -1.0392743e-04
  1.8034553e-02
  1.8150111e-04
 -8.2294900e-06
  4.0221552e-05
  2.2169820e-04
  3.1930376e-02
  6.2222236e-05
 -4.2113283e-05
 -4.5543158e-05
  2.6966119e-04
  1.1212449e-04
 -1.3278829e-03
  4.9214261e-05
 -1.0975037e-04
  8.4511623e-05
 -5.2049716e-05
 -1.5790756e-05
 -2.1871921e-05
 -3.6424029e-04
  7.1581962e-05
 -6.9217735e-05
 -2.3129591e-05
 -1.0855229e-06
  1.6294180e-04
  9.2050745e-05
  7.2206960e-05
 -8.7029189e-03
  2.0681438e-05
 -1.9582489e-04
  2.7930006e-01
  2.2629923e-01
  3.0483252e-05
 -7.7760048e-02
 -6.3293483e-05
  1.8049630e-05
 -1.3687430e-04
 -2.9408955e-04
  2.7158132e-04
  9.7373799e-05
 -6.6341549e-05
  7.3977418e-02
 -4.9640097e-05
 -1.7700078e-04
  4.3642551e-05
 -8.6131440e-06
 -4.0668887e-04
  1.5193231e-04
 -8.3771483e-05
 -8.1510255e-03
 -1.8198695e-04
  5.2784071e-05
  2.2885848e-02
  6.2782994e-05
 -1.3730155e-04
 -1.6859360e-01
  6.8712681e-05
 -8.4002568e-07
 -8.6871447e-04
 -9.5287692e-03
 -1.5479224e-04
 -1.2585115e-06
  4.7539947e-06
  1.4958756e-04
 -1.6411509e-03
 -4.3904914e-05
  1.2807215e-02
 -1.6164251e-04
  7.3303777e-06
  7.4671367e-03
  6.9160737e-06
 -5.1990479e-05
 -2.2912779e-04
  1.7393448e-05
 -1.2889122e-04
 -1.5400411e-04
  1.5334374e-03
  4.1155890e-05
 -9.7317956e-05
 -7.3442650e-05
  1.0146306e-01
  9.7435206e-01
  6.5723456e-05
 -2.6834363e-01
  7.4419308e-01
 -8.6236191e-01
 -7.1686588e-02
  8.7807989e-01
 -1.0251150e-01
 -3.5390181e-05
  2.5074985e-05
  3.9035516e-05
 -1.6739610e-05
 -1.0072254e-04
  2.1507691e-01
 -2.4849023e-01
 -4.8853424e-05
  2.8201588e-05
  1.0618943e-04
 -1.2841172e-05
  2.6878804e-01
  1.5799424e-05
 -4.8392773e-02
  4.5798370e-01
 -7.1155460e-05
  3.5302190e-05
 -1.7628196e-01
 -1.6688242e-05
 -4.4870663e-05
  3.9699617e-01
 -2.9617993e-04
 -1.5677230e-01
  1.0314463e-02
  1.1536437e-01
 -8.6519301e-01
  3.7671681e-04
 -9.7914897e-05
 -1.1184133e-04
  1.5964606e-01
  1.5962937e-04
 -6.4887363e-01
  2.8081248e-02
 -3.0327705e-04
 -5.7211135e-02
 -2.0661728e-05
 -1.3542405e-05
  9.2685113e-05
 -1.7440280e-02
 -3.5699974e-05
 -4.5374264e-03
 -9.5672457e-04
  6.6782784e-05
  2.0787085e-03
 -2.5488955e-05
 -8.1805480e-01
 -3.0941919e-05
 -3.2723933e-06
  2.8095288e-02
  1.8410371e-03
  7.3885098e-02
  5.5769261e-02
  2.0956965e-01
  1.1269767e+00
  1.3192093e-05
 -5.9776961e-05
  6.7158212e-06
 -6.7036824e-05
 -1.8308824e-02
  3.2980451e-01
  3.3676037e-01
  5.7840608e-03
 -8.8509754e-05
  7.3858180e-05
 -3.1856589e-06
 -5.1023078e-01
  9.9244367e-05
  2.3462903e-01
  2.8405245e-03
  1.0822331e-04
  5.3203183e-01
  3.0870777e-01
  1.0220121e-02
 -4.1455591e-05
 -1.8227677e-01
  6.1728533e-05
  4.8834616e-01
 -1.7947261e-01
  1.0392823e-03
  4.7918922e-01
 -6.9954875e-04
 -2.8828258e-06
 -1.6438299e-04
 -3.8131505e-01
 -3.4995314e-06
 -8.3161307e-05
 -3.8813773e-01
 -6.4653262e-02
 -3.9846036e-05
 -6.4337321e-05
 -2.5149619e-05
 -2.9826893e-05
  6.8492210e-04
  5.2267955e-05
  2.1262214e-04
  6.3068829e-02
 -3.3213084e-05
  3.1455271e-02
 -5.1230574e-05
 -2.9794613e-04
 -2.1667102e-02
  7.4846386e-05
 -6.9055431e-02
  3.0192882e-02
  1.7913606e-03
  9.7709551e-02
 -1.3095395e-01
 -2.6428488e-01
  2.0910949e-04
  4.9826263e-05
 -1.8390258e-03
  1.2151645e-05
  1.5645285e-04
 -1.6592321e-03
  1.8521051e-01
 -6.3172811e-05
 -7.2822710e-05
 -9.3918577e-05
 -6.3360785e-05
 -2.3040829e-02
 -3.2791471e-05
  5.2083498e-03
 -2.3865802e-02
 -5.6844461e-04
  6.8633869e-02
  1.0851306e-01
  1.4168388e-05
  1.4212234e-04
 -2.5619563e-01
 -8.3323664e-07
 -1.0152453e-04
 -8.7365292e-02
 -1.0669269e-01
  3.7486933e-03
 -5.9190967e-05
  1.1559815e-04
 -9.0737485e-05
 -9.8355621e-02
 -1.3303818e-05
  1.2530130e-01
 -2.0795891e-02
  8.5509045e-04
  1.0543888e-02
  3.3179265e-05
  4.0160612e-06
  1.5227407e-05
  1.0814691e-03
 -6.4558051e-05
  7.1319763e-04
  1.7219552e-04
 -6.7137880e-05
 -2.5008718e-02
  2.0823994e-04
 -2.0509951e-04
  2.7105207e-05
 -5.1082134e-07
 -1.1388471e-05
  5.6769699e-05
  1.3587988e-04
  1.0566447e-04
 -8.4841122e-05
  1.0390487e-05
 -7.5970485e-05
  1.3194387e-04
 -1.2462844e-04
 -1.6316224e-04
 -4.3102315e-05
 -8.9779805e-06
  6.0432332e-05
  7.1816999e-06
  8.3790153e-05
  1.9134566e-05
  6.5024105e-05
 -2.3397741e-04
 -5.1197261e-05
 -5.1764368e-05
 -2.6835730e-06
 -3.8795457e-05
  2.8837620e-05
  1.2283435e-04
  4.0893423e-04
 -4.0391347e-05
 -5.9765840e-05
  7.3258401e-05
  1.0172951e-04
  1.5171862e-04
  1.1848105e-05
 -6.2794919e-05
  2.2351587e-05
 -5.0806771e-05
 -3.6829355e-05
  4.4421089e-05
 -1.1903151e-04
  8.5737171e-05
  2.1105478e-04
 -6.8692912e-05
 -6.9274938e-05
  1.1335104e-05
 -4.0487275e-06
  8.6765522e-06
  1.5135683e-05
  2.9351766e-04
 -3.0148360e-05
 -1.1564555e-04
 -2.3280886e-06
 -5.5174027e-05
  1.3030950e-05
 -2.9908340e-05
  1.5756310e-04
  1.8522164e-04
  2.3464401e-05
  1.4442626e-04
 -3.2252814e-05
  9.7854805e-05
  1.0692359e-04
  4.0886705e-05
  1.2384368e-04
 -2.5282981e-05
 -7.5358839e-05
 -3.0650965e-05
 -1.8458491e-05
 -4.7503436e-05
  7.7533514e-06
  9.0477864e-05
 -7.3291012e-05
 -2.3114721e-04
  9.8188408e-05
 -6.8914465e-05
 -3.7604323e-06
  4.5665154e-05
  6.5817250e-05
 -1.3501739e-05
 -4.6799247e-05
  8.0689342e-06
  8.4943327e-05
 -3.9112092e-05
  5.9276990e-06
  3.1033152e-05
 -2.3234279e-05
 -3.7807426e-05
 -1.9256400e-04
 -2.5050761e-04
  8.0606689e-05
 -1.3469596e-04
 -1.6512469e-05
  8.4321997e-05
  2.2758461e-06
 -8.8899251e-06
  3.2477459e-05
  4.3563519e-05
 -1.9538627e-06
 -5.8204427e-05
 -2.5256304e-04
 -1.5034129e-04
 -6.6898028e-05
 -4.5086432e-05
  1.5427833e-05
  4.2159478e-05
 -5.9257786e-06
  4.7064543e-05
 -6.3649841e-06
  2.0170794e-05
 -4.8986601e-04
  4.3366454e-06
  3.6348683e-05
 -3.0636922e-05
 -2.2695801e-06
 -1.4750351e-04
 -1.8254478e-04
 -1.0860636e-04
 -5.4844590e-05
 -4.8509928e-06
  1.0185271e-05
  1.2387082e-05
  3.2416574e-05
  3.5018293e-05
 -4.5696182e-05
 -8.6622902e-05
 -4.6539237e-05
 -1.2197831e-04
  7.7982841e-05
  2.1358443e-04
 -6.8715422e-06
  2.9571002e-04
 -3.0215844e-04
 -4.3617952e-06
  8.2994247e-06
  6.8331778e-05
 -7.4302620e-06
 -1.0506070e-04
 -6.8858251e-05
  1.5934685e-04
  8.9880396e-06
  5.2979947e-05
 -1.3742668e-05
 -6.2253079e-08
 -3.1119547e-05
  1.6835352e-04
 -4.4831733e-04
 -2.3857529e-05
  5.1346717e-05
  1.9968711e-05
 -3.1740189e-04
 -9.1906280e-05
  2.2446751e-04
  1.2238730e-04
 -1.3318791e-05
  8.7573899e-05
 -7.0040136e-05
 -9.9843339e-07
 -1.6006098e-04
 -4.5953439e-05
 -6.0729013e-05
 -8.8376866e-05
  9.6093871e-05
  3.4607980e-05
 -9.2607996e-05
 -1.5714129e-04
  8.2969593e-05
 -8.2355100e-06
 -2.5876532e-06
 -1.9703365e-04
  4.4621851e-05
  1.3120065e-04
 -5.5542936e-05
 -3.7010293e-05
 -6.2883075e-05
 -1.4258077e-04
 -2.0859978e-05
  3.1192147e-05
  3.5499840e-04
 -2.6836475e-05
 -4.2046040e-06
  3.4008372e-05
 -8.5770143e-06
  4.0148854e-05
  6.4798005e-05
  8.6981963e-05
  4.0006831e-05
 -7.9476893e-05
  1.0433498e-04
  2.0892458e-05
 -1.6984792e-05
 -2.1239945e-04
  1.5905272e-05
  1.7544760e-05
 -9.2798087e-05
 -2.7426833e-05
  8.0464833e-06
  4.9048649e-05
 -1.4849948e-05
 -4.5715373e-05
 -1.3289689e-04
 -3.3394594e-05
  2.5712707e-05
  1.0307167e-04
 -3.9933115e-05
  5.8301743e-05
 -1.8387834e-04
  1.5271998e-04
  2.5025040e-05
 -1.1883765e-04
  1.0291225e-04
 -5.7945103e-06
  7.4845107e-06
  1.4244091e-04
  1.7969525e-05
  1.5326658e-04
  1.4282480e-05
 -2.3937760e-05
  7.3341020e-05
  3.0936408e-04
  2.0098791e-04
  5.4755517e-05
 -1.3803329e-05
  5.7066401e-05
  3.9596507e-05
  4.1143336e-05
  1.8188095e-05
 -1.5054160e-05
  6.1970553e-07
  2.2712939e-05
 -1.0288183e-04
 -5.6159613e-05
 -2.2648791e-04
  6.3198488e-05
 -6.3037856e-05
  8.1607800e-07
  2.1994376e-05
  4.4422730e-05
  1.4253214e-04
 -5.0696915e-05
 -3.2334563e-05
 -5.9198283e-06
 -9.7224279e-07
 -8.5678039e-05
  3.5453653e-05
 -2.3022303e-05
  6.9318584e-04
  3.2191657e-04
  5.6595687e-05
  4.8036705e-05
  1.8606976e-05
  6.4235592e-06
  3.4576744e-05
  1.4764497e-05
  7.4580799e-05
  1.5160118e-04
 -2.9243483e-05
  1.4565584e-04
 -5.4920860e-05
 -7.2405301e-06
 -1.2927919e-04
  9.7392309e-05
  2.8567579e-06
 -6.7552191e-06
 -5.6676552e-05
 -1.5425643e-04
  9.9933553e-05
 -3.6588841e-05
  4.1740459e-05
 -3.5907458e-05
 -1.4949426e-04
  1.8072204e-04
 -1.8036564e-05
  3.0596442e-05
 -1.6256091e-04
  2.1182582e-02
  2.0807586e-06
 -3.2144217e-06
  1.0859096e-05
  4.5849535e-01
  3.3059081e-05
  1.8378314e-04
 -1.1102034e-04
 -1.9800624e-04
 -6.0566930e-05
 -9.7284974e-05
  1.7340290e-05
 -4.2805430e-05
  1.1617933e-04
  3.8924668e-06
  1.0272244e-04
 -5.6781322e-05
  4.6586425e-05
 -5.2693831e-05
 -5.8619205e-02
  1.4841744e-05
 -1.3102472e-04
 -1.0093305e-05
 -6.8056936e-05
  6.1301856e-05
 -1.5349353e-05
  8.4266518e-05
  3.9809715e-06
  2.9518094e-05
  4.0913943e-05
 -2.2381753e-05
 -9.8369783e-06
 -1.8226357e-05
 -9.0989000e-05
 -7.5938374e-06
 -1.4779759e-04
 -8.6514345e-05
 -1.0532319e-04
 -3.4690689e-05
  2.6986565e-05
  5.4841570e-04
  1.5147891e-05
 -8.3067745e-05
  2.6133812e-05
 -1.4551524e-04
  9.7122400e-05
  6.2966610e-06
  4.7359961e-05
 -1.8028343e-04
  9.3956196e-06
  2.5512998e-05
 -2.6371519e-05
 -3.4347482e-05
  3.3730706e-05
 -5.1815987e-06
  9.5630239e-05
  9.1532114e-05
  4.4669385e-05
 -3.4471170e-05
 -8.5915948e-05
  1.3982377e-04
  8.6453438e-05
  2.7385773e-05
 -4.2924075e-05
 -3.8098897e-05
  6.5623950e-05
  4.9258710e-05
  2.0524181e-05
 -3.5658071e-05
  9.0468733e-05
 -1.3558606e-04
  5.1567215e-05
  1.5086746e-04
 -7.1180351e-02
  1.9393887e-05
 -1.9165220e-04
  1.7646568e-04
  1.1603764e-04
 -5.2425257e-06
 -1.5072353e-04
 -1.1708029e-04
 -1.9356390e-05
 -2.3223124e-04
 -2.8389244e-05
 -2.7834953e-05
  1.3069865e-04
 -6.0337905e-05
 -6.4607957e-05
  1.2755976e-04
  3.4225661e-05
  2.5622652e-05
  7.9914653e-06
  4.1716958e-05
  8.4020729e-05
  7.8005840e-05
  1.7209172e-04
  4.8032423e-05
 -2.9692559e-05
 -1.1758718e-05
 -1.2256721e-05
 -7.4015523e-05
  1.3104653e-04
 -4.4627610e-05
 -1.1185773e-04
  9.3037121e-02
 -4.1855171e-01
  2.1141447e-01
 -2.9202159e-02
  3.4013435e-02
 -2.0202258e-01
  7.2211344e-03
  3.4544754e-01
  1.9869258e-01
 -1.4923897e-04
  1.1426566e-05
  2.1647221e-01
  1.6003101e-05
 -2.5099255e-02
  1.0912082e-01
 -5.2684677e-01
  3.7936741e-04
  1.9309531e-04
  9.4845120e-05
  1.6480114e-06
  1.9352391e-02
  3.4597550e-05
 -6.9848485e-02
  5.6412220e-02
  3.4995069e-04
 -3.3415163e-05
 -3.9455786e-01
  1.0315242e-05
 -9.8267337e-06
  7.4870867e-01
 -6.7616333e-05
  9.8917753e-02
  2.2793488e-01
  4.0662885e-01
  4.2089238e-03
  5.8855039e-05
  1.2654377e-04
  3.0466256e-04
  2.5604227e-01
  2.0361101e-06
 -5.0138541e-02
  1.0022699e-01
 -5.3949703e-02
 -1.2717121e-02
  1.6933505e-04
 -1.8915004e-04
  6.7586006e-06
 -1.7754649e-01
 -3.4291149e-04
 -1.3932443e-01
 -2.5051335e-02
  3.8543995e-02
  1.8980215e-01
  1.2210498e-04
  3.1075143e-04
  5.8042147e-05
 -7.0474336e-05
 -7.6682827e-06
  2.3949277e-05
 -2.1640659e-05
 -8.9403882e-05
 -3.5744568e-05
  1.2488864e-04
 -1.2214359e-05
 -5.4069674e-06
  5.7569159e-05
 -5.7218331e-06
 -1.4829007e-05
 -7.8698649e-05
  5.3852957e-05
  1.2683151e-05
  7.5273718e-05
 -1.7022616e-05
  3.7294405e-05
 -6.9070138e-06
 -4.5152497e-05
 -1.6457167e-04
  4.5629091e-05
 -5.9645117e-05
  1.6185006e-06
 -2.0096953e-05
  1.2565103e-04
  6.8069676e-05
  2.2025017e-05
  1.8808164e-04
  1.1452874e-05
  6.4741143e-05
 -8.2154249e-05
  8.4769359e-05
  5.2811451e-05
 -4.0875375e-06
  7.8455714e-06
 -4.8199136e-06
 -1.9266873e-04
 -3.0759151e-05
  2.4226158e-05
  3.7190475e-05
  2.7180001e-06
 -7.8159137e-05
  1.2404702e-05
 -2.5891179e-05
 -7.8555327e-05
 -2.2160915e-05
 -4.0521852e-05
  1.0804777e-04
  2.4212686e-05
  1.1998754e-04
 -7.6363785e-06
 -1.5055759e-04
  6.3428830e-05
 -4.6658839e-05
 -7.3267445e-05
 -2.2148601e-05
  1.1553267e-05
 -8.3890227e-05
 -4.3904307e-05
 -8.9572262e-05
 -8.5133870e-05
 -1.1625363e-06
  1.5951027e-05
 -1.1765061e-05
 -2.7430853e-05
 -5.9481477e-05
 -4.8502661e-05
  8.9723704e-05
 -6.1492992e-06
 -3.8238714e-04
 -1.9007348e-04
 -5.2953634e-05
  6.8722598e-05
  1.4865292e-04
  6.1314000e-05
 -1.8360774e-04
  4.1625222e-05
 -2.3062059e-05
  4.9101914e-07
  2.9093967e-06
 -3.1785286e-05
 -5.1160716e-04
  1.5984042e-05
  1.0205279e-05
  1.0914710e-05
  3.3244727e-05
 -7.3884119e-05
  7.5472672e-05
  4.1370386e-05
 -1.4733683e-04
  1.5184811e-05
  3.2769211e-05
  6.9798571e-06
 -1.6280577e-05
  9.9802244e-05
  4.7515230e-05
  1.4256375e-04
  6.6076667e-05
 -8.4202416e-05
  2.0471858e-05
  1.3506651e-04
  2.1131110e-04
  1.4714278e-04
 -1.4298438e-04
  2.0482340e-04
  3.8300168e-05
 -4.3212931e-05
 -1.2195477e-04
  7.1277223e-06
 -2.4180945e-04
  1.2358157e-04
 -6.9254946e-07
  3.8584694e-06
 -1.7889457e-05
 -1.8713317e-05
 -2.2067767e-05
  7.7420540e-05
  2.9593354e-04
  1.4937564e-04
 -2.0663452e-04
  7.5633812e-05
  1.1745693e-04
 -1.2511761e-05
  5.9649796e-05
 -5.0010356e-05
  2.9623888e-07
 -5.2611813e-05
 -7.5408781e-05
 -2.5912381e-05
 -4.5109740e-05
  8.2524697e-05
  1.0442531e-05
  1.9430312e-04
  5.5026499e-05
 -3.1594966e-05
 -1.6021075e-05
 -9.8093398e-05
  5.4178468e-06
  1.0670348e-04
  1.4909808e-05
  1.5219075e-04
  1.4530227e-04
  1.0762972e-05
  3.0679847e-05
 -1.2904867e-04
  4.8791512e-06
  1.1567253e-04
  6.4767073e-06
  1.3682088e-05
 -5.2592135e-05
 -4.7919333e-05
  5.3600725e-06
 -1.1738801e-04
  5.9622700e-05
 -5.5593500e-06
  5.5437842e-05
 -1.6552785e-04
  3.1552117e-05
 -4.3972934e-05
  2.9982206e-05
 -2.3742845e-04
  6.5619706e-06
  1.6161710e-05
 -5.0886197e-06
 -6.2201787e-02
 -1.3095741e-05
 -1.2567559e-04
  2.5810703e-04
 -4.1590060e-06
 -7.1939302e-04
  1.8006436e-06
  1.3192084e-04
 -9.8313067e-05
 -6.4221449e-06
 -9.7068289e-05
  1.9481586e-06
  7.4063978e-06
 -1.1137115e-05
 -3.1293672e-05
  8.0396501e-05
 -6.7339497e-05
 -7.1489820e-05
 -4.7035453e-05
 -3.3748720e-06
  1.3978400e-04
 -1.8266616e-04
  7.2633738e-06
  1.4464122e-05
 -1.0027193e-06
 -1.5078086e-05
 -1.0469845e-04
  1.8324030e-05
 -7.8937279e-05
 -2.7398704e-05
 -4.6367445e-06
  9.7976437e-05
 -8.4823813e-07
 -1.4937942e-05
  3.6131143e-05
 -2.3791370e-05
 -4.8298938e-05
  1.4179794e-04
  7.9888414e-06
  8.8076549e-06
  3.1220861e-05
  9.4954103e-06
 -1.5915672e-05
 -6.1610524e-05
  1.0973820e-04
  2.0144007e-04
  7.3147730e-06
  6.2292413e-05
 -7.2872906e-05
 -3.0881900e-01
 -2.8149512e-02
 -2.7531385e-02
  5.1336348e-01
 -1.8066403e-01
 -3.4485915e-01
 -3.4206241e-01
 -3.6988786e-01
 -1.1068038e-05
 -1.9538468e-06
  4.3460288e-05
 -8.3480194e-02
  1.2989304e-04
  5.1336968e-04
 -5.2727765e-01
  1.5131170e-01
 -1.0959987e-01
 -2.3829121e-04
 -5.8827289e-05
  6.8501373e-05
 -2.6892394e-05
  7.3466450e-05
 -1.1774267e-05
 -2.1758239e-01
  6.3858854e-05
 -1.1942115e-01
  4.4992577e-02
  7.4160824e-05
 -1.0182602e-04
 -1.8962400e-01
 -8.8988699e-04
  2.7017537e-01
  1.0896798e-04
 -3.6765207e-02
  3.7372339e-01
 -3.4896213e-05
  2.4613919e-05
 -5.0631075e-05
 -1.5109527e-04
  6.7308676e-05
  3.5257956e-03
 -3.2344754e-04
  6.5555047e-05
  1.1109836e-01
  2.6884551e-05
 -9.1752103e-05
  7.5682517e-05
  4.5237958e-02
 -1.4254406e-04
  1.9372870e-04
  1.1961282e-04
 -7.4774057e-06
 -1.8906733e-02
  3.1212247e-05
 -9.2990413e-06
  6.4876804e-05
  6.8799687e-05
  1.0214785e-04
 -1.7780632e-05
 -5.7229045e-05
 -1.6650542e-05
  8.0640966e-05
 -4.2300971e-06
  1.8418980e-04
  9.1434311e-05
 -1.6201465e-04
  4.1382529e-05
  4.4158951e-05
 -1.9128186e-04
  2.4601397e-05
 -2.7821317e-05
  1.7515787e-04
 -4.1954605e-05
  6.2547442e-05
 -2.6705372e-06
 -1.0791242e-04
  2.8069949e-04
  4.5015062e-05
 -6.7115498e-06
 -2.7541111e-05
 -1.4186843e-05
 -6.9610607e-05
 -4.2590535e-05
  2.9263052e-04
 -1.3504966e-04
 -5.3847623e-05
 -2.7258424e-05
 -4.3202090e-05
 -1.5365640e-05
  1.1191252e-04
  9.8771325e-06
 -8.1214326e-05
 -5.8046309e-05
  8.9854198e-05
  8.5217052e-06
  3.3896754e-04
  2.1763273e-05
  2.2130231e-05
  1.3145068e-05
 -4.3198099e-05
  2.7672995e-06
  9.4988238e-05
  5.8396563e-06
  6.8939182e-05
 -1.4909739e-05
  1.1524875e-05
 -3.5700368e-06
 -7.8383440e-05
  1.2939663e-05
 -6.6231121e-05
  8.0006266e-06
 -6.3120817e-05
 -5.3008709e-05
 -8.8365763e-05
  3.9802137e-05
  1.6751681e-02
  5.0369297e-05
 -9.5201685e-06
 -1.1450662e-04
 -5.8718022e-05
 -9.8464334e-06
 -2.8005525e-05
  5.7966872e-07
 -8.2548278e-05
  5.3078652e-06
 -4.0497758e-05
 -7.5894113e-06
  3.1751275e-05
 -1.5936595e-04
 -2.3107847e-05
 -5.0313811e-05
 -2.7830379e-06
  1.7777918e-05
  8.5436237e-05
  1.6681921e-05
 -1.8974293e-05
 -8.0512626e-05
  6.5476488e-05
  8.6344167e-05
 -8.0604172e-05
 -2.4445389e-05
  1.9903433e-05
 -5.3981312e-06
  1.9361111e-04
 -8.5504180e-06
  3.3197309e-06
 -7.6706574e-06
  9.3443705e-05
  2.0865895e-05
 -2.8023098e-04
  3.9856077e-05
  1.4527656e-05
 -1.3425072e-04
 -8.9655259e-06
  3.1523490e-05
  7.5185504e-05
  1.5766622e-04
 -6.5037220e-06
 -1.0617029e-04
  1.1073037e-05
  7.0808535e-05
  1.2628107e-04
 -8.0115213e-05
 -3.2044882e-05
  1.6055163e-04
 -1.0769503e-05
  1.9396654e-03
  3.3636305e-05
 -2.4433024e-05
  1.7738932e-05
  8.6340755e-05
  1.6996104e-05
 -5.5075805e-05
 -1.3827492e-04
 -5.1204326e-05
  2.6759457e-05
 -1.4962768e-05
 -8.3954488e-05
 -1.2756292e-05
 -2.0334815e-05
 -1.1499668e-04
  5.4278877e-05
  2.9476834e-05
 -4.1215782e-05
  9.8413693e-05
  1.1165921e-05
 -8.9856458e-06
 -7.6546581e-05
 -3.9712333e-05
  1.1158489e-04
 -3.5592384e-05
 -1.7898145e-05
  2.6869159e-06
 -2.4346253e-05
  6.7388655e-06
  1.3572439e-05
 -1.0823198e-05
  2.3867038e-05
 -3.6547757e-05
  6.4502310e-05
  2.4451208e-04
  5.5111992e-05
  6.0931310e-05
  3.1837067e-04
 -9.9539102e-05
  4.4013919e-05
  1.0865626e-01
  5.0124290e-05
  7.5315838e-05
  2.0119247e-05
  3.7579803e-04
  2.0745665e-05
 -3.9253235e-05
 -4.2975344e-06
 -6.7178065e-05
  6.9411508e-06
 -2.3526353e-04
  1.2962980e-05
 -1.3020798e-04
  2.3001776e-05
 -1.7135601e-05
  8.5270926e-02
 -5.4944700e-05
 -1.1242449e-04
  4.7120036e-05
  6.8615460e-05
  5.1175761e-05
 -7.8394616e-05
  4.1823521e-05
  9.4191291e-06
 -2.6581909e-05
  5.9365149e-05
 -5.2242311e-05
  5.9187907e-05
 -4.7310128e-05
 -1.8290813e-05
 -2.1118885e-04
  9.3390932e-05
  4.9434828e-05
 -1.4161463e-04
 -5.4774978e-06
  3.5667785e-05
  5.0962168e-05
  1.7691747e-05
 -7.4969030e-05
 -3.1645402e-05
 -3.0689991e-06
  1.1040523e-06
  9.3623006e-05
  2.5253010e-05
 -4.9602848e-05
 -1.9708586e-05
 -6.9564771e-06
 -7.0990168e-06
  5.2440810e-06
  4.6140156e-07
  8.6796703e-05
  1.1505121e-04
  1.8554323e-04
 -1.2986140e-05
 -1.7943425e-04
  9.0769398e-05
 -3.4702829e-05
  1.0530954e-05
 -3.3970093e-05
  9.3244802e-05
 -8.8177687e-05
  6.3550637e-05
 -5.3835374e-05
  1.4018628e-06
 -5.3987793e-07
  1.3802708e-04
 -5.5807453e-05
  1.1693199e-04
  1.0651628e-04
 -7.4652402e-05
  9.9391291e-06
  2.4481560e-04
 -3.5475143e-05
  2.1739923e-04
 -1.8848157e-04
  1.5380654e-06
 -9.4317242e-05
  2.8043816e-05
  3.5254736e-05
  1.1684172e-04
 -2.4314631e-06
  5.5289831e-05
  1.4669023e-05
  1.4168000e-05
  1.6960580e-04
 -8.2852443e-05
 -1.4529974e-04
 -6.8791145e-05
  9.2304239e-05
 -2.8525318e-07
  8.0937143e-06
 -7.7654486e-06
  4.5349920e-05
  4.8573893e-05
 -2.0421799e-05
 -4.8394555e-05
 -2.5230524e-04
  1.4525409e-04
 -2.4963199e-05
 -4.1899962e-06
  2.9053339e-05
  7.4354000e-05
  4.2354604e-05
  5.4354910e-05
  1.7437083e-04
 -5.9340244e-05
 -1.1608056e-04
  3.1695861e-06
  9.2527654e-05
  8.4095976e-05
  1.3437299e-05
 -2.2767739e-05
  3.6407208e-05
 -8.0625687e-06
 -1.2058867e-06
  5.7919027e-05
 -4.4145370e-05
 -6.2442964e-01
  1.2310555e-04
 -4.9724906e-05
  2.5330799e-05
  6.7951936e-05
  2.5599360e-05
  1.9268338e-04
  1.1145189e-04
  3.7228609e-05
 -5.1729228e-05
 -1.1123147e-05
 -1.1483872e-04
  2.2833528e-05
  4.8240167e-06
 -5.6583365e-05
 -8.6389620e-05
 -3.5094890e-06
  1.1051288e-06
  6.1637904e-05
  2.9285194e-04
 -4.5943714e-05
  3.9598162e-05
  4.1759940e-05
 -2.5455907e-05
  5.0126800e-06
  1.0885366e-05
  4.6866215e-05
 -9.2943956e-05
 -2.1376750e-04
 -6.5658154e-05
  4.8602742e-05
 -7.5105694e-05
 -5.8741800e-05
  3.6978403e-05
  1.0659814e-04
  2.6318792e-05
 -5.6781570e-05
  1.1730584e-05
  5.3156346e-05
 -2.3022163e-05
  1.6988377e-04
 -1.3824418e-04
  4.7329140e-05
 -1.2029615e-04
 -2.9125178e-05
  1.8358969e-05
  4.4871977e-05
  7.6065618e-05
  5.6631758e-05
  3.9744325e-05
  5.9388283e-05
 -7.9336911e-05
 -2.7925729e-05
  2.8321743e-05
  4.0827774e-05
  1.0293488e-04
 -1.3713047e-04
  2.0226540e-05
  2.8003011e-05
 -3.1682881e-05
 -1.2702780e-04
  4.4713146e-05
 -1.0098212e-04
  4.0292922e-02
 -1.8987974e-05
  1.7504432e-05
 -6.7339060e-06
  9.7240236e-06
  6.1382096e-05
  8.9123881e-05
 -4.8671693e-05
 -9.4220777e-06
  7.8609686e-05
  5.2168338e-07
 -8.4298743e-05
  1.2991265e-05
  3.3802946e-05
  1.2856028e-04
 -2.3222042e-06
 -1.4875022e-04
 -8.4733338e-06
  2.3404348e-06
  1.6990301e-05
 -2.1309401e-04
 -2.5100990e-05
 -3.6863319e-05
  3.0512752e-05
  6.7233786e-06
  3.9181359e-05
 -2.1053898e-05
 -3.0976098e-05
 -7.9538848e-05
  1.4121163e-05
  2.3689361e-04
 -8.8854933e-05
  1.0949179e-04
  1.5118069e-04
  7.8657300e-05
  6.3925443e-05
 -7.8709367e-05
 -1.9238934e-05
  3.9764505e-04
  2.9074268e-05
 -1.3218397e-05
 -1.5137993e-05
 -2.4557594e-05
 -1.3063384e-04
 -1.5322439e-06
  8.0982172e-06
 -4.5771867e-05
  1.1097003e-05
 -8.2402919e-05
  2.2634429e-05
  4.1062773e-05
 -1.0433686e-05
 -6.1963081e-05
  5.5171577e-06
  1.6440499e-05
  7.0009460e-06
  1.3994169e-04
  1.9356312e-05
 -1.5627898e-05
  2.9050123e-05
 -2.7751525e-05
 -7.0212620e-05
  1.1324551e-05
  7.1764056e-04
  1.9979487e-04
  3.3226941e-04
  4.5410397e-05
  5.5715984e-05
  1.1778399e-04
  8.5670719e-05
 -1.2060774e-04
  1.8824692e-05
  9.7144133e-05
  7.7937866e-06
  1.7520588e-06
 -6.3254898e-05
  7.2025090e-05
  2.0374739e-05
 -1.2225127e-04
  4.3211923e-05
  4.3146338e-05
 -6.2826693e-05
  9.2167189e-05
 -5.0931139e-06
 -8.6643406e-05
  4.3256750e-05
  5.0804272e-05
 -3.0125771e-06
  8.1049897e-05
  7.7322147e-06
 -1.4533482e-04
 -2.2183245e-05
 -1.1659176e-04
 -3.1620235e-05
 -1.5092529e-05
  4.7229227e-05
  5.8825768e-05
 -9.1340633e-05
  1.6511060e-05
 -7.1010581e-05
 -7.7580196e-05
 -1.5376756e-05
  1.1545409e-04
 -5.0986514e-06
 -1.5323226e-04
  6.4999881e-06
  1.4333350e-04
  8.7420653e-05
 -9.9990233e-05
  2.9423383e-05
  4.2013893e-05
 -3.9828167e-04
 -2.0677280e-05
 -1.8808707e-05
 -7.3229348e-05
  1.2171269e-04
  5.5723456e-05
 -1.9661893e-05
 -6.3284142e-06
 -2.4246998e-05
  3.7101137e-05
 -5.6268953e-05
 -9.2602822e-05
  3.6652582e-05
 -2.6913098e-05
 -1.8005461e-05
  3.8108217e-05
  1.1030278e-04
  4.6032350e-05
  1.2545365e-05
 -1.3807404e-04
 -9.4517811e-05
 -2.1449596e-06
  7.5426586e-05
  3.1618569e-05
  8.6383574e-05
  2.4988074e-05
  2.1788042e-05
  9.5703501e-05
  5.6708770e-05
 -1.8749149e-04
  6.9909744e-05
  6.2756590e-05
  2.2211798e-05
  1.7550775e-04
 -5.3859847e-05
 -3.0158961e-05
  2.2406978e-04
  1.3319398e-05
  2.7510248e-05
  2.2333961e-05
  9.9195364e-05
 -2.3684093e-05
  2.5183181e-04
 -3.8907697e-06
 -8.9623645e-05
 -5.8185527e-05
 -1.0185051e-04
  1.3169952e-04
  2.1919653e-04
  1.5754074e-04
  2.4263936e-05
 -1.5893519e-04
 -2.3847278e-05
 -4.8501668e-05
 -2.4154702e-05
  4.0680705e-05
  5.4668486e-05
 -3.4000677e-05
 -8.7448185e-05
  8.7243970e-06
  2.1007589e-05
  1.0308606e-04
 -4.0060459e-05
 -1.1178447e-04
 -7.8287226e-04
 -1.0416436e-05
  1.3676185e-05
  1.7190390e-04
  9.2291710e-05
  5.3232034e-05
 -7.8775563e-05
 -1.1894796e-05
 -1.3748235e-04
  2.2130827e-05
 -7.8434176e-05
 -1.1160405e-05
  4.4568089e-05
 -1.6691658e-04
  1.1060391e-04
 -2.2792074e-04
  3.7311420e-05
 -1.3630719e-04
  1.5586744e-05
 -4.5803441e-03
  7.6647993e-05
  4.0323015e-05
  1.3543946e-04
 -2.1878608e-04
 -1.6166472e-05
 -2.9210860e-05
 -5.7593250e-05
  2.4497100e-05
  3.7768834e-05
  1.9641368e-04
  1.8416943e-04
 -4.4535594e-05
  2.6718757e-05
  6.5951208e-05
  3.3627515e-05
 -8.8110464e-06
  5.7172718e-05
 -8.9690126e-05
 -4.8843467e-05
  6.3933999e-06
 -2.9785377e-05
 -2.0054809e-05
  1.2318356e-05
 -3.2146781e-06
 -1.5859112e-04
  1.1038843e-04
  1.2748371e-04
  1.2541878e-05
 -1.6252099e-05
  7.1369518e-06
 -4.1551810e-02
 -1.1880600e-04
 -1.8460746e-04
 -2.8838316e-05
  6.9765747e-06
  5.4317015e-06
  4.1367100e-05
  6.1666004e-05
  5.8055395e-04
 -7.5150441e-05
 -4.5018773e-05
 -8.1182880e-06
  1.1176919e-05
  7.4008523e-05
  2.9357885e-05
 -2.5667041e-05
 -1.1798567e-04
 -7.8616329e-05
 -1.9276826e-05
  7.8878118e-05
  3.3259337e-05
  5.3173353e-05
 -1.3398508e-05
  8.5594656e-05
 -4.2524916e-05
  1.5918518e-05
 -6.1973282e-05
  9.3660907e-05
  2.5645790e-05
 -6.1556297e-05
 -6.1343955e-05
 -1.1723028e-04
  1.8037471e-04
  3.5880657e-05
  2.0058800e-05
  1.5454838e-04
 -5.9622678e-05
 -9.1150669e-06
  9.3421545e-07
  6.0948050e-06
  1.7191817e-04
  1.0782920e-04
  9.0055233e-03
 -2.7548801e-03
  3.2290820e-05
  2.1799986e-05
 -4.3181972e-06
  4.1929645e-05
  9.4708586e-05
 -7.5352131e-05
  1.5867206e-04
 -1.2695614e-05
  1.1454761e-04
  1.7446664e-04
  4.2293032e-06
  7.7327699e-05
  5.2779735e-05
  3.9850362e-05
 -4.2522912e-05
 -1.5116148e-04
  1.9255145e-05
 -1.3025572e-04
 -2.5255779e-06
 -1.8160492e-05
 -2.7025928e-04
 -3.4666464e-05
  1.0867148e-05
 -3.3132990e-05
  1.7647928e-04
  1.6492451e-05
  5.5354052e-05
  2.9435416e-04
  1.4383974e-05
 -3.4851138e-05
  3.9066032e-05
 -3.3565902e-05
  1.3936183e-04
 -1.4152570e-06
  9.9910203e-06
  1.8384144e-05
  6.8387732e-07
  1.3576973e-04
 -1.4617571e-04
  1.4922523e-04
 -1.3465749e-04
  4.5954002e-05
  4.1524247e-05
 -1.9739061e-06
  1.0157839e-04
 -4.6640707e-05
 -1.2309823e-05
  4.4939246e-05
 -1.7741241e-04
  3.3002339e-05
 -1.7655148e-05
  1.0348091e-04
 -7.7541023e-02
 -3.7428421e-05
  3.1306478e-04
 -2.5862462e-06
  4.8416136e-05
 -1.0877181e-05
 -3.6869875e-05
  8.7558747e-06
 -8.5729924e-05
  1.4969317e-04
 -2.9766027e-04
 -2.3226557e-05
 -2.5361900e-05
  9.0317728e-05
  6.6998138e-05
  5.5242825e-05
 -2.1125806e-04
  2.6712133e-04
  1.0212485e-04
 -1.6498505e-05
 -6.8713489e-05
 -3.5316157e-04
  5.2345644e-05
 -1.3116562e-04
  9.1416001e-02
 -1.0082104e-05
 -6.5209038e-05
 -4.7216003e-05
  6.8022297e-03
  9.8266348e-05
  6.9648086e-05
 -5.2721149e-05
  6.6417306e-05
 -9.5210460e-05
 -3.5681340e-04
  1.3776682e-05
  1.2441628e-04
 -7.6085162e-05
  9.8015284e-05
 -1.5823629e-05
  6.0070193e-05
 -3.7653481e-05
 -5.4680619e-05
  1.3185399e-04
 -1.8485821e-06
 -3.1022812e-04
  1.2694992e-04
  5.0209666e-05
 -6.7835726e-06
  1.1169926e-04
  2.9964251e-05
 -2.2956308e-04
 -9.6961949e-06
 -6.1351580e-05
 -6.1799932e-05
 -3.1913171e-06
  3.0343717e-06
 -1.7625407e-05
 -9.0983223e-05
 -5.4135606e-05
 -9.8775716e-05
  8.7679153e-05
  1.2047832e-05
  4.6412326e-05
 -2.1472200e-05
  4.7871261e-05
 -1.6195503e-05
  3.3108594e-05
  1.4449787e-04
 -4.0830041e-06
  1.2031024e-04
  1.9175422e-05
  1.1789779e-05
 -4.6695957e-05
  6.4385540e-06
 -2.7758683e-04
 -2.5448255e-05
 -1.1169563e-04
 -5.3507290e-05
  4.2463416e-05
  9.4206836e-05
 -1.3018764e-05
  1.6145146e-05
  5.5994195e-05
  9.1259921e-05
  1.2370967e-04
 -9.2108166e-05
  2.4916671e-04
  1.8174165e-05
 -4.8716611e-05
 -1.2905289e-04
  3.4773660e-05
  2.3869910e-05
 -3.6955731e-05
  1.6914273e-05
 -8.6724722e-05
 -6.8794659e-05
 -1.8276613e-05
 -1.7947377e-05
 -6.6186716e-05
 -5.5844866e-06
  2.4762424e-04
  6.6990586e-05
  3.6816782e-05
  1.8757248e-04
 -2.7062024e-06
  2.1791774e-04
  7.4628915e-05
 -1.6390400e-04
  4.3695542e-04
  1.6260824e-04
  1.6073207e-04
 -3.1683066e-05
 -9.8136416e-06
 -2.2698214e-04
  4.6233508e-05
 -8.1919556e-05
  4.7904527e-05
  3.2729335e-05
 -2.1847112e-05
 -1.2880399e-06
  9.2655855e-06
  8.4334941e-05
  1.1048459e-04
  1.3986377e-04
  2.8322702e-05
  2.2063357e-05
 -1.1290519e-04
  1.2879456e-05
  3.9711165e-05
  1.7295128e-05
 -3.1277307e-06
  3.0496958e-05
  4.7036228e-05
  6.3739040e-05
  5.2741325e-05
  7.0906899e-05
  1.2588891e-04
  5.5264627e-05
  2.2698022e-04
 -5.2685250e-06
  1.5583246e-04
  1.3312051e-05
 -1.1438126e-05
  1.6245742e-04
  8.8911293e-06
 -2.5160231e-05
 -1.5212489e-05
  5.6652648e-06
  1.0441535e-04
 -7.4258729e-05
  7.3885453e-06
 -1.7463055e-04
 -1.0236341e-04
 -2.9889054e-06
  1.1746088e-04
  2.2071783e-06
 -9.5928699e-05
 -4.6751866e-05
 -9.8684235e-05
 -4.3689924e-05
  1.0222597e-04
  1.7768125e-05
 -1.1595735e-04
 -3.4250697e-05
  7.3255127e-05
  3.8802595e-05
  2.5428698e-04
 -3.0685379e-04
  1.1193417e-05
  1.0942264e-05
 -2.3762097e-05
 -2.0579122e-05
  1.2885175e-04
  1.5126403e-05
  3.5849662e-05
  7.1212162e-05
  7.3181451e-05
  2.0548158e-04
  5.2854335e-05
  1.3661497e-04
 -7.9429534e-05
 -1.1306677e-04
  3.1349424e-05
 -3.0494796e-04
 -1.2288184e-05
  9.0402471e-05
 -5.7143912e-05
  3.3185494e-05
  1.4103682e-06
 -2.7013231e-05
 -6.1136311e-06
 -1.9712297e-05
  1.0782816e-04
 -2.7373699e-05
  2.3668684e-04
 -5.0091298e-06
  1.5682736e-04
 -9.6869644e-06
 -7.1975992e-05
  3.2038879e-05
 -1.8374871e-05
 -4.1180461e-05
 -3.0866178e-04
 -1.7919755e-04
 -1.3110251e-04
  1.8034501e-05
  9.6605174e-05
 -1.4663507e-05
  1.9949897e-04
 -4.0944600e-05
 -6.8991581e-06
  5.1296243e-05
 -5.6787143e-05
 -3.2366308e-05
  1.6832568e-05
  1.7301322e-04
 -1.9582064e-04
  5.0047609e-05
  1.7829861e-05
  1.4869504e-04
 -7.4610689e-05
  1.0250541e-05
 -6.6254586e-05
 -9.1723914e-06
 -4.5720524e-05
 -1.0467623e-04
 -7.4772572e-05
 -8.9042605e-06
 -2.8392224e-05
 -7.7816498e-05
  6.6112498e-06
  1.5973017e-06
 -8.8123685e-05
  1.4309254e-02
  1.0747819e-04
  8.9926150e-05
  1.0984429e-05
  2.8643248e-05
  7.8352714e-05
 -5.3128961e-06
  1.2724221e-04
 -2.5712268e-05
 -4.0234732e-05
  7.8143814e-05
 -9.9848221e-05
  1.4899384e-04
  1.9722020e-05
  1.0273860e-02
  2.4529221e-05
 -1.2300536e-04
  2.2461454e-05
  7.1970157e-07
  1.8321020e-04
 -4.5855802e-05
 -3.2207288e-05
  1.6973205e-05
 -4.9692055e-05
  7.1459690e-05
 -2.6311132e-05
 -1.7848735e-04
 -1.8442367e-04
  1.6649023e-05
 -6.2170759e-05
  3.6963222e-05
 -1.4662906e-02
 -2.1047807e-01
  6.0077034e-02
  2.5022727e-01
 -1.7217269e+00
  4.4459820e-01
 -2.6589012e-01
  5.7994824e-02
 -1.5974373e-01
  2.6747815e-05
  5.1721654e-05
 -2.2219375e-01
  8.7242937e-05
  6.3721716e-02
 -3.6661711e-01
  1.4199786e-01
 -4.8524244e-03
 -2.9673867e-04
 -5.8384608e-06
  9.3405550e-05
 -1.3787267e-01
 -2.2386163e-04
 -2.3466535e-03
 -5.3350977e-03
 -9.1673530e-05
 -2.1049426e-01
  1.0229837e-01
  1.3729327e-04
 -1.4716694e-05
 -2.8248683e-01
 -1.9788716e-04
  7.0751145e-02
  3.7235933e-04
 -5.1567417e-02
  9.2549466e-02
 -2.8610366e-04
 -2.3112736e-05
  3.6930328e-04
 -1.0468636e-01
 -2.3874334e-05
  8.0677998e-01
 -5.2239967e-04
  1.2749712e-01
 -3.7841174e-01
  1.7217311e-05
  1.7931705e-04
  5.3406842e-05
 -8.5352185e-05
 -3.9608544e-06
  1.0286694e-04
  9.9914148e-05
 -2.4638415e-04
 -1.0141051e-01
  3.2326032e-05
 -2.8327687e-04
 -1.2517991e-04
 -5.1195791e-05
  3.5676028e-05
  6.6115950e-05
  3.9741849e-06
 -2.7299197e-05
 -4.1395713e-05
  2.4287445e-04
 -1.3957155e-05
  6.4366541e-05
 -8.3130180e-05
  2.8210961e-05
 -7.9249199e-05
 -3.0851086e-05
 -1.9807883e-05
  7.7914483e-06
  1.4610437e-04
  1.7179975e-04
  9.2428032e-05
  3.5885143e-05
  7.5301148e-05
 -7.8434590e-05
  1.2370900e-04
  3.3852222e-04
  9.2661849e-06
 -1.8202567e-05
 -2.6250758e-05
  2.9204293e-05
  5.3958924e-05
  6.1701132e-05
  7.9831370e-05
 -1.4390053e-05
  3.5913713e-06
 -5.7895522e-07
  1.0711227e-05
 -5.8528840e-05
  2.7973079e-05
 -2.0197764e-04
  1.0704732e-04
  1.4888118e-04
  2.7756934e-05
 -6.9699308e-05
 -8.9989580e-06
  8.0407544e-06
  1.0644452e-05
  9.4041288e-06
 -1.1007235e-05
 -4.1032167e-06
  4.1064057e-05
  1.8526534e-04
  1.3166371e-04
 -2.2856617e-05
  1.8900628e-05
 -4.3804932e-05
  5.8599322e-05
  5.9576418e-05
  6.6084438e-05
  1.6640438e-04
  2.8777869e-05
 -1.0702725e-05
 -1.3793784e-04
 -9.0364323e-05
 -1.0257884e-04
  4.7292648e-05
 -6.2810970e-05
 -1.8380764e-05
 -1.6950557e-04
 -7.9539554e-05
  1.0337731e-04
 -3.0220810e-05
  8.7174238e-05
 -6.6132350e-05
  5.5866814e-05
 -7.8787205e-05
 -2.5827166e-08
 -6.2217009e-06
  1.0302814e-04
  2.3713960e-06
  4.7456102e-05
 -5.4918299e-05
 -1.0433273e-04
 -4.1529715e-05
 -1.4350934e-04
  8.0131986e-07
  4.0359333e-05
  2.4568484e-05
 -5.2911787e-06
 -8.7461165e-05
 -1.0538814e-04
 -5.8153008e-05
 -8.0269703e-05
  1.1788782e-05
  3.6543759e-06
  3.7783615e-05
 -3.6618600e-05
 -1.6373304e-04
  9.6739332e-06
  1.8704050e-05
  1.2729951e-04
 -3.6792779e-05
 -3.7378864e-05
 -8.1533573e-05
  1.1294590e-06
  2.2592637e-04
 -5.9875154e-05
 -2.8401118e-05
 -2.1491234e-05
 -2.8705550e-04
 -1.2918013e-02
 -8.5892520e-05
  1.1485111e-03
  1.0651615e-02
  2.8496286e-02
 -1.3025551e-01
 -1.1125156e-01
 -6.4564437e-02
  8.4021376e-05
  1.0421514e-04
 -2.9693549e-05
  5.3556691e-05
  1.6717201e-04
 -1.8464900e-04
  8.4142208e-02
 -1.0879147e-04
 -2.1817029e-04
 -1.4721318e-04
  1.9992765e-06
 -6.0780253e-04
 -1.4440122e-04
  2.3704849e-03
 -1.2591626e-01
 -4.3998822e-05
  8.7784655e-02
  3.2542322e-02
  1.6905155e-04
 -1.2827489e-04
 -1.6765453e-01
 -9.1613729e-05
  8.1088617e-03
 -1.4205762e-03
 -1.7752700e-02
  1.4966826e-02
 -5.9863320e-05
  6.6058283e-06
 -3.9482773e-05
 -2.8188948e-02
  1.1183122e-04
  3.3364818e-01
 -1.3255727e-04
  6.8664372e-06
  6.4977090e-04
  1.6527128e-04
  4.4504213e-06
  2.6051581e-05
  1.6177395e-04
 -2.9311408e-07
  4.4692788e-06
 -3.0105053e-07
 -2.1476819e-05
 -7.1627501e-04
  1.2135798e-05
  4.8075650e-05
  7.9450601e-06
  1.4308229e-04
  5.2921179e-05
  5.4290111e-05
  2.9245816e-04
 -4.3937569e-05
 -1.0000241e-04
 -8.2421633e-05
 -3.8235074e-05
  6.3689680e-05
 -1.0688224e-04
  4.5992620e-06
  2.0105172e-05
  3.5232620e-04
 -1.5948621e-04
  5.0110011e-05
 -4.0807124e-04
 -9.0048270e-06
  2.0328100e-05
 -3.3634264e-05
  7.0236885e-05
  6.4719541e-05
 -9.4646013e-05
  5.0877959e-05
  2.1350235e-05
  2.7238799e-04
 -1.7727903e-04
  5.5489859e-06
 -1.1306495e-04
  6.3826621e-07
 -2.0064312e-05
  7.9020410e-06
 -2.3807297e-05
 -2.9323972e-05
 -1.6217580e-04
  1.5320000e-05
 -2.6243473e-05
  2.5992884e-05
  1.0419797e-05
 -3.2503067e-05
  7.6193370e-05
  2.5958485e-05
 -2.6649126e-05
  1.6616294e-05
 -5.5613023e-06
  4.0097926e-05
  8.5668158e-05
  5.6569534e-06
 -5.0997693e-05
 -6.0420291e-05
  6.9132082e-05
 -2.3879233e-05
  3.3083463e-05
 -7.7902805e-05
  5.9675026e-06
 -9.4209081e-06
  1.4327247e-04
  2.6648419e-04
 -6.8868554e-05
  4.7064565e-05
  5.6829244e-06
 -9.8821743e-05
 -3.5417488e-05
 -1.0476834e-04
  2.6959649e-05
 -3.9997394e-06
  2.2478514e-05
  6.7483074e-05
 -5.6708591e-06
  8.6897111e-05
 -1.7723492e-04
 -1.3339102e-04
  3.7407335e-05
 -9.6388329e-05
 -6.5451248e-05
  1.2731715e-04
  4.5941040e-05
 -4.5595487e-05
 -6.8340705e-05
 -2.0049496e-05
  7.9358811e-05
 -3.4882756e-05
 -6.0460537e-05
 -1.1251194e-04
  8.6442400e-05
 -3.5655990e-05
 -1.3344049e-05
 -1.0913712e-04
 -8.8145862e-06
  1.1419848e-04
 -9.5277474e-06
  8.5769279e-06
  1.3107932e-04
  7.3915791e-05
  8.2637307e-06
  1.6824497e-05
 -1.8408486e-05
  1.0260713e-05
  1.2052106e-05
  6.8793255e-05
  1.3213972e-06
 -1.7509983e-04
  6.7833993e-05
  9.9897006e-05
  3.8469196e-05
 -5.6960067e-05
 -4.4203010e-05
  5.2803195e-01
 -4.7327077e-01
  1.2067956e-04
  1.8968143e+00
 -6.5010071e-01
  2.0993657e-01
  8.2344592e-01
 -1.3102483e+00
  2.8111357e-02
  1.3891485e-04
 -7.7678684e-05
 -3.5539971e-04
  6.9056317e-05
  2.6054125e-02
  2.1844070e-02
  5.4921764e-01
  4.5547956e-01
  2.3937317e-04
  8.8593129e-05
 -1.7138565e-05
 -4.4027078e-01
  8.3876308e-05
 -3.0581929e-02
 -8.9456392e-03
 -1.9150807e-01
  4.9828503e-02
  3.6539915e-01
  8.8888555e-06
 -2.3288754e-05
 -5.6321412e-01
  1.1202407e-04
  3.2082060e-01
 -3.1754893e-01
  1.3327945e-05
 -6.4185655e-01
 -1.0598493e-03
  1.0525445e-04
 -1.2321893e-05
 -5.6463462e-01
  1.6608907e-04
 -1.5344757e-01
  9.8345964e-04
 -3.8007498e-01
  7.6879278e-02
 -7.4139022e-04
  5.0572464e-05
  1.5035600e-06
  8.3070464e-02
  3.8861723e-05
  1.0310955e-01
  2.4391064e-02
 -1.6575621e-02
 -1.3883540e-02
 -1.9086183e-05
  2.1898827e-04
 -8.7705739e-05
 -9.7240390e-06
  5.0426985e-07
 -9.0143680e-05
 -1.1456807e-05
  2.0043250e-05
  5.3738891e-05
 -8.8066547e-05
  1.0873892e-04
 -3.4811128e-05
 -1.1366727e-06
  1.2517722e-05
  2.6310907e-05
  6.2294544e-05
  8.4808693e-05
  4.4484084e-05
  3.3667072e-06
  1.0414863e-04
 -1.5507028e-05
 -1.4556419e-04
 -1.1294062e-04
  7.3335876e-05
  2.3068332e-04
  4.9033497e-05
 -7.3900032e-06
 -5.7244775e-05
  2.9675664e-05
 -2.6158605e-05
 -9.1655520e-06
 -1.1206901e-04
 -6.2942934e-05
  5.5300348e-05
 -1.2028270e-04
  9.8382166e-05
 -6.6131375e-05
 -9.1101356e-07
  5.9597762e-05
  5.8241687e-05
  4.3854077e-05
 -1.2224854e-04
 -1.3694943e-05
 -5.9238326e-05
 -9.4305680e-05
  1.3737626e-04
  1.7741560e-04
  5.2827527e-05
  8.7021886e-05
 -2.5201982e-05
  2.6811636e-05
  2.6937245e-05
  6.1534185e-05
 -1.3144790e-04
  5.3829401e-05
 -6.2136700e-05
 -2.3113147e-04
  1.0479052e-04
 -3.2437367e-06
  4.1507923e-05
 -3.4123579e-05
  2.5435205e-05
 -2.3296585e-05
  5.6358960e-05
 -4.4797548e-07
 -1.0622268e-04
 -1.4245501e-04
 -1.1172169e-05
  5.7463651e-05
  1.0508201e-05
 -8.5869375e-05
  4.0949984e-05
 -1.5320649e-05
 -4.8729868e-05
 -1.6228684e-04
  2.1052012e-05
  4.8278918e-05
 -5.5447737e-05
  1.3152021e-05
  1.2552034e-05
  1.2703315e-05
  4.1979969e-05
  5.6237135e-05
 -1.4776888e-04
  4.5919081e-05
  2.9199026e-04
  1.8106797e-04
  2.6450443e-05
 -3.0597599e-05
 -1.6381971e-05
  5.0439216e-05
  7.9174119e-05
  2.3751757e-04
  1.6661537e-05
  3.9181768e-06
 -1.9938136e-05
 -4.3559747e-05
 -5.1285970e-05
  5.7372796e-05
 -1.5178416e-05
 -3.9467127e-06
  5.1533003e-05
  3.4998375e-05
 -5.5007411e-05
  2.5911813e-06
 -1.7991704e-05
 -1.5316724e-05
 -5.2269229e-06
  4.3809385e-05
  1.0455778e-05
  4.9157352e-05
 -3.4730410e-04
  7.5326068e-05
  1.6942482e-06
  1.4332852e-04
 -6.7001993e-06
 -7.9016078e-05
 -9.2287119e-05
 -8.9996684e-06
 -9.7016862e-05
 -1.4663739e-04
 -8.6574815e-05
  3.4459083e-06
 -1.6254218e-05
  2.0471609e-05
  3.8196955e-05
 -3.6805544e-05
  4.7993731e-06
 -7.6604476e-05
  4.7753292e-05
  3.5461046e-05
 -9.6369746e-05
  2.8262447e-04
 -3.3118948e-04
  4.2650863e-05
  1.0788322e-05
 -6.4023428e-05
 -7.2217263e-05
 -3.1714073e-05
  2.4280307e-05
 -2.3117464e-04
 -2.0501609e-05
 -7.7541124e-05
  5.1004467e-05
  2.2811513e-05
  4.2773925e-05
  1.6883025e-05
 -6.8971254e-05
  9.0593967e-05
  1.7790310e-04
  1.8310320e-04
  3.6975558e-05
  1.9867774e-05
  1.7889627e-04
 -1.4208836e-04
  6.8736837e-05
  8.1006956e-06
  7.8212426e-05
  6.5000822e-05
  3.5291603e-05
  5.4656866e-05
  5.4638029e-05
 -1.1575861e-04
 -9.1989030e-05
  2.4165625e-05
 -3.3595265e-04
  1.7483722e-05
 -5.7951922e-05
 -8.6895685e-05
  7.8605386e-05
 -2.2025870e-06
 -7.4598414e-05
 -7.1766575e-05
 -7.5964490e-05
  1.8244373e-04
 -1.3765467e-05
  2.4407507e-05
 -1.5215385e-05
  1.2233680e-04
 -9.5747011e-05
 -2.7805707e-05
  1.1951812e-04
  5.4730830e-05
 -1.5272326e-05
  7.4489908e-05
  2.2316843e-05
  3.1158590e-05
 -3.6207000e-06
  1.2116237e-04
 -2.0857234e-04
  3.3408983e-04
 -1.3520720e-04
  5.6986060e-05
  1.0799471e-04
  2.7118773e-05
 -3.7040994e-05
 -2.3899755e-05
 -4.9111559e-06
 -1.2922535e-05
 -4.9277401e-04
  3.6725414e-05
 -4.3975019e-06
  2.0423549e-05
  7.8576530e-05
  1.4802785e-05
  1.4380222e-05
 -4.7928399e-05
  5.2620682e-05
  2.6234753e-05
  1.5763344e-05
  4.3745556e-05
 -7.6093752e-06
 -2.2761466e-05
  2.2743413e-06
 -1.3280939e-05
  1.1055534e-01
  2.0740505e-05
  7.5174299e-05
 -4.4498483e-06
  1.0213569e-05
 -4.3079649e-06
  2.5739818e-04
  1.3235363e-04
  5.0733517e-05
  3.0125058e-05
  2.0258145e-05
 -1.0165636e-04
  6.5023386e-07
  3.6158110e-06
 -1.1918241e-04
 -3.0469495e-05
  6.0593178e-05
 -1.6379409e-04
  2.0606109e-04
  2.3822783e-04
  2.0708787e-04
 -9.6925414e-06
 -7.8841869e-05
  3.3576318e-04
  4.8656007e-06
 -2.6428008e-05
  1.1502313e-04
 -4.7923138e-05
  3.4455010e-05
  1.7372929e-04
  1.3661203e-05
 -8.3384519e-05
  6.5958928e-05
  4.6803161e-05
  6.3757994e-05
 -2.8984463e-05
  3.4446955e-05
  2.1050379e-04
 -8.8764056e-05
  4.0590381e-05
  3.6326379e-05
  7.8404255e-06
  4.4155991e-04
  5.3550208e-05
  4.2890148e-05
 -7.6627934e-05
  5.4334865e-05
 -3.6630368e-05
 -1.5794016e-04
 -3.0778392e-05
  2.6905525e-05
 -8.2170460e-05
  1.0351066e-04
 -3.1326937e-05
 -8.6031629e-05
  7.8828773e-05
 -5.8499874e-05
  2.4959889e-05
 -5.8689457e-05
  2.2185774e-05
 -1.0858726e-04
  1.2458634e-02
 -2.9734333e-04
 -2.8595963e-04
  5.8568934e-05
 -7.6734927e-05
 -1.1153764e-04
 -7.5869219e-05
 -3.9240374e-05
  1.7072177e-04
  7.9004691e-05
  5.1049930e-05
 -1.5217072e-04
 -4.1432981e-05
  1.6937514e-04
  5.3101281e-05
 -1.2068443e-04
 -6.0659800e-06
 -9.3225581e-06
 -9.0096751e-03
 -7.2614283e-05
  9.7731390e-06
  2.7547905e-04
  1.3404666e-05
 -9.9141871e-05
 -3.7991061e-04
  8.5465646e-05
 -1.3411551e-04
 -4.0788258e-05
 -5.5834156e-05
  1.1994248e-04
 -6.2967963e-05
 -2.0317648e-05
 -3.1211861e-05
  2.2945234e-05
  2.3134000e-06
  8.2006874e-05
 -1.2753662e-04
  1.6599055e-04
  7.7974539e-05
  9.9704930e-06
  5.8737893e-05
 -1.1516883e-04
 -1.5619429e-05
 -7.7909121e-05
  2.3151007e-04
 -1.1684342e-05
 -1.8665986e-04
  2.0248352e-05
  1.8335234e-04
  3.3688959e-04
  9.8454868e-05
 -4.3759170e-05
  7.9606507e-05
  2.6521011e-04
 -2.3207329e-04
 -9.2401649e-05
  9.2020513e-05
 -1.8173881e-05
  8.5727424e-06
  9.5701733e-05
  7.9404408e-06
  6.3441094e-06
  5.7605785e-06
  1.0627125e-06
  6.6789842e-05
  5.1562205e-05
 -1.9668165e-05
 -9.0131893e-05
  4.0026371e-06
  8.5565089e-06
  1.4307151e-05
 -5.1602190e-05
 -3.4199129e-05
 -2.0073711e-04
 -4.9230290e-05
  1.6447404e-05
  4.6331334e-07
  8.6612664e-07
  1.2929960e-04
 -4.8445228e-05
  1.2567277e-05
 -4.0894727e-05
 -4.1220697e-05
 -6.2154701e-05
  7.4902164e-05
  3.5119250e-05
  5.4389166e-05
 -7.1074173e-05
  4.3949629e-05
  6.2198938e-05
 -2.5404017e-05
 -3.7275448e-05
 -3.7922186e-05
  6.8181282e-05
 -6.6682987e-05
  2.1443830e-06
 -8.3007777e-05
  2.1131276e-04
 -4.6921664e-06
 -5.1338193e-06
  1.2580652e-05
  2.5663887e-05
  2.9533632e-07
 -3.7898182e-05
 -8.2554443e-06
  5.2390358e-05
 -1.0692471e+00
  8.1941202e-02
  2.4261542e-06
 -1.4553245e-04
  1.9641211e-05
 -2.7280585e-05
  6.3377370e-06
  3.4891465e-05
  2.2029533e-04
  1.2727041e-04
  4.3178354e-03
  2.0407488e-05
 -8.6219945e-05
  6.7455471e-06
  3.3828725e-05
  7.1947448e-02
 -6.3178108e-05
 -1.6864568e-04
  7.8875901e-06
  3.0352472e-05
 -7.1027462e-05
  2.3648154e-05
 -1.2825914e-04
  8.8338755e-05
  4.6122022e-05
 -1.2847051e-04
  2.0592973e-04
 -7.6299577e-05
 -3.7294581e-06
 -2.6370772e-06
 -7.8221710e-05
 -7.3348507e-05
  2.3297628e-03
 -3.1431383e-01
 -4.7333793e-05
  2.8767381e-04
  2.9066940e-05
  1.5765362e-06
 -1.3622154e-04
  1.7060024e+00
 -3.4518740e-05
 -6.0283205e-06
 -8.2132712e-05
 -9.6648524e-05
 -1.3282869e-04
  1.0425803e-04
  1.1640416e-05
 -6.5017579e-05
  2.5007927e-01
 -4.3349221e-01
  7.0653009e-01
 -1.1950669e+00
 -5.6584805e-01
 -2.9483606e-05
  1.1961358e-05
 -9.1630514e-05
 -1.4561537e-05
  3.4942620e-02
  9.2540475e-05
  3.1724947e-05
  1.1121678e+00
  8.3241204e-05
  4.0947467e-05
 -5.7911391e-05
 -1.3555482e-04
 -7.5992221e-01
  9.0585883e-05
 -7.3773386e-05
  9.9822828e-05
 -7.8290157e-02
  4.1415714e-02
  1.5717157e-04
  3.0899816e-04
  1.5926613e-05
 -4.6288185e-02
  2.8499297e-04
  1.5413231e-04
 -1.4808898e-05
  1.5358372e-01
  9.0396592e-05
 -2.0920541e-04
 -8.9570531e-06
  8.3925070e-06
 -6.3083202e-01
  1.0364925e-04
  6.0698145e-05
 -4.3503168e-01
 -1.3228992e-04
  6.0236249e-05
 -1.2986208e+00
 -3.0914489e-05
 -1.5859736e-06
  3.8178127e-06
  1.6988438e-04
  2.8093231e-05
 -1.1071575e-01
 -2.3367784e-04
  1.4444177e+00
 -6.0175329e-01
 -1.3565247e+00
 -5.8302993e-01
 -1.7100842e+00
 -1.2987858e-01
  3.1564417e-01
  1.1789546e+00
 -4.1759294e-01
 -3.7541282e-01
 -5.8608609e-03
  2.6165908e-02
  2.4782243e-01
 -3.0006626e-01
 -1.2289817e-05
 -3.1341758e-01
 -1.5042223e-04
  4.5203298e-02
 -5.4655892e-01
 -2.7890700e-01
 -1.0708784e-01
 -1.8047271e-04
 -3.4297898e-01
  7.0281916e-05
  8.5650168e-02
  4.1368968e-04
 -7.4042358e-02
 -6.9061041e-02
 -2.9536498e-01
  4.5533314e-01
 -4.6068619e-04
  1.6319168e-01
 -2.2022760e-01
  6.3295001e-01
  6.9501883e-05
 -1.1038271e-01
  2.6728344e-01
  1.7572868e-01
  3.0844331e-01
 -6.3798929e-05
  3.9583066e-01
  1.9497826e-05
  8.7779909e-02
 -6.4234759e-05
  1.1636217e-05
  2.9279044e-04
 -5.9441396e-04
 -3.6279157e-02
  3.9387390e-04
 -3.1544387e-05
  2.5973291e-04
  1.9386146e-04
 -5.4827206e-06
  5.1199862e-05
 -4.1841975e-01
 -7.1168596e-01
 -1.9123063e+00
 -4.6345758e-01
 -4.0040687e-01
 -2.5475926e+00
  1.2469394e+00
 -2.6419249e-01
 -6.4157015e-01
  1.6594453e+00
  4.0651578e-02
 -4.3384245e-01
 -6.9205135e-01
 -5.9860438e-01
 -1.8072654e-01
  1.7576654e+00
 -9.5587826e-01
 -2.9997939e-01
  1.3754585e+00
 -1.1676717e-01
 -8.8428599e-01
 -4.7913533e-01
 -3.4203750e-01
 -5.6470728e-01
  6.5283918e-01
 -6.7407854e-02
  4.1735041e-04
  1.8681559e-01
  2.0167199e-01
 -9.0426844e-01
 -7.7721334e-01
  6.4508176e-01
 -1.7051853e-01
  6.0467660e-02
  1.4147761e-03
  5.1497614e-01
 -1.4962868e-01
 -2.4686776e-02
 -4.5713443e-01
 -5.3808796e-01
  1.7961523e-01
 -2.4444526e-01
 -1.0339602e-01
  4.7742546e-01
  4.3659106e-01
 -2.8184682e-01
 -2.4601488e-01
  2.2720119e-01
  5.4621289e-04
 -2.9935682e-01
  2.4039863e-01
 -4.9668503e-01
 -1.3567728e-01
  3.0192411e-01
  2.7207074e-05
  2.1387114e-04
 -2.0291337e-03
  1.1252710e-05
 -2.1097553e-04
  7.9903060e-05
 -5.5050470e-05
 -4.4514276e-02
 -3.7095710e-05
 -1.0896477e-05
  1.0933028e-05
  7.9005782e-05
  4.0934759e-05
 -3.9064027e-05
 -2.8859134e-04
 -1.0004236e-04
 -1.8553341e-04
 -1.0115129e-04
 -4.3447525e-04
 -2.5715333e-05
  7.1291295e-05
 -1.9511703e-04
 -3.4962202e-05
 -1.3185575e-05
 -3.6119491e-05
  3.8406905e-04
 -1.5741587e-04
  2.7831711e-04
 -8.4941785e-05
  8.4008330e-05
 -1.0771816e-04
 -2.1386573e-05
 -3.7092061e-05
  1.4358749e-04
  1.3211693e-04
 -7.8546291e-05
 -5.2296102e-05
 -7.9754973e-05
 -3.4791930e-05
 -2.0380372e-05
  5.5059543e-05
 -2.3731329e-05
  2.7375647e-05
  4.6898262e-05
  4.4696815e-05
  1.1957977e-04
  5.0500421e-05
  3.3912303e-05
  1.1565572e-05
 -8.3973529e-05
 -2.7268614e-05
 -1.1780421e-04
  2.4660173e-04
 -1.5712455e-04
  8.3602950e-05
 -5.8021510e-01
  6.2537394e-05
 -1.6732646e-04
 -1.0973736e-04
 -2.0996880e-05
 -8.4581836e-05
  3.0201441e-01
  1.9934964e-03
  2.3109524e-04
  3.0955165e-05
 -2.8066582e-04
  8.8205845e-05
  3.4229608e-05
  4.8387952e-05
 -2.9038574e-05
 -1.0403099e-03
  1.7047136e-04
  9.0777976e-05
 -3.3003971e-04
 -8.8503748e-06
  1.9862724e-04
  1.0666942e-05
 -1.9601264e-04
  1.5830915e-04
  6.2655294e-05
  1.7923763e-04
  9.9198827e-05
 -2.9779125e-05
  9.0236295e-05
  2.0021555e-04
 -1.6930609e-04
 -1.4120074e-04
  2.7383663e-04
 -1.5989357e-05
  2.1733942e-04
 -1.5984928e-05
  3.7927741e-05
  4.3135849e-05
  3.5634098e-04
 -5.9675898e-05
  1.4437170e-04
  2.8577723e-04
  8.8721335e-06
 -9.9394594e-05
  5.6521014e-05
 -1.6432981e-05
  1.1105001e-05
 -5.3934444e-05
  1.0097809e-04
 -6.5964115e-05
  4.0623348e-04
  6.0938710e-05
 -7.4248681e-05
 -9.3303166e-02
  1.0410102e-01
 -1.9232327e-02
 -7.6452874e-05
  8.4625281e-06
  1.3604290e-04
  4.7711703e-05
 -1.8589312e-01
 -2.5823304e-02
 -9.2124443e-05
 -1.6038102e-04
  6.8498040e-05
  5.7957765e-05
 -8.0901459e-03
 -7.7695855e-05
 -8.9324676e-06
 -9.1621987e-05
 -1.5599055e-04
 -3.8410195e-05
 -5.8826922e-06
  1.9095813e-04
 -2.9992271e-04
  7.5299024e-05
  3.6305242e-04
 -8.3016464e-05
 -5.2414380e-05
 -3.8282183e-04
 -6.3754538e-05
  3.4357639e-05
 -2.1283498e-05
 -3.7351067e-04
  2.2277072e-04
  1.9706003e-04
 -8.1873121e-05
 -3.9903036e-05
  1.9005540e-05
  1.3766797e-04
  3.7019144e-04
  5.3875370e-05
 -1.6298285e-04
  1.8471994e-05
 -1.3351392e-04
 -2.7347533e-03
  2.8809587e-05
  6.7149063e-05
  7.2438270e-05
 -3.6356726e-04
  5.2483811e-05
  4.3958677e-05
 -1.2418683e-04
  4.2132416e-04
 -1.5295076e-04
  6.9808673e-05
  3.9333408e-04
  2.5134334e-01
 -5.7596862e-02
 -2.7495894e-01
  5.6996107e-01
 -6.8062402e-02
 -3.5866160e-06
  7.5033307e-04
 -6.8998560e-02
 -8.3239889e-01
 -1.8012058e-02
 -9.7266644e-02
  5.3436082e-02
  4.4856396e-01
 -9.2350788e-02
 -3.7258048e-02
 -2.8835440e-01
 -6.6057321e-05
 -1.2043092e-03
 -6.1052252e-02
 -1.5716297e-04
 -2.7092316e-05
 -1.2034721e-04
 -5.5332679e-05
 -1.7386361e-04
 -1.6918599e-05
 -1.0661841e-05
 -1.2440427e-03
 -6.1628903e-05
  3.5875864e-06
 -1.7110970e-05
 -8.4233368e-05
  1.1030977e-01
 -3.8023755e-02
  4.5365863e-02
  6.6631888e-05
 -2.6579726e-05
  1.0797726e-01
 -3.2415388e-05
  2.0789461e-05
 -7.8109442e-04
  1.4819197e-01
 -3.5809052e-01
  4.5234029e-04
  4.5627818e-05
  1.6390446e-04
  2.0793246e-03
  3.4351044e-05
  1.2139705e-04
  2.8319872e-04
 -2.8830409e-05
  1.2391190e-04
 -1.4038739e-04
  3.1772441e-05
  2.6176198e-04
 -1.2287551e-04
  6.9615264e-05
  2.0700744e-04
  1.3386374e-04
 -6.1243132e-05
  1.8267914e-04
 -8.4882944e-05
 -1.0544928e-04
  1.6851918e-04
  8.0037637e-05
 -5.2973232e-05
  9.3717237e-05
  6.0628672e-06
 -2.1813023e-04
  5.1993760e-05
 -1.3970482e-04
  4.1451491e-05
  1.2080371e-04
 -8.9977366e-05
  3.0677585e-04
  5.4329728e-05
 -1.1204719e-06
 -2.5634874e-05
 -5.9324655e-05
 -1.4409609e-04
  2.0236635e-05
 -1.0393569e-04
  7.2559989e-05
  7.4218166e-05
 -3.8462251e-05
  1.0742441e-05
  4.6489764e-05
  3.4637189e-05
 -5.1820727e-05
 -1.7277471e-05
  1.1146351e-04
  1.6379650e-04
 -1.2899475e-04
 -1.4853552e-05
  3.2495103e-05
  4.9160126e-06
  2.5921304e-06
  3.9028670e-05
 -9.8827120e-05
 -7.3210169e-05
 -6.9601243e-05
 -6.4316795e-05
 -3.0314506e-05
  1.9806308e-05
 -4.6512582e-06
 -6.2289524e-05
 -3.9343551e-05
  4.2737596e-05
 -1.2722050e-04
  2.1995646e-04
  1.6516312e-04
  1.0040258e-04
  1.1541189e-05
  4.1136289e-05
 -4.8707723e-05
  1.2283069e-04
 -7.6711841e-02
  1.1756869e-05
 -5.3236883e-05
  1.8418083e-04
 -3.0270126e-04
  9.3140798e-06
  8.8589932e-06
 -2.8803496e-04
 -2.0207773e-04
 -1.8018638e-05
 -5.0762003e-05
 -9.2584465e-05
 -1.6311897e-05
 -2.7588922e-05
  5.0092808e-06
  3.2063159e-05
 -1.5515529e-04
 -2.1389471e-05
 -3.6671056e-05
 -3.6214613e-05
 -2.6077980e-05
  6.8320202e-05
 -1.3115804e-04
  2.2867280e-05
  9.1024696e-05
 -2.2678454e-05
  1.6026142e-04
 -9.3722352e-05
 -2.9941242e-05
 -5.3745739e-06
  9.8955592e-05
  8.0469654e-05
  3.8455106e-05
 -2.3173865e-05
 -1.0757970e-05
 -5.0156250e-05
 -9.8259316e-04
 -1.2006998e-04
  7.8280827e-05
  7.9168742e-05
  1.8147461e-04
  4.5721554e-05
 -2.3180328e-05
 -1.1111724e-04
  1.5006107e-05
  2.2150043e-05
 -7.1573864e-05
 -1.6884753e-01
  1.3204923e-01
 -1.1428832e-01
  2.6554493e-05
  1.3595913e-01
  2.9591098e-04
 -1.1304086e-01
 -6.4268374e-01
 -3.5996941e-01
 -2.0256400e-04
  1.3691869e-04
 -9.2531060e-05
  6.5372064e-05
 -6.8503368e-04
 -5.6989194e-04
 -2.6675666e-04
  7.8881203e-06
  1.6828686e-02
  2.6006252e-05
  2.2158287e-02
  2.2579241e-04
  5.5158947e-05
  4.5600518e-06
  5.0095859e-04
 -7.4790572e-05
  2.8887882e-05
 -1.9724823e-05
  3.3563963e-04
 -1.9929750e-05
  8.2903483e-05
 -3.4526968e-04
  2.5832080e-04
  3.3772390e-06
  2.1996818e-04
 -4.3760228e-05
 -2.5655319e-05
  1.8687786e-05
  9.6221935e-05
 -6.9440815e-05
 -4.6980605e-04
 -4.8167440e-06
 -9.3208603e-04
 -8.8803470e-05
 -4.6332568e-04
 -1.2916136e-04
  8.3893057e-05
  5.7694408e-05
  1.6993874e-05
  1.1159405e-04
  7.0270420e-05
  2.9954821e-04
  2.0149413e-02
  8.9351000e-05
 -5.0203060e-05
 -1.8917553e-05
  4.9576400e-05
 -8.9462803e-05
 -6.2170904e-05
 -1.7455692e-05
  3.3298895e-06
 -8.4568281e-05
 -1.1116789e-04
 -4.4039625e-05
  5.3242162e-05
  5.9263966e-05
  4.8673606e-05
 -1.8696397e-04
 -3.4942047e-04
  1.5963567e-04
  1.5331065e-05
  2.0577786e-06
  4.5435481e-05
 -3.3845357e-05
 -6.8236754e-05
 -2.3837306e-06
 -7.1899471e-05
 -2.2825699e-04
 -7.8812500e-06
  1.1423884e-04
 -1.0421038e-04
  6.2343912e-07
 -4.2178097e-05
 -5.5037028e-05
  3.8308506e-05
  7.7756937e-05
 -6.9796079e-05
  5.9932576e-05
 -1.1112428e-05
 -7.1486276e-05
 -1.1707738e-04
 -1.3302080e-05
  2.0528286e-04
 -3.4752058e-05
 -3.5480902e-05
  7.1438772e-05
  1.9044671e-04
  4.8536040e-05
 -4.8014850e-04
  1.0828528e-04
 -7.0198133e-05
  6.4119187e-05
 -4.4674189e-06
  9.3933813e-05
 -4.0868916e-05
 -3.6915124e-05
 -4.4873139e-04
 -7.1772854e-05
 -4.5424593e-05
  1.4373789e-05
  1.1490863e-05
 -4.4203385e-05
  4.6764846e-05
  1.7810591e-04
 -4.4425684e-05
  5.2701886e-05
 -1.2662033e-04
 -1.0453274e-04
  1.1699399e-04
 -4.6178375e-05
 -2.4921530e-05
 -1.2279183e-04
  6.7537643e-05
  6.8948611e-06
 -1.5353145e-04
  6.5074331e-05
 -1.4608027e-04
  1.2855460e-05
  8.1827719e-05
  2.4803446e-06
 -3.7032487e-06
 -2.0776299e-04
 -1.7432876e-04
  1.6923550e-05
  1.3668412e-04
  4.5781591e-05
 -6.3593812e-05
  1.5773920e-05
 -3.3372617e-05
 -1.3500909e-04
 -1.8423263e-05
  9.3554365e-05
 -5.6221288e-05
  1.0480432e-05
 -1.3277918e-04
  1.0066077e-04
 -1.2567571e-04
  3.9639392e-05
 -2.2070975e-05
  2.3879580e-05
  1.9172365e-05
 -2.5992791e-05
 -1.2759723e-05
  2.5806312e-05
  2.1748474e-05
 -9.5227610e-05
  8.1914375e-05
 -1.8459414e-05
 -3.1416822e-04
 -1.7120237e-05
 -2.6280823e-05
  7.0661670e-05
 -6.1025463e-07
 -9.7839469e-01
 -3.0627713e-01
 -2.9489395e-01
  9.5883268e-01
 -5.0299430e-01
  7.2376716e-01
 -2.2953416e-01
 -2.3716706e-01
  5.3314114e-01
 -1.1352144e-01
 -1.8799403e-01
  1.4250448e-01
  2.4813463e-01
 -6.3870472e-01
 -2.3199908e-01
 -2.1775027e-01
 -7.2390056e-01
 -2.9248652e-01
 -8.2166135e-01
  1.2360571e-01
 -6.5451868e-02
 -9.5834047e-02
  1.9040444e-01
  2.2800201e-01
 -1.1669584e-01
 -6.0209739e-01
 -3.4497643e-01
  6.1373628e-04
  3.4548658e-01
  1.3507647e-04
 -5.4426724e-01
  1.2320407e-01
 -1.1408864e+00
  2.2307698e-04
 -1.3003523e+00
 -2.3842725e-01
  1.1574394e-01
  3.2571681e-02
 -1.1948707e-03
 -4.7144213e-01
  3.6720169e-01
 -2.1494457e-01
 -5.1963621e-01
 -7.2170472e-01
  2.4458574e-04
  3.8011703e-01
  2.1496540e-02
 -2.8951036e-02
  3.8959146e-02
  2.0504350e-02
  2.8306323e-01
  2.6530761e-02
  1.5348561e-01
  1.3518463e-01
 -1.3589212e-06
 -2.5116965e-01
  7.3946947e-05
  1.5099223e-04
  7.7832752e-05
 -7.9389538e-05
  4.5100387e-05
 -1.9609641e-02
  1.0939552e-04
  2.7479374e-04
  2.1550035e-04
  2.9404446e-06
  1.5461391e-07
 -1.3304759e-05
  9.2237906e-06
 -4.8295165e-05
 -3.1604782e-06
  1.0778335e-04
 -6.2712184e-05
  1.7295495e-04
  1.2396167e-04
 -5.8989909e-02
 -8.9089313e-05
  3.5571506e-05
 -1.8308705e-04
 -5.9935905e-05
  2.1450443e-05
 -4.6650010e-05
 -4.8083904e-05
  8.9162641e-06
 -2.9261535e-05
  3.4608467e-05
  1.4876676e-05
 -6.4380773e-05
  6.6570072e-05
 -4.9699735e-05
 -4.1385716e-05
 -2.1736675e-04
 -2.3351616e-04
 -4.3373209e-05
  1.0597888e-04
  5.7298414e-05
  6.7464566e-06
 -1.5595846e-05
 -3.3100042e-04
 -5.6301582e-05
  2.3480416e-04
  2.9764742e-06
  7.1208262e-05
 -5.0065908e-05
 -4.0689165e-06
 -1.5250737e-05
  6.4241438e-05
 -1.5695921e-05
 -8.2370781e-05
  2.7327738e-03
 -1.7182847e-05
  1.1995350e-04
 -1.8003324e-04
 -6.1710438e-05
 -1.4150329e-04
 -4.5947779e-02
  3.4569891e-04
 -7.5255834e-05
 -1.1583234e-05
  6.7209658e-05
  1.4970369e-05
  1.7931377e-06
 -8.2101520e-05
  1.7938847e-04
  1.6089343e-05
  4.5210809e-06
 -4.4378857e-04
 -2.3262283e-04
 -3.2913838e-06
 -1.3458502e-04
  4.4912442e-05
  1.1658193e-04
  9.5369673e-05
  8.1662620e-07
  6.1354869e-05
 -2.7419270e-05
  1.2709529e-04
  1.1939732e-04
  8.7669221e-05
  2.0705642e-04
  2.2017628e-05
  2.2457491e-05
 -6.8422465e-05
 -1.3129514e-04
 -3.2271175e-05
  8.0213256e-05
 -1.3990408e-04
 -2.5324919e-04
  2.8425016e-04
 -1.0168509e-04
 -2.7440043e-05
 -8.3541789e-05
 -4.2621239e-05
  1.9649122e-04
  4.9298120e-05
  5.6762732e-05
  3.1956242e-05
  3.6493555e-05
  1.0123917e-04
  1.2342917e-04
  7.2977316e-05
 -3.2195338e-05
 -1.0824177e-04
 -1.2370764e-04
 -1.6542507e-04
  1.5616631e-04
  1.1883827e-04
 -2.4326027e-05
 -4.8109214e-05
 -9.1480295e-05
  3.5881849e-06
 -1.6649418e-04
  1.0956061e-04
 -8.1729537e-05
  1.3224047e-04
 -1.1799881e-05
 -3.1051939e-04
 -7.2273600e-05
  1.5252368e-06
 -4.3400658e-05
 -1.1282025e-04
  1.4193577e-04
 -2.8457665e-05
 -3.4088542e-05
  2.5977635e-05
 -1.2136684e-06
 -1.1557375e-04
 -1.7341668e-05
 -5.5312834e-05
 -1.8111595e-04
 -1.7765489e-05
 -8.8244815e-05
 -9.8813089e-06
 -4.4767152e-05
  2.9165763e-04
  4.4254943e-05
 -4.3817758e-04
 -6.2524225e-05
 -5.5014141e-05
 -5.3317966e-05
  3.2474141e-05
  7.1398550e-05
  4.7019144e-05
 -2.3738248e-04
 -4.1015941e-05
 -2.7631276e-04
 -8.8633660e-06
  1.4744788e-05
 -1.4465766e-04
 -2.2481634e-05
  1.8249380e-05
  1.3894711e-04
 -3.0596100e-05
  3.0531746e-04
 -2.9665851e-05
 -7.5459648e-05
 -3.3006066e-01
  1.4192735e+00
 -1.9326195e-04
  3.5352987e-06
  1.0784281e+00
 -7.2948300e-05
 -8.8818765e-01
 -1.5525116e+00
 -3.4404823e-01
 -9.1486472e-06
 -1.3531074e-04
  3.2101851e-02
  7.2658911e-02
 -4.4179866e-05
 -3.0764559e-04
 -2.4537026e-04
  3.0545195e-04
  5.8725878e-04
  1.7269866e-05
 -1.8862270e-04
 -5.3801091e-04
 -7.0424962e-06
 -3.7881711e-03
  5.5307359e-05
 -1.5195495e-03
  2.3045843e-04
  2.1119446e-04
  3.2407418e-04
  2.0917948e-02
  9.2002389e-05
 -5.0510780e-04
 -1.3714804e-05
  3.4854464e-05
  9.8622579e-04
  1.0584698e-05
  1.0271802e-04
  9.2421979e-02
  1.3204760e-02
  9.7681582e-04
  6.4614572e-04
 -3.7063579e-05
  6.2039457e-05
  3.0861852e-01
 -9.8283919e-05
  3.8473729e-05
 -3.5184577e-05
  2.4443685e-05
  1.6805847e-04
 -7.2683622e-05
 -2.5197826e-04
  8.9190726e-05
 -2.1614421e-04
 -2.1918901e-05
 -1.2531930e-05
  1.2883999e+00
  1.0916293e+00
  3.3042219e+00
 -1.4629462e+00
  9.1875678e-01
  1.1485391e+00
 -5.7626814e-01
 -1.0455509e+00
 -1.9598266e+00
 -1.5956745e+00
 -4.1833078e-03
 -1.0345231e-01
 -6.0732049e-01
 -4.7356528e-01
 -2.1607018e-01
  1.3699585e-01
 -4.4132808e-01
  2.5335273e-01
 -7.2558470e-02
  4.9717361e-01
  2.5864002e-01
 -4.2999212e-02
  7.2357333e-01
  2.4291100e-01
 -5.0744593e-01
 -1.3554536e+00
  1.1070456e-03
  2.0703079e-05
 -7.1649469e-05
 -2.6772304e-05
 -2.1297279e-01
  3.4097278e-01
  1.4210685e-01
 -1.1652897e-01
 -6.6185749e-01
 -7.4270034e-01
 -2.0827819e-03
  1.4975379e-01
 -3.1113253e-05
 -2.4367416e-01
  5.2377174e-04
 -8.2785024e-05
 -1.9477622e-01
 -1.3937011e-01
 -9.3466118e-02
  1.5811433e-01
 -2.6753568e-04
 -4.0413737e-01
  2.2387755e-04
  5.7981964e-02
  1.5046231e-04
  1.6136582e-01
  1.3877764e-01
  6.6851164e-05
 -1.7259471e-01
 -2.0122956e-02
  3.6639500e-02
 -7.0736387e-05
 -3.2778178e-05
  5.5540830e-05
  1.6823051e-05
  7.9575781e-05
  6.2716472e-01
  1.3714527e-04
  1.2804419e-04
 -5.1354964e-05
 -2.7433693e-04
  1.6757371e-04
  3.3502176e-04
  1.5967434e-04
  4.3517965e-05
  1.2505532e-04
  9.3346709e-05
  9.8090466e-05
  9.2373637e-05
  8.5466512e-05
 -8.1564009e-05
 -6.5251581e-05
 -1.0259979e-04
 -1.9955358e-05
 -6.3272009e-06
  1.2791327e-05
 -3.3065835e-06
  3.8840302e-04
  2.1310692e-05
 -1.8189297e-04
  1.3146501e-04
 -1.4092127e-04
 -2.0070378e-05
  4.1942210e-05
 -1.7691099e-04
  2.2904322e-05
  1.3705750e-04
  6.3307147e-05
 -1.0375120e-04
  8.1682963e-05
 -5.1088142e-04
  9.9243058e-05
 -5.4786091e-05
 -1.5719458e-04
 -1.1495596e-05
  8.4332736e-05
 -1.5500229e-04
  2.9384253e-05
 -1.0073688e-04
  6.6453072e-06
  9.1961001e-06
 -1.1193750e-06
  7.9701298e-05
  4.7169389e-05
 -2.8179285e-05
  3.5927576e-05
  1.9754998e-05
  7.9811318e-05
 -1.6241831e-05
  1.2359256e-04
  6.4743268e-05
  1.8238134e-05
  3.0438030e-05
  2.4405517e-05
  1.8224934e-04
  2.3911485e-05
  1.0531600e-05
 -6.9089110e-05
 -4.3557990e-05
 -2.8111324e-05
 -6.7647074e-05
 -2.0895025e-04
 -2.1005505e-04
 -1.1494511e-05
  3.9483009e-05
 -5.5496494e-05
  6.4595457e-05
  2.8836849e-04
 -4.8070062e-05
  1.2357135e-05
  5.1926563e-05
  5.6255565e-05
 -8.1218939e-05
  2.7468943e-05
  1.9557305e-05
 -7.0263719e-05
 -6.3087893e-05
 -1.7722330e-05
  1.1078474e-04
  8.6608248e-05
 -8.4904896e-04
  2.3530920e-04
 -2.1825077e-05
  3.8122693e-05
  6.9018910e-07
 -7.9982477e-05
  1.4363202e-05
 -5.7970505e-05
  9.3322720e-05
 -1.2001891e-04
 -6.5561842e-05
 -1.2430908e-04
 -1.2792611e-04
  1.1522837e-04
  4.7018701e-05
 -1.2830962e-04
  5.6680048e-01
 -2.6014355e-01
  8.4741950e-01
 -1.4853904e+00
  7.6099050e-01
 -5.3826737e-01
  5.7421483e-02
 -1.2870672e-01
 -7.2150193e-02
  2.0943386e-05
 -1.2370490e-04
 -8.0889732e-01
 -8.3391868e-02
  4.9299058e-01
  1.1699656e-01
  1.0153238e-02
  6.3525379e-01
  1.3338448e+00
  2.5146645e-01
 -8.3166295e-01
 -6.1437750e-01
  6.0283291e-01
  1.4612272e-04
 -4.4509771e-04
  5.0153583e-01
  9.5070732e-01
  1.5564841e-01
 -7.1460344e-02
 -1.7743011e-01
 -1.0618389e-03
  2.2701693e-01
 -1.1333077e-01
  1.7672949e-02
  4.2850267e-02
  1.0439097e+00
  1.2774055e-01
  3.5662821e-03
 -6.2717081e-05
  3.3873551e-02
  8.3430894e-02
  2.9158286e-05
  3.1951779e-01
  7.3301829e-02
  4.7195712e-01
  2.1311814e-01
 -2.1731748e-01
 -2.7788171e-01
 -1.0411094e-03
 -1.0559137e-03
 -1.1140868e-04
 -1.5358754e-02
 -6.7865400e-04
 -2.4265475e-03
 -2.1778065e-04
 -3.5375037e-05
  1.3369995e-01
  4.1824824e-05
 -3.5262402e-04
 -1.4938485e-04
  3.4436550e-06
  2.4679843e-05
 -9.0692788e-02
  6.5935783e-02
 -1.6901173e-05
  1.1822119e-04
  1.7492668e-04
 -3.2762087e-05
 -1.4678060e-04
 -1.2241516e-04
  2.1274529e-05
 -1.2132716e-04
  1.1588493e-04
  1.5244931e-04
  1.7938836e-04
  1.3896498e-04
  4.6206937e-05
 -2.2457014e-05
  3.3443252e-04
 -2.4147613e-04
 -1.6855109e-04
 -1.1329191e-04
 -2.1573143e-04
  9.8872559e-05
 -2.7774245e-06
  3.7147482e-05
  7.1033523e-05
 -1.0347978e-05
 -9.7509928e-04
 -1.9976471e-03
 -8.8664478e-05
 -9.0324411e-06
 -2.9148703e-06
  3.9935345e-05
  3.3422068e-05
  6.5906162e-05
 -2.5116245e-04
 -9.4767020e-05
 -3.3151213e-04
  1.0254556e-04
 -7.3432529e-06
 -1.1198584e-04
 -2.3457060e-05
  1.9254652e-05
  7.8931967e-05
  1.3944539e-05
  4.4416920e-05
 -4.9061582e-05
  4.4590608e-05
 -1.2627189e-04
  3.8888091e-05
  1.2705060e-04
 -3.6531148e-06
 -2.1677612e-05
  1.7571644e-04
  1.1575608e-04
 -2.1004892e-04
 -1.1249928e-05
 -4.1427105e-05
 -2.3777882e-06
 -1.0880260e-04
  2.5084724e-05
  1.4624557e-04
 -2.3886347e-05
  1.6733503e-04
 -1.6252222e-04
 -7.6066906e-05
  6.6275337e-05
 -8.1405247e-05
 -1.1015097e-04
  1.6878160e-04
 -3.4419666e-06
 -7.4037407e-06
  1.8238374e-04
 -1.8295223e-05
  7.6783472e-06
  9.6358126e-05
  2.2522594e-05
 -6.5611333e-05
  1.9332806e-04
  3.9807670e-05
  1.7051683e-04
 -1.2816998e-05
 -1.5040929e-04
  2.4238057e-05
  1.5281177e-04
 -8.6361113e-05
 -5.3650998e-05
  2.9755609e-05
  1.1988055e-04
 -4.9407528e-05
 -7.5262738e-05
  2.4267487e-05
  4.8408641e-05
  3.0014972e-04
  2.0369353e-05
 -3.1547228e-04
  2.1316711e-05
 -8.4839276e-06
 -2.8937693e-05
 -1.4398000e-04
 -1.3536423e-04
  2.7817715e-02
  5.1815259e-01
 -1.3118143e-03
 -1.2067258e-05
 -1.4169782e-05
 -6.5085363e-01
 -5.3285742e-01
  1.7265185e-04
  6.6012102e-01
  8.8719517e-01
  2.6554393e-05
  2.4539966e-04
 -4.1330386e-06
 -3.0199699e-06
 -3.3678880e-04
  1.5429352e-05
  1.8547296e-05
 -2.8697398e-04
 -8.5874497e-05
  5.3053522e-05
  1.4609625e-04
 -5.3100142e-05
  2.7907110e-05
  1.1722767e-04
  7.6819684e-05
  1.7535353e-04
  4.6234931e-05
 -1.4405834e-04
  9.4098606e-05
 -4.3306944e-05
  4.9991351e-05
 -1.3610564e-05
  4.5261673e-05
 -6.1530285e-05
  1.6160944e-05
 -1.1466121e-04
 -9.8819786e-05
  9.4635168e-04
  6.0847386e-05
 -1.6110582e-05
 -5.8390113e-04
  7.3755415e-05
 -9.0917725e-05
 -4.6407913e-05
 -1.4970991e-04
  1.1895380e-04
  7.1870018e-05
  7.2531548e-05
 -1.1993331e-04
  2.5208126e-05
 -2.1926933e-05
 -9.7448828e-05
 -3.8691309e-05
  7.4440191e-05
 -2.7038468e-05
  5.5518174e-03
 -6.0041338e-01
 -7.6187780e-04
 -4.7256228e-05
  1.0417191e-04
 -1.8064780e-04
  4.5644116e-05
 -2.8726226e-01
 -6.0686143e-05
  9.8182521e-05
 -3.9307089e-04
  5.8026420e-05
 -2.5549954e-05
  4.2436586e-05
  2.3921479e-04
 -2.5390822e-05
 -3.4837685e-05
 -7.3957062e-06
  5.1454619e-05
 -6.0291291e-05
  7.8320954e-05
  7.1094561e-05
 -1.4218062e-04
 -4.8688482e-05
  4.2613992e-05
 -2.9495382e-05
 -9.8426824e-07
 -2.6352538e-04
  4.6798315e-05
  1.2400483e-04
  4.3148364e-05
 -2.9884890e-05
 -4.3986245e-05
  8.3668943e-05
 -6.7310843e-06
 -6.7112662e-05
  9.5095299e-07
 -2.2189010e-05
  1.4616412e-05
 -1.5787402e-04
 -4.9102778e-06
 -1.7955583e-04
 -2.0250389e-05
 -1.5179389e-04
 -1.2908585e-04
  1.0971951e-04
  1.4127608e-04
  2.2006186e-04
 -1.3541729e-04
  3.3906817e-05
  5.9301241e-05
 -4.8806138e-05
 -2.5964837e-05
  3.9819846e-05
  1.0053099e-05
  1.0153427e-04
  4.3737105e-05
 -4.1787266e-06
 -2.1139422e-04
  6.1840110e-05
  3.7738297e-04
 -1.6008609e-05
  6.6407156e-05
 -2.3513092e-04
 -5.1893356e-05
 -2.3920921e-04
 -7.7722136e-05
 -4.4784414e-05
  9.9718127e-05
 -1.0407762e-04
  1.8426825e-05
 -1.1348986e-04
  1.4741639e-04
  5.1779494e-05
 -1.4876446e-05
 -2.1723348e-05
 -7.0906673e-05
 -1.0725275e-04
  2.2908267e-05
  7.2690222e-05
  1.2968857e-05
 -2.7354110e-05
  1.2026337e-04
  5.6019020e-05
 -1.5344814e-04
 -2.8387700e-05
  1.8030751e-05
  1.2256062e-04
  4.6607453e-05
  4.9891973e-05
 -1.0249092e-04
 -1.0324777e-04
  4.7507301e-06
 -1.7920975e-04
 -3.7259568e-05
 -3.0725376e-05
  2.8744052e-04
  1.0728604e-04
  4.3136104e-05
 -3.4498389e-05
 -1.7950666e-04
 -1.3646494e-04
 -3.4180317e-07
 -5.3268577e-05
 -1.4868140e-05
 -4.2190157e-05
 -8.2574370e-05
  7.2558141e-05
  1.7633932e-04
 -6.9866830e-05
 -2.8805394e-05
 -7.4689387e-06
  4.8969261e-04
  5.7280822e-06
 -1.7085136e-05
  4.4715271e-06
 -1.2488641e-04
 -2.0630139e-05
  8.6842600e-05
 -2.2822242e-05
 -2.3994160e-04
  6.9901929e-05
  6.2248051e-05
 -5.9631257e-05
 -5.4440792e-05
 -9.0102076e-05
  9.1469788e-05
 -4.4309141e-05
  8.3329760e-06
  1.7563654e-05
 -8.8582638e-05
  6.0192197e-06
 -1.4701165e-04
  2.8766299e-04
  6.1872975e-05
 -8.5784966e-05
  7.7275130e-05
 -2.2509467e-04
  5.3131462e-06
 -3.3157718e-05
  8.4208848e-05
  1.2075629e-04
  2.4021797e-04
 -5.3360280e-05
  1.5970253e-04
  2.5544787e-05
  1.6683461e-04
 -4.2799169e-05
  6.3276559e-05
  2.6961712e-05
 -3.9501538e-06
  4.5388515e-04
  1.0185706e-04
 -3.3627763e-05
  5.1188952e-05
  3.5664823e-04
 -1.7072518e-05
 -2.3038103e-05
  5.6483950e-05
  1.3248657e-05
  1.0974270e-05
  6.3834000e-06
 -2.6523134e-05
  2.7327840e-05
 -8.8344612e-05
 -2.4834244e-05
 -3.8308090e-06
  2.4441857e-05
 -2.5148822e-05
 -3.2509054e-04
  1.1206382e-05
  7.0764232e-05
 -1.0875779e-04
  8.5382591e-05
 -1.6738406e-05
  6.2833853e-05
  9.1075657e-05
  6.1657825e-05
 -1.5036993e-04
  3.0988027e-05
  9.2838076e-05
 -1.0894526e-04
  3.8650635e-04
  1.8656148e-04
 -1.0477160e-04
  7.6179611e-05
  1.5601587e-04
  6.2032120e-04
  7.7902359e-06
 -6.1337782e-06
  6.6810702e-05
 -3.8160842e-06
  1.9203481e-04
  6.8193614e-05
  9.5918485e-06
  4.2271949e-05
 -1.8053439e-04
 -1.7775814e-05
  4.4748635e-05
 -2.2377993e-05
  2.4619859e-04
 -1.6296695e-05
 -2.4234956e-04
  1.4974561e-04
 -2.1943973e-05
  1.6228587e-05
 -2.1619309e-05
  9.8782017e-05
 -1.0000079e-04
  9.1616639e-05
 -4.4506738e-05
  3.2090458e-05
  1.2221644e-04
 -2.4161343e-05
 -1.3318435e-05
 -4.2006730e-05
 -2.9759771e-01
  1.6906411e-04
 -4.0236075e-04
 -5.2776072e-06
 -1.3786991e-04
 -5.1761639e-05
  1.0157924e-04
  1.8062274e-01
 -2.6140671e-05
  9.6838803e-06
 -3.9920174e-05
  7.4606949e-05
  2.1333137e-04
  2.4387691e-05
 -6.4515531e-05
  5.9464626e-05
 -4.3092564e-06
 -1.6318687e-04
  1.2377737e-04
  4.3705302e-05
  5.0851035e-05
  2.7435658e-06
 -2.9173671e-04
  2.4541796e-04
 -7.9537625e-05
  5.7246725e-05
 -3.5088326e-04
 -5.6879671e-05
  1.4441818e-04
  6.4525142e-05
  2.5940302e-05
 -1.1277718e-04
 -8.8542110e-06
 -2.5942229e-04
  1.4833509e-04
  2.1953067e-06
  1.2404962e-05
  3.7156566e-04
  2.5595955e-06
 -1.2964616e-04
 -2.8206041e-05
  1.1076297e-04
  2.7267739e-05
  8.7457020e-06
 -8.1731028e-05
  8.2106235e-05
  1.5046879e-05
  1.3490715e-04
 -4.2145421e-05
 -7.0736402e-05
  5.6281253e-05
 -1.6430174e-07
  1.1971606e-04
  2.9188748e-05
  6.8854347e-02
  3.9793003e-01
  7.9661921e-02
 -2.9290685e-01
 -6.0124662e-02
 -2.3741938e-01
 -7.2012693e-03
  3.1242993e-01
  3.3298942e-01
  1.2149371e-01
  6.2464482e-01
 -1.9104351e-04
  6.0297234e-04
 -4.9762042e-05
  1.2043108e-05
  5.3181911e-01
 -2.9301492e-04
  1.0870308e-01
 -3.5666654e-01
 -3.6753979e-02
 -1.4885378e-04
  4.2041927e-05
 -9.7632267e-02
  4.4010108e-04
 -7.4322844e-01
 -2.1423081e-01
  7.9038626e-05
  1.3383770e-01
  3.2949945e-01
 -2.3096342e-02
 -9.7455643e-04
  3.8463044e-05
  1.7717510e-05
 -1.8045885e-02
 -5.2120328e-01
  1.0121840e+00
  1.9634738e-04
  1.2075483e-01
  4.7737962e-01
 -5.4883107e-04
  8.1993487e-05
  2.2962913e-04
 -2.9777127e-04
 -1.0349193e-04
 -1.4243992e-05
 -9.8160839e-05
 -6.7558773e-02
 -1.3775685e-02
  1.6522545e-05
  3.8697079e-04
  5.5534554e-05
  2.5191080e-02
  3.7160673e-05
  1.5252104e-04
  2.3839562e-05
  1.6449878e-01
  1.5163327e-04
 -3.9637358e-05
 -1.2375334e-04
  1.1764938e-04
  1.4376186e-05
 -1.8294245e-01
  1.6972124e-06
  1.3126465e-04
  3.3934986e-05
  8.7810055e-05
 -3.0725387e-05
 -1.2326938e-04
 -3.5883221e-04
 -6.0810995e-05
  2.8128692e-04
  6.0907237e-06
 -1.5901301e-04
  1.1779125e-04
  3.4213465e-04
  3.8091690e-05
 -9.9215045e-05
  1.6352331e-04
 -2.2958254e-04
 -6.5544809e-05
 -1.4546352e-04
  3.0107623e-05
  1.3029917e-04
 -1.6658079e-05
 -2.2446271e-05
 -3.2080463e-06
 -6.7129629e-05
  1.6090364e-04
 -1.1004869e-04
 -6.3066756e-05
  2.2090135e-05
  6.9005444e-05
 -3.5808361e-04
 -7.8763231e-05
  6.5287204e-05
 -9.6866614e-05
  4.2024662e-05
 -9.0471316e-05
  8.7285087e-05
  9.0194400e-05
  1.1613918e-05
 -1.0440514e-05
  6.1007668e-05
  1.2167312e-05
  5.8093949e-05
  3.8013302e-05
  2.7516333e-05
  4.5226447e-05
 -2.4044051e-05
  5.8238918e-04
 -3.0461590e-06
 -4.3667329e-05
 -8.8751360e-05
  2.3027264e-05
 -2.3179284e-04
  7.9071350e-02
 -2.7296217e-05
  1.1065810e-04
 -4.2382679e-05
  3.0368112e-04
 -9.8600205e-05
  4.0071442e-05
 -2.4177602e-05
  1.7126760e-05
 -4.1128873e-04
  7.0309645e-05
 -1.5326760e-04
  9.8826393e-05
  5.9727761e-05
 -7.1200506e-05
 -1.8654204e-05
  1.0304274e-04
  4.9032387e-05
  1.6852705e-04
 -2.3284373e-04
 -9.4009774e-05
  6.3568514e-05
  1.3836154e-05
 -2.8921538e-06
 -1.6468217e-05
  4.2097763e-05
  1.6807478e-04
  2.5802080e-06
 -2.2767761e-04
  5.5845994e-05
 -5.4444820e-07
  9.2777846e-06
 -1.0090442e-05
  1.0753518e-04
  3.0172208e-05
 -4.6855963e-05
  3.4048644e-05
  2.0420070e-04
  1.7194588e-04
  9.4388735e-05
 -1.2708377e-04
 -1.6247674e-05
  3.6219917e-05
  3.3240125e-05
 -4.9042232e-05
  1.0133835e-04
 -2.2317616e-05
  6.5170871e-06
  3.2769429e-05
 -6.7342662e-05
  1.2893337e-04
 -5.3953372e-05
  5.1343446e-05
 -5.7002409e-05
 -5.2998985e-05
 -1.5738403e-04
 -4.3163742e-05
 -1.7724913e-05
 -3.6801302e-06
  3.8355058e-05
 -1.4633717e-04
 -6.4485619e-05
 -2.3170016e-06
  1.1020053e-04
  1.7946943e-05
  9.2153037e-05
 -6.2467072e-05
  8.3750412e-05
 -8.9266185e-05
  2.8740647e-05
 -1.1526248e-04
 -4.4860558e-06
 -5.5914181e-05
 -1.2818453e-05
 -1.3337660e-04
  1.5014152e-04
 -2.5285912e-05
  1.4364800e-05
  2.6150490e-05
  7.1168557e-05
  1.9001968e-04
 -1.3743922e-04
 -7.3993207e-05
 -2.9130711e-04
  2.5124924e-04
  6.3210637e-06
 -1.0178552e-04
 -2.2354061e-04
 -4.5523979e-05
 -3.7418922e-05
 -8.2320534e-05
  1.4533667e-06
 -6.9650152e-05
 -3.7937027e-06
 -4.3823602e-05
 -1.0297157e-05
  1.0164089e-04
  1.4894163e-04
  4.9335653e-05
 -2.9537012e-05
  1.0289811e-04
 -4.0931232e-02
  9.6167453e-02
 -3.3512106e-04
 -1.6811864e-04
 -7.5909331e-05
  6.3839539e-06
 -2.3325445e-04
 -2.6162004e-01
  8.6452550e-05
 -1.3739629e-05
 -2.0280313e-05
  1.7550058e-04
  1.7612273e-03
 -3.3922427e-04
 -1.6621789e-03
  7.4730187e-06
 -3.8985314e-04
 -5.3721468e-04
 -1.1196884e-04
  2.0683480e-04
 -1.6619747e-04
  7.8439680e-06
 -3.3471358e-06
  3.7541467e-05
  3.0432040e-05
 -1.7770361e-06
  4.5983630e-05
 -1.5207358e-04
  1.4233896e-05
  1.1142143e-01
 -4.2794840e-04
 -1.3708705e-05
  1.2978828e-04
 -3.6643323e-05
 -1.5439000e-04
  2.2844670e-05
  9.4968655e-06
  4.8847913e-05
 -1.2256710e-04
 -1.3949293e-04
  1.1100218e-04
 -2.3140821e-04
 -1.4695487e-04
 -4.7788821e-04
 -1.9898600e-04
  1.0854631e-04
  1.5505530e-04
  9.9802768e-05
 -5.3403364e-05
  1.8655666e-05
  4.7440513e-04
 -1.4139200e-05
  6.0757353e-05
 -6.6386601e-05
 -3.0826479e-05
 -1.1654732e-04
 -1.3421431e-05
  4.6873425e-05
 -3.6455316e-05
  1.8720623e-04
  2.0591187e-04
 -1.6636606e-05
 -9.8652527e-05
 -9.3382099e-05
 -4.6439475e-04
  4.1576609e-06
  1.1259048e-05
 -2.4212181e-05
  3.8531233e-04
 -2.9283312e-05
  4.5814591e-05
  8.8028413e-05
  8.2013619e-05
 -7.6419303e-05
 -5.4611469e-06
 -1.0612417e-04
  1.2652797e-04
 -5.3927695e-05
  2.9389363e-05
  5.3041869e-05
  4.4750275e-05
 -8.7368375e-05
  5.4229949e-05
  6.3319763e-05
  1.2283563e-04
 -3.4525543e-05
 -3.1979667e-05
 -1.0225204e-05
  5.9250448e-05
 -1.7893194e-04
  2.6523430e-04
  1.9123347e-05
 -2.9961871e-05
 -1.0730288e-04
 -1.2086485e-04
  1.1254031e-04
 -2.1002337e-04
  2.2545884e-05
  1.6928489e-05
  1.5241215e-04
 -2.8296761e-04
  2.6738743e-04
 -2.3825483e-01
 -7.9019010e-06
 -1.0233857e-05
  2.0717604e-04
 -1.1884584e-04
 -7.9104948e-06
 -5.7494186e-04
  2.0305462e-01
 -1.0788787e-01
 -3.2270578e-04
 -1.6993903e-01
  3.1678665e-03
  3.1695493e-02
 -6.2413592e-02
  6.4127841e-03
 -1.6450971e-04
 -3.2462477e-04
  3.0850115e-05
  8.1965113e-03
 -1.5564658e-01
 -2.7614651e-02
 -1.0568323e-03
 -1.2558818e-01
 -8.6763911e-03
 -1.6880442e-03
  1.0274752e-01
  4.8112115e-03
 -3.4610856e-02
  9.1460017e-05
  3.4037041e-03
  1.3829609e-04
 -1.4042055e-04
 -3.8380060e-02
 -3.4549757e-04
 -1.5740487e-04
 -8.0600570e-05
 -9.0127982e-02
 -5.1180810e-05
 -2.3945374e-03
 -2.2445978e-03
 -1.3559376e-01
 -2.0294860e-01
  4.4251559e-05
  1.6614407e-05
 -9.9384233e-05
 -5.5110019e-02
  2.1472555e-03
 -3.3480823e-02
 -1.0255320e-03
 -1.6738799e-03
  6.7975640e-04
  4.4112802e-02
  2.5522071e-05
  1.3370242e-05
  4.6909688e-04
  2.5842988e-04
  5.0704763e-04
 -1.8235314e-05
 -4.7869991e-05
  7.2630428e-05
 -9.2876464e-05
 -1.7757233e-03
 -1.2771716e-05
  3.2424810e-05
  1.7815857e-04
 -5.2583560e-05
  2.0140976e-04
  2.8063669e-06
 -3.4321794e-05
  1.5216036e-05
  1.6749163e-04
  9.7128330e-05
 -4.9022947e-05
  7.3652022e-06
 -9.5635056e-05
 -4.3886717e-04
  1.0584852e-06
  6.1169689e-05
 -4.6280675e-05
 -2.1627502e-05
  3.4056957e-05
 -2.0506626e-04
 -3.2113086e-05
 -1.4614374e-04
  4.6544633e-06
  7.2542869e-05
  6.5515669e-05
 -1.4534022e-04
 -2.6219883e-05
  5.4344444e-05
 -7.6874727e-05
  4.0668256e-05
  1.1499190e-04
  1.4117002e-04
  9.5514886e-05
  3.5405141e-05
  7.0738286e-05
  3.3482389e-05
  5.4414810e-05
 -1.2023632e-04
  2.0909413e-04
  5.1546282e-05
 -3.1786789e-05
 -2.6509411e-05
 -4.4582390e-05
 -6.5057343e-06
  5.8168621e-06
  5.1975174e-05
  1.8955854e-04
  2.5982570e-05
  1.7519505e-05
 -7.1865732e-05
  2.0660253e-04
  1.3741294e-04
  2.1974009e-04
 -3.6922087e-05
  1.0341756e-04
 -4.3490852e-04
  1.5075244e-06
 -9.4871029e-05
  1.5405382e-04
 -9.4819632e-05
  2.6143742e-05
 -3.0604158e-05
 -8.8621979e-05
 -2.4506904e-04
 -2.7117185e-05
  8.1391190e-05
  1.0566601e-04
  1.2391971e-05
 -2.4438364e-04
 -1.9119674e-04
  8.0935666e-07
 -2.0621253e-06
 -2.7030668e-05
 -6.6437264e-05
 -4.2048199e-05
 -7.3904986e-05
 -1.0150095e-04
 -2.5262914e-04
  6.3563879e-05
 -5.8935238e-05
 -1.6748045e-05
  5.1220890e-05
  5.5937628e-05
  4.3535249e-05
 -7.1271506e-06
  5.7087465e-05
 -1.1100042e-07
 -3.0660885e-05
 -2.3171000e-05
 -7.7552002e-05
  5.1045550e-05
  1.8206696e-05
 -1.0010476e-04
 -2.8820662e-04
  2.0813440e-04
 -1.0121788e-04
 -1.0147725e-04
  1.2389418e-04
 -1.5320227e-04
  6.3425461e-05
  2.1947056e-04
  7.0243846e-06
 -2.0805281e-05
 -3.2815107e-05
  6.0104354e-05
 -1.1678151e-04
 -6.0186438e-05
 -9.0675087e-05
 -6.4993248e-05
 -2.6099291e-04
  8.1112768e-05
  1.2696907e-04
  3.2558630e-05
  1.5012923e-05
  8.9818546e-05
  3.3922322e-05
 -5.4170094e-05
  3.0610336e-05
 -8.0849568e-06
  5.9525024e-05
  1.3755898e-04
  1.3976119e-05
  8.3861698e-05
 -7.1047558e-05
 -9.5682619e-05
 -7.1293114e-05
 -1.2050959e-04
  2.9848702e-04
 -1.0902697e-04
 -1.0498450e-04
  9.7611710e-06
  8.5144311e-05
  1.7874144e-04
  3.5375917e-05
  4.2171152e-05
  1.3541459e-04
  1.3951318e-04
 -1.2703442e-04
  2.4237409e-06
 -8.5291271e-05
  1.7447720e-04
  3.0131265e-05
 -3.8105285e-05
 -1.2680754e-04
  1.5577771e-04
  5.3555024e-05
  6.8446629e-05
 -6.6658205e-05
  6.2754159e-05
  4.7958928e-01
 -9.0486101e-06
 -1.0404188e-05
  6.3523221e-06
 -6.1922248e-05
  1.5446398e-04
  2.4829240e-05
 -2.6029185e-05
 -2.9363757e-05
  5.3798300e-05
 -6.3695370e-06
 -2.3003769e-05
 -6.1069521e-05
  1.0348855e-05
 -1.0224018e-04
  6.2241910e-05
  2.3513485e-04
 -1.1772562e-05
  1.1316442e-04
  7.4033142e-06
 -1.3755474e-04
  3.7902417e-05
 -1.4292290e-04
 -5.1071751e-05
  1.2445855e-05
 -9.6704716e-05
  1.0038613e-04
  3.0453957e-05
  8.2175648e-05
  2.2596557e-06
  7.9771307e-05
 -7.1009745e-05
 -7.0327980e-05
  1.3594016e-04
  5.8219625e-06
 -6.5802953e-05
  1.2543252e-04
  9.0761183e-05
  7.2060789e-07
 -1.1695055e-04
  1.0663157e-04
  8.4918553e-05
 -3.2602675e-05
  1.4219043e-04
  3.5179284e-05
 -3.9396673e-07
  2.0451120e-05
  1.5017166e-04
 -1.5115171e-05
  7.9686273e-05
 -2.3849329e-04
 -7.4229429e-05
 -7.5501204e-04
 -3.2634551e-05
 -1.8210698e-05
  1.5652173e-05
 -3.3402281e-05
 -9.6645927e-06
 -9.5954740e-05
 -4.6786990e-05
  1.6521238e-04
  2.0270253e-04
 -9.0528702e-05
  6.4273945e-06
  4.9856299e-05
  1.2706543e-04
 -1.2665248e-04
  7.3162140e-05
 -1.0626842e-04
  9.5890782e-06
 -1.3335649e-04
  4.2092295e-05
 -6.0575163e-05
  5.1692867e-05
  2.9473953e-05
 -5.0346257e-06
  1.3656558e-04
  3.8588037e-06
 -1.6325785e-05
 -7.1796261e-05
  9.2419723e-05
 -2.4805162e-05
 -4.5867648e-05
  3.3915395e-04
  3.3173070e-05
  1.2338537e-04
 -1.0994729e-04
  1.7091587e-04
 -3.6726422e-05
 -3.0061061e-05
 -6.6726396e-05
  5.5079105e-05
 -1.0522783e-05
 -2.4880189e-04
 -6.5790214e-06
 -1.3192910e-04
 -7.6084318e-05
 -8.1303573e-05
  5.2971089e-05
  1.9538100e-05
  7.7890603e-05
  1.9083402e-04
 -1.6554202e-04
 -4.8718804e-05
  4.4852218e-06
  5.0052531e-08
  7.6769007e-05
 -6.0731596e-05
  3.4913268e-05
 -2.2735338e-05
  1.5449735e-04
  3.0310444e-05
  1.2600740e-05
  1.2388550e-04
 -2.0992070e-04
 -1.6297803e-04
  3.5154775e-05
  1.9911771e-05
  8.8812427e-05
  1.9498279e-05
 -1.2430358e-04
  5.1064537e-05
 -7.1748276e-05
  5.0149745e-05
 -2.9780898e-05
  7.1311842e-05
  6.6941044e-05
 -1.1960566e-04
 -6.3327599e-07
  4.7685127e-05
 -6.3451706e-05
  3.8466460e-05
 -2.3182575e-04
 -8.0846956e-05
  5.8536102e-06
  4.6883553e-05
  5.6331237e-06
 -1.1813542e-04
 -8.2619238e-07
 -6.5866356e-05
 -9.4955030e-05
 -5.0953109e-05
 -2.6641925e-05
  7.5712684e-05
 -1.1514028e-05
  1.7349496e-04
  1.5964123e-04
  8.4421372e-05
 -8.2409468e-05
  1.1958945e-04
  1.2847840e-05
  2.1089938e-05
  2.0372539e-05
  7.3055955e-05
 -3.2695705e-05
  4.9423434e-05
 -9.9786841e-05
 -3.2453299e-05
  3.2588147e-04
  7.2674229e-05
  5.6455483e-05
 -1.5744299e-05
  7.8327812e-06
  2.0675419e-05
  2.6538570e-05
 -7.5531161e-06
  3.5365643e-05
 -4.6603149e-05
  1.6801244e-04
 -8.4614054e-05
  2.3625947e-04
 -3.1056847e-05
  1.4430513e-04
 -1.3458678e-02
  2.6748735e-01
 -2.7019173e-01
 -2.8776980e-04
 -3.1843755e-01
  1.4100177e-04
  4.9872696e-02
 -7.9465553e-02
 -2.9669281e-02
 -4.6424371e-05
 -2.7183662e-05
  2.9234161e-05
  7.9696078e-04
 -4.1740667e-02
 -1.6752796e-03
 -7.1418923e-05
 -3.4433577e-02
 -4.5132625e-04
 -5.7343231e-04
  1.4458737e-01
  4.8725372e-03
 -2.1054989e-03
  3.4572531e-05
  4.1348180e-03
 -8.8365821e-05
 -1.8338959e-04
 -1.3627720e-05
 -2.7978010e-04
  2.0045356e-06
 -1.5884602e-06
 -4.3946557e-02
  9.1559181e-05
 -2.7997161e-05
 -1.5813340e-01
 -4.1066181e-02
 -5.8893609e-05
  1.7379300e-05
 -3.5340807e-05
 -2.2682449e-04
 -1.7325455e-02
  3.0336521e-05
 -4.0647644e-03
 -3.1516966e-04
 -7.1608886e-04
  2.8979516e-04
  7.1310287e-04
  1.2053621e-04
 -1.6307951e-03
  1.4202480e-04
  5.0399045e-04
  2.8427530e-04
  8.4229287e-05
  1.0763968e-04
  5.7797613e-05
  9.8676378e-01
  8.3521241e-01
  3.3715275e-01
  2.0363984e+00
 -6.9586307e-02
 -9.7603834e-01
 -1.7086369e+00
  2.8662744e-01
  1.3913571e+00
 -2.6815140e-05
 -5.9111094e-01
  1.3121827e-01
  1.9457357e+00
  3.4784350e-01
  5.9479522e-04
 -1.1947665e+00
  1.3092826e-01
 -5.4173416e-01
  1.3895024e-02
 -5.0987600e-04
  5.4422188e-01
  2.4279888e-01
 -5.6927628e-03
 -3.6721886e-03
 -3.2258582e-01
 -9.5137469e-02
 -4.9523377e-01
  4.1294944e-01
 -6.2706679e-01
  6.0046053e-01
  7.2579974e-01
  5.7470059e-01
  6.0067242e-01
 -3.6506864e-01
 -5.1976862e-05
 -2.3154286e-01
 -8.6404355e-03
 -8.6716183e-02
  2.9309922e-01
  5.7825208e-01
 -7.3159844e-01
  1.9673178e-02
  4.3025979e-01
 -1.9528272e-05
 -1.2809876e-01
  5.9643071e-03
  1.4003351e-01
  2.7043420e-01
 -2.5569939e-04
 -9.8760611e-05
 -6.2954663e-03
  8.9722280e-06
  7.3788411e-05
 -2.3784286e-04
  4.5259359e-05
 -1.5444140e-05
  3.0664924e-06
 -7.7525765e-05
  5.0014172e-05
  9.2758593e-05
  3.8306032e-05
 -5.3098312e-05
  4.8483998e-05
  1.5130505e-05
 -3.6456899e-05
 -4.2000083e-05
  1.4711252e-05
 -1.7121695e-04
  3.5435066e-04
  3.7381189e-05
  1.5445373e-06
 -2.6097739e-04
  7.3658221e-06
  1.8287939e-05
  6.5490312e-05
  2.6629064e-05
 -2.3253453e-05
  8.6803295e-05
  1.5434821e-04
  1.0485790e-04
 -1.2754364e-08
  5.9118454e-05
  4.3637556e-05
 -2.0797458e-04
 -1.3048085e-04
 -1.1664807e-05
 -3.5451500e-05
  1.4110653e-04
  2.2469976e-04
 -2.3881564e-06
  1.5169951e-06
 -1.4915407e-05
 -2.3889069e-04
 -3.7440384e-04
  6.1956125e-05
 -1.1388675e-04
 -1.5359334e-05
 -1.1170936e-04
  1.3015227e-04
  2.0411635e-05
  3.3082464e-04
 -2.6157644e-04
  1.8433775e-04
  2.5718892e-04
 -5.2357595e-05
 -3.1621512e-05
 -1.8396776e-04
  1.6324320e-04
 -1.7201486e-05
 -1.7500116e-04
  1.1346860e-05
  2.5830283e-05
 -4.7721096e-05
  9.6487871e-05
  1.5510122e-05
  8.5541549e-05
 -2.9815465e-05
  1.1168361e-05
 -9.6435520e-05
  1.1733366e-05
 -6.5985412e-05
 -1.8906884e-04
  9.9295416e-05
 -5.4309276e-05
 -8.5373809e-05
  3.7299603e-04
 -1.6068912e-05
  9.5902542e-05
  7.2043251e-05
 -7.3777501e-06
  1.3930861e-05
  8.2232604e-05
 -3.6499359e-06
  2.9012430e-05
 -3.2348671e-05
  9.5668809e-05
 -7.7098575e-06
  1.1117484e-04
 -5.0077848e-05
  2.5455643e-05
 -1.3554079e-05
 -3.0837637e-05
 -1.1997781e-06
  2.3376635e-04
  1.1039305e-05
 -8.2288127e-05
  3.4735665e-06
 -6.9607071e-05
  1.8225053e-05
 -3.9245679e-05
  4.5174417e-07
 -1.8895536e-06
 -4.2450756e-05
 -2.2086855e-04
 -1.3927012e-05
  3.3807865e-04
 -1.7426151e-05
  3.8444061e-05
 -8.1620652e-05
 -6.4873944e-05
  3.7462785e-05
  3.2033859e-05
 -4.7126856e-01
 -2.0843411e-02
  1.2561927e+00
  1.3632302e+00
 -2.9630229e-01
  2.5173390e-01
 -9.6159950e-02
  3.6208534e-01
  1.1971680e+00
 -2.8245945e-02
 -2.7614385e-01
  5.7931732e-02
  2.9881862e-01
  3.9955016e-02
  3.1588301e-01
 -1.3092737e-01
  8.4439382e-02
 -1.1968116e-01
 -4.3665677e-02
 -2.1976189e-01
  5.8007520e-01
  3.8793984e-01
 -2.1264398e-02
 -9.5731382e-05
 -3.7310210e-01
  1.0567296e-01
 -2.1156684e-01
 -6.1932701e-01
 -4.7395679e-01
  1.4200713e-01
  1.3766984e-02
  1.2923284e-03
 -3.9791852e-02
  2.1172334e-02
 -4.2335047e-05
 -2.6274380e-01
 -1.8511108e-01
 -5.2753657e-01
 -6.4504551e-05
  7.3464797e-04
 -2.0714423e-01
  1.5639974e-04
  4.0093964e-05
 -4.7938756e-04
 -1.3728449e-03
  3.8545992e-04
 -2.6193426e-05
 -1.0376638e-01
 -1.3644916e-04
  4.7555741e-02
  6.5802371e-05
  1.6581792e-01
 -4.4940502e-04
 -8.2564591e-05
  2.9086559e-06
 -2.1371516e-04
  6.4238506e-05
 -1.0067721e-04
 -2.2256233e-06
 -4.4589033e-06
  8.4663174e-05
 -2.5961868e-04
  3.3576455e-06
 -2.0988782e-05
  6.4713975e-05
  1.3977698e-04
 -1.4995466e-04
 -2.8532428e-05
 -6.0215261e-05
  1.2398501e-04
  2.3879144e-05
 -1.5959234e-06
  2.3637092e-05
  4.1075949e-05
  7.2395320e-05
  6.1448904e-05
 -1.1136504e-05
 -4.9962408e-05
 -3.7090645e-05
 -1.1383067e-05
 -7.0119073e-05
  4.2821201e-05
 -9.9068195e-05
 -4.5846368e-06
  1.5183273e-05
 -1.0869926e-04
 -1.2777533e-04
 -4.2463005e-05
 -1.2267407e-04
  3.8726521e-06
  1.2031583e-04
  5.6387671e-05
 -1.3771013e-04
 -4.8713515e-05
  1.7095379e-05
 -1.0034935e-04
 -3.9803504e-05
 -8.6123422e-05
 -5.0765768e-05
 -1.4944731e-05
 -7.4966621e-05
 -1.2781887e-04
 -1.7316506e-05
  2.7510539e-05
 -1.5493673e-04
 -3.4543544e-05
  1.5564026e-04
 -4.6994242e-05
  1.9539438e+00
  6.6174740e-01
 -1.5572780e-01
  1.9481461e-02
  4.5788440e-01
  3.3650377e-01
 -2.0193307e-01
  2.9216418e-01
 -4.3655011e-01
 -1.1819117e-04
 -6.5549338e-01
 -1.2635810e+00
  3.1420243e-01
 -1.9954205e-05
 -6.8278699e-05
 -8.5650021e-01
  1.9615842e-01
 -3.8491279e-01
  2.7014866e-01
 -1.1885636e-02
  9.0037398e-02
  6.7519210e-02
  5.7850494e-03
  2.3523942e-04
  3.8803586e-01
  2.4570523e-01
 -8.3097177e-05
  3.0633325e-02
 -1.4380084e-01
 -4.7565951e-05
  2.1693895e-03
  3.6329883e-01
 -1.9312763e-01
  6.6774696e-01
  2.1231529e-01
 -4.2207481e-05
  1.6044292e-01
 -9.1665298e-02
 -7.6160140e-02
  3.1887525e-05
  2.9089241e-04
 -1.0826623e-04
  1.2519139e-01
 -1.4314583e-05
  2.1073364e-01
 -6.6469045e-04
 -1.2546724e-04
 -8.8793769e-02
 -4.1711719e-05
  4.6735760e-05
  2.2779059e-05
 -1.2595809e-04
 -3.3524280e-04
  2.4256045e-05
  1.8574479e-04
 -5.7419144e-05
  7.0936236e-05
  2.6072246e-05
 -1.3725832e-04
 -2.4919664e-05
  7.4288284e-05
  5.3417629e-05
  7.2000466e-06
 -6.8674672e-05
 -3.9057366e-05
  6.9764673e-07
  9.6033407e-05
 -6.3665153e-05
 -4.5101271e-05
  1.2090358e-06
  6.0500570e-05
  5.8407804e-06
  1.2917619e-04
 -2.2176182e-04
  4.6053152e-05
  1.8047487e-05
  1.0977993e-04
 -7.5921947e-05
  4.2082826e-05
 -6.6354565e-05
 -2.1581630e-04
 -7.1884824e-05
 -4.3740674e-05
  1.2911677e-05
 -1.7950046e-04
  3.7698890e-06
  3.3954006e-05
 -1.5759357e+00
 -6.9520424e-06
  2.6832096e-04
 -7.0288821e-05
  8.9187015e-05
 -2.8539743e-04
  1.2514388e-04
  1.8952955e-05
 -1.5111467e-04
  7.1327006e-05
  3.5400823e-05
 -1.8498002e-04
 -2.2475889e-04
 -1.5603437e-05
  2.6333024e-04
  1.0993669e-04
  1.4313951e-04
 -4.6964677e-05
 -4.6894031e-05
  3.9585721e-05
  4.0122864e-05
 -9.7907043e-01
 -5.1247180e-01
 -1.2772261e+00
  1.3752728e+00
 -1.6944866e+00
 -4.1560799e-02
  1.3037060e-01
  7.6985455e-01
  1.7144305e+00
  9.2082995e-01
 -7.2009283e-01
  9.0953386e-01
  5.9418626e-02
  7.3625362e-01
  3.4589317e-01
 -1.6054195e+00
  1.6534151e-01
 -1.2547912e-01
  8.8565642e-01
  7.5442362e-01
 -4.6442428e-01
 -1.1705136e-02
  5.2053529e-01
 -1.5956540e-01
 -4.4901958e-01
 -2.7337724e-01
 -7.9005025e-02
  2.5237310e-01
 -3.7852854e-01
 -3.6355001e-01
  5.4524595e-01
 -5.6159657e-01
  2.3522685e-01
  8.9133000e-01
 -3.5459828e-03
  3.0732214e-01
  4.2591992e-01
 -1.2109144e-01
  5.2914261e-03
  6.1688101e-01
 -2.2237762e-05
  7.6166265e-02
  7.8030065e-02
 -5.2551251e-05
  2.5966451e-01
 -4.2997070e-02
  4.4295129e-01
  5.6328841e-02
 -1.1368324e-01
 -8.2246184e-02
  5.4961252e-05
  2.4422063e-02
 -9.1804517e-03
  2.6791029e-05
  2.9161643e-02
  1.2281737e+00
  6.4963358e-05
  7.3843948e-05
 -6.6200075e-05
  2.5840417e-01
 -1.0438303e-04
  4.9248927e-05
  6.0840636e-01
  1.7140024e-05
 -4.4247264e-07
  2.9309015e-03
 -1.3547552e-04
 -1.8117598e-05
 -1.9198753e-05
  1.9375068e+00
 -3.3392069e-01
 -1.3260245e-05
  6.6831803e-05
  1.5833080e+00
  5.7248537e-05
 -4.2749243e-04
  2.7648812e-05
  3.7673795e-01
  6.2706647e-05
  3.9317183e-05
  8.4269232e-06
  1.0594812e-05
  1.6618709e-03
  3.5499168e-05
  1.0473211e-05
 -6.4142605e-06
  4.2190973e-04
  1.6782520e-04
  5.5412253e-05
 -2.9435440e-05
 -5.5308356e-05
 -1.6436476e-05
  1.5538064e-04
  9.2628998e-06
  2.9874278e-05
 -1.7287675e-04
 -2.5053436e-01
 -6.4406282e-05
  4.0303556e-05
  2.1634591e-01
 -3.7479585e-05
 -1.1611871e+00
 -1.4726486e-04
  7.3468333e-01
 -3.2901937e-01
 -1.7329092e+00
 -1.3921234e-01
  1.6119146e-01
 -3.1050983e-01
 -3.6195233e-01
 -4.1102132e-05
 -9.9462144e-02
 -3.2478109e-01
  8.9148467e-05
  2.8026104e-04
 -1.0301280e+00
 -1.1927422e-01
 -1.6674246e-01
  1.3638011e-04
  1.8738779e-01
 -6.2594610e-01
  2.1180280e-01
 -5.5321052e-05
  6.6647810e-01
 -2.1398744e-01
  1.6536676e-04
 -1.7347151e-01
  2.6563871e-01
  8.8036839e-05
  6.1135583e-02
  1.6517112e-02
 -2.1287358e-01
 -6.1749613e-01
 -1.5942648e-01
 -7.9475231e-02
  7.3658748e-06
 -3.6124599e-01
  1.9690873e-05
 -6.4259005e-01
 -4.3988701e-05
  1.4980155e-04
  5.7005938e-02
 -1.0549632e-04
  6.6174405e-05
  2.0998401e-05
 -4.4004545e-01
  8.8864279e-01
 -5.7189120e-04
 -4.4774606e-05
  1.0606478e+00
  1.0886390e-04
  6.8434298e-01
  1.6427582e-02
  1.3970344e+00
  4.2035184e+00
 -7.1408719e-02
  2.0779995e-05
 -2.4248265e-01
  1.3851805e+00
 -4.6799786e-04
 -1.6082880e-04
 -2.6461300e-01
  1.4273238e+00
 -1.4577787e-03
  3.0495610e-05
 -1.2672754e-01
 -5.3084660e-01
 -7.9617575e-02
  1.1482224e-02
 -9.3157256e-01
 -1.2708585e+00
 -2.0911444e-04
 -9.0404093e-05
  4.9041000e-01
 -1.0688566e-01
 -1.1249923e-04
  1.1063184e-04
 -1.6356023e-01
 -4.0127924e-01
 -1.1620057e-01
 -7.3566940e-04
 -5.6360763e-01
  1.3299378e+00
 -2.3015985e-02
  6.2137872e-01
  1.3054658e+00
  9.5512241e-02
  1.3198105e-01
 -4.2071941e-01
  1.6205434e+00
 -2.9800612e-01
 -5.0380617e-01
 -8.5525386e-02
  1.2904249e+00
 -6.9894350e-01
 -8.3870618e-05
  1.2681357e-03
 -4.4775540e-01
  8.0776888e-01
 -1.8546955e-01
 -1.7423692e-05
 -6.7324591e-01
 -1.2149341e+00
 -2.0515193e-01
  1.9370079e-01
  1.0066678e-01
  1.1008251e+00
  1.9021850e-03
  1.4065676e-02
 -1.3151598e+00
  1.6022196e-02
 -4.1344140e-02
 -8.1775260e-01
 -2.9968348e+00
 -2.4525445e+00
 -1.0322662e-03
  1.0694940e-01
 -2.3070328e-05
 -7.2902608e-01
  1.9850844e-01
  5.9342954e-02
  8.2309115e-01
  1.6303278e+00
 -1.1936803e-04
 -3.7510806e-01
 -1.3687859e+00
  6.2642127e-02
  6.6192617e-05
  4.6741716e-06
 -2.5669937e+00
 -9.1828531e-01
 -1.9018148e-04
 -7.6758632e-05
 -6.5834671e-01
  1.2139072e+00
 -2.2589369e-05
  9.4882553e-06
  5.6017506e-01
  1.1714194e+00
  6.9826474e-06
 -7.3035982e-05
  6.8274111e-01
  4.9229980e-01
 -4.7299478e-04
 -8.6067274e-05
 -2.8358133e+00
 -5.8479011e-01
  9.5659794e-05
  5.8667483e-05
 -5.8696020e-01
  1.5444709e+00
 -3.5620918e-03
 -1.9790245e-05
 -4.0003777e-01
  1.6774839e+00
  5.6181820e-05
 -1.6000400e-05
  1.8170105e-01
  5.0949985e-01
  4.8288519e-05
 -4.2518883e-04
  8.9579839e-01
  7.2911763e-01
 -1.2164379e-02
  1.2026439e+00
  1.0573020e+00
 -2.8896287e-01
 -1.3934755e-01
  3.6254484e-02
 -3.2003689e+00
 -8.4842674e-02
  8.9954156e-01
 -9.9385452e-01
  2.2409112e+00
 -1.3506411e+00
 -6.6557504e-02
  1.9833440e-01
  7.8241408e-02
  6.0407394e-01
 -4.1652927e-03
  2.4889575e-01
 -1.8056926e+00
 -2.8521338e-01
  1.2551659e-02
  5.5855177e-02
 -6.9789678e-01
 -8.6562461e-01
 -9.3746436e-01
 -4.9226585e-01
 -1.2217758e+00
  1.3291052e-02
 -1.1864439e-02
  1.0698022e-01
  9.8336661e-01
  4.3384576e-01
  1.4760912e-02
  1.6286367e+00
  6.9146353e-01
 -4.2919523e-01
  3.0281928e-01
 -5.4432273e-01
 -1.7737905e+00
  1.3296694e+00
  6.7341900e-03
 -5.7240428e-05
  1.3601246e-03
 -4.8783561e-03
 -1.4615579e+00
  6.6883218e-01
 -1.6572746e+00
 -4.0002155e-01
 -2.5298443e-01
 -1.4518744e+00
  1.7628939e+00
 -5.5373037e-01
  1.2916799e+00
 -6.8633825e-01
 -6.0259235e-01
  1.6995481e+00
 -6.4461488e-01
  1.7146957e-01
  5.5309212e-01
  5.1179069e-01
  1.5149504e+00
  7.5715172e-01
 -1.6496414e-01
 -1.0795608e+00
  2.1221015e+00
  8.9981639e-01
 -3.8851333e-01
  5.3929621e-01
  9.3745965e-01
  1.1405928e+00
 -1.0262209e+00
  5.8546788e-03
  5.6022322e-01
  9.1565400e-01
  1.6746994e+00
  6.0480446e-01
 -2.2452361e-05
 -1.4551525e-04
 -2.0781832e+00
  1.1553189e+00
  2.0686971e-01
 -4.1092250e-02
  8.0197293e-01
  1.2717799e+00
  1.1758498e-03
 -6.6555220e-01
 -1.0018746e+00
 -2.8444249e-03
 -2.8090012e-01
 -2.7300277e-01
 -2.0930099e-01
 -7.5065589e-01
  3.0593115e-01
 -8.6014867e-02
 -3.3046257e+00
 -8.9058205e-02
  1.0906506e+00
 -3.0751046e-02
 -1.4513295e+00
  4.3795875e-01
 -9.5801651e-02
 -1.2054276e-01
 -9.4150078e-01
  4.2983326e-01
  1.9873062e-01
 -2.7008423e-01
  3.4097295e-02
 -2.4800669e-01
 -1.5129062e-05
 -1.1978166e+00
  1.3468693e-01
 -1.6612163e+00
 -1.7803401e-04
 -1.8068880e-02
  1.0228271e+00
 -3.3585522e-01
  1.9867669e-01
  2.3228200e-01
 -8.4574473e-01
 -2.5395891e-02
 -6.1996717e-02
 -1.1027206e-01
 -1.2370819e+00
  1.5228008e+00
  1.3148863e-06
 -9.5452636e-02
  2.2561893e+00
  2.7047354e-01
  4.2841423e-01
  1.0189634e-04
  3.1533471e-01
  1.6345326e+00
  3.9302062e-02
 -4.2001000e-01
 -3.1425458e-01
  3.2590368e-01
 -1.9993777e-04
  1.7315479e-01
  1.0485549e+00
 -1.9194968e-01
  5.4273997e-02
 -5.8614904e-01
  7.3291260e-01
 -7.3390824e-01
 -1.4290488e+00
 -2.4999338e-01
  4.5970738e-02
 -1.5047189e+00
  7.3977321e-02
  6.1117893e-01
 -2.4121787e-01
  5.6575257e-01
 -1.4340866e+00
  6.5329587e-01
  8.7434657e-02
 -4.5641378e-01
  2.1501858e+00
 -1.0688614e+00
  2.7398112e-01
 -6.5801328e-01
 -1.1052407e-02
 -1.4517469e+00
 -2.0522468e+00
 -2.0305204e-01
  2.4349807e-01
 -6.4253300e-01
 -2.1716890e-01
 -1.2659392e+00
  2.3009922e-01
  6.0492420e-01
  2.1547684e-01
 -1.1106664e+00
  1.1143328e+00
  6.1419171e-01
  1.2584835e-01
 -6.4451820e-01
  6.6401559e-01
  1.5613971e+00
 -1.1456478e+00
  1.4975776e-01
  3.8587041e-02
 -4.4014427e-01
  5.4972827e-01
  3.9687300e-01
  3.8275692e-05
 -2.8344332e-03
 -3.2889307e+00
  8.1754968e-02
  1.4948589e-01
  2.1568441e-05
  2.0884421e+00
 -6.6089600e-01
 -7.9165278e-05
 -2.3854652e-01
 -7.7311181e-02
  6.5690875e-02
  1.1849005e-04
 -5.2317470e-01
 -1.2575672e+00
  9.1833550e-01
  1.9011874e-01
  2.9436892e-04
 -5.2985680e-01
  9.3368465e-01
 -4.5072746e-02
 -1.2899464e-01
  1.9954318e+00
  1.2771083e-01
  1.4247245e-01
 -2.2456555e-01
  5.2132958e-01
  8.8012075e-01
 -4.7423467e-03
  2.1383738e-02
 -1.3516410e-01
  7.2862798e-01
  6.6478992e-06
 -5.1022730e-06
  1.4005760e+00
 -1.4402903e+00
  2.8821032e-05
 -5.3548119e-05
  6.0881255e-04
 -1.9914683e-04
  8.6211394e-06
  1.5229027e-06
  1.4149204e+00
 -8.6903721e-01
 -4.5875331e-05
  3.5664034e-05
  1.4138661e-02
 -7.5651474e-02
  6.4284002e-05
  5.2732470e-05
 -2.9045612e-01
 -7.3465383e-01
  5.3599083e-06
 -6.0017301e-06
  5.9709454e-01
 -4.6177664e-01
  2.7293085e-05
 -4.7336354e-05
  8.8493234e-01
 -1.2634512e+00
 -6.4023061e-06
  4.2904750e-05
 -1.0490700e-01
 -3.5479331e-01
  4.4709773e-06
 -2.7867185e-05
 -2.7387950e-01
  4.2794815e-01
  1.6176882e-04
 -2.0962800e-06
 -5.0326025e-01
 -4.7313079e-01
  5.3163199e-05
  5.7760135e-05
  5.3766888e-01
  2.7371860e-07
  1.1364317e-05
 -3.5219587e-06
  6.1453041e-04
 -1.7299296e-01
 -2.6111360e-04
  2.7075912e-05
  1.2063839e+00
 -8.5784310e-01
 -7.2911251e-05
  7.0127513e-05
 -2.6738268e-01
  5.1737219e-02
 -6.5276145e-05
  5.8360423e-05
  1.4037249e+00
 -3.5314384e-01
  5.3307478e-05
 -2.7272280e-04
  1.4640987e+00
 -1.1804744e-04
  3.9647919e-05
 -5.6984500e-05
  4.1055676e-02
 -5.2102707e-02
  2.5394731e-04
 -5.8391131e-05
  8.0258244e-01
 -1.3840102e-01
 -1.3854278e+00
  1.6656121e-02
  5.4879969e-01
 -1.5598953e-01
 -7.2027765e-02
  4.2123668e-04
  2.6092583e-02
 -2.0934836e-05
 -3.6068636e-01
 -1.5683192e-05
  8.4396493e-01
  3.4717951e-02
 -1.2471228e+00
 -3.8956825e-02
  7.5824380e-01
  8.7052983e-01
  7.3495277e-05
  2.8114492e-01
  1.9084004e+00
 -1.6119546e-01
 -8.2032979e-01
 -2.5099227e-01
  1.7045174e+00
  6.7426510e-02
 -1.1437018e+00
  4.6418193e-01
  9.4465083e-01
 -6.8997759e-01
  9.9421583e-02
  3.4673914e-01
 -9.5703405e-01
  3.7354738e-01
 -8.5228789e-01
  4.3722951e-01
 -7.9227406e-01
  3.1369094e-02
  1.3154373e-07
  9.8050565e-05
 -7.2754490e-01
  1.7360306e+00
 -3.9610914e-05
 -5.9565071e-05
 -1.2357221e-01
  8.2713574e-01
 -2.0302825e-04
 -8.1996055e-05
 -2.5947551e-05
 -1.9248731e-01
 -6.1531238e-05
  8.1840000e-05
  6.7304122e-01
 -5.6938052e-01
  1.6782113e-05
  3.5588682e-06
 -5.3379488e-01
 -1.5447179e+00
  8.2932303e-05
  4.3393662e-05
  8.8653028e-01
  1.0936826e-01
  6.1606934e-06
 -7.9192825e-05
  2.5327536e-01
  2.7209063e+00
  1.3368171e-04
 -9.1550210e-05
  7.6186752e-01
  5.7176399e-01
  5.7656121e-05
  8.3551662e-05
 -4.0382591e-01
  2.5494903e-01
  5.3361600e-05
 -2.2465514e-01
 -1.1963743e+00
  1.0954795e+00
 -3.3778084e-05
 -9.6272580e-02
 -2.1029682e-01
 -2.5255481e-06
 -1.5400292e-04
 -2.8261635e-04
  7.3475742e-01
  1.1869594e-01
  4.9824641e-05
 -1.3683403e+00
 -1.1717045e-01
 -1.5267012e+00
  8.7008931e-07
 -7.2469294e-02
 -7.1312660e-01
  2.5435692e-01
 -1.0100384e-04
  1.6013420e-01
  2.7949178e-01
  1.0881943e-01
 -1.0888504e-04
 -1.0124617e+00
 -7.5605226e-01
 -1.2526711e+00
  3.4030742e-05
 -1.9258317e-02
  1.2330631e-01
  3.7547061e-01
  3.6294272e-04
  3.9560652e-01
  5.5436704e-02
  1.8710446e+00
  1.1580833e-04
  9.2568541e-01
 -3.0751449e-01
 -1.9493714e-04
  1.5913369e-04
  7.6240182e-02
 -1.6237211e-03
 -1.0984302e-04
  2.0514773e-05
  1.9942493e-04
  2.1335528e+00
 -8.0491289e-02
  6.3273929e-02
 -2.8810742e-01
  4.9954084e-01
  5.9155113e-01
 -1.0775945e-04
  1.7069334e+00
  3.5399017e-01
 -5.0891475e-05
  1.2179621e-01
 -2.0833835e-01
  4.2268842e-01
 -2.7015769e-01
 -5.8077792e-05
 -4.3542206e-01
  3.8378173e-01
  2.1873869e-01
 -3.8674948e-04
  1.4931940e+00
 -8.1409015e-02
 -2.0191415e-01
  2.0815445e-01
  8.8609032e-02
  1.7148627e+00
 -7.7502954e-01
  5.3586709e-01
 -1.5451580e-01
 -4.5646745e-01
 -9.9529177e-01
 -9.1894635e-06
 -1.4105612e-01
 -5.1621038e-01
  4.3218810e-02
  6.1958367e-01
  3.2333627e-01
  3.7609863e-01
 -2.1544538e-02
  2.2849017e-05
 -1.1232659e+00
 -2.9335847e-01
  1.2369205e+00
  6.5186477e-01
 -1.0453873e-02
 -1.1266247e+00
 -5.8152395e-01
  6.0112288e-05
  5.5576157e-04
 -3.1330600e-01
  1.1945645e+00
  1.8804559e-01
 -4.3489265e-01
 -1.1309947e+00
  1.2213229e+00
  5.3120148e-01
 -6.4413925e-03
  1.9988598e-02
  8.1928986e-01
 -2.4026284e-01
 -3.4980932e-01
 -1.1574896e-01
  5.6681913e-01
  1.9616906e-04
  6.5767652e-01
 -5.7486576e-01
 -3.6032620e-01
  5.8460624e-05
  1.3439935e-01
  7.8295809e-01
 -1.4770658e-04
  3.0627667e-05
 -8.6284196e-03
 -8.3764350e-01
 -1.2333800e+00
  7.1754830e-06
  9.4210666e-01
  6.0456711e-01
  1.0527073e+00
  2.5413031e-04
  6.5959370e-01
  1.7272279e+00
 -7.3645478e-01
  7.0147624e-05
 -2.1204659e-01
 -5.7337153e-01
 -1.0273038e-01
  5.1709114e-05
  5.4363841e-01
 -2.8086454e-01
  1.9378573e-02
  1.1459714e-01
  1.1119846e+00
  1.3292030e+00
  4.9905771e-01
 -1.4244752e-01
 -9.4982564e-01
  1.7737322e+00
  4.2259687e-01
  3.7364852e-01
 -6.8443455e-02
  6.3402832e-01
 -8.9117062e-01
  1.3183565e-04
  1.4662425e-05
 -4.7266236e-04
 -9.5006289e-05
  2.2995046e-01
 -1.0409566e-01
  1.0507740e+00
 -5.4664928e-01
  1.1855268e-01
 -2.3087332e-02
 -1.8046065e-01
 -2.9763252e-01
 -4.1340514e-05
  1.4941481e-01
  7.4200012e-05
 -1.0949850e-04
  4.9115160e-01
 -2.2643942e-01
  1.0191753e+00
 -1.6525358e+00
 -2.4457465e-04
 -2.2345912e-01
  3.4010017e-01
 -3.9217011e-06
  4.2571202e-01
  3.5198197e-01
 -2.3834005e-01
 -9.5974118e-01
