nep4 2 Ga O 
cutoff 6 4 90 32
n_max 8 8
basis_size 8 8
l_max 4 2 0
ANN 50 0
 -1.6485287e-02
  1.5376555e-03
 -4.5676306e-02
  3.6670938e-02
  4.3279655e-02
 -1.0380273e-02
 -5.2692942e-02
  5.7803657e-02
  6.8654105e-02
  1.9539762e-03
  3.4145783e-03
 -1.6499724e-02
 -7.5844331e-03
  5.9669159e-02
  3.1271409e-02
 -4.9434468e-02
 -4.2958759e-02
  2.6889492e-03
  5.0191021e-01
  1.2054396e-01
 -9.0715016e-04
 -7.0923585e-03
 -7.9451188e-02
 -1.3287914e-03
 -3.5885144e-02
  1.6188464e-01
  4.5375902e-02
  1.1803887e-01
  5.7606146e-02
 -8.0011435e-02
 -1.2335875e-02
 -2.0656683e-02
 -1.5934096e-03
 -9.1575667e-02
 -3.2366443e-01
 -6.7030810e-02
  6.1069936e-02
  5.5166915e-02
  8.1858858e-03
 -8.5464176e-03
  4.6280384e-02
 -4.6480122e-01
  1.3575880e-02
 -2.3358621e-02
  9.6991718e-02
 -7.7679694e-02
  1.7524149e-01
  9.0192132e-02
 -8.8676969e-03
  3.4102570e-02
 -1.2858357e-02
 -6.8517752e-02
 -4.4055354e-02
 -7.5054504e-02
  2.8073391e-01
  1.9270953e-02
 -1.4152867e-01
  3.7556937e-01
  1.9093087e-02
 -1.8193683e-01
 -2.2986034e-02
 -4.7154509e-02
  1.4586392e-01
  1.3747139e-01
  1.2058554e-01
  6.1091259e-03
  1.0308005e-01
 -5.2007474e-02
  8.1629373e-02
 -5.6915428e-02
  6.3128378e-03
  4.1578740e-02
  4.5449160e-02
  2.4651103e-03
 -1.5682079e-02
 -6.0820896e-03
 -1.4214776e-01
  5.3271715e-02
 -5.4537870e-02
  1.2303562e-01
 -4.3540981e-02
  2.1264272e-02
 -1.8506242e-02
  3.3152269e-03
  2.4019254e-02
 -6.2100057e-02
  3.1081734e-02
  4.0386436e-03
  1.8888205e-01
  3.3165418e-02
 -7.5038697e-05
 -4.5778450e-02
  3.3066586e-01
  5.3192331e-03
  2.5543645e-01
 -3.0132707e-02
 -9.9517494e-02
 -3.4029942e-02
 -4.9242936e-02
  4.5228498e-03
 -3.3789524e-03
  5.7718191e-02
 -3.9598414e-01
 -2.4385209e-01
  2.9152296e-03
 -4.1444581e-03
 -1.1488696e-02
 -3.2793740e-03
  9.3268253e-02
  4.1128434e-02
  2.5220962e-02
  6.8172283e-02
  4.1459805e-01
 -7.0758864e-02
  6.1346594e-02
 -7.1326825e-03
 -2.7580169e-01
 -6.2929243e-02
  2.6882505e-02
 -5.9779812e-02
 -4.0104754e-02
 -2.5021601e-02
 -1.0350005e-01
  1.3130902e-01
  8.3609253e-02
  3.1027509e-02
 -2.1922786e-02
  4.8518047e-02
 -2.1476112e-01
 -1.1300752e-02
  7.5041696e-02
 -8.5694209e-02
 -1.4734270e-01
 -3.3320673e-02
  4.7608000e-01
  1.8215952e-02
  1.1426668e-01
 -1.1559661e-01
 -9.3602901e-03
 -8.2742441e-03
 -6.6588990e-02
 -6.3358098e-02
 -1.0207003e-01
  3.8442126e-04
 -6.5463698e-03
  1.1380493e-01
 -8.2124159e-02
 -1.0820319e-01
 -1.1935679e-02
 -4.1512921e-02
  1.1031906e-02
 -2.0334413e-02
 -7.1536928e-02
  6.1491709e-02
  2.4895851e-02
 -5.0773323e-02
 -5.4579788e-01
  2.6776436e-01
 -2.4909981e-02
 -1.2628932e-01
 -1.4611747e-02
 -1.1176276e-01
  2.9195806e-01
  1.1986611e+00
 -1.9054525e-01
 -3.8725868e-01
  7.7310538e-01
 -1.0600204e+00
 -9.1489404e-02
  2.2775135e+00
 -1.6548260e-01
  1.5529858e-01
 -2.8930071e-01
 -4.1692603e-01
  6.0880013e-02
  2.8012455e-02
  2.4007097e-01
 -2.8955731e-01
  1.8170400e-02
  8.7016217e-02
 -3.2315460e-01
  1.4386533e-01
  5.9815991e-01
  1.8997857e-01
 -1.4333935e-01
  5.6145978e-01
  2.8072923e-01
  4.3314472e-02
 -1.1156507e-01
  1.3107438e-02
 -1.2572679e-01
  1.9024283e+00
  2.6476598e-01
 -2.0549366e-01
  1.2498771e-02
  2.7185774e-01
 -1.0589349e+00
  1.1001936e-02
 -2.3609691e-03
  2.3311815e-01
  2.4147543e-01
  7.5392455e-02
 -8.8143516e-01
  1.2474140e+00
  4.0820241e-01
 -1.4524035e-01
  5.9221890e-03
  3.7581675e-02
  2.9969491e-02
  6.3114376e-03
 -3.1176554e-02
  4.1748971e-02
  1.5321338e-01
  1.7595223e-01
  4.8682927e-03
  3.5547581e-02
 -1.2657490e+00
  1.8823671e-01
  1.3537386e-01
  7.6015435e-02
 -6.4122821e-03
  5.0008159e-02
  3.8742233e-02
  2.6542315e-01
  1.6659817e+00
 -1.3308112e-01
 -1.4403972e-02
  1.0278037e-01
 -4.8528906e-02
 -1.6663319e-01
  1.9726647e-01
  2.2391620e-01
 -2.4471182e-02
 -1.9234631e-02
  1.0201254e-01
  2.3940420e-01
 -3.4502950e-02
  2.3918107e-02
  7.0041902e-02
 -1.8532438e-02
 -9.9391334e-02
  1.5317319e-01
  1.0520183e-02
 -3.7822653e-02
  1.3669117e-01
  4.6191774e-02
  2.6540160e-02
  4.7129190e-01
 -1.9353817e-01
 -6.2285863e-02
  2.5317681e-01
 -1.8584298e-02
 -4.8720494e-02
  4.8414133e-02
 -1.3497163e-01
  1.0056161e-01
  1.4436208e-02
 -1.9166188e-01
 -9.6114509e-02
 -1.2278118e-03
  1.5484692e-02
 -9.4987983e-03
  4.6566948e-02
 -4.7651965e-02
  2.3593074e-03
 -9.2000261e-02
  1.5251151e-01
 -7.5512081e-02
  6.8012630e-03
 -4.5899995e-02
  1.4222074e-01
  1.4447162e-01
 -5.7769069e-03
 -1.7723309e-01
 -2.9242421e-03
 -5.8355484e-02
 -6.2849618e-02
 -3.2089138e-01
 -1.5661962e+00
  1.2458661e-02
  1.3029382e-02
  1.0432467e-02
  5.5100959e-02
 -3.6030184e-02
 -5.2631442e-02
  1.3217327e-01
  4.7544517e-02
  1.9535754e-02
  4.1416276e-02
  8.2132749e-02
  3.1373363e-02
 -2.8881017e-02
  5.6414519e-02
  8.2336999e-02
 -6.2042642e-02
  2.6983112e-02
 -1.8463712e-02
 -2.2068547e-02
  4.1699395e-02
 -7.5205274e-02
  1.8700011e-02
  3.2408249e-02
 -2.1493861e-03
  1.5331450e-02
  2.2994014e-02
 -4.1810147e-02
 -2.1033194e-02
  1.7724073e-02
  1.0459874e-01
  5.1090788e-02
  2.2881834e-02
 -1.9329563e-03
 -1.2055167e-02
  5.4969061e-02
 -1.1396819e-01
  4.2224154e-02
  1.0243891e-01
 -1.2666270e-01
  1.3764315e-02
  2.7323840e-02
  1.5988413e-03
 -1.8238280e-02
  1.8341461e-02
 -2.4786167e-02
  2.1180963e-02
  7.1639009e-02
  1.3149139e-02
 -4.2871516e-02
  2.4307493e-02
 -2.1828434e-03
 -8.5512936e-01
  5.9930142e-02
 -3.9190728e-02
  6.2900722e-02
 -6.8423554e-02
 -9.4237188e-03
 -5.8354046e-02
  3.1606052e-02
 -3.9515719e-02
 -2.6685648e-02
 -1.5650742e-01
 -1.4885328e+00
 -2.2329122e-04
  9.5743407e-03
 -7.3216513e-02
  6.9726579e-02
  2.8357055e-02
 -2.0904073e-02
 -1.0237312e-01
 -8.8472534e-03
 -4.6066926e-03
  1.0510957e-01
 -1.3217968e-02
 -1.6752789e-02
 -3.6959995e-02
  7.3883855e-03
 -2.2334531e-02
  9.0072583e-03
 -5.7023328e-02
  6.4416435e-03
 -7.6443963e-02
  2.9226075e-04
 -5.3282725e-03
 -3.4880009e-02
  8.4047593e-02
  6.4728386e-03
  3.1425454e-02
 -3.1302217e-02
 -1.7247798e-02
 -5.2354347e-02
 -7.9797231e-02
  1.4475178e-02
 -1.1302897e-02
  7.0242144e-02
 -7.5426633e-03
  4.5561884e-03
  1.0558539e-02
  1.8158667e-02
 -1.2379828e-02
  2.9462015e-02
 -4.4009894e-02
 -6.8868540e-02
  1.1182805e-02
 -3.2307249e-02
  3.7952188e-02
 -3.4285549e-02
  2.0584606e-02
 -3.9380386e-02
 -2.0273933e-02
 -3.1357203e-02
 -7.0588905e-03
 -2.6099557e-02
  1.0345008e-01
 -1.1613701e-02
 -7.5812832e-02
  2.5839904e-02
  9.9396054e-03
 -7.7747176e-03
  7.1963151e-03
 -6.1945110e-03
  1.4818554e-02
 -5.3826999e-03
  4.4871136e-03
 -3.5282720e-02
 -4.0545173e-02
 -1.5464080e-02
 -5.8321282e-02
  1.1925676e-02
 -6.2996545e-03
 -2.6602887e-02
  2.0086561e-01
  2.5170831e-02
 -6.4526089e-02
  1.8416440e-02
  1.8649533e-02
  1.9049089e-02
 -1.7397510e-02
  5.0129373e-02
  4.6724742e-03
 -2.9932676e-02
 -2.9604539e-02
 -2.7007155e-02
 -6.1037075e-03
 -4.2833211e-03
 -5.4640800e-02
  6.1746673e-03
  2.0417827e-04
  3.2452686e-04
  6.5532294e-03
 -4.2275306e-02
 -5.1799577e-02
  9.2886440e-02
  2.2356680e-02
  2.4819627e-02
 -5.9520770e-02
  5.9820347e-02
  7.1839164e-03
  7.8849373e-03
 -1.3563738e-02
  5.7847567e-02
 -1.3787168e-02
 -2.4119463e-02
  9.0499287e-03
  5.6652315e-02
 -7.0174648e-03
  2.4404129e-02
 -2.2187676e-02
  3.9796934e-02
 -1.4314997e-02
 -2.0272288e-02
  1.1122430e-02
 -2.5477068e-02
  9.6720859e-02
  6.8031371e-02
 -8.2984671e-02
 -5.4974254e-02
 -1.0952887e-01
  3.3329733e-02
  6.7683235e-02
 -1.8238727e-02
  2.5545664e-02
  4.8560437e-02
 -3.6458544e-02
  2.5893288e-02
 -1.0173522e-01
 -2.5408869e-03
  1.8428205e-02
 -1.0811933e-01
 -6.8322986e-02
  5.5499110e-02
 -6.0048811e-02
 -6.6375628e-02
  2.7165763e-02
  8.2171291e-02
 -3.0229092e-03
  5.1663462e-02
  1.6449927e-01
  5.0368559e-02
 -5.6266762e-02
 -5.0140522e-02
 -1.4361883e-02
 -2.6855555e-03
  2.1970337e-02
 -1.0429094e-01
 -1.0790305e-01
  2.4741015e-01
 -6.7498773e-02
 -3.5968471e-02
  7.4287648e-03
  4.1680679e-02
  2.8093427e-03
 -4.2999912e-02
 -5.0376217e-05
  2.1690319e-03
  2.4025794e-02
 -3.2221884e-02
  2.8271928e-02
  1.8788118e-02
  4.7365767e-03
  2.5364202e-02
  9.8805157e-03
  8.7522484e-02
 -8.7339588e-02
  4.6355676e-02
 -4.8269834e-02
  1.5385730e-02
 -6.6431761e-02
 -1.0906035e-01
 -4.9357880e-03
 -8.7552041e-02
  4.0604249e-02
 -6.3747898e-02
 -9.3803490e-03
 -9.8315962e-03
  5.1053047e-02
 -2.0199397e-03
  2.4246758e-02
  1.4806099e-02
 -1.9342938e-02
 -5.5653449e-02
 -1.4107291e-02
  7.2522990e-02
 -3.5337105e-02
  7.4340582e-02
 -4.0358193e-02
  3.6362253e-02
 -4.4168241e-02
 -3.0367313e-02
  9.1681918e-03
  2.2575567e-02
  5.4054016e-01
 -1.3727500e-02
 -2.9983874e-02
  2.8396515e-02
 -2.7427999e-02
  1.2970354e-02
  1.4762712e-01
  4.2427070e-02
 -2.8682845e-02
 -3.8079508e-02
 -1.7925275e-02
  9.2867054e-03
  1.9524973e-02
  5.0537135e-03
  4.3282241e-02
 -7.8019999e-02
  4.8442548e-03
  1.5501528e-02
 -1.5679102e-02
  1.0540614e+00
 -2.8314728e-02
  1.0424602e-02
  2.6396660e-02
  5.0460296e-03
  1.1312491e-03
  1.0636104e-02
  9.8388586e-03
  6.5115422e-02
 -3.7005275e-02
  1.9687270e-03
  2.5528019e-02
  3.4261283e-01
  4.7566157e-02
  1.7468851e-02
 -2.1998705e-02
 -5.6023244e-03
 -2.6075641e-02
 -3.4828626e-02
 -3.7392545e-02
 -2.1470881e-03
  6.3914090e-02
 -7.8435987e-02
  8.0797197e-03
 -4.1293025e-02
 -1.3659544e+00
 -8.7272711e-02
 -4.2127699e-02
 -2.5793310e-02
 -2.8983604e-02
  3.5044393e-03
  8.5768633e-02
  1.0553709e-01
 -6.1369553e-02
 -3.2535490e-02
 -2.2235403e-03
 -5.5333801e-02
 -4.6411841e-03
  5.6692295e-02
 -5.7260357e-03
  1.2579481e-01
 -6.4424761e-02
 -1.9194337e-02
  7.7390008e-02
 -9.5833186e-03
  3.6655255e-02
 -2.9011367e-02
 -1.1436898e-01
  2.0412613e-02
  3.1401839e-02
 -3.6999423e-02
 -4.7818579e-02
 -2.7876773e-03
  9.4216669e-01
 -4.4782385e-03
 -1.8863490e-01
  6.2617481e-02
  5.7609880e-04
 -1.7251875e-02
  4.4242851e-02
  6.9292323e-03
 -3.1001840e-03
  6.3685253e-02
  2.7583525e-02
 -2.6057510e-02
  2.7720703e-02
 -2.2312218e-02
  3.9161462e-02
 -6.4847261e-02
 -1.3133273e-02
  4.2846218e-02
  4.9066865e-03
  1.6030628e-02
 -4.9069751e-02
 -2.7139764e-03
 -4.8109442e-02
 -4.5071053e-03
  6.7593075e-02
 -1.0961565e-01
  5.8390822e-02
 -2.7919004e-02
 -1.4233128e-02
  8.6438194e-02
  1.7930940e-02
  3.5563179e-03
 -5.6429770e-02
 -8.6404281e-03
  5.3059168e-02
  3.0563623e-02
 -9.1256686e-03
  7.1415022e-02
 -5.1112097e-02
 -1.7214002e-02
 -6.5050069e-03
 -2.4163175e-02
 -3.6799096e-02
 -1.3863168e-02
  4.6389971e-02
 -1.6385812e-02
 -4.2244919e-02
  3.8139518e-02
 -7.1582948e-03
 -6.3715145e-02
  5.1186476e-02
  2.6257917e-02
 -3.1072892e-02
  8.1920020e-02
  3.9215196e-02
 -1.1159111e-01
 -7.6667093e-02
  9.0588611e-03
  6.1781262e-03
 -2.4034005e-02
 -1.9968040e-02
  4.3224294e-02
 -7.4100884e-04
 -4.6916366e-02
 -2.1707709e-01
 -2.5552556e-02
  4.1206772e-03
  2.9132813e-02
 -9.6983574e-02
 -3.3663559e-01
  1.3735476e-02
  1.8260194e-02
  4.1629154e-02
 -1.3365921e-02
 -6.6727675e-03
 -2.8571617e-02
  8.7628402e-02
  6.2438890e-02
  9.9870645e-02
 -8.5995428e-02
  3.9383568e-02
 -3.7664294e-02
 -1.1062916e-01
 -3.4152597e-02
 -3.1660456e-02
  8.2997113e-02
 -1.2320471e-01
  2.0329164e-02
 -2.2179356e-02
  2.0807628e-03
  2.0994579e-02
  2.5175470e-03
  5.2755088e-02
 -4.1733548e-02
  1.2101520e-01
 -1.9326556e-01
  1.5789142e-02
  2.1922622e-02
  3.2158762e-02
 -7.4503794e-02
  8.6219363e-02
 -9.1365921e-01
  6.3559550e-01
 -3.5214670e-02
  5.6413002e-02
  5.2664440e-02
 -5.9956247e-03
  2.9209626e-01
  1.9128677e-01
  2.1198913e-01
 -2.5272116e-02
  1.1139750e-01
  2.9789035e+00
 -4.7002040e-02
  1.1793288e-01
 -7.0462756e-02
 -2.0716693e-03
  1.4385559e-02
 -1.0067914e-02
  1.1165874e-02
 -7.5925358e-02
 -8.5180467e-03
 -7.3425233e-02
 -1.3317788e-01
 -6.6492029e-02
 -5.5520289e-02
 -1.9976988e-01
  2.1772023e-02
  3.1023400e-03
  8.3568573e-02
 -9.6833251e-02
  3.1956136e-01
  3.4761149e-01
  7.0744097e-02
  1.3269819e-01
  3.0246910e-03
 -8.5390054e-02
  1.0952552e-01
  2.5709799e-02
  7.8031765e-03
 -3.5463811e-03
 -3.1818036e-02
 -4.2966608e-02
 -5.6866631e-03
 -3.9328143e-02
 -1.1795823e-01
 -6.6743190e-03
 -2.8017128e-02
  1.7462676e-02
 -1.6575480e-01
 -6.0667475e-03
  1.4647736e-01
  1.0509756e-01
  4.2081095e-02
  5.3846087e-02
 -4.4597939e-02
  1.1770438e+00
 -1.0657874e-01
  1.5571552e-02
  7.1998052e-02
  3.0460676e-02
  1.4050236e-02
 -1.0648505e-01
  6.8144247e-02
 -1.3543090e-02
  2.5892906e-02
 -1.3963905e-02
  5.5778682e-02
 -1.8315356e-02
 -2.1532248e-04
 -9.6053453e-03
 -6.3677534e-02
  3.8214758e-02
  6.7322157e-02
  7.5578615e-02
 -2.3013383e-02
 -5.5103465e-03
  5.3999471e-03
  2.2691516e-03
 -1.4151374e-02
 -4.2590443e-03
 -8.7653823e-02
  3.2096051e-02
  1.7947594e-02
  5.5720108e-03
  4.0592037e-02
  1.2670198e-01
  2.2267327e-02
 -1.1462457e-02
 -9.5931506e-03
 -5.5568531e-02
  4.1990742e-02
 -7.4417651e-02
  2.3033045e-02
 -5.8211010e-02
  9.0013947e-03
  7.1459323e-02
 -2.3254983e-02
  5.4381914e-02
 -1.5154237e-02
 -1.7246193e-01
  8.4414050e-02
 -3.0559804e-03
  4.3447498e-02
  1.3474317e-02
 -1.3334540e-02
 -2.4808245e-02
  4.7325082e-03
  2.3977647e-02
 -5.1985394e-02
  5.4125185e-03
  7.2331309e-02
  7.3146328e-02
  4.2713988e-01
  7.4860081e-02
  1.4026218e-02
 -6.0372311e-03
 -2.8637558e-02
  6.4378520e-03
  8.4435388e-02
 -4.9267836e-02
  1.9637680e-02
  1.7837553e-03
 -1.9657735e-02
  2.2143368e-02
 -3.0616688e-02
 -7.5538695e-02
 -3.8960267e-02
  2.5592638e-02
  4.8794825e-02
  2.1691129e-02
  3.0999316e-02
  5.4467924e-02
  1.1043405e-02
  9.4765192e-03
  3.0498728e-02
  3.8304079e-02
 -2.0201958e-03
 -5.1165551e-02
  6.1585810e-02
  3.6582146e-02
 -4.4730315e-03
 -1.3479586e-02
 -7.2155118e-02
 -2.4249595e-02
  2.4489135e-02
 -1.0502516e-01
 -6.4031524e-03
  5.4385550e-02
 -5.2774403e-02
  8.2400767e-03
  4.3494953e-03
  2.0332934e-02
 -4.3869104e-02
 -3.7802063e-04
  1.3878154e-02
  5.0315678e-02
  7.7987954e-02
  5.6628017e-03
  8.8929655e-03
 -3.0450549e-02
  4.9452979e-02
 -2.5138003e-03
  6.1132342e-02
 -6.5405428e-02
 -5.8356781e-02
  4.3338058e-03
 -8.6779103e-02
  2.3585947e-02
 -1.1748431e-02
 -1.4437030e-01
 -8.5399508e-02
 -3.3145547e-03
 -1.6320676e-02
  7.7678680e-02
  7.1095261e-03
  4.7624882e-02
 -1.4476127e-02
 -7.5493954e-02
  3.7136185e-03
 -1.4897617e-02
 -6.0944110e-02
  4.2125857e-03
 -8.4216103e-02
 -1.1208199e-02
 -2.7589731e-02
  1.9654373e-02
 -2.1667348e-02
 -6.7329682e-02
  6.8558594e-03
  1.0732685e-02
  2.0142959e-02
 -6.0179971e-02
  4.4026976e-03
 -5.5439388e-03
  8.2286638e-01
  5.8445651e-02
  1.0008796e-01
  3.0790865e-02
  4.4834163e-02
  1.5549449e-03
 -2.2654517e-02
  1.0744864e-01
  5.7825312e-02
 -9.1506764e-03
 -3.3819161e-02
  3.0906077e-02
 -6.7434214e-02
 -2.5123700e-03
  6.5395427e-03
  3.2896329e-02
 -3.9234035e-02
  2.2747437e-03
 -1.9834747e-03
  1.6936542e-02
  3.2982796e-02
 -3.3600841e-02
  6.3316211e-02
 -6.5460958e-02
 -1.1099589e-01
 -1.2388073e-01
 -3.4234591e-02
 -1.8092148e-02
  2.5869468e-03
 -5.1901159e-03
  4.4552892e-02
 -4.8828073e-02
  7.2260380e-02
 -3.7879664e-02
 -4.0578190e-03
 -5.2268934e-02
  1.2298865e-02
  2.3202170e-01
  3.1021863e-01
 -5.0350677e-02
 -2.1355521e-02
 -1.1529165e-01
 -7.9148270e-02
  4.9687840e-02
  1.9694577e-01
  8.8716783e-03
  4.7165272e-03
 -6.5307707e-02
  2.2349522e-02
 -2.2207912e-02
 -2.0542340e-02
 -4.2898886e-02
 -6.9009803e-02
  7.1984857e-02
  4.6250098e-03
 -7.8311868e-02
  4.8867486e-02
 -1.5486145e-01
 -2.9306948e-02
  4.6669487e-02
  4.6528272e-02
  1.1176038e-01
  3.0718198e-01
  9.5713988e-02
  1.7127724e-02
 -7.1981427e-04
 -4.8440062e-02
  3.6804222e-02
 -8.5149243e-02
 -1.5256712e-01
  4.3333941e-03
 -4.4977315e-02
  8.2601450e-02
  2.1911036e-02
  5.4233182e-02
 -2.4684945e-01
 -2.8290138e-01
 -3.0919673e-02
  5.2093214e-01
 -2.3647083e-01
 -5.4960734e-01
 -2.7372438e-01
 -1.3515149e-01
  2.1417716e-01
 -1.1053210e-01
 -2.0491965e-02
 -6.0678471e-02
 -2.2327590e-03
  2.7598538e-02
 -4.2662516e-01
  1.6670527e-01
  1.5659878e-02
 -1.0476464e-01
 -2.8335425e-01
 -3.5790920e-01
  1.1711318e-01
 -5.3854398e-02
  2.5715910e-02
 -2.0771022e-01
  1.4422367e-02
 -3.3362812e-01
 -6.4352222e-02
  8.0271229e-02
  2.4074681e-01
 -1.5676545e-01
 -1.0302337e-01
  3.9917618e-01
  1.0003740e-01
 -4.9427874e-02
  8.3814129e-02
 -3.4179963e-02
 -6.9796517e-02
 -4.5410067e-02
 -6.0023598e-02
 -1.3073229e-02
 -9.8169938e-02
  4.4586472e-02
 -2.6978403e-01
  1.5179083e-01
 -1.0382407e-02
  3.2445770e-02
  3.0499235e-02
  5.2533180e-02
 -7.5513212e-04
 -2.6833862e-02
 -3.2718414e-03
 -6.9478348e-02
 -4.6313494e-02
 -5.0988980e-02
  1.5361364e-02
  4.3805219e-02
  5.9991088e-02
 -6.4793840e-02
 -1.9356748e-02
  4.4434011e-02
 -8.7475823e-04
  8.2636580e-02
  3.8171079e-02
  2.9725827e-02
 -6.7875020e-02
  2.4805594e-02
 -6.9207959e-02
 -1.2007357e-01
 -3.4993730e-02
 -8.9054741e-03
  3.5491038e-02
  4.9641151e-03
 -2.9302454e-02
  6.3238810e-03
  4.5333788e-02
  2.9055778e-02
  2.7959330e-02
  5.4191489e-02
 -5.2884588e-04
  1.0541362e-01
 -4.9363434e-02
 -4.4686418e-02
  7.9300418e-02
 -2.2769023e-03
  1.9819748e-02
  3.6425184e-02
  8.4995925e-02
 -8.2006520e-03
 -1.1225708e-02
 -1.5372219e-02
  2.6760450e-02
  3.7386872e-02
 -2.6869722e-02
 -2.4444241e-02
  7.1155973e-02
 -1.4680676e-02
  6.6137225e-03
  1.1095381e-01
  3.9387386e-02
 -4.5588133e-03
  3.9929308e-02
  1.3846640e-02
 -8.0111874e-03
  1.7246962e-02
  1.6177431e-02
  8.2880497e-02
 -5.1164377e-02
  3.2542139e-02
  6.5426722e-02
  8.0458514e-02
 -1.0126858e-02
  5.9145048e-02
  4.9857914e-02
 -1.8427823e-02
 -7.1405366e-02
  1.1587602e-01
 -1.9237274e-02
  3.1037215e-02
 -9.7144254e-02
  2.6679471e-02
  1.2822056e-01
  3.7659938e-03
  2.1229057e-02
  4.8024310e-03
 -1.0430875e-02
  1.7347632e-02
 -5.9215412e-03
 -2.2030438e-01
  1.0159271e-02
  3.3046491e-02
  1.0453020e-02
 -3.3454569e-03
 -7.8100120e-03
 -5.7916511e-02
 -1.1744968e-02
  5.3452853e-02
 -1.3570003e-02
  6.1531521e-02
  4.7995552e-02
 -2.0853315e-02
 -2.9481018e-02
 -4.6272445e-02
 -6.6818856e-02
 -3.7780948e-02
  3.7334319e-02
  8.0744782e-03
 -3.4893636e-02
  5.4193183e-04
 -2.4593385e-02
 -8.5726129e-03
 -7.1509875e-02
  2.8077129e-02
  2.3719057e-02
  9.1941789e-02
  1.8311933e-02
 -1.9885905e-02
 -1.6766625e-02
 -2.7176064e-02
  1.2348106e-02
 -4.6226741e-03
  3.9244115e-02
 -1.3901445e-01
 -5.0729882e-02
 -2.0131801e-01
 -2.2439539e-02
  3.5433713e-02
 -1.6408963e-02
 -1.1634195e-01
 -2.2405110e-02
  2.6893470e-02
 -1.0078596e-01
 -5.3227782e-01
 -9.2443805e-03
 -5.0088190e-03
 -5.0372705e-02
 -7.4528153e-03
 -2.4157669e-02
  2.8232727e-02
 -4.4457480e-02
  5.6326803e-02
 -1.4921988e-02
 -9.4790012e-02
 -2.8183742e-03
 -7.7542707e-02
 -9.5631337e-01
  1.6527243e-03
  1.0615770e-02
 -1.6638319e-01
 -8.1191547e-02
 -1.1606637e-03
 -2.4861777e-02
  4.4246145e-02
 -4.9553219e-02
 -4.9583983e-02
  1.2600449e-01
  8.5385531e-02
  4.0798228e-02
 -1.6433073e-02
  1.6701260e-01
  2.5813526e-01
 -3.0352814e-02
 -2.6190063e-02
  1.1023797e-02
  3.7819695e-02
  2.9205520e-02
  1.2755092e-03
  1.1985314e-01
  6.1259791e-02
 -4.2235255e-02
  4.0383600e-02
  4.0535159e-02
  1.1453282e-02
  3.8943542e-03
 -2.1323081e-02
 -8.6443592e-03
  8.6446237e-03
  1.6719824e-02
 -1.1198662e-02
  1.3937976e-02
  4.9451295e-02
 -5.2719165e-02
  2.2830752e-01
  9.0814434e-02
  1.1708202e-02
 -3.6956284e-02
  8.1998155e-02
  4.6478296e-03
  6.9143981e-02
  1.1863055e-02
 -1.4045727e-02
 -3.8279474e-02
  1.4792374e-02
  2.6988236e-02
  1.1340277e-02
 -3.5455130e-02
  4.0725742e-02
 -5.7466481e-02
 -6.9396295e-02
  1.3772747e-02
 -2.2363076e-02
 -4.0039625e-02
 -2.7822869e-02
 -1.1041716e-02
 -8.5432166e-03
  1.1106676e-02
 -2.3696481e-03
 -1.0059951e-02
 -7.8121424e-02
 -5.1871259e-02
 -9.8957047e-02
  6.0679065e-03
  4.9755718e-03
  6.6727333e-02
  3.9374754e-02
  1.6844781e-02
  6.6251270e-02
 -7.5690495e-03
  9.5073447e-02
  7.3084325e-02
 -3.7022585e-03
  8.3500929e-03
 -3.5779383e-02
  1.5756318e-02
 -2.4052229e-02
  2.9084764e-02
 -3.5430193e-02
  4.3901610e-03
  3.5083588e-02
 -4.0970640e-03
 -1.4014727e-02
  7.2060995e-02
 -5.6081908e-03
 -7.4247196e-03
  5.0571669e-02
  4.3445784e-03
 -3.8640182e-02
 -7.0630991e-01
  4.3365233e-02
  1.3040907e+00
 -4.4278365e-02
 -3.8051721e-02
 -8.0087937e-02
  9.3271146e-03
  5.5403102e-02
 -7.7315353e-02
 -7.5406763e-03
  2.0518089e-02
 -1.8247396e-03
 -1.5858557e-02
 -9.4177714e-03
  3.5312995e-02
  1.9329371e-01
 -5.0994959e-02
 -5.2975308e-02
  1.0156187e-02
  2.8904956e-03
 -3.8429957e-03
 -9.1448642e-02
  1.4104680e-03
  2.0304417e-02
 -5.7379659e-03
  8.8826574e-02
  3.5683777e-02
 -1.3506836e-03
 -2.8813249e-02
  5.8302484e-03
 -1.6366827e-01
  2.8593792e-02
  1.5770033e-01
  2.5739899e-02
 -7.6669864e-02
  3.3693284e-02
 -2.3599027e-01
 -1.6497610e-02
 -1.6641378e-02
  4.6836518e-02
  3.2180246e-02
  2.1968399e-01
  2.5382810e-03
  1.8699184e-02
 -5.9892163e-02
 -1.0499883e-02
  2.0102743e-02
 -6.3584101e-01
 -4.8517525e-02
  1.0214375e-02
 -6.2459026e-02
 -4.7521670e-03
 -3.2751180e-02
  4.6879225e-03
 -4.0820379e-02
 -1.0150270e-01
 -3.3438917e-02
 -6.5474041e-02
 -8.5290633e-03
  6.0410686e-02
 -1.6613904e-02
 -6.2361401e-02
 -3.7056517e-02
 -6.0525347e-02
  6.4103052e-02
 -2.2657381e-02
  1.5664697e-02
 -7.9041375e-03
 -1.1124734e-02
 -1.9402773e-03
  5.7785448e-02
 -4.8135791e-02
 -5.0995439e-02
  2.1396685e-02
  6.2365666e-02
  2.8363692e-02
  1.4953662e-01
 -8.1582014e-03
  1.0700720e-02
 -5.1831018e-02
  7.4616270e-03
  3.3744052e-02
 -1.1301441e-01
 -3.0852206e-02
  1.0009208e-01
  2.0755807e-02
  2.5293007e-02
 -5.1363163e-02
 -6.0158093e-02
 -9.2263229e-02
  1.1913223e-03
 -1.0268564e-02
  2.8941411e-01
 -5.6654129e-02
 -1.6726462e-02
  5.7305980e-02
  1.4556709e-02
 -1.4040761e-02
  1.3071835e-01
 -5.6421921e-02
 -3.0341304e-03
 -8.2751334e-02
 -2.1645118e-02
  1.7834087e-01
 -1.1400577e-01
  2.7018940e-02
  1.1938169e-01
 -1.1040849e-03
  4.8409604e-02
  4.3254573e-02
  5.8290329e-02
  2.4948593e-02
  1.1418330e-02
  3.2396879e-02
 -2.0438612e-02
 -8.0851367e-04
  4.1533466e-03
 -6.3920476e-02
 -4.1944239e-02
  2.4828441e-02
  2.3818956e-04
 -1.8123539e-02
  1.1748043e-01
 -1.5425539e-03
 -1.3428419e-02
  2.7154872e-02
 -5.4129181e-05
 -1.8513152e-04
 -3.2213617e-02
  8.3163343e-03
  2.1427669e-02
 -2.0676114e-02
 -2.9806703e-02
  3.3017386e-02
  4.9943283e-02
  1.8241553e-02
 -1.3952096e-02
 -5.2055606e-04
  2.5779179e-01
  4.4247889e-04
  7.3524483e-02
  9.6232541e-02
  1.8850230e-02
 -3.1240011e-02
  5.8031403e-03
  2.2581087e-02
 -1.5959620e-02
  1.4294907e-02
 -4.9617155e-03
  7.7429079e-02
 -6.0835756e-02
  1.6549201e-03
 -7.2029479e-02
  8.2517084e-04
 -2.9511649e-02
 -3.9266568e-02
  1.1126930e-02
 -1.0344789e-01
  3.0903700e-01
 -4.2117245e-02
  3.7242049e-01
  3.3078760e-02
 -8.0050724e-03
  2.0505546e-02
 -5.1041953e-02
  2.1895105e-02
  2.4695458e-02
  2.6678141e-02
 -9.5933318e-02
 -1.2454363e-02
  2.2446567e-02
 -1.7244661e-02
 -1.9259695e-02
  5.3046765e-03
  1.2124976e-01
 -7.0423437e-03
  2.1351824e-02
 -3.8369379e-03
  7.8062457e-03
  2.1929660e-01
  2.4932504e-03
  3.4729149e-03
 -1.6411787e-02
  2.3825606e-03
  6.3322857e-03
 -8.5519798e-02
  4.5753974e-02
  8.9695863e-03
  1.0302273e-02
  1.5573228e-02
  5.7961382e-03
 -9.0321437e-02
 -1.2708561e-01
 -7.4971281e-02
  2.5413947e-02
 -3.0689642e-02
  2.6865734e-02
  5.5583570e-02
 -3.2041993e-02
 -1.7059799e-02
 -2.5668666e-02
 -2.7553469e-03
  8.5795306e-02
  1.7148213e-02
 -1.4221041e-02
  3.1929038e-02
  1.9159717e-02
 -2.7749600e-04
  3.6651470e-02
 -2.8171131e-04
  3.5523474e-03
 -8.2546584e-03
 -2.6085857e-02
 -3.1537641e-02
  2.1730778e+00
  2.5589779e-02
  8.5681625e-02
  3.0633545e-02
 -2.2828315e-01
  1.0263111e-02
  5.6275450e-02
  1.4507027e-02
 -2.2044661e-02
 -1.9553075e-02
 -3.2640314e-03
  5.3664763e-02
  5.2502502e-02
  1.2871508e-02
  2.0775778e-02
 -7.1778800e-03
 -8.0350796e-03
 -9.1443516e-02
  5.3294729e-03
 -9.1475867e-02
 -3.0807497e-02
  3.6649466e-02
  2.9766720e-03
 -4.0260531e-02
  1.1771234e-01
 -1.7759949e-02
  3.1095883e-02
 -2.4760425e-01
 -2.7932402e-02
  5.8925603e-02
 -8.1570866e-03
 -4.2256787e-02
 -4.1989911e-02
 -4.4622675e-02
 -9.6913977e-03
  2.0706475e-02
 -2.2368545e-02
  2.8964251e-02
  3.1709984e-02
 -2.4885419e-03
  2.4701402e-02
 -1.5560848e-02
 -5.6465380e-02
  1.2115343e-04
 -4.8638131e-02
 -7.8736678e-02
 -1.3804908e-02
 -3.9117105e-02
 -9.5360568e-03
  1.9233733e-02
  2.9150568e-02
 -3.0392604e-02
 -1.2805244e-01
 -5.2418089e-03
  1.3005176e-01
 -5.4019637e-04
 -6.3661388e-03
 -3.1591699e-02
  9.2051271e-03
  8.4539719e-02
 -6.3197516e-02
 -9.5301449e-02
 -3.1472094e-02
  5.5035092e-02
 -1.3634648e-02
  2.0557974e-02
 -1.2674414e-02
  1.9990070e-02
  1.3015024e-02
  1.9281739e-02
  7.8222500e-03
  7.8135682e-03
  2.2222068e-02
  8.6118154e-02
 -7.3657827e-03
 -5.1770072e-02
  3.3443071e-02
 -4.4923175e-02
 -5.0116207e-02
  4.4877315e-04
 -2.5530467e-02
 -2.7654404e-03
  2.8455881e-03
 -1.0176345e-01
 -4.3119263e-02
 -5.0341757e-03
 -1.4816906e-02
  2.2839364e-01
 -7.5611748e-02
  1.9757269e-02
 -1.1183550e-01
  1.6475338e-01
  2.2280980e-02
  2.4235120e-02
  2.0356966e-02
 -3.3601407e-02
 -4.0693074e-02
  4.7865737e-02
 -3.0342115e-02
  3.6384205e-03
  5.5747647e-02
 -5.4767933e-03
  4.6992622e-02
 -3.4965899e-02
 -9.6755654e-02
 -1.3414505e-02
  1.2139562e-01
 -8.3352970e-03
  1.2151361e-01
  3.0538384e-02
  5.5885757e-03
  1.7864544e-02
 -7.7254988e-02
 -1.9952370e-02
 -3.6506929e-02
 -1.2633368e-01
 -1.6804982e-02
  1.7500458e-02
  2.3191502e-02
  1.7749329e-01
  1.0841545e-03
 -1.2131999e-01
  3.2142445e-02
 -3.6660157e-02
  2.7337754e-03
 -8.4384993e-02
  1.6636336e-02
  7.7679388e-02
  2.7802246e-02
 -5.4707583e-03
  1.3527905e-02
  7.5606676e-03
  2.8228192e-03
 -2.9954458e-02
 -4.5137558e-04
  9.2034005e-03
 -6.5100364e-02
 -1.2021547e-01
  1.2834540e-01
  8.8081602e-03
 -1.2822227e-01
  5.5775507e-03
 -1.8213127e-02
  1.3934573e-02
  1.0638320e-01
  2.2020016e-02
  9.0954602e-03
 -6.4132339e-03
  5.1848542e-02
  1.1830776e-02
  3.4631058e-03
 -4.6880089e-02
 -2.2833776e-02
 -1.5379985e-02
  2.8734377e-02
 -2.3464578e-01
 -8.4012881e-02
  4.1863240e-02
  1.1162952e-01
 -1.9782935e-01
  2.2312260e-01
 -3.7510619e-01
 -2.3116263e-02
  1.2904845e-01
 -2.6399437e-01
  1.0226348e-02
  1.0329319e-01
 -2.8934086e-02
  1.0850240e-02
 -1.6007352e+00
 -1.4769307e-02
  1.1827033e-02
 -1.4281766e-01
 -2.6881699e-02
  2.8402491e-02
 -1.2800889e-01
  2.0352939e-02
 -4.8724588e-02
 -1.4281922e-02
  1.0020263e-02
  1.7180992e-02
 -8.7547183e-02
  2.4989789e-02
  1.8172439e-02
  9.5516905e-02
 -4.6117487e-03
  3.2644637e-02
 -9.3250632e-02
 -7.6529663e-03
 -1.8199362e-01
  2.7556069e-02
 -3.1229742e-02
 -1.6777560e-01
  2.7983891e-02
 -9.3415789e-02
  3.0075279e-03
 -2.3593250e-01
 -1.2176324e-01
  2.3151533e-01
 -2.3670252e-02
  2.0723447e-02
  1.8726288e-01
  3.1352097e-01
 -7.6987441e-03
 -7.0692818e-03
  1.0533730e+00
  3.6215458e-02
  7.3248237e-02
 -4.5673303e-02
 -6.2990777e-02
 -1.0388217e-01
  3.8993957e-03
 -2.4284580e-01
 -7.7672891e-02
 -3.2955137e-01
 -3.6430791e-02
  1.3090588e-01
 -2.4574758e-02
 -2.3311982e-01
  4.9712498e-02
  3.3465616e-02
  3.4495905e-02
 -1.8198032e-02
  4.8021764e-02
  8.1788376e-02
  4.2732164e-02
 -3.1889153e-01
 -9.0143122e-02
 -3.7653591e-02
 -2.4078894e-01
 -2.8095024e-03
 -3.9434738e-02
  7.9439215e-02
 -2.2787517e-02
 -8.0370523e-02
  2.0522557e-01
  6.3134842e-02
  1.7186236e-01
  2.3223199e-02
  1.1565106e-02
 -1.6031498e-01
  1.1182933e-01
 -6.9342054e-02
 -3.0715573e-01
  6.7941458e-03
  5.2603590e-01
 -1.0562559e-01
  7.2288252e-02
  6.0367227e-02
 -4.6702899e-02
  1.4498329e-01
  6.4534873e-02
  1.0694845e-01
 -1.5098899e-02
  7.4283779e-02
 -6.0179695e-02
 -5.8093154e-01
 -4.4579692e-02
  1.1334069e-01
 -3.8425334e-02
 -3.6672313e-02
 -6.3493084e-03
 -6.3232280e-02
  2.4423173e-02
  2.8133899e-02
  1.5937406e-01
  4.0129486e-02
  1.5443258e-02
 -3.1407695e-02
  1.6912699e-02
 -7.2499295e-03
 -1.7630406e-02
  3.0910200e-03
 -2.4199184e-02
 -4.1135153e-01
  1.5700201e-02
 -8.1400052e-03
  4.9666774e-02
 -5.3344063e-02
  2.7350713e-02
 -4.6886555e-03
  5.7517439e-03
  3.6451001e-02
 -2.4973383e-02
 -3.2308694e-02
  6.9868676e-03
 -2.1782214e-02
 -2.6743570e-02
 -8.9886487e-02
 -1.5648589e-02
  1.8179983e-02
  8.5678428e-02
  4.9634703e-02
  4.0530916e-02
  4.0063996e-02
 -1.7486971e-02
  8.0730021e-03
 -4.8718326e-02
 -2.9677173e-02
 -9.4890930e-02
 -3.3011526e-02
  1.7197035e-02
  4.6518922e-02
  9.7751347e-03
 -1.9148009e-02
  9.8180790e-03
 -1.0930823e-02
  1.0916946e-02
  6.5162338e-02
 -8.3056055e-02
 -4.5579389e-02
  8.8391416e-03
  7.8100175e-02
  9.9858321e-02
 -3.4960520e-02
  3.0968243e-02
 -1.2609545e-02
 -1.5454391e-02
 -1.4252160e-02
  6.9807685e-04
 -1.6567945e-02
 -4.5598745e-02
  3.8901519e-02
  6.6782208e-03
 -1.1065158e-02
 -5.1768338e-03
  2.1264812e-02
 -5.5728387e-03
  3.2769665e-02
  3.3466332e-02
 -1.6385138e-01
  8.5128181e-02
  3.3683546e-02
  7.0483843e-04
  6.7226228e-04
 -4.4571072e-02
 -3.4934159e-03
  8.9288539e-01
  9.0075165e-02
  3.0632604e-02
 -2.8025562e-02
  3.3671174e-02
  1.2418752e-02
 -2.7146086e-04
 -1.5121049e-02
  4.3638870e-02
 -2.6105133e-01
 -4.8456229e-02
  3.2401630e-01
 -1.2143237e-01
  2.4284456e-02
 -2.1098690e-02
 -1.3993739e-02
  2.0339854e-02
 -3.1302180e-02
 -6.5856948e-03
 -3.8656261e-02
 -3.7018511e-02
 -4.7566298e-02
  1.0195623e-01
  8.4132306e-02
 -9.4192000e-03
  3.9989140e-02
  5.4570958e-03
  2.8798908e-02
 -5.2693751e-02
  1.0788105e-01
 -2.1926360e-03
  5.4100301e-02
 -2.3372153e-02
 -9.3716681e-03
  6.0638279e-02
  2.5951466e-02
 -4.7351215e-02
  2.4041636e-02
  1.8151921e-01
 -2.4853304e-01
 -7.9226089e-01
  6.9745368e-01
 -3.4970246e-02
 -1.7395499e-01
 -4.1151159e-02
  4.1960709e-02
  1.3671254e-01
  1.7486531e-02
 -4.9463749e-02
  1.0702527e-02
 -8.6901069e-02
  1.1621391e-01
  4.7785088e-02
  6.4509660e-03
 -5.2522350e-02
  2.9899579e-02
  8.1706844e-02
  8.1494890e-02
  7.7612013e-02
 -6.9893952e-03
  1.4769191e-01
 -9.6085981e-02
  4.6780337e-02
 -1.3440520e-01
  5.1329425e-03
  1.0979952e-01
  5.3786661e-02
  1.7543538e-01
 -3.5314243e-02
 -1.3659082e-02
  1.2668143e-03
 -7.8393012e-02
 -4.5866203e-03
  3.9093375e-02
  9.8591469e-02
 -1.1404769e-02
  5.4874830e-03
  1.1560449e-02
  2.4329456e-02
 -6.4449444e-02
 -1.4234832e-01
 -2.0312602e-03
 -6.4374708e-02
 -1.2921587e-01
 -7.1175313e-03
 -3.6148380e-02
 -4.2291142e-02
  3.3215877e-02
 -9.7997725e-02
  7.9679869e-02
  8.1893153e-02
 -1.0282263e-02
  5.8074139e-02
 -1.9258084e-02
 -2.0664986e-02
  2.0767691e-02
  3.8986940e-02
  4.6416506e-02
  4.0044403e-03
  2.1709193e-01
  2.7416946e-02
  2.3217984e-02
 -4.9233429e-02
 -2.5858741e-02
  1.4734396e-01
  2.4690997e-02
  7.7645145e-02
  5.9079699e-02
  1.0979258e-02
  8.8742012e-03
 -9.6591022e-03
 -4.5238785e-02
  1.5556460e-02
  5.1171329e-02
  2.3702048e-03
  2.4558693e-02
 -3.0069401e-02
  4.5592557e-03
 -2.9593477e-02
  4.0418878e-02
  4.4007353e-02
  5.1134456e-02
  2.1784285e-03
  2.2266740e-02
 -1.2591518e-02
 -2.3282597e-02
  1.0554333e-02
  3.4627360e-01
  3.3864144e-02
  1.1704662e-01
  3.0975260e-03
  3.2719555e-01
  3.4304797e-03
  6.4529598e-02
  5.2057642e-02
 -9.3517015e-03
  1.4550850e-02
  4.0277082e-02
 -1.8164383e-02
  1.5896848e-01
  6.2885761e-02
  6.1615441e-02
 -3.5589196e-02
 -1.4839587e-02
 -9.8617170e-03
  8.9267097e-02
 -2.2214046e-01
  2.0702755e-01
  2.5922766e-01
 -1.8538489e+00
  4.7975111e-01
 -2.6793960e-01
  2.2740221e-01
 -1.6393149e-01
 -2.7505115e-01
 -8.3154039e-03
 -2.9444292e-01
 -1.3179521e-01
  9.2976335e-03
 -4.3083510e-01
  6.5095372e-02
 -3.6050476e-02
  4.1030727e-02
 -4.8075084e-02
 -4.4091005e-02
 -3.1483889e-01
 -1.3968031e-01
 -4.8873760e-03
 -9.8497774e-03
  3.2685969e-02
 -2.6519284e-01
  4.5083115e-01
  3.5889167e-02
  6.1300641e-01
 -5.5762881e-01
 -8.5177578e-02
  1.0247476e-01
  7.8336094e-03
 -2.6135668e-01
  3.0020209e-02
  9.1762180e-03
 -2.0918074e-01
 -4.9145006e-02
 -2.7467632e-01
 -1.5497131e-02
  9.6417153e-01
  3.8763070e-01
  1.8772630e-01
 -5.6671149e-01
  2.2803903e-02
 -9.9464282e-02
  1.9819049e-02
 -2.7489144e-02
 -2.0889932e-02
  3.6177568e-02
  7.8513592e-02
 -8.7320179e-02
 -1.8524846e-01
 -3.1646140e-02
 -1.4820273e-02
 -4.7875345e-02
  2.2730364e-02
 -4.0930942e-02
 -9.3264230e-02
  2.7863719e-03
 -1.7566353e-02
  5.3171676e-02
  1.3796067e-02
 -1.4946912e-02
 -3.5456050e-02
 -2.5668895e-02
  2.0074107e-02
  1.9830406e-02
  1.2665466e-02
  1.1171133e-01
 -3.1222163e-02
  7.3471182e-04
 -5.0356113e-03
 -5.9820633e-02
 -3.2074403e-02
  1.8123682e-01
  2.4777891e-02
  1.7142534e-02
 -4.3368604e-02
 -3.8001738e-02
 -9.1516726e-02
  1.0463960e-02
 -4.0190015e-02
 -6.6364347e-03
  4.2415496e-02
  1.4023478e-02
 -9.1311902e-02
 -8.1682494e-03
 -5.3557228e-02
  1.5872132e-02
 -4.3094633e-03
  1.4127442e-01
  9.5060326e-02
 -1.1005288e-02
 -3.5723081e-01
 -4.0664937e-02
 -3.3125307e-02
  1.9083573e-03
  4.4090361e-03
 -1.8194994e-02
  3.0379932e-02
  2.2227235e-02
  1.5542656e-01
  2.2330014e-03
  8.5754091e-01
  1.5138280e-02
 -3.2849956e-02
 -4.6348341e-02
 -1.7550415e-03
 -8.6207362e-03
 -3.3952348e-02
  1.2470136e-01
  3.8842637e-02
  1.1702742e-02
  7.2772205e-02
  2.1855736e-02
 -3.8597886e-02
 -1.2761948e-02
 -1.1732703e-02
  6.2716246e-02
  5.3160943e-02
  4.8203170e-02
  1.1777347e-02
 -2.1084535e-03
 -6.7135118e-02
  7.7517144e-02
 -2.9868986e-02
 -1.2607621e-01
 -2.4040632e-03
  8.1398033e-02
  2.8391294e-02
  9.7374112e-04
  3.2323704e-03
  3.3290755e-02
  6.0047186e-03
  2.7642483e-02
  1.3904679e-02
 -1.1586690e-02
  3.8536742e-02
 -1.2224683e-02
  5.9415767e-04
 -5.7159502e-02
  8.5586645e-03
  7.2335852e-03
 -4.8391331e-02
  4.2733192e-02
 -2.0951796e-02
 -6.6385910e-02
  2.0721212e-03
 -4.5881353e-02
  3.8501695e-03
  2.6622264e-02
  3.5899200e-02
 -9.0850592e-03
 -3.1512197e-02
  3.7015721e-02
  1.1706187e-02
  3.0116361e-02
 -6.1130598e-03
  4.0581681e-02
  8.9250989e-02
 -4.0921062e-02
 -1.9007443e-02
  9.9239036e-02
  3.0243224e-01
  3.1763129e-02
  1.4689326e-02
 -4.9756125e-01
 -2.6387337e-01
  5.2176230e-03
 -2.1175724e-01
 -1.4046489e-01
  4.6288084e-02
 -2.7996643e-02
  6.0478255e-02
 -3.0337563e-02
  6.8620136e-03
  3.6620942e-01
  5.7285089e-02
 -3.0695032e-02
  8.4149903e-03
  1.5194896e-01
 -9.3971513e-02
 -7.0008472e-02
 -2.1829845e-02
 -2.6785311e-01
  4.0935133e-02
  1.0171273e+00
 -3.9004579e-02
  2.6867343e-02
 -2.1248024e-02
 -4.8542973e-02
  3.9939824e-03
  2.2774100e-01
 -2.3478763e-01
 -6.0169853e-02
  1.3226719e-01
 -2.1718261e-01
 -3.2664280e-02
  8.8367641e-02
 -1.1409764e-02
 -5.0539080e-02
  3.5978502e-01
 -3.6873449e-02
  2.6012644e-02
 -2.9489793e-02
  1.0293948e-02
 -9.8716328e-04
 -8.6469026e-03
 -2.3010677e-02
  2.2940563e-02
 -3.6912235e-03
  2.2560047e-02
 -4.0131185e-02
 -1.0348364e-01
 -7.0613645e-02
 -2.8300893e-02
  6.3526719e-03
  1.8097478e-03
 -1.0378189e-02
  4.2211603e-02
 -1.1252482e-02
 -3.5775367e-02
  6.9493786e-02
  9.6181948e-03
 -5.8953635e-02
 -3.2086354e-02
  1.0251170e-01
  8.5370526e-02
 -3.2885354e-02
 -4.2085275e-02
  7.6058512e-03
  9.1657035e-02
 -3.9082017e-02
 -7.4516481e-04
  7.6725306e-03
 -2.7148550e-02
  4.3709904e-02
 -2.5627175e-02
 -1.7885687e-02
 -9.4336376e-02
  6.5950272e-03
  1.2715460e-02
 -4.7907517e-03
 -7.8829415e-03
  8.6485427e-03
 -1.0191379e+00
  2.2853913e-02
 -1.9964062e-02
 -8.5038925e-03
 -1.2393574e-01
 -5.0043572e-02
 -4.4591795e-03
  4.9139500e-02
  2.2881146e-01
 -4.5786403e-02
 -6.1240559e-04
 -8.0155525e-03
 -1.1181400e-02
 -7.9676323e-02
  2.8682048e-02
 -2.2563687e-02
  2.2159168e-02
 -8.4551387e-03
 -2.8539374e-02
 -5.4566115e-02
 -2.0946817e-02
 -1.0080219e-01
 -5.8832970e-02
  1.1682633e-03
  7.7656694e-02
  5.7081738e-03
  9.0421602e-02
 -9.7967744e-02
  3.2211725e-02
 -1.6358726e-02
 -2.2606665e-02
 -4.1074831e-02
 -7.4723894e-03
  7.5323884e-03
 -6.0756933e-02
  1.2876107e-01
  2.5537261e-01
 -2.2671292e-02
 -4.8604097e-02
 -8.7720826e-02
  2.6313839e-02
  1.3502613e-02
  3.9399900e-02
  4.3662064e-02
  3.0029758e-03
  2.7658889e-02
  7.0268884e-03
 -6.9998935e-02
 -6.8902820e-02
 -3.8348120e-02
 -2.4534306e-02
 -1.0442198e-02
 -2.0219481e-01
  2.4083190e-01
 -7.4510071e-03
 -8.0533639e-02
  1.4823233e-02
  1.0535511e-02
 -4.3434616e-02
  1.4212283e-02
 -3.1174557e-02
 -4.8291840e-02
  8.4140584e-02
 -2.4368128e-02
 -1.1122967e-01
  9.6665211e-03
  3.6434799e-02
 -1.5477523e-02
  4.0448595e-02
  3.0028403e-02
 -1.7260936e-03
  6.3966727e-01
  3.0682134e-02
 -1.2428812e-02
 -1.1264171e-02
  2.2049118e-02
 -2.0684052e-02
  5.4272491e-02
  5.3627980e-01
 -5.1172030e-01
 -4.5798972e-02
  1.9855567e+00
 -6.1812723e-01
  2.1158014e-01
  7.7463621e-01
 -1.1978883e+00
  1.4966926e-04
  1.1049155e-02
  5.0499105e-01
  1.3148274e-01
 -1.2184916e-01
  1.8243976e-01
 -1.1246374e-02
  8.8149083e-01
  4.5227021e-01
  1.0585255e-01
  1.8764780e-01
  1.0551673e-02
 -5.5457973e-01
 -1.4731024e-02
 -6.0372651e-02
  3.7005734e-02
 -2.2925217e-01
  7.7868775e-02
  3.7951642e-01
 -3.8697165e-01
  3.9439797e-02
 -3.2796997e-01
 -2.1587193e-02
  2.6985323e-01
 -4.5146069e-01
 -2.2986603e-01
 -7.2008485e-01
 -3.1127268e-01
  7.0049271e-02
 -1.1145708e-01
 -6.7121816e-01
  6.4199679e-02
 -1.4358921e-01
 -2.8807542e-01
 -9.3129702e-02
 -6.4697437e-02
 -1.6805078e-01
  1.2741052e-02
 -4.2687297e-02
  4.3360356e-02
  9.2609927e-02
 -1.3523899e-02
  5.8585729e-02
  2.0605057e-01
 -1.6607034e-01
  4.2974614e-02
  2.6788587e-02
 -6.9246769e-02
 -8.1641981e-03
  2.2646440e-02
 -2.3369065e-02
  3.7490994e-02
  6.0442299e-01
 -7.5241700e-02
 -1.7242124e-02
  5.9262224e-02
 -1.5719178e-01
 -1.8051235e-02
  2.1044128e-02
  1.5096156e-01
  8.7554835e-02
 -1.1433092e-01
 -2.7428534e-02
 -2.5395046e-03
 -1.6555758e-02
  2.7064705e-02
 -2.4796911e-02
  3.2111511e-02
  4.2854853e-02
 -4.4596395e-03
  1.5150585e-03
  7.1527235e-02
  9.8362872e-03
 -1.7191129e-02
 -2.4723772e-02
  7.0466436e-03
  9.2521748e-03
  4.1201334e-03
  1.1334129e-01
 -6.8159803e-04
 -1.2531548e-02
 -3.7119806e-02
 -5.9218314e-02
  1.4631293e-02
 -1.5305225e-02
 -1.3912059e-02
 -8.6196363e-02
 -2.8573701e-01
  2.7498651e-02
  5.7756703e-02
 -4.3485049e-02
 -5.6334515e-03
 -1.8223035e-03
  3.8125407e-02
  9.3448035e-02
 -1.8543752e-03
  4.6582531e-02
 -3.0751508e-02
 -3.5707794e-02
 -1.8177142e-02
 -7.3156901e-02
  3.4523956e-02
  9.6457519e-02
  1.4867153e-02
 -4.1548077e-02
  9.6304961e-02
  8.8100590e-02
 -5.6477521e-02
 -7.1485080e-02
 -4.0518261e-02
 -1.0241681e+00
  3.1053513e-02
 -4.0491767e-02
 -1.8979372e-02
  3.9965531e-01
  1.5447813e-02
 -1.7886471e-02
  6.5390460e-02
  7.1856543e-02
 -1.2573974e-01
 -1.6093075e-02
 -7.1868207e-03
  9.8324157e-02
 -3.2425281e-02
 -7.2216764e-02
 -5.8847863e-02
 -1.7134355e-03
 -4.7371048e-02
  3.4708150e-03
 -1.0728948e-02
 -1.1724874e-01
  2.0853642e-01
 -1.1606156e-01
 -4.1090488e-03
  1.3131791e-01
 -1.5574112e-02
 -9.7912014e-04
 -5.7626003e-03
 -1.4891881e-02
 -1.2849295e-01
  8.5430490e-03
 -7.0607094e-03
 -3.2993626e-02
  8.5941730e-03
 -3.6978249e-03
  6.7767553e-02
  6.3035160e-04
 -1.0546394e-02
  4.8669349e-02
  3.9384365e-02
  3.9673589e-02
 -4.2623680e-02
 -1.0582331e-02
 -1.0769544e-02
 -2.7271473e-01
  3.2932773e-02
  1.1941706e-02
 -9.2479395e-04
 -5.2609555e-02
 -1.8921813e-01
 -5.4396875e-02
  8.0836285e-03
  3.2828605e-01
  3.8084794e-02
  5.4991562e-02
  6.8437718e-02
  3.0516708e-02
  4.2778499e-02
  1.6399724e-02
 -7.3619254e-02
 -7.7832681e-03
  1.1603091e-01
 -2.5026483e-02
  7.2530828e-02
  3.5716731e-02
 -3.6776315e-03
  8.4774416e-05
  1.2375806e-02
 -7.6154717e-03
 -3.9604966e-02
 -2.9273301e-02
  3.4377307e-02
  9.1974035e-02
  7.5652167e-02
 -4.2853612e-02
  1.6023888e-01
  1.9219156e-02
 -1.2003841e-02
  8.1628459e-03
 -1.4222403e-01
 -1.2313606e-02
 -1.0841726e-02
 -9.7835533e-02
 -7.7684723e-02
 -1.4306669e-02
  7.8730538e-02
  3.0071337e-03
  9.1402940e-03
  1.5575911e-01
 -5.2079402e-02
 -1.8667497e-02
 -8.5611045e-02
 -8.2547665e-02
 -6.3952561e-03
 -4.7576278e-02
  7.9146717e-03
  1.0744309e-01
  3.4819152e-02
 -1.3241996e-01
 -9.6935284e-01
 -3.0743573e-02
 -4.1859463e-02
 -2.4520980e-02
  4.7581722e-03
  5.8498248e-02
  3.2032676e-02
 -1.5291378e-01
  2.5487041e-02
 -6.0176402e-02
 -4.0646896e-02
 -1.3634605e-02
  4.2900596e-02
 -4.3981981e-02
  6.0292937e-02
 -1.9785283e-02
  2.9357096e-02
 -8.6971251e-03
 -6.0137819e-02
 -1.3734389e-02
 -6.2591083e-02
  8.0434615e-03
 -7.0775062e-04
 -8.8012712e-03
  2.6403440e-02
 -3.5712820e-02
 -2.8429171e-02
 -3.4775354e-02
 -1.7150490e-01
  1.3929370e-02
  7.8132898e-02
 -8.0849454e-03
 -5.6973984e-03
  1.6321395e-02
 -2.0482644e-01
 -9.9777780e-02
  6.0353797e-02
 -2.6979072e-02
 -2.4698937e-02
  1.2329866e-01
 -1.8063422e-02
 -6.3602217e-02
  4.6465553e-02
  4.9481485e-02
 -7.3882304e-02
  1.4608340e-02
  1.0639712e-01
  1.5061751e-02
  2.5802488e-02
 -2.2015246e-02
  3.3437304e-02
  1.2451710e-01
 -2.0862568e-02
 -6.2940650e-02
  1.1452241e-02
 -9.0706818e-02
 -9.1096513e-02
 -8.0865538e-01
  2.5326231e-02
 -1.5324826e-02
  1.0920922e-01
 -4.0563967e-02
 -7.5206901e-03
 -8.8168293e-02
 -7.8140636e-04
  1.2189162e-02
 -1.4708418e-01
  1.4575541e-02
  5.0311461e-02
 -3.7627667e-02
 -1.0920919e-02
  1.5604119e-02
  9.4890229e-02
 -9.8553263e-02
  7.9537317e-02
 -3.4802977e-02
 -2.6646717e-02
  1.5595611e-02
  8.1002988e-02
 -3.0584384e-02
 -7.2660595e-02
  4.8193958e-02
 -1.6151292e-02
  2.3394313e-02
  2.5385063e-02
  1.9208891e-02
 -1.1246991e-02
 -7.7438936e-02
  3.2440480e-02
  1.4484660e-02
 -2.8199932e-01
 -1.8843887e-02
 -1.3917842e-02
 -4.4340294e-02
 -5.3133294e-02
 -1.5354354e-02
  3.1785492e-02
 -5.4287422e-02
 -2.2342021e-02
 -5.0378758e-03
  3.8686775e-02
  9.7871341e-02
  1.0655425e-02
  6.6373549e-02
 -5.5573024e-02
 -2.4150931e-03
 -2.9583914e-02
  5.1569347e-03
  3.0421110e-02
 -9.7583923e-03
 -1.4060083e-01
 -6.9104396e-02
  3.6364216e-03
 -5.7668430e-03
  9.7275071e-02
 -1.8162072e-01
 -1.2674218e-01
 -7.3694144e-03
  7.0358127e-02
  1.6194893e-02
  2.7907740e-03
 -9.0301476e-02
  7.8592137e-02
  5.1582549e-03
 -2.6310824e-02
 -8.7255146e-03
 -8.5536025e-02
  3.8030133e-02
  6.3507590e-03
  8.3392002e-03
 -4.3975241e-02
 -6.7793548e-02
 -4.3832216e-02
 -1.4696075e-03
  1.0162004e-02
 -3.1635910e-02
 -7.3487103e-02
  6.0533822e-02
  4.0817585e-02
 -2.7879739e-02
 -1.3313183e-02
 -1.7571146e-02
 -2.3394297e-03
  2.6862819e-03
  3.4948963e-01
 -1.1124818e-02
 -1.9735515e-03
  2.9735260e-03
  4.8417561e-02
 -3.2014377e-02
 -7.6827407e-02
 -5.1657427e-03
 -3.0624119e-03
 -3.5460055e-02
 -1.4316533e-03
 -3.7069988e-02
  8.9360476e-02
 -1.7697424e-02
  5.6861420e-03
 -9.4340943e-02
 -1.7297100e-02
 -2.7741054e-03
 -4.4045717e-02
  6.9178484e-02
  4.0785730e-02
  9.1919694e-03
 -1.6732666e-01
 -2.3203460e-02
  2.8472457e-02
  9.7838499e-02
 -2.3339666e-02
  3.5547663e-03
 -1.9302215e-02
  2.8920092e-03
 -5.6090694e-02
  6.5162435e-02
 -1.2676942e-01
 -7.9326173e-03
  6.0891425e-03
 -5.6599695e-03
 -2.2557739e-02
  4.6575051e-02
 -1.0901571e-01
 -4.8715439e-02
 -4.0952634e-02
 -6.0570419e-02
 -4.1850824e-03
 -5.6902491e-03
 -1.3714327e-02
 -1.4233059e-01
  1.0249890e-02
 -3.4237050e-03
 -3.5094075e-02
  5.1200315e-02
  5.6651983e-02
  2.3651415e-02
  1.2158358e-01
 -4.6200313e-02
 -4.5963456e-03
  7.8630634e-02
 -5.7194359e-03
 -8.1710674e-02
 -6.8714893e-03
 -6.8156898e-02
 -3.2934784e-03
 -1.4288221e-02
  7.7605653e-03
  2.4896478e-02
  2.9501520e-02
  1.7904090e-02
 -2.0415869e-02
  6.4445082e-03
  1.0685583e-01
  2.3626493e-02
 -2.7771931e-02
 -4.7126852e-02
 -6.2405025e-03
  9.9291764e-02
 -1.4029303e+00
  1.7190395e-01
  6.4610638e-02
  5.6233544e-02
 -4.5143352e-03
 -4.4966843e-02
 -1.6390705e-02
 -4.1102660e-03
 -2.1262022e-02
 -9.7780287e-02
  2.2134472e-01
 -1.0555688e+00
 -4.6035193e-02
  1.8722624e-02
  2.4539329e-02
  1.0874263e-02
 -2.7496032e-02
  1.3156554e-02
 -2.3803271e-02
  2.1914141e-02
 -2.7467901e-02
 -3.7185803e-02
 -5.4013994e-02
 -6.6531889e-02
  1.7633657e-01
 -1.3218190e-01
  3.7616105e-03
  1.0891584e-01
  1.5921086e-02
 -2.1338782e-03
 -5.6919429e-02
 -9.8418869e-02
  3.1136626e-03
 -2.2891261e-01
 -1.2069418e-01
 -6.6111952e-02
  2.4737481e-02
  6.5530822e-02
 -1.0818915e-02
  1.7979022e+00
 -8.9635260e-02
 -2.5215205e-02
  2.3875071e-02
 -9.5840402e-02
  2.7799102e-02
  6.0482439e-02
 -3.8167108e-03
  1.8786380e-02
  2.4567956e-01
 -3.5908169e-01
  5.0257081e-01
 -6.6194773e-01
 -3.1339839e-01
 -4.7838941e-02
  6.7854989e-03
 -1.0697775e-01
 -3.1528424e-02
  7.2678559e-02
  6.5547921e-02
 -1.1848617e-01
  8.3046377e-01
  5.3697996e-02
 -3.6398821e-02
 -6.4396307e-02
  2.4905284e-01
 -3.9972803e-01
  8.6836345e-02
  8.2587926e-03
  1.8655960e-01
 -1.2139209e-01
  4.6030197e-02
 -2.9894374e-02
  7.9288825e-02
 -8.8604778e-02
  2.1323610e-02
  7.4066870e-02
 -1.6010796e-01
 -1.9875093e-01
  2.5064740e-01
 -7.2787352e-02
 -1.0363802e-02
  1.7114149e-01
 -1.0121274e-01
 -5.1027232e-01
 -4.6795784e-03
  4.3322749e-02
 -3.2512200e-01
  1.0470671e-02
  5.5653106e-02
 -9.1434222e-01
 -9.9721749e-04
 -1.8688664e-01
  1.2686510e-01
 -3.5922988e-03
 -7.8012064e-02
 -2.0932721e-01
  1.1213244e-01
  1.7009554e+00
 -6.0951948e-01
 -9.8266256e-01
 -4.9329963e-01
 -1.7298231e+00
  1.0066947e-01
  1.8913123e-01
  1.2020137e+00
 -2.7412319e-01
 -1.6896848e-01
 -4.1297126e-01
  1.7623277e-01
  5.1301283e-01
 -7.2277194e-01
  7.9436088e-03
 -6.4442551e-01
  1.6742563e-02
  2.3267640e-01
 -6.8749720e-01
 -4.3340880e-01
 -2.0077690e-01
  2.2396469e-02
 -7.7237123e-01
  7.6654330e-03
  4.6989018e-01
  6.0272589e-03
 -1.5565340e-01
  3.5597791e-03
 -2.4414536e-01
  7.3555857e-01
 -2.1338159e-02
 -1.6081604e-01
 -3.7511259e-01
  8.9405000e-01
  5.8965040e-03
  6.4135427e-03
  5.0670302e-01
  5.6747806e-01
  5.3049338e-01
 -1.5103420e-02
  2.5066137e-01
  1.8839320e-02
 -1.4399058e+00
  9.5030010e-02
 -3.8665380e-02
  1.1808065e-02
  8.2256660e-02
 -2.7105039e-01
  6.8853974e-02
  1.2885583e-02
 -2.7469367e-02
 -2.0545445e-02
 -4.1403700e-02
  4.4386455e-01
 -4.3363118e-01
 -7.1043563e-01
 -1.9025431e+00
 -4.0993077e-01
 -3.8519815e-01
 -2.6703749e+00
  1.2343863e+00
 -2.5788423e-01
 -6.4938933e-01
  2.0602999e+00
 -1.5180008e-02
 -3.1618389e-01
 -7.3434180e-01
 -7.3401278e-01
 -1.9516927e-01
  2.1032767e+00
 -1.2952548e+00
 -2.9933837e-01
  1.5191895e+00
 -6.5919526e-02
 -1.1622621e+00
 -4.9863023e-01
 -3.9896959e-01
 -5.6645894e-01
  8.3555973e-01
 -3.5458526e-01
 -3.0896856e-02
  1.0290060e-01
  1.5641163e-01
 -9.5685250e-01
 -8.5696733e-01
  7.2197497e-01
 -2.7598828e-01
  5.1780656e-02
 -3.8528943e-01
  5.6679082e-01
 -2.4376176e-01
 -1.4729662e-01
 -5.8928084e-01
 -7.3036629e-01
  2.5692037e-01
 -3.7437278e-01
 -1.1269415e-01
  8.3735245e-01
  5.6048781e-01
 -2.4837282e-01
 -1.5923019e-01
  3.9048511e-01
  1.3480483e-01
 -3.1979445e-01
  3.0601317e-01
 -5.2927911e-01
 -1.6546091e-01
  3.2866883e-01
  5.1133089e-02
  5.0288975e-01
 -1.9600715e-01
 -3.5282493e-02
  1.9394524e-02
 -2.6968310e-03
  9.9493749e-03
  9.3632393e-02
  6.2751540e-05
 -2.6009509e-02
 -2.3562536e-02
 -1.5271690e-01
  6.3465901e-02
 -1.0566788e-03
  7.6745294e-02
  5.8679327e-02
  6.8928964e-02
 -8.5679702e-02
 -4.5715060e-02
 -1.8676773e-02
 -1.3972322e-02
 -4.3389324e-02
  2.0487180e-02
 -1.0082243e-01
 -7.6515608e-02
 -1.0625471e-02
  3.1011038e-02
 -2.2519207e-02
  9.4359601e-03
 -5.3093751e-04
 -1.1705598e-02
 -2.2977384e-02
 -1.3797265e-02
  1.4069796e-02
  2.4601152e-02
 -7.2905365e-03
  4.0874030e-03
 -2.7517141e-03
  1.5380660e-02
  8.9237494e-03
 -3.8358007e-02
 -1.9527011e-02
 -1.4449157e-02
 -1.7634884e-02
 -4.7118079e-02
  2.1739535e-02
 -1.7576769e-02
 -4.2142052e-02
  1.5191445e-01
 -4.1978568e-02
 -2.6642956e-02
 -6.9730170e-02
 -1.0825294e-02
  5.3117829e-03
 -4.1250136e-01
 -6.3519937e-01
  4.5224309e-02
 -8.1621990e-02
 -3.5065599e-02
  6.8019517e-02
  1.6911522e-01
  3.3825606e-01
  1.8470465e-01
 -3.3355795e-02
 -2.8987925e-02
 -2.7564915e-02
  2.7251592e-02
 -1.0778493e-03
  1.8678043e-02
  3.8065780e-02
  1.2038718e-02
 -1.7591042e-02
  3.3449627e-02
 -1.6102497e-02
 -1.1583416e-01
  4.4867039e-02
  2.5062863e-02
  2.7391888e-02
  7.4696592e-03
 -1.6124112e-03
  3.9180931e-02
 -1.1229421e-02
  6.0216749e-05
  8.2330784e-04
 -2.3167573e-03
 -5.0196094e-03
 -2.2332203e-02
 -8.4286518e-02
  8.6994201e-02
 -7.5214647e-02
  2.4216261e-02
 -1.0485516e-01
 -2.8967855e-03
  4.0394541e-02
  6.2128357e-03
  2.5989689e-02
 -4.9963366e-02
  5.6621667e-02
  8.2991645e-03
  7.5607412e-02
 -1.2838201e-01
 -7.1589962e-02
  2.1222902e-02
 -4.6412606e-02
 -3.1638052e-02
  6.0462025e-03
 -3.8040534e-02
  1.2075727e-02
 -1.2416384e-01
  1.9008748e-02
 -9.4989784e-02
  7.8788348e-02
  1.2581921e-02
 -1.0869504e-01
  3.8068887e-02
 -2.4900992e-01
 -8.5092336e-02
 -3.2921977e-02
  9.9719502e-03
  4.3587298e-03
 -6.8642879e-03
  3.9280411e-02
 -1.6426418e-02
  1.4965808e-01
 -9.1655208e-03
 -1.6633987e-02
 -2.4645878e-02
  4.4095833e-02
  9.7502850e-02
  1.7677139e-02
  1.5864353e-01
 -6.4056866e-02
  1.1727016e-02
  5.4319534e-02
 -8.0949748e-03
  1.6355032e-02
 -1.6442250e-02
  1.9437006e-02
 -5.0551452e-02
  4.4315204e-02
  2.2357941e-02
 -2.7173018e-02
  3.2977358e-02
  2.2747095e-01
 -2.3371214e-02
  7.6450169e-02
 -1.0139677e-01
  5.7822984e-02
  9.6968532e-02
 -5.1488239e-02
  1.5125971e-01
  7.0998371e-02
  2.1217691e-02
  5.0150413e-02
 -1.7075943e-03
 -6.7392990e-02
 -7.3007219e-03
  1.1001496e-02
 -1.7608887e-02
  4.3422248e-02
 -1.1896280e-02
 -1.9589469e-02
  2.6060167e-01
 -8.8912316e-02
 -3.7839776e-01
  2.5025878e+00
 -4.3920901e-02
 -6.1467257e-03
 -1.4428813e-02
 -5.5291638e-02
 -8.4492171e-01
 -1.6613829e-01
 -8.6148484e-03
  8.7764271e-02
  8.9325953e-01
 -5.0793950e-02
 -1.2203448e-01
 -6.2461120e-01
 -4.3205120e-02
  5.4937899e-02
 -8.0078794e-04
  3.8870331e-03
  7.3911674e-02
 -3.6014482e-02
  5.4973029e-03
  2.0150998e-01
  6.7674868e-02
  1.6852885e-01
 -1.6617628e-02
 -1.3091932e-01
 -7.9199463e-02
 -3.6208913e-02
  4.3290373e-02
 -5.8530826e-02
  1.3872650e-02
  2.1390533e-02
 -7.7314563e-02
  1.5397761e-02
 -3.4286726e-01
  2.9444715e-02
 -9.6794963e-02
  2.1307228e-02
  1.1697446e-01
 -1.6597244e+00
  1.3148293e-01
 -2.3172105e-02
 -6.2642251e-03
  2.1401946e-02
  3.0527284e-02
 -1.6446805e-02
  3.5256267e-02
 -1.4709581e-02
  4.9960233e-02
 -4.1184980e-02
  1.5048168e-03
 -3.0344412e-02
 -2.7518224e-02
  8.3789319e-02
  3.6956470e-02
  5.3932212e-02
 -6.5042190e-02
 -5.3498452e-03
  7.3239803e-03
 -8.4188618e-02
 -2.3044126e-02
 -2.8346956e-02
  4.9026043e-04
  2.1566397e-02
  3.3293217e-02
  7.4985512e-02
 -3.9726872e-02
 -1.1951807e-01
 -2.8284842e-02
  6.3023947e-02
 -4.7200426e-02
 -4.4124719e-04
  1.1649604e-02
  5.4577813e-03
  3.5741694e-02
 -1.5599240e-01
  9.7914599e-03
 -2.6809731e-02
  1.0638597e-01
  8.0441892e-02
  1.1395350e-03
  6.2867039e-04
  1.4934838e-02
 -1.7282128e-02
 -1.3784170e-01
 -8.4197838e-03
 -7.5447977e-02
 -1.6882303e-01
  1.6639043e-02
  2.3908416e-02
 -2.3149563e-02
 -1.1475096e-02
  3.2383483e-02
  9.8504871e-02
 -1.2055238e-01
  7.5459033e-02
 -1.1204176e-02
  1.0342999e-01
  3.3074819e-02
 -1.3955194e-03
 -1.3466324e-03
 -7.4581183e-02
  4.2208783e-02
 -9.4551109e-02
 -4.0714503e-03
 -9.4406377e-04
 -2.0165201e-02
 -1.4001913e-01
  3.5837866e-02
 -2.0802507e-02
 -3.4542663e-03
  2.2556586e-02
  7.4496530e-02
 -3.0259806e-01
  8.6261921e-02
 -1.7631579e-02
 -9.4471350e-02
  1.0608166e-02
 -3.4606602e-02
  1.8295931e-02
 -2.5838036e-03
 -1.1053222e-01
 -6.6672675e-02
  8.7254886e-03
  2.6668426e-01
 -1.1688030e-02
 -7.4502407e-03
  8.3111878e-03
 -2.5417036e-01
 -3.1890448e-02
 -4.9273137e-02
  2.9228717e-02
  8.9650461e-03
  6.9278337e-02
 -1.4999720e+00
 -3.3417594e-02
  1.0876854e-01
 -8.1272773e-02
  9.8143503e-02
 -7.6985951e-03
 -1.4280666e-01
 -2.6824547e-02
 -2.0225631e-02
  3.7828046e-01
  1.0721300e-02
  2.4759924e-02
  3.1285483e-02
 -9.8579518e-02
 -1.1184330e-02
 -3.4158867e-02
 -3.1700760e-02
  2.5606746e-02
 -2.6382582e-02
  6.2267043e-02
 -2.4519267e-03
  8.8224381e-02
 -7.4026525e-02
  7.4695493e-03
 -9.8840762e-03
 -3.7789647e-03
 -1.1414503e-01
  9.7056501e-02
 -1.8930633e-01
  3.7276395e-02
  1.9952579e-01
  2.1761800e-01
 -2.2112100e-01
 -7.4976981e-01
 -6.1797363e-01
 -1.0851227e-02
  3.8643643e-02
 -5.4764073e-02
  2.2402085e-01
 -1.1311447e-03
 -2.1320252e-02
  9.9420482e-03
 -1.1414006e-01
  3.8504007e-01
  8.2079016e-02
  5.2620634e-02
 -1.3912703e-01
  1.2905494e-02
  4.2701358e-01
  3.1399988e-02
 -3.2231224e-01
  9.6941898e-03
  9.6804928e-03
 -4.5724846e-03
  1.1926285e-03
  6.1436228e-02
 -1.7989218e-02
 -1.9561322e-02
 -9.8212427e-03
 -1.8222572e-02
 -1.5258027e-02
  2.1617256e-02
  6.1493576e-02
  2.1252751e-02
  8.2410139e-01
 -3.7653267e-02
 -2.2222953e-02
 -9.3492568e-02
  1.5688034e-02
 -2.1735723e-01
 -6.0439557e-02
  7.6542154e-02
 -7.0588306e-02
  8.1180848e-02
  1.1263071e-02
 -2.5760064e-02
 -6.3603669e-02
  1.1526152e-01
  1.2255453e-01
 -2.7847402e-02
  4.6211876e-02
  1.0957061e-02
  1.8325227e-01
 -4.4497927e-03
  1.0744927e-02
 -1.5234356e-03
 -4.4260159e-02
 -2.0318258e-01
 -1.0078763e-02
  4.5235787e-02
 -1.8609075e-02
  5.7098465e-03
  9.1974035e-02
  4.6824921e-02
  5.3078823e-02
  7.5670272e-02
  1.9550189e-02
 -9.2787677e-03
 -3.8951054e-02
 -2.5874311e-03
  6.9369324e-02
 -3.0612589e-03
  3.1171072e-02
  8.6209916e-02
  1.1267853e-02
 -1.8019231e-01
  1.0610954e-01
  3.9973289e-02
  1.4011678e-01
  1.6049456e-02
  3.0762572e-02
 -7.3234630e-01
 -5.8120876e-03
  5.7331480e-02
 -8.6032124e-03
  1.0078459e-01
 -7.7800199e-02
  7.7451907e-02
  1.7044881e-02
 -1.2433263e-02
 -3.2881085e-02
  1.0866419e-01
 -7.9740405e-02
  6.7695074e-02
 -2.2246661e-02
 -7.8525014e-02
  4.6891630e-02
 -3.9029434e-02
  4.8675071e-02
  6.7728847e-02
 -4.2103697e-02
  6.7184046e-02
 -4.6015460e-02
  2.0247685e-02
  3.8002048e-02
 -4.4121100e-03
 -8.2847252e-02
  5.0530373e-03
  4.0927410e-02
  9.5216177e-02
  4.9665290e-01
  2.4872510e-01
  1.3218221e-03
  4.3918654e-02
  1.2256574e-02
 -3.0671535e-02
 -1.1304945e-01
 -1.0111491e-01
  5.5031750e-02
  1.7386919e-02
 -6.0616199e-02
 -3.9264057e-02
 -1.0134669e-01
 -6.6994496e-02
 -4.7358014e-02
  8.3493285e-02
 -1.5718246e-02
 -3.5077333e-02
  3.7212584e-02
 -1.4084372e-02
  2.2126297e-02
  1.6897923e-01
  1.8072115e-02
  3.9622128e-02
  3.7650743e-03
 -1.1038521e-01
 -4.5337200e-02
 -2.7046738e-02
 -3.3431787e-02
 -1.5676025e-02
 -1.3756327e-01
  5.9971861e-03
  1.2207775e-02
  4.2928196e-02
 -5.1144786e-02
 -1.0063948e-01
  1.0936091e-01
  4.2736190e-03
  4.4258176e-03
  3.1961445e-03
  1.0820187e-01
 -5.1459675e-03
 -1.0135091e-02
  3.2316502e-02
 -8.7696835e-02
  6.1317645e-02
 -3.0889744e-02
  1.4289445e-02
 -9.6731859e-01
 -4.1194236e-01
 -3.2605100e-01
  9.4619417e-01
 -4.9805066e-01
  5.5527604e-01
 -4.2297304e-01
 -2.2979255e-01
  5.0684077e-01
 -1.8981929e-01
 -2.5940368e-01
  2.2246793e-02
  2.7132243e-01
 -1.9071318e-01
 -1.1540098e-02
 -2.4152549e-01
 -3.2661569e-01
 -3.4617543e-01
 -1.1610985e+00
 -9.8850029e-03
 -9.1900542e-02
  3.1614268e-01
  2.5994664e-01
  2.3072834e-01
 -5.2331973e-02
 -5.3633183e-01
 -1.4904772e-01
  3.4007628e-02
  3.9339143e-01
 -2.8384527e-02
 -7.3904395e-01
  7.0926428e-02
 -1.2452164e+00
  3.9865798e-03
 -9.2275184e-01
 -2.0114604e-01
  8.3943149e-03
 -4.5921177e-02
  1.8931933e-01
 -6.2136680e-01
  4.7059333e-01
 -2.8607684e-01
 -6.5867966e-01
 -6.4324629e-01
  2.4534529e-02
  3.9771232e-01
  5.9007318e-03
 -8.3235418e-03
  2.6889164e-02
 -7.1358286e-02
  3.1448241e-02
  8.1304498e-02
  9.7877942e-02
  6.5479107e-02
  5.5768419e-02
 -5.0241137e-01
  1.5053166e-02
 -7.0124395e-02
  2.1585338e-01
 -5.2601215e-03
 -1.5531483e-03
 -2.1514954e-01
 -1.4849925e-01
  2.4493709e-02
 -5.1696457e-02
  4.6643220e-02
  8.6769788e-03
 -4.0334903e-02
  1.5919439e-01
  8.9928247e-02
  8.5535683e-03
 -3.5794776e-02
 -4.3230332e-03
  3.7211515e-02
  4.6253122e-02
 -2.9817158e-01
  1.6779517e-03
  3.9653171e-02
  5.9892099e-02
  1.6756512e-02
  7.2972402e-03
  5.5411872e-02
  6.7062646e-02
  5.6377750e-02
 -2.5056764e-01
 -2.5639644e-01
 -8.4695630e-03
 -7.3671728e-02
 -1.0792245e-02
 -6.6377543e-02
 -5.7958225e-03
  1.3225322e-02
 -2.4285813e-01
 -2.3837978e-01
  1.2394068e-02
 -4.4785786e-02
  3.6426295e-02
 -5.5635128e-02
  1.3879970e-01
  1.0820079e-01
 -2.1916477e-02
 -6.6482812e-02
 -3.7377473e-02
 -1.1758599e-04
 -1.5775960e-02
  1.0756228e-01
 -1.9935329e-02
 -4.3230642e-02
  3.5085358e-02
  4.4428479e-02
  2.0453531e-02
 -5.6065912e-03
 -5.9920087e-02
 -9.2901103e-02
 -9.1715046e-04
 -5.0254826e-02
 -1.9195372e-02
 -1.7250717e-02
  2.6586214e-02
  1.8780155e-03
 -4.5199241e-02
 -6.7502864e-02
  2.6782487e-02
  4.3795919e-03
 -4.9183499e-02
 -4.9659438e-02
 -6.8158624e-03
  6.1565604e-02
 -9.6940003e-02
  4.3080761e-03
  4.0111030e-03
 -5.2174784e-02
 -1.8230227e-03
  1.4081288e-02
 -2.8985243e-02
  6.8901167e-03
  1.4958169e-02
 -3.0913660e-02
 -1.7397249e-01
  1.9319268e-02
 -6.6020638e-02
 -6.6466376e-02
 -6.3590482e-02
  3.2599956e-02
  7.6452255e-02
  1.9694790e-02
  1.9068513e-02
  2.3635497e-02
 -2.5221402e-02
  1.0895559e-02
  4.7632884e-03
 -5.3587294e-01
  7.7701777e-02
 -5.4075047e-02
  2.6682382e-02
  4.2009361e-02
  2.1066537e-02
  1.4005135e-03
  3.4826551e-02
 -1.5373935e-02
 -4.7221677e-03
  2.7379679e-02
  1.0931157e-02
  4.1534778e-02
 -1.0032563e-02
 -2.6017701e-02
 -1.7689263e-02
 -1.5392596e-02
  9.2395674e-03
 -4.1217975e-02
 -6.4269140e-02
 -4.9686719e-02
  7.4433506e-02
  1.1842385e-02
 -8.2404166e-02
 -3.1251661e-03
  3.5103120e-02
 -3.5985012e-02
 -4.1826345e-02
 -2.7362561e-02
 -3.7997249e-03
  3.8414482e-02
  1.3490318e-01
 -1.9130704e-01
  1.4095937e-02
 -1.8023588e-03
 -8.8748969e-02
 -3.6870062e-02
 -6.6972181e-02
  2.8447050e-01
  1.4755092e-02
 -1.9710144e-02
  1.8634382e-03
 -3.7492976e-02
  1.8933851e-01
  1.1311175e-02
 -9.5985778e-02
  2.4935832e-02
  3.4606859e-02
  9.7658902e-02
  3.9169155e-02
 -4.7033080e-01
  1.7621513e-02
 -4.6674103e-02
 -1.0648250e-02
 -4.0005669e-02
 -8.4153906e-02
  2.8600121e-02
 -1.4874169e-02
  8.6117975e-02
 -1.2571651e-02
 -8.3160214e-02
 -1.3460594e-02
 -4.7759514e-02
  1.1689362e-02
  3.8055576e-02
 -2.9477727e-01
  1.4214066e+00
 -2.0859204e-01
 -2.9104167e-01
  1.2857409e+00
 -7.9173185e-02
 -1.0020070e+00
 -1.5608749e+00
 -3.0337042e-01
 -1.4154825e-03
  1.7927928e-02
  2.2645961e-01
  3.0715320e-01
  8.6574834e-03
  2.3981031e-02
 -7.1394756e-02
 -5.4037138e-03
 -3.9800388e-01
  4.5557385e-03
 -3.5810764e-03
 -5.0643940e-02
  2.2257268e-03
 -4.4218056e-02
 -5.7831127e-02
 -8.2229622e-02
  5.9239004e-02
  1.2800717e+00
  2.2768231e-02
  1.2920481e-02
 -6.6978596e-02
  4.3487889e-03
  1.2774719e-02
  7.4185468e-02
  1.0218998e-02
  4.9039215e-01
  7.8444645e-02
  2.4008559e-02
  3.5901979e-02
  1.8286629e-02
 -5.3831466e-02
  3.7499670e-02
  1.0445143e-01
  1.3029176e-01
  5.4081596e-02
  3.9225150e-02
 -3.8932238e-02
  3.4255065e-02
  9.1116011e-02
  3.1829820e-04
 -3.6430050e-02
  1.8703473e-01
 -2.9006600e-02
  7.6975629e-02
 -1.0625735e-01
  1.3620527e+00
  1.1156986e+00
  3.4660077e+00
 -1.3656690e+00
  1.1322575e+00
  1.4813141e+00
 -6.4240348e-01
 -1.0445639e+00
 -1.9702685e+00
 -1.6150211e+00
 -4.8006037e-01
 -7.3324591e-02
 -8.4804326e-01
 -8.7542135e-01
 -7.0601469e-01
  2.0893891e-01
 -6.7770344e-01
 -9.0260752e-02
 -1.7680931e-01
  4.0528166e-01
  4.2251205e-01
 -6.5939859e-02
  7.9162204e-01
  6.5755717e-02
 -7.2051811e-01
 -2.2535553e+00
 -1.4972480e-01
  4.2992038e-01
 -2.6030231e-02
  1.4558315e-01
 -3.4880409e-01
  7.1021587e-01
  3.1258655e-03
 -1.0918232e-02
 -9.4303799e-01
 -1.2496902e+00
  2.8362131e-02
  1.1871987e-01
  6.7701899e-02
 -3.8128263e-01
 -5.6837928e-02
 -5.6554060e-02
 -1.7822303e-01
 -7.7766365e-01
 -2.7887100e-01
  1.1718728e-01
 -2.8392620e-02
 -8.4153217e-01
 -3.4392214e-01
  4.0704720e-02
 -6.3117400e-02
  1.6233911e-01
  2.5518957e-01
 -7.0169575e-05
 -1.8090189e-01
 -1.4116393e-01
  2.3972884e-01
 -2.3075764e-03
  2.0673852e-03
  2.0975256e-03
 -4.3185940e-01
  1.1268632e-02
  6.4332384e-01
  1.4328612e-01
 -1.3342859e-02
  2.6943460e-02
  2.2082627e-02
  1.9737083e-01
 -1.3921885e-02
  2.6595584e-01
  2.1292662e-02
 -2.5263790e-03
  9.5614448e-02
 -4.3143630e-02
 -2.2547261e-01
  2.0837034e-01
  2.0556258e-02
 -1.6211228e-02
 -4.0829685e-02
 -1.0124483e-02
  3.6430340e-02
  1.5898553e-01
  6.1432015e-02
 -9.1950722e-02
  1.6271569e-01
  3.6213029e-02
  1.0026863e-01
 -1.7631609e-02
  1.6674462e-01
  2.5756190e-02
 -7.1837820e-02
 -1.5366273e-01
 -7.7796146e-02
  1.2033974e-02
 -2.9551446e-02
  5.6806125e-02
 -5.5438180e-02
 -1.0510098e+00
  8.1004106e-02
 -1.4976436e-01
 -5.1361443e-03
  2.4136994e-03
 -4.5789447e-02
 -2.7142104e-02
 -7.1701378e-02
 -4.1875079e-02
  1.3614172e-01
 -8.3004281e-02
  5.0917231e-03
  8.1755266e-02
 -1.5672464e-02
 -3.8079984e-02
 -1.1892426e-01
 -6.4948000e-02
  1.1829449e-02
  5.8799076e-01
 -5.5183608e-02
  3.0166637e-03
  1.2654149e-02
  5.4941975e-02
  6.6845305e-02
 -9.5030576e-02
  3.7277587e-02
  1.5444437e-01
 -1.9064577e-02
 -1.0668641e-01
 -2.7504379e-02
 -1.6522340e-02
 -3.2351401e-02
 -9.9575639e-02
 -9.7524695e-02
  9.9863015e-02
 -8.6428054e-02
  2.4074599e-02
 -3.8419007e-03
  3.2813087e-02
  6.1139544e-03
  5.5620555e-02
  1.0913771e-01
 -1.3240725e-02
 -3.4943875e-03
 -4.6636205e-02
  1.5839947e-02
 -1.8582395e-01
 -4.0794503e-02
  2.7203491e-02
  1.1735357e-02
 -1.5761591e-02
  1.9374400e-03
  5.1953662e-03
 -6.8860771e-03
 -3.1185051e-02
 -7.2074190e-02
  3.9826989e-02
  3.1945243e-02
  4.4430334e-02
 -5.0553318e-02
 -7.7293329e-02
  2.7647449e-02
  6.5050349e-02
  3.2140099e-02
  1.2916679e-02
  5.8927894e-01
 -2.4266861e-01
  9.9620825e-01
 -1.6225615e+00
  5.5891001e-01
 -7.0273542e-01
  5.9860062e-02
 -1.2212300e-01
 -7.1948566e-02
  4.5175087e-01
  9.3902387e-02
 -6.7717087e-01
 -1.0710391e-01
  9.5385402e-01
  2.7218622e-01
 -4.9836165e-01
  2.7821562e-01
  1.7072760e+00
  1.1447132e+00
 -7.9372483e-01
 -1.0039208e+00
  8.1080079e-01
 -2.6095426e-01
 -4.8088346e-02
  8.2453495e-01
  9.7996128e-01
  3.0530113e-01
 -1.8363962e-01
 -1.5923603e-02
  6.8637215e-02
  3.0890766e-01
 -4.3475816e-01
 -1.5395464e-01
  3.8052656e-02
  1.3412174e+00
  4.6656647e-01
 -2.3845204e-03
  5.3816253e-01
 -2.0020150e-02
  2.5761420e-01
 -8.6541049e-02
  3.5667226e-01
 -4.1871846e-02
  4.7290899e-02
  2.5284439e-01
 -2.8663334e-01
 -1.1387735e-01
 -2.0545705e-01
  7.6474072e-03
  2.5786763e-01
 -8.7737963e-02
  5.9483387e-02
 -5.0837332e-03
 -4.8629463e-02
 -5.0449040e-02
  2.1438591e-01
 -1.3452648e-02
 -2.0862702e-02
 -3.7870951e-02
 -6.4994454e-02
  3.5816640e-02
 -1.1601850e-01
  2.4726161e-01
 -9.8161465e-03
 -6.5777190e-02
  1.2578835e-01
  1.6453652e-02
 -1.0834710e-01
 -7.1805785e-04
 -1.5641476e-01
  1.0844208e-01
 -3.3537962e-02
 -1.3940123e-01
  4.8080403e-03
  8.9997929e-03
 -4.4439822e-02
  5.4446287e-03
  4.3417834e-02
 -8.0841288e-02
 -3.7826940e-02
 -5.5530958e-02
 -1.9243816e-01
  1.9872446e-02
  9.7634606e-03
  2.2898309e-02
  2.7266417e-02
 -1.6323568e-02
 -3.6846749e-02
 -1.5657835e-01
  1.9245796e-02
  5.1329425e-03
 -3.2557645e-03
  3.3870477e-02
 -1.7631087e-01
 -6.4344960e-03
  1.0060957e-02
 -6.3904035e-03
 -3.2116037e-02
 -2.2234445e-02
 -7.5115547e-02
  4.6765972e-03
 -6.7683300e-03
  4.8146773e-02
 -2.1874676e-02
  1.3717864e-01
  2.4531078e-02
 -1.5325043e-02
 -6.4711228e-02
  1.5378424e-02
  2.2594893e-02
  1.8816078e-01
 -1.9443328e-02
  1.1088018e-02
  5.9270859e-02
 -7.1597626e-03
  6.3492876e-01
  2.8995881e-02
 -2.0442744e-04
  3.8286518e-02
  7.3583596e-03
  4.1333564e-02
 -3.7601624e-02
 -7.8073591e-02
  8.7173702e-03
 -3.0123563e-02
  9.1729946e-03
  1.1415774e-01
  1.1206175e-01
 -2.0990521e-03
 -1.2895314e-03
  5.1892180e-02
 -2.9042044e-01
 -6.5122287e-05
  1.4138837e-02
 -8.6812805e-03
 -2.8826756e-04
 -3.3254738e-03
 -1.3085535e-01
 -3.0695756e-03
 -1.4477558e-02
  2.6160770e-03
 -1.0900661e-01
 -4.4454937e-03
 -1.0373635e-01
  1.6381625e-02
  4.6121396e-02
 -2.9422332e-02
 -8.5512213e-03
  2.7132828e-02
 -1.6548334e-02
 -1.0662348e-01
 -1.8182229e-02
 -5.5712243e-03
 -2.8594896e-02
 -2.7075095e-02
  2.2212919e-02
 -4.5326065e-02
  4.7710150e-02
  3.0668227e-02
  9.7018033e-03
  8.7841069e-03
  2.2828441e-02
  7.7020508e-01
  3.5621166e-02
 -3.4962034e-01
  9.7051233e-02
 -7.6394767e-01
 -5.5694085e-01
  2.1438429e-01
  7.4710292e-01
  9.2741936e-01
  2.0484813e-01
  2.9336924e-02
 -1.6034199e-03
 -2.9417208e-01
  3.2612275e-02
 -1.0631330e-02
 -1.6672539e-02
 -3.0961692e-02
 -1.8111415e-01
  6.3399732e-02
 -2.3666641e-03
  1.5362997e-01
 -5.2248191e-02
 -4.0422410e-02
 -4.3817829e-02
 -2.7086442e-02
  3.7676256e-02
 -1.6284904e-02
 -4.2086208e-04
 -1.9587338e-01
  2.9721577e-02
 -6.9925830e-02
  3.1250931e-02
 -6.1122528e-03
 -2.7029892e-02
  1.8126074e-02
 -7.3998077e-03
  2.8665572e-02
  2.5725694e-02
  2.1446660e-02
  8.7203030e-03
 -1.9470209e-02
 -3.6980152e-01
  1.0933081e-01
  5.2578509e-02
 -3.5559501e-02
  7.6291457e-02
  1.6583340e-02
 -4.8230854e-03
 -5.8760014e-03
 -4.1941889e-03
  7.7596925e-02
 -1.7491044e-02
  1.0368820e-01
 -1.6961226e-02
 -1.6071426e-02
 -7.8127754e-01
 -9.5676750e-02
  1.0785067e-02
  4.4377726e-01
 -8.5640728e-02
  1.7839782e-01
 -3.5863078e-01
 -8.1683118e-03
  3.6653187e-02
 -6.6114165e-02
  1.1030130e-02
 -6.8945861e-03
 -3.9494206e-04
  1.4078093e-01
  7.2813220e-03
 -2.9255105e-02
 -7.2873466e-02
  4.0313158e-02
  3.6580622e-02
 -1.4332978e-01
 -7.1916969e-05
  7.1394970e-03
  3.2227788e-02
  1.9470987e-01
  4.8797633e-03
 -3.5522025e-02
  4.1940034e-04
  4.1330270e-02
  1.2531100e-01
  5.1303590e-03
 -9.4261579e-03
 -2.4982946e-02
  2.6825687e-02
 -1.0087187e-01
 -1.6753712e-03
 -1.7831226e-01
 -4.9990889e-02
 -8.7411888e-02
 -5.6582037e-03
 -1.3060949e-02
  5.6426702e-03
 -1.1414999e+00
  6.1485581e-02
  2.9342710e-03
 -5.2683514e-02
  6.7841797e-03
  4.0737789e-02
  4.4708077e-02
  5.1862732e-02
  1.9929002e-03
 -8.8273577e-02
 -9.1343271e-03
 -4.5731872e-02
  3.3743709e-02
 -3.3972792e-02
  6.0391072e-02
 -8.2976669e-03
 -5.6650363e-02
  2.8492825e-02
  4.5711376e-02
 -3.4979515e-02
 -3.8994479e-01
  2.6701678e-02
  1.0826824e-01
  8.2095629e-03
 -1.5864393e-01
 -7.6435387e-02
 -7.1771696e-02
 -3.7500285e-02
 -5.9106089e-02
  1.5575805e-03
  4.1210461e-02
  2.6348464e-03
  4.5072734e-03
  7.7755906e-02
  5.6205362e-02
  5.9306275e-02
 -5.9623349e-02
  3.7659887e-02
 -5.9008249e-03
  1.5150407e-02
 -7.5457497e-03
 -3.5290260e-02
 -3.7957191e-02
 -6.3306485e-05
  6.8439610e-02
 -6.1831926e-03
 -7.7971578e-02
 -6.7134933e-03
  2.9036893e-02
 -8.6254269e-02
  1.7629137e-02
 -1.9979912e-03
  6.4218946e-02
  2.7024282e-02
 -5.0410494e-02
 -2.8943935e-01
  3.7908377e-03
 -4.9298197e-02
 -3.2008473e-02
  1.5463111e-02
 -1.6813158e-03
 -4.1130236e-03
 -2.0385241e-02
  4.2919021e-02
 -3.8582072e-02
 -3.1126937e-02
 -4.9080569e-02
  9.7735310e-03
 -1.0875604e-01
 -7.4106031e-03
  2.2424179e-01
  4.2733513e-02
  1.1092662e-03
 -5.2478296e-01
 -1.0236717e-01
  1.2536376e-02
 -1.0465676e-02
 -2.3043247e-02
 -2.0817030e-02
  4.3195266e-02
  2.2571309e-01
 -7.2284900e-02
  7.8343540e-02
 -5.4691177e-02
 -2.8794411e-01
  2.0203272e-02
 -1.7977161e-02
  1.7114116e-02
  4.0718922e-03
  3.9489571e-02
  1.5042935e-02
  9.3728611e-03
 -1.5182403e-01
  8.0330241e-03
  6.9230520e-03
 -6.7779630e-02
 -4.0290491e-03
 -4.1103000e-03
 -3.8230419e-02
  2.2837271e-01
  5.7630274e-02
 -1.4681113e-02
 -1.5514145e-03
  2.8016964e-02
 -1.8011628e-02
 -3.5524752e-02
 -3.2800179e-02
 -2.1222252e-03
 -5.3872392e-02
 -1.6629934e-01
  6.9426030e-02
  1.9034270e-02
 -7.6974118e-03
  3.7332166e-02
  1.6379405e-02
 -2.6959760e-02
  4.0441804e-02
 -3.4293119e-02
  5.6481533e-02
  4.7584984e-02
 -9.9579087e-03
 -1.3577423e-02
 -3.2896459e-01
  3.3570323e-03
  3.8677722e-02
  1.4289846e-01
  3.9688151e-02
  1.7771813e-01
 -5.9529044e-02
 -2.7945575e-03
 -4.2288996e-02
 -1.4225515e-03
  4.3741245e-02
  4.2520589e-03
 -2.8888466e-02
 -1.0901299e-02
  1.9887974e-02
 -3.2188469e-03
 -6.6106273e-03
 -5.4290881e-03
 -3.4028474e-02
  4.5127343e-02
  6.5252266e-04
  2.5087535e-02
  8.4561184e-02
  2.7015891e-02
 -5.9565310e-03
 -8.2727365e-02
  5.2919567e-01
  3.2913577e-02
 -9.9442661e-02
  1.0399767e-02
 -1.0415233e-01
 -4.1660994e-02
 -2.1011515e-02
 -1.7003387e-02
 -1.5482537e-01
  2.8754532e-02
  2.8588059e-03
  5.4480057e-02
 -3.7139885e-02
 -3.1898835e-01
 -9.2631960e-03
 -1.7810758e-02
 -1.5227749e-02
 -2.2612521e-02
 -2.3556476e-02
 -1.7410745e-01
  2.3989756e-02
  7.4572708e-03
  4.2349193e-02
  2.8763184e-02
 -4.8432801e-02
  3.1136893e-02
 -4.2550054e-01
 -1.1504436e-01
  8.3790690e-02
  3.9412234e-02
  1.4148012e-01
 -2.7108175e-01
  7.0423022e-02
  2.4940667e-01
 -2.2113676e-01
 -1.5386781e-03
 -1.1567669e-02
  1.0773636e-01
 -6.1635029e-02
  2.6097499e-02
  3.6259436e-03
 -2.7762556e-02
  9.2887074e-02
  1.0667474e-02
 -7.4939327e-03
  2.5519157e-02
  7.3050648e-02
 -5.0972505e-03
 -1.3560755e-02
  7.5977623e-02
  5.4359000e-02
 -2.2653271e-02
  1.7081503e+00
  7.0179068e-02
  1.6212223e-02
 -3.6996968e-02
  1.8894199e-02
  6.8087608e-02
  1.0000641e-02
 -3.7821814e-02
  2.3813797e-02
  2.9213091e-02
  1.4555375e-01
  7.4998080e-03
  1.1793754e-01
 -1.4091220e-01
  3.9857291e-02
  4.8568532e-02
  5.2296504e-02
  3.9166389e-03
 -3.0552641e-02
  3.6019820e-03
 -6.0300816e-02
  8.7799326e-02
 -1.8667361e-02
 -1.1122956e-02
  4.0698025e-02
  3.4286920e-02
 -2.3014231e-02
 -3.7642729e-02
  1.3229842e-01
  4.4977427e-01
  1.0323858e-01
 -4.8318289e-02
 -1.0875711e-02
 -1.1848913e-01
 -3.1524442e-02
  3.3031690e-01
  2.4858202e-01
  1.2965803e-01
  6.2890255e-01
 -3.1146330e-03
 -6.8918489e-02
  2.3523230e-02
  7.7912532e-02
  5.6385231e-01
  1.2612298e-01
 -4.0698901e-02
 -2.0940720e-01
  6.5345159e-03
 -7.8863055e-02
 -9.8657586e-02
 -3.4565434e-01
  9.8485284e-02
 -6.5776533e-01
 -1.0927540e-02
  3.8408391e-02
  4.7813475e-01
  4.4750515e-01
  3.0675724e-02
  1.2618260e-02
 -3.0350257e-02
  4.0428698e-02
 -3.7724767e-02
 -3.2474238e-01
  1.8796798e+00
  2.4280392e-02
  2.7734631e-01
  8.9318633e-02
 -4.4317462e-02
  1.1749293e-02
 -6.9663532e-02
  2.1246213e-02
  1.0061457e-01
  1.1383178e-02
  1.3704678e-02
 -7.3235985e-03
 -1.6448746e-02
 -5.0767213e-02
  4.0628325e-02
  9.8963343e-02
  2.7182116e-03
 -1.3434024e-01
 -7.9892054e-02
 -1.8206438e-02
  4.4681117e-01
 -2.4950465e-02
 -2.6589425e-02
 -1.8250575e-02
  6.8532608e-02
  4.7657527e-03
 -3.0952910e-01
 -1.7729121e-01
 -2.3664897e-02
 -1.7827858e-01
  4.8203212e-03
  3.5190690e-02
 -3.4257986e-02
 -3.9763521e-02
  5.5308780e-04
 -5.5866864e-02
  2.3747422e-02
  1.0376314e-01
  5.7137746e-02
  1.1089198e-01
 -9.7050823e-02
  1.0398123e-02
  7.6443270e-02
  1.0588690e-01
 -2.1347936e-02
  1.0750541e-01
  3.2814551e-02
  2.8490970e-02
  1.4411114e-02
 -4.1555788e-02
 -2.6417032e-02
  9.3381189e-02
 -4.1507762e-03
 -1.5423931e-01
  7.3267065e-02
  1.4322186e-02
  5.5411886e-02
 -5.3167013e-03
 -1.7232813e-02
  1.3126301e-02
  9.8710701e-02
 -7.5608492e-03
 -3.2243676e-02
  5.7262886e-02
  3.9288905e-02
  2.4366653e-02
 -3.3777036e-02
  1.6374798e-02
 -4.6870280e-03
 -5.8641937e-02
  4.6713244e-02
 -9.4591819e-02
  9.1579808e-03
 -2.9991634e-02
 -2.5272615e+00
 -6.6957623e-02
 -2.6550192e-02
 -1.4399541e-02
 -4.1915895e-03
 -8.8820654e-01
  1.5100580e+00
  3.4708360e-01
  1.4696062e-02
 -6.0321081e-01
 -2.7531888e-02
  9.2987821e-02
 -6.3430116e-04
 -1.0641467e-02
  6.5832347e-02
 -2.4064918e-01
  1.8032689e-01
  2.0580715e-02
 -3.0142158e-02
 -2.0963443e-03
 -5.2800201e-02
  8.3909063e-03
 -4.4028707e-02
  1.7723060e-01
  3.1801067e-02
 -6.0130935e-02
  2.9725742e-01
  1.7336030e-01
  4.1354811e-03
 -1.1930293e-02
 -4.2365465e-02
  3.2813411e-02
  9.6102171e-02
  4.8826229e-02
  1.3616201e-01
 -2.7627463e-02
  3.7533615e-02
  1.4609968e-02
 -4.6476360e-02
  2.5001571e-02
 -6.8476133e-02
  4.4263564e-02
 -5.1136883e-03
 -2.9023451e-01
  4.9028224e-03
  4.0160973e-02
 -6.1980356e-02
  6.2363014e-02
  1.0955200e-01
  3.3552222e-02
  7.1558440e-03
 -5.8048468e-02
 -3.0886570e-02
 -3.9611097e-02
 -1.1263925e+00
  5.8376531e-07
 -5.8226220e-02
  1.7117873e-01
 -3.1645756e-02
 -3.4321379e-02
  9.1862537e-02
  8.8266633e-02
  5.8010146e-02
  6.4344904e-03
 -4.2479087e-02
  4.4780611e-03
  6.7716666e-02
 -1.6960368e-03
 -9.1148533e-02
 -4.7537167e-02
 -1.5692887e-01
 -3.8746007e-02
 -6.7373901e-03
  3.0677924e-03
 -3.4809023e-02
 -4.0486161e-02
 -9.3489084e-03
 -4.8327591e-02
  4.2836196e-03
  7.7868126e-02
 -9.0568766e-02
 -2.0263019e-01
  4.6840835e-02
  3.5094509e-03
  7.3077851e-03
 -3.1992901e-02
  5.1044188e-02
  3.2688908e-02
  1.2486955e-02
  2.4424640e-02
 -4.3677431e-02
  1.5898242e-03
  2.9291064e-02
  6.3495092e-02
 -3.5165437e-02
 -1.3971125e-02
 -1.5870692e-02
  3.7840083e-02
 -1.0589284e-01
  2.5747800e-02
  2.0051865e-02
  5.4016463e-02
  4.1976318e-02
 -1.4889491e-03
 -2.3480874e-01
 -6.4580333e-01
  1.8226080e-02
  7.8498796e-02
  9.1965683e-02
 -8.4002845e-02
  1.1176462e-01
  7.3783365e-03
 -4.6756506e-02
  4.9223617e-02
 -5.0477093e-01
 -1.9908695e-01
 -5.1538572e-03
  1.6926672e-02
  8.5935742e-03
  1.1178583e-02
  3.0775974e-02
 -8.4160566e-03
  2.2885439e-01
 -7.7808104e-02
 -1.3904966e-01
 -1.7867094e-01
  7.4833445e-04
  2.7376827e-02
 -6.7069471e-02
  8.1868507e-02
  1.4968117e-02
 -2.5874862e-01
  4.7767319e-02
  1.4127605e-01
  1.0947106e-02
 -1.1141365e-02
  2.0523663e-01
 -6.1476968e-02
 -3.0430688e-02
 -2.6718525e-02
  3.5877103e-01
  1.4243185e-03
  6.4282775e-02
 -4.3374430e-02
 -2.2467999e-03
 -9.9275909e-02
 -8.8730957e-03
  2.8575484e-03
 -1.2458772e-02
 -1.2906661e-02
 -9.6342675e-02
 -3.3107191e-02
 -5.4104444e-02
  1.4429712e-02
 -3.0124946e-02
  1.1232166e-02
 -4.3788560e-02
 -3.1148346e-02
 -1.1957228e-03
  5.7645120e-02
  1.9757740e-02
 -3.4630876e-02
 -4.0172927e-02
 -6.6213742e-02
  5.4607201e-02
  3.2836644e-03
 -3.3593599e-02
 -9.4356793e-01
  3.2988489e-01
  4.6193779e-02
  2.8732044e-01
 -8.7302811e-02
 -6.8675485e-03
  8.8305706e-03
  4.4591376e-03
 -1.0830878e-01
 -5.8768183e-02
  4.1516118e-02
  1.6608356e-02
 -2.3162793e-02
  3.0787507e-02
  2.5360952e-03
  2.9699259e-02
 -7.2229676e-02
 -1.7872944e-02
 -6.2184758e-02
  1.2495842e-02
  2.0924954e-02
 -1.7331621e-02
  7.1071822e-04
  2.5398843e-03
 -3.3980084e-03
 -5.6094252e-02
 -5.0456919e-02
  4.4131032e-03
 -1.7123586e-02
  3.0194446e-02
  2.1181665e-02
 -2.3372171e-02
 -8.2429508e-03
 -4.7804327e-03
  4.3349907e-02
  6.3292846e-02
  5.7379911e-03
  4.8067924e-03
  8.7893024e-02
  5.0771143e-02
  4.8718769e-02
 -1.9308744e-01
 -4.2299500e-01
  1.3148472e-01
 -3.2360165e-03
 -1.3672611e-02
  1.6010549e-02
  1.9894410e-02
 -3.6694261e-03
  1.6612342e-01
 -8.9880548e-02
 -1.0662057e-02
 -1.3899308e-01
  2.0863567e-01
  1.4242636e-01
 -5.3407904e-02
 -1.0050729e-01
  4.7272783e-02
 -2.1404546e-02
  1.5517429e-01
 -1.6986707e-02
 -8.9088008e-02
 -2.1218254e-01
 -1.6946536e-02
 -5.4539029e-02
  2.1969939e-02
  3.0271741e-02
  4.8175227e-02
  2.0420592e-01
  3.5135631e-02
  6.1278855e-03
  6.8166249e-02
  1.3486270e-02
 -6.0884301e-02
 -3.1095812e-02
 -1.5013372e-02
 -9.7828303e-03
 -2.7032413e-02
 -8.0455497e-02
 -1.8689483e-02
 -1.7027732e-02
 -6.5540768e-02
 -9.6298113e-02
 -2.0530401e-01
  6.1799400e-02
  1.2713379e-01
 -4.5959517e-02
 -4.5025714e-02
 -8.5362047e-03
  5.0652204e-03
  4.2513390e-03
  6.0880173e-02
  3.5461079e-02
  3.6983214e-02
 -3.1605411e-02
  1.1105014e-01
 -6.7654997e-02
  1.3992967e-01
  4.4983935e-02
 -3.9145559e-02
 -1.5050381e-02
 -1.1262859e-02
 -2.3097318e-02
  1.2039807e-01
  9.4780689e-03
 -5.9426077e-02
  1.4081240e-02
 -1.1012766e-02
 -6.3990340e-02
  2.1296274e-02
 -2.7282745e-01
  8.9656711e-03
 -7.3923306e-03
  5.4732878e-02
 -3.2473069e-02
  6.7790817e-03
  6.0906664e-02
 -4.4697903e-02
 -2.4196716e-02
 -3.3386098e-03
 -9.6012764e-02
  7.8564979e-02
 -4.9348075e-02
  2.8807733e-02
 -5.2744336e-03
  1.2218267e-02
 -8.6846333e-03
 -1.9982636e-03
  8.5627809e-02
  4.2812604e-02
 -1.8778849e-02
  2.1740416e-02
  1.2243170e-02
 -6.5403737e-02
  7.7020526e-02
 -1.9488629e-02
 -6.0234040e-02
  6.1182283e-02
  1.6318291e-02
 -3.2757903e-03
  1.5759274e-02
  1.4296474e-02
 -3.0901977e-03
 -3.4893025e-02
 -5.5862840e-02
 -2.5189042e-02
  7.3687606e-03
 -7.0877641e-02
  7.6848511e-03
 -9.5007315e-02
  4.0638216e-02
  9.0964455e-03
  1.0078570e-01
  4.6260618e-02
 -8.0140837e-02
 -4.7349554e-02
  8.4178768e-02
 -1.6600040e-01
  5.5990260e-02
 -1.1635283e-01
  2.6799358e-02
 -2.7215026e-02
  9.8930418e-02
  3.7271285e-01
 -4.5936164e-01
  1.4515461e-01
 -1.9518489e-02
 -4.5243073e-02
 -8.5498728e-02
 -1.1976818e-01
  4.0409897e-02
 -2.9450119e-02
 -1.3781069e-01
 -4.3376521e-03
 -3.4482575e-03
 -8.6496845e-02
 -1.3685067e-02
 -2.0939920e-03
  7.2441902e-03
  6.2956489e-03
  5.2524209e-01
 -3.9957438e-02
  1.0890985e-02
 -1.7641495e-03
  6.0617708e-02
  3.5542302e-02
 -3.3831391e-02
  5.6706335e-02
 -7.1329556e-02
 -1.0257600e-02
 -4.6099816e-02
 -1.3257651e-01
  2.8818522e-02
  2.9678391e-02
 -1.0594831e-01
 -1.5650027e-01
  2.4469526e-02
  4.9869567e-02
  3.7603784e-02
  3.7194055e-02
 -6.3715860e-02
 -4.7621751e-04
  1.0610910e-01
 -8.3618537e-03
  8.4637277e-02
 -3.1339187e-02
  3.0761020e-02
 -5.2018883e-03
 -9.5075322e-03
  1.0161372e-03
 -3.8507875e-02
  3.0481586e-02
 -7.1811415e-02
  3.3665043e-03
  7.2428174e-03
 -4.0709224e-04
 -4.5621127e-02
  5.0522443e-02
  1.6355153e-02
 -8.2828645e-03
 -1.0189178e-02
  6.8904787e-02
 -5.9038971e-02
 -2.6328383e-02
  1.2513025e-02
 -3.5561364e-02
 -3.1345595e-02
  5.9085200e-03
  5.5471614e-02
  8.3579794e-02
  1.8118305e-02
  1.0346178e-02
 -5.1292159e-02
 -5.7654461e-04
 -1.0769751e-02
  1.0861263e-02
 -5.5242367e-02
  4.7423154e-02
  4.5578912e-02
  4.5479439e-02
 -5.3032309e-02
  4.5332339e-02
 -4.0352345e-02
 -2.4708097e-01
 -1.2885539e-01
  2.1851019e-03
 -4.7992747e-03
  2.4591610e-02
  2.2827517e-03
  3.4547483e-03
 -2.3883753e-03
  1.5932281e-02
 -7.5135008e-03
  6.1469758e-01
 -1.7189598e-02
  7.2388086e-03
  6.5329269e-02
  5.9614353e-02
  3.0242205e-03
 -7.7883914e-02
  2.6288517e-02
 -2.8991701e-02
 -1.7116554e-02
 -7.6129800e-03
 -5.5683188e-02
  2.0831245e-01
  4.8160337e-02
 -1.3596877e-02
  5.4027151e-02
  1.9192463e-02
 -8.6806910e-03
  4.6289410e-02
  1.7754007e-02
 -3.0073382e-02
  2.0015309e-02
 -1.5321855e-02
 -2.3246706e-02
  7.8938812e-02
  2.0207588e-02
 -1.0621971e-02
  6.4425981e-03
 -3.0188313e-02
 -9.1453164e-04
  1.0168663e-02
  2.5868073e-02
 -8.1458334e-03
  1.1819714e-03
  7.1131624e-02
 -7.0872329e-02
  2.5335884e-02
 -3.8339913e-02
  5.2551664e-02
  5.0983861e-02
  2.9203663e-02
 -1.8553007e-01
 -6.5913320e-02
  1.7948439e-03
  4.3166161e-02
  2.6694627e-03
 -1.5738487e+00
  5.1557172e-02
  1.2397296e-01
  2.0469818e-02
  4.3697532e-02
 -4.4167265e-02
  3.2642175e-02
  3.0232750e-02
  1.8604369e-03
 -2.6752505e-02
  2.9063009e-02
 -3.3002312e-03
  2.3891023e-01
  1.9574311e-02
  7.0656724e-02
 -3.1966660e-02
 -9.1877930e-02
  1.6933871e-02
  4.7487050e-02
 -2.0424828e-02
 -2.3291068e-02
  4.0879332e-02
  5.9316505e-02
 -2.6893970e-01
  3.4265906e-02
 -3.9449655e-02
 -4.1666981e-03
  6.2454749e-02
 -1.9748790e-02
  2.0705339e-02
 -7.0161698e-03
  8.7601617e-03
  1.9517940e-02
 -1.9963581e-02
  6.1680720e-04
  1.7007051e-02
  9.7994404e-03
  3.2419104e-02
  4.7612181e-03
 -3.0016245e-02
 -1.9960631e-02
 -5.2735005e-02
  5.2568596e-02
 -3.8466342e-02
 -3.9035104e-02
 -7.4906158e-03
 -1.2178255e-03
  3.7265763e-02
 -3.9960857e-02
  3.5792068e-02
 -8.3895996e-02
 -3.7318373e-03
  1.0613863e-02
 -5.1645245e-02
 -1.4816550e-02
  2.4249251e-01
 -6.2495265e-02
  4.3790732e-02
  1.5917543e-02
  5.5552074e-03
  4.8411306e-02
 -6.9450356e-02
  4.4193305e-02
 -3.1648260e-02
 -1.9046787e-02
  1.6368764e-02
  1.9601669e-02
 -7.0447428e-03
 -4.9408462e-02
  1.8436000e-02
  3.0647215e-02
 -4.8166893e-02
  2.1257034e-02
  1.3838421e-02
 -1.7112158e-02
  4.5171488e-02
  2.8573336e-02
 -1.0484298e-01
  3.1414684e-02
 -4.6338350e-02
  6.0464174e-02
 -2.3739258e-02
  7.8202993e-01
 -7.8182377e-02
 -3.1677168e-02
  6.9131884e-03
  2.3932014e-02
  6.5058298e-02
  4.4621773e-02
  3.1572495e-02
 -5.7294369e-02
  3.6463086e-02
  3.5918970e-02
  2.0419015e-02
  1.4920695e-01
 -3.9569438e-02
 -2.0556971e-01
  7.9708733e-02
 -3.5460331e-02
 -1.2231127e-02
 -6.3408434e-01
 -1.4555518e-02
 -2.7606692e-03
 -6.7531075e-03
  7.6524741e-03
 -5.0480984e-02
  2.6556579e-02
  1.5275530e-02
  4.0485963e-02
 -3.2608189e-02
  4.8162587e-02
 -6.1804440e-02
 -7.7732719e-02
 -7.8047812e-02
  1.7673275e-01
  1.4749600e-02
 -2.5488213e-02
 -1.6977403e-02
  4.3556891e-02
 -3.8272791e-02
 -1.6902953e-02
  1.8718988e-02
  2.0175979e-02
 -1.7547039e-02
  4.2105496e-02
  1.0479250e-01
 -4.2434591e-03
 -9.3288518e-02
  2.5159630e-01
 -3.0991086e-01
  1.1161624e-01
 -2.9613450e-01
  9.9207133e-02
  2.9854712e-01
 -4.9690567e-02
 -4.4311218e-02
 -8.0215402e-02
  2.5644280e-02
 -5.8124736e-02
 -4.3747958e-04
 -1.3130671e-01
 -3.1259913e-02
 -9.1054589e-03
  2.6434783e-02
  1.8735072e-01
  2.2632079e-01
  6.0029399e-02
  1.2267945e-01
 -2.4695162e-01
  5.8065385e-02
 -7.7786022e-03
 -1.0087027e-01
 -1.0532366e-01
  1.7739268e-02
  3.7642062e-02
 -7.1453284e-03
  1.6492930e-01
 -1.0096733e-01
 -7.1068094e-03
 -3.8057063e-02
 -1.8789116e-01
 -1.9241621e-01
 -4.9085468e-02
  5.8053080e-02
  3.1590492e-02
  7.5125962e-02
 -3.2232493e-02
  7.0179533e-03
 -6.1199009e-02
  2.1467416e-01
 -1.5799721e-01
 -1.1864869e-01
  6.9605589e-02
  5.4141507e-03
 -5.4636907e-02
  1.0920971e-02
  7.1710334e-03
 -1.9491076e-02
  2.6263557e-02
 -2.4307305e-02
  2.4049647e-02
  1.0175685e+00
  8.1499231e-01
  2.8090221e-01
  2.2463932e+00
 -4.3839559e-02
 -1.0960550e+00
 -1.7399607e+00
  2.8078708e-01
  1.3890163e+00
 -9.5489873e-03
 -7.3605841e-01
  3.8601168e-02
  2.1648865e+00
  4.2325068e-01
 -1.0043678e-01
 -1.6631675e+00
  1.0573750e-01
 -4.9290717e-01
 -1.2993713e-01
 -3.1320811e-03
  6.3491291e-01
  6.2240046e-01
  5.4029942e-02
  2.3136026e-01
 -5.2970546e-01
 -1.3643949e-01
 -5.9991670e-01
  4.2326298e-01
 -7.9242188e-01
  6.6974223e-01
  5.8260047e-01
  9.6701717e-01
  9.1418761e-01
 -3.7980363e-01
 -5.2086632e-03
 -6.8785501e-01
  2.1586028e-01
 -2.3188266e-01
  3.7106371e-01
  7.8086042e-01
 -1.7871346e+00
 -4.0128115e-01
  6.4312893e-01
  3.5758591e-03
 -7.9690300e-02
  7.8980982e-02
  2.1666878e-01
  3.2509211e-02
  6.3495718e-02
 -6.7851290e-02
  2.9113989e-02
  7.4839637e-02
 -2.7078376e-03
 -5.3817496e-02
 -1.0698351e+00
 -3.2879215e-02
  2.1997752e-02
  1.1162555e-02
  9.2910221e-03
  3.9716031e-02
 -6.4927535e-03
 -3.5018203e-01
  7.8644708e-02
 -7.7326842e-02
  3.8629971e-02
 -1.0538641e-02
 -8.1307339e-03
  4.0338844e-02
 -1.0042310e-01
 -1.3213421e-02
  4.4920754e-02
  3.5972748e-02
 -1.0902159e-01
  1.7278744e-02
 -7.1600854e-02
 -1.2292300e-01
  1.0908197e-02
  2.7940553e-01
  2.2252452e-02
  4.8214540e-02
  1.0651102e-01
 -1.0924115e-01
 -5.6520738e-02
  5.9565119e-03
 -8.3190277e-02
 -7.0734143e-02
 -2.9695222e-02
 -2.7510853e-02
 -1.3588844e-01
 -2.4661331e-02
  3.8474228e-02
  8.0316616e-03
 -6.7568392e-02
  2.3534903e-03
  2.0752184e-02
 -7.6491502e-03
  9.5703229e-03
 -2.6633738e-02
  3.7493952e-02
 -4.6593598e-03
  1.2675348e-01
 -3.4178317e-02
 -1.0935878e-02
  3.9507508e-02
 -6.2604703e-02
  1.1754492e-02
 -9.1851361e-02
 -3.1670194e-02
 -1.1748403e-02
 -2.3508880e-02
 -4.2695332e-02
 -3.4626361e-02
  2.2312736e-02
 -6.5779872e-02
  3.5738833e-02
 -1.9480145e-02
 -1.5950991e-01
  1.2717793e-04
  6.8483770e-02
  5.1597744e-01
  6.0269441e-02
  5.9768047e-02
  8.6356990e-02
 -2.6610947e-01
 -1.3836947e-01
  1.1869154e-02
 -1.0198813e-02
 -1.2993501e-01
  2.6963819e-02
  1.4787845e-02
 -1.4333112e-02
  1.0713791e-02
  8.9879446e-02
 -3.9872915e-02
  1.2109508e-01
  4.0631387e-02
 -2.0131396e-02
 -9.1590084e-02
  4.2930294e-02
 -3.4247175e-01
 -1.4536475e-01
  5.7501566e-02
  6.5755270e-02
 -1.9496305e-02
 -1.8576443e-02
  2.0249171e-02
  1.0619116e-01
 -1.1696281e-02
  2.5691940e-03
 -5.5191517e-02
  4.2519388e-03
 -6.4111692e-03
 -3.4619398e-02
  1.6710722e-01
 -7.1186125e-02
 -4.2953826e-03
 -7.3396914e-02
 -3.0993876e-01
 -2.1381505e-02
  3.0005077e-02
  7.7112772e-02
  3.8406639e-03
 -5.2356833e-01
  5.4756396e-02
  1.1556067e+00
  1.3933364e+00
 -3.5055792e-01
  4.1819111e-01
 -8.3836436e-02
  3.4561214e-01
  1.2181058e+00
 -1.1450307e-02
 -6.7271757e-01
  4.1259331e-01
  6.8428075e-01
  8.7690547e-02
 -1.7498681e-02
 -1.3047761e-01
  1.5241475e-01
 -2.3923008e-01
  1.4917620e-02
 -5.0908322e-03
  7.7436256e-01
  5.4370981e-02
 -1.4440791e-01
  3.2742392e-02
 -3.5546333e-01
  3.9713033e-02
 -1.2498468e-01
 -6.1706984e-01
 -5.2092040e-01
  1.7176419e-01
  7.7277571e-02
 -3.0360434e-02
 -8.0494713e-03
 -5.4052269e-01
 -4.7762446e-02
 -4.3546873e-01
 -5.7460950e-03
 -5.1353186e-01
  1.0268659e-03
  2.4243407e-02
 -3.0701367e-02
  7.1570069e-02
  1.1443386e-02
 -4.9490444e-02
 -4.4783615e-02
 -1.3638232e-02
  1.0769759e-01
  6.7005509e-01
 -6.1728097e-02
  4.6863635e-03
  7.5064234e-02
  4.5942090e-02
 -1.2214755e-02
 -1.2933673e-01
  1.1862953e-02
 -2.6593676e-02
  1.5999697e-02
 -6.3512884e-02
  5.1855419e-02
  5.4263506e-02
 -8.9982785e-02
 -2.5293708e-02
  1.5001489e-02
  3.8376387e-02
  4.8990060e-02
  4.9385052e-02
 -2.3724116e-02
  1.1292650e-01
  3.3039168e-02
 -1.0513005e-01
 -6.1470337e-02
 -3.6788664e-03
  8.5473545e-02
  2.1994578e-02
 -6.6650957e-02
  9.2479594e-02
 -1.0235897e-02
 -5.4811783e-02
  1.1431126e-02
  6.4350873e-02
  1.2358672e-02
 -2.5724694e-03
  2.0241795e-01
  4.3298122e-02
  8.1135575e-03
 -3.1368341e-02
  2.6002382e-03
 -1.5777994e-02
 -2.8777407e-02
  8.9799128e-02
  6.9206588e-02
 -1.9051038e-02
 -3.6699709e-02
  3.0717898e-02
  1.4476476e-02
 -2.9686958e-01
  2.4994126e-01
  1.0544287e-01
  2.4192466e-03
 -2.7259685e-02
  2.6301866e-02
  4.3008756e-02
  5.1787399e-02
 -2.0251235e-02
 -1.4686736e-02
 -1.6166390e-03
  8.5285949e-03
 -1.8306153e-02
  2.2529860e+00
  7.0935750e-01
 -9.9749669e-02
 -3.6904395e-01
  4.1114447e-01
  3.3713531e-01
 -3.9782944e-01
  2.9059580e-01
 -4.6769160e-01
 -3.0221057e-01
 -3.6086375e-01
 -1.8382764e+00
  3.5099563e-01
 -1.1973047e-01
 -3.4906071e-02
 -9.1056025e-01
 -1.0451939e-02
 -2.6166204e-01
  5.0918871e-01
  4.0384434e-02
  2.3696011e-01
  2.2844940e-01
 -1.0992683e-02
  7.5282350e-02
  6.7115802e-01
  1.9760175e-01
  9.3261540e-02
  6.8779719e-01
 -1.5169899e-01
  1.1974411e-01
  1.5153151e-02
  4.2634960e-02
 -3.6482565e-05
  5.4262823e-01
  1.9042873e-01
 -2.5822514e-01
  1.6244625e-03
 -1.2487634e-01
 -8.2059078e-02
  2.9076556e-02
 -1.8567815e-02
  2.4682919e-02
 -1.9139215e-01
  8.4498087e-03
  1.5497899e-01
 -5.6621563e-02
  3.8867727e-02
 -2.4720917e-02
 -1.4718406e-01
  1.9254521e-02
  6.1980612e-04
 -8.9705810e-02
 -1.2755823e-01
  4.4084616e-02
 -4.3864351e-02
  1.2892309e-01
 -2.1013659e-03
 -3.3769701e-03
 -3.1758279e-02
 -1.1110327e-03
  8.8926800e-02
  4.5003422e-02
  2.6514586e-02
  4.0621918e-02
 -1.6060645e-03
 -1.2880377e-03
 -2.2700123e-02
  7.2950676e-02
  4.8545647e-02
  1.6315798e-01
  1.1212467e-02
 -8.1374552e-03
 -3.9575999e-03
 -6.2273934e-02
  1.8441202e-02
  2.4638308e-02
  4.0944717e-03
 -6.5200798e-02
  1.9655868e-03
  4.1029520e-02
  2.1960057e-02
  5.6634482e-02
 -4.4624684e-03
 -1.4694490e-02
  1.0348105e-01
  2.1567863e-01
 -3.7386023e-02
 -1.7426356e+00
  2.6056195e-02
 -2.9730756e-02
 -3.9305471e-02
 -2.4693100e-02
  4.7620784e-02
 -3.3714104e-02
 -3.9754055e-02
  6.9890060e-02
  8.7160468e-03
  1.1779109e-01
 -3.4561776e-02
  1.0001302e-02
  7.9695426e-02
  2.9594025e-02
 -2.0237440e-02
  5.8226671e-02
 -7.1870700e-02
  3.0115999e-03
  1.5637368e-02
  7.9073414e-02
 -9.8396975e-01
 -6.0616326e-01
 -1.3175356e+00
  1.4743950e+00
 -1.7018096e+00
 -2.6702857e-01
  1.4968255e-01
  7.6432925e-01
  1.6765612e+00
  1.2115062e+00
 -8.0578500e-01
  8.5656327e-01
 -1.5230109e-02
  7.7256900e-01
  4.8254648e-01
 -1.9800619e+00
  6.6607818e-02
 -1.2684238e-01
  9.2421013e-01
  7.8080344e-01
 -4.7113094e-01
 -1.1262128e-01
  8.0036646e-01
 -2.5317460e-01
 -4.1995597e-01
 -3.8190639e-01
 -5.2413665e-02
  3.9538142e-01
 -4.4326082e-01
 -6.2856293e-01
  5.1084304e-01
 -8.0768144e-01
  3.8702199e-01
  1.4230481e+00
 -8.2045183e-02
  7.3438245e-01
  3.4790671e-01
 -7.3802926e-02
  4.0060066e-02
  1.1444370e-01
 -3.1359561e-02
  3.2700077e-01
  9.4169393e-02
  2.9150601e-02
  4.9133432e-01
 -1.0493112e-01
  5.6948429e-01
 -9.6375300e-03
 -1.3476631e-01
 -2.3272124e-01
 -1.4957625e-01
  4.4865710e-01
  6.9395564e-02
 -1.0395932e-01
  2.6701385e-02
  1.2514750e+00
 -1.7860604e-02
 -2.0339833e-01
  6.4626900e-03
  4.2235267e-01
 -6.2483784e-02
 -2.1156491e-01
  6.6236871e-01
  4.4015452e-02
 -6.4026923e-03
  6.9035277e-02
  2.4122585e-01
  1.6342187e-02
 -1.4125357e-02
  2.0627832e+00
 -2.4240033e-01
  3.5625838e-02
  2.4423951e-02
  1.6649297e+00
 -2.6231986e-03
  6.7334394e-03
 -4.3498802e-01
  4.8962370e-01
  1.8589427e-04
  5.0646686e-03
 -1.6387057e-03
 -2.6471976e-02
  5.0662283e-02
  1.4551304e-01
 -1.4396831e-01
  4.5788780e-02
  2.3171596e-02
  2.4513163e-01
 -7.9953782e-02
 -2.1815745e-02
 -1.8024098e-02
  6.0373180e-02
  4.0058032e-02
  2.2965401e-02
 -1.7191883e-02
  2.8146058e-02
 -2.4648380e-01
 -1.4258745e-01
 -4.7874576e-01
  2.5770542e-01
 -3.4367468e-02
 -1.3124397e+00
  2.7117468e-02
  7.8138161e-01
 -3.1813189e-01
 -1.6621469e+00
 -1.1130553e-01
  1.3172917e-01
 -2.8070772e-01
 -2.8339928e-01
 -2.5800848e-02
 -1.2612523e-01
 -3.2404241e-01
  4.4917107e-02
  5.5497363e-02
 -8.7491822e-01
 -1.6516477e-01
 -6.4787231e-02
 -5.3425644e-02
  1.4696530e-01
 -5.5211639e-01
  2.2917268e-01
 -4.8254527e-02
  4.6574807e-01
 -1.3862233e-01
  8.1606701e-02
 -1.9232865e-01
  3.4427556e-01
 -3.6783252e-02
  9.7124748e-02
  4.9965229e-02
 -2.9561898e-01
 -5.2245182e-01
 -7.3940419e-02
 -1.4497225e-01
 -5.9294168e-02
 -4.0916529e-01
 -3.8373899e-02
 -2.4538323e-01
  9.6217602e-02
  4.4981174e-02
  3.8063403e-02
 -1.5996488e-02
 -4.7486287e-02
  4.5675088e-02
 -2.7744415e-01
  8.1937510e-01
 -1.9426072e-02
  3.1140232e-02
  7.2468132e-01
  5.5383716e-02
  5.3238618e-01
  4.1678265e-02
  1.1264343e+00
  4.4216003e+00
 -4.9090657e-02
 -1.1652991e-01
 -2.1825671e-01
  1.3838392e+00
 -9.7523928e-02
 -3.5196912e-02
 -5.0383270e-01
  1.7618276e+00
  5.1106051e-02
  5.0349537e-02
 -1.3624438e-02
 -7.0378953e-01
 -1.7042002e-01
 -9.8776454e-01
 -9.2025578e-01
 -1.3048449e+00
  3.2940496e-02
  4.4270907e-02
  5.3646475e-01
 -2.6907107e-01
  2.5835255e-01
 -2.2842012e-02
 -1.9808505e-01
 -4.3517020e-01
 -3.3959740e-01
  4.1626852e-02
 -2.5595984e-01
  1.3955715e+00
 -8.1253074e-02
  6.9814545e-01
  1.3884636e+00
  9.8396249e-02
  7.7438839e-02
 -4.3236640e-01
  1.9004906e+00
 -4.9167669e-01
 -8.9148480e-01
 -1.6106637e-01
  1.6702328e+00
 -7.0051241e-01
 -8.5883169e-03
  1.0552435e-01
 -1.9134225e+00
  1.7178384e+00
  5.2513655e-02
 -1.0579851e-02
 -7.9091460e-01
 -1.3328975e+00
 -2.2897671e-01
  1.8766885e-01
  1.6606839e-01
  1.1476469e+00
  2.6412064e-01
 -4.8319474e-02
 -1.4241740e+00
 -8.1238687e-02
  2.5235826e-02
 -9.6846616e-01
 -3.3420272e+00
 -2.4775848e+00
  9.7112209e-02
  5.5560604e-02
  1.0749023e-01
 -7.2541738e-01
  5.2323508e-01
  4.8406553e-02
  8.9906609e-01
  1.6563628e+00
 -1.6969761e-02
 -7.4443436e-01
 -1.6708399e+00
  6.2722191e-02
  2.8959760e-01
  1.9075061e-01
 -2.5783772e+00
 -9.5404530e-01
 -2.2737568e-03
  1.6864048e-02
 -7.9376823e-01
  1.4333905e+00
 -1.2692192e-01
 -4.3743584e-02
  9.3469030e-01
  1.0909516e+00
 -4.0291023e-02
 -2.0997368e-02
  6.8677801e-01
  4.9216050e-01
 -5.6243879e-01
  2.5553694e-01
 -2.8617098e+00
 -7.1519870e-01
 -4.5141451e-02
 -6.5867946e-02
 -5.9742093e-01
  1.5120298e+00
 -1.5823875e-01
 -4.1620740e-01
 -4.5729616e-01
  1.6674074e+00
 -2.9871918e-02
  8.8674134e-01
  1.4332479e-01
  5.7845801e-01
 -7.0874165e-03
  4.6442416e-02
  9.5303029e-01
  7.4822044e-01
 -8.1222299e-03
  1.2350404e+00
  1.1158575e+00
 -2.7908042e-01
 -3.1521168e-01
  4.4675416e-01
 -3.3125348e+00
 -6.0228086e-01
  8.6657345e-01
 -1.8190016e+00
  2.2197697e+00
 -1.2803712e+00
 -7.7861995e-02
  2.3887549e-01
  1.0624276e-01
  6.2064409e-01
 -1.6479203e-03
  2.5193635e-01
 -1.8917731e+00
 -2.6415148e-01
 -9.9509871e-03
  5.4560900e-02
 -6.7661554e-01
 -9.5949012e-01
 -1.0097876e+00
 -3.9487934e-01
 -1.2557918e+00
  3.4879852e-02
  5.9127123e-03
  6.0700055e-02
  1.1377602e+00
  4.6389285e-01
  9.1649875e-02
  1.6338547e+00
  7.1876836e-01
 -4.2790362e-01
  3.3878943e-01
 -5.6357044e-01
 -1.7797424e+00
  1.3276694e+00
  1.9302530e-02
  2.1815423e-03
 -4.6544868e-01
 -4.0416664e-01
 -2.5205827e+00
  8.4447062e-01
 -1.6446586e+00
 -5.1391613e-01
 -2.8433561e-01
 -1.6263189e+00
  1.8490491e+00
 -6.0015231e-01
  1.4108516e+00
 -7.4409509e-01
 -5.8551443e-01
  1.7134093e+00
 -6.9923133e-01
  1.8610038e-01
  5.8673549e-01
  5.6410873e-01
  1.6527144e+00
  1.1414245e+00
 -6.3252524e-02
 -1.1599997e+00
  2.3275971e+00
  9.4612956e-01
 -3.9336362e-01
  5.1223940e-01
  1.1336429e+00
  1.2160068e+00
 -1.1736357e+00
  2.5306207e-01
  7.1133345e-01
  1.0767289e+00
  1.6917683e+00
  6.0694242e-01
 -1.7641848e-01
 -6.1477977e-01
 -2.2208436e+00
  1.2770550e+00
  4.3001588e-02
 -2.7428105e-01
  8.2507461e-01
  1.2496303e+00
 -1.4529413e-01
 -7.3078454e-01
 -1.0131564e+00
 -2.0499732e-03
 -6.2008637e-01
 -8.4581649e-01
 -1.9249997e-01
 -8.1414914e-01
  4.6979862e-01
 -2.3707464e-01
 -3.3159611e+00
 -9.2569642e-02
  1.2129582e+00
 -4.0049419e-02
 -1.4687281e+00
  4.4230151e-01
 -1.7176828e-01
 -2.6131448e-01
 -9.4636905e-01
  4.1905051e-01
  2.0706317e-01
 -3.9271107e-01
  3.3067536e-02
 -2.3143306e-01
 -5.7906073e-02
 -1.4628940e+00
  1.3621260e-01
 -1.6646401e+00
 -2.3957608e-02
 -8.0675960e-02
  1.0988700e+00
 -3.1545088e-01
  3.2130352e-01
  8.9709646e-01
 -9.1325760e-01
 -2.9548658e-02
 -3.3127108e-01
 -4.3786983e-03
 -1.2963932e+00
  1.5383807e+00
  3.5796087e-02
 -2.7568418e-01
  2.3111129e+00
  2.8361341e-01
  5.6058574e-01
  5.0987311e-02
  2.7236670e-01
  1.7229356e+00
  2.1903940e-01
 -2.3430288e-01
 -3.2439455e-01
  3.2589722e-01
  2.0593858e-01
  2.2433729e-01
  1.0380379e+00
 -2.1080945e-01
  2.6849434e-01
 -6.0009408e-01
  7.3453993e-01
 -8.0423254e-01
 -1.5642720e+00
 -2.9288700e-01
  1.2241985e-01
 -1.5572271e+00
 -9.1321513e-02
  7.6524860e-01
 -1.3500093e+00
  7.8937054e-01
 -1.9742038e+00
  8.7819231e-01
  6.2515669e-02
 -3.9704028e-01
  2.3705308e+00
 -1.2910689e+00
  3.1646183e-01
 -6.7279530e-01
 -1.4303924e-02
 -1.8295075e+00
 -3.4607584e+00
 -2.1717431e-01
  4.4248480e-01
 -6.4784104e-01
 -2.1276051e-01
 -1.6749032e+00
  3.2962689e-01
  5.9499037e-01
  3.0063406e-01
 -1.1428931e+00
  1.2034864e+00
  6.3008767e-01
  1.2075738e-01
 -6.3580078e-01
  6.8609107e-01
  1.5910437e+00
 -1.1407741e+00
  2.8889504e-01
  5.7507493e-03
 -4.6332243e-01
  5.9332895e-01
  4.1223142e-01
  4.4240317e-01
  9.1254458e-02
 -3.6445625e+00
 -2.1454513e-01
 -5.2902635e-02
 -7.4684434e-02
  2.1214974e+00
 -5.6577635e-01
  2.0068884e-03
 -1.3805282e-01
 -6.3544147e-02
  6.4157195e-02
 -1.0938599e-04
 -1.3448292e+00
 -1.1621360e+00
  9.2663395e-01
  7.4369083e-03
  6.0021710e-03
 -5.2410722e-01
  9.8501474e-01
 -1.1018065e-02
 -1.0067045e-01
  1.9904147e+00
  1.3412963e-01
  1.2814385e-01
 -2.1340448e-01
  5.9587824e-01
  9.0088719e-01
 -6.6251168e-03
 -3.2380108e-02
 -1.3931119e-01
  7.4455261e-01
 -3.0350205e-02
 -3.7091085e-01
  1.2459781e+00
 -1.5107707e+00
 -9.2120156e-02
 -3.7318200e-02
  1.0759336e-01
  9.5304084e-01
 -1.6317318e-01
  1.3169159e-01
  2.3185604e+00
 -5.6791008e-01
 -4.8446000e-02
 -1.1042836e+00
  2.8430016e-03
 -9.3572192e-02
 -9.7139440e-02
 -2.4857649e-01
 -4.4912535e-01
 -9.2791510e-01
  3.8388282e-02
  2.5393434e-02
  1.0666874e-01
 -5.5299163e-01
 -2.6127867e-02
  1.2330043e+00
  6.9432032e-01
 -1.4038148e+00
 -2.3225708e-01
 -1.2007339e+00
 -2.5902900e-01
 -2.5506026e-01
 -2.0691399e-02
 -3.1128266e-01
 -4.4136193e-01
  5.2164531e-01
  5.2391272e-02
  9.6504673e-02
 -6.9546330e-01
 -4.9423718e-01
 -6.4552347e-03
  2.3978022e-01
  6.5684354e-01
 -4.3606624e-02
  1.5853886e-01
  5.4537319e-03
  2.2118058e-02
 -4.9269742e-01
 -7.5863358e-03
  1.3414501e+00
  1.1240493e+00
 -9.1944760e-01
 -5.5221766e-03
  2.7673927e-03
 -3.3021683e-01
  3.1884846e-01
  9.1892883e-02
  7.3281839e-02
  1.5591139e+00
 -1.8747535e-01
  3.1165678e-02
  2.9950109e-01
  1.4425435e+00
  1.5447838e-02
  1.9827500e-01
  9.5512611e-01
  1.2221864e-02
 -1.9251181e-01
 -7.1853693e-03
 -4.9340222e-03
  7.3921311e-01
 -1.2971805e-01
 -1.5365405e+00
  2.6436847e-01
  3.8581273e-01
 -3.8318092e-01
 -1.4576659e-01
  1.9806403e-01
  5.1420238e-02
 -1.4296621e-01
 -5.1278317e-01
 -2.0878047e-01
  4.0094322e-01
  6.6475771e-02
 -1.5213568e+00
 -1.7639943e+00
  7.6081228e-01
  1.1790172e+00
 -8.9108698e-02
  3.1415120e-01
  2.0586536e+00
  2.1378995e-01
 -1.3498331e+00
 -4.2848419e-02
  1.9078180e+00
 -6.8029508e-02
 -1.3965640e+00
  1.3111677e+00
  8.7699056e-01
 -8.0188322e-01
  3.2826287e-01
  1.0113636e+00
 -9.9644035e-01
  7.2131467e-01
 -6.9810152e-01
  4.1935638e-01
 -1.0359678e+00
  1.7400752e-01
  2.6663986e-01
  9.1693373e-03
 -7.6210397e-01
  1.7383544e+00
 -1.7280725e-01
 -4.0878352e-02
 -4.4121000e-01
  9.0787107e-01
  2.8225329e-02
  7.8510940e-01
 -1.1631979e-01
 -1.0067799e-01
  4.8289608e-02
 -7.9104312e-02
  6.9656366e-01
 -7.3166913e-01
 -1.3142121e-01
 -5.8241206e-01
 -4.1249454e-01
 -2.2779908e+00
  1.9633867e-01
  7.4197191e-01
  9.8456562e-01
  4.1506216e-02
  9.3748067e-03
  1.5978162e-01
  3.3502772e-01
  2.7479453e+00
 -7.6087110e-02
 -1.2729678e-01
  1.0398842e+00
  6.8993831e-01
  3.7440652e-01
 -8.1363982e-03
 -4.4257119e-01
  2.3548478e-01
 -4.2196117e-02
  6.0408747e-01
 -1.2237804e+00
  1.3829682e+00
 -6.2021930e-03
  4.4021528e-02
  8.1005305e-02
 -1.4752675e-02
  2.7978521e-02
  1.7574649e-01
  7.1794879e-01
 -4.3984571e-01
  1.4383227e-02
 -2.4702759e+00
  8.6050846e-02
 -1.7789007e+00
 -2.8757814e-02
 -6.2614121e-02
 -8.5186332e-01
  6.6951317e-01
  8.8430285e-02
 -4.4527869e-03
 -6.2020570e-03
  2.1177398e-01
 -3.8747925e-02
 -1.0347209e+00
 -7.4083966e-01
 -1.5363752e+00
 -8.1076153e-02
  2.5432156e-02
  2.9056162e-01
  5.0052661e-01
  3.1849794e-02
  5.5068916e-01
 -3.1536568e-02
  2.0755658e+00
  5.7307136e-01
  1.2397679e+00
 -6.1648673e-01
  1.7543298e-01
  2.5685709e-02
  8.1471378e-01
 -3.6155087e-01
  3.2794114e-02
  1.8932313e-02
 -1.8771069e-01
  2.4731288e+00
 -6.0099441e-01
  2.2430763e-01
 -1.0402931e+00
  5.6010592e-01
  9.5999467e-01
 -7.5565237e-03
  1.9023902e+00
  6.1612421e-01
 -7.2679974e-02
  7.5848776e-01
 -5.4644692e-01
  7.8539759e-02
 -2.1752156e-01
  1.6242370e-01
 -1.4415072e+00
  4.6070871e-01
  2.0655830e-01
 -1.8328774e-03
  1.6835870e+00
  2.1538323e-01
 -2.0726784e-01
  5.3568631e-01
  4.8969746e-01
  1.7667142e+00
 -8.7585336e-01
  9.2550987e-01
 -9.4743900e-02
 -4.2798236e-01
 -1.0309994e+00
 -5.2295014e-02
 -1.5533584e-01
 -4.4068471e-01
 -5.1241100e-02
  1.3174531e+00
  2.9442334e-01
  5.2385610e-01
 -1.4223832e-01
 -3.2387968e-02
 -1.4526374e+00
 -2.4635820e-01
  1.2227867e+00
  5.7789755e-01
  2.9174638e-01
 -1.0179863e+00
 -8.1574959e-01
  2.8613998e-02
 -1.6972058e-01
 -4.7278216e-01
  1.1997198e+00
  5.3484964e-01
 -1.6629601e-01
 -1.0848784e+00
  1.1985093e+00
  5.9119028e-01
 -5.0778870e-02
  9.0431727e-02
  9.6153295e-01
 -2.0823021e-01
 -5.4927880e-01
 -2.0110141e-01
  5.7793742e-01
 -7.7042356e-02
  4.0145922e-01
 -6.2293231e-01
 -3.6626422e-01
  9.7884327e-02
  2.5290418e-02
  5.0672114e-01
  2.4236809e-01
  4.7157686e-02
  5.9228275e-02
 -7.0755541e-01
 -1.7277340e+00
 -1.3039408e-03
  9.6102929e-01
  5.5756086e-01
  1.3230144e+00
 -1.1008775e-01
  3.9962482e-01
  1.5597215e+00
 -5.8092159e-01
  4.1811517e-03
 -1.3124613e-01
 -8.8444090e-01
 -1.4200398e-01
 -2.6244806e-02
  3.4973755e-01
 -2.5299051e-01
  4.6133921e-02
 -3.1340312e-02
  7.2313547e-01
  1.2658559e+00
  6.5157545e-01
 -2.6927084e-02
 -1.2221023e+00
  2.0481374e+00
  4.8640987e-01
  7.1478170e-01
 -1.0668296e+00
  6.1062360e-01
 -7.5613618e-01
  2.8645582e-02
 -2.3380287e-02
  7.0184447e-02
 -1.2020756e-02
  3.9872372e-01
  2.1116683e-02
  2.3991313e+00
 -4.5540032e-01
  2.5091583e-01
  2.5675884e-01
 -5.3120434e-01
  2.0407462e-01
 -7.5789697e-02
  1.3810298e+00
 -8.3975035e-01
  7.6281220e-02
  6.3738948e-01
  7.0310603e-03
  1.0078043e+00
 -2.2082658e+00
  2.2857144e-02
 -5.3996377e-02
  3.8527909e-01
 -8.8993257e-01
  8.0942124e-01
  2.8787524e-01
 -6.2231865e-02
 -7.5612706e-01
