nep4 2 Ga O 
cutoff 6 4 90 32
n_max 8 8
basis_size 8 8
l_max 4 2 0
ANN 50 0
 -2.4783830e-04
 -4.6997680e-04
  2.1249139e-04
 -1.4987917e-04
 -3.4803187e-04
  1.4958601e-04
  2.5224910e-05
  5.0158554e-04
 -1.6168680e-04
  2.2297959e-04
  5.1206665e-04
  2.1783354e-04
  5.3173666e-05
 -1.6338452e-04
 -1.7643887e-04
 -2.2413878e-04
  1.2634241e-04
  2.8670501e-04
 -6.4840127e-04
 -6.7827037e-05
 -7.8831319e-05
 -2.7621489e-05
  2.1437150e-04
 -4.1159514e-05
  8.0614397e-04
  7.2662180e-05
  6.7672394e-05
 -4.3029115e-05
  3.2805579e-05
  3.3749842e-05
  9.4291585e-04
 -3.7462279e-04
  1.8715893e-04
 -1.5259316e-04
 -2.0007935e-04
  1.1659631e-05
 -1.6584186e-04
  6.6702480e-05
  6.2551044e-05
  3.4707808e-04
  4.0633149e-05
 -4.0071746e-04
 -2.5229645e-04
 -9.4050505e-05
 -9.5040923e-06
  8.1041551e-05
 -2.4902693e-05
  1.7505414e-04
 -5.8348243e-05
 -3.2664812e-04
 -2.2635861e-04
 -1.3630274e-03
 -4.4458939e-04
  8.1736024e-04
  5.2595246e-05
  1.1344377e-02
  1.5133759e-04
  4.7469348e-02
 -1.1111400e-03
 -2.3988760e-01
  6.8436582e-03
  1.9229230e-04
  1.5557134e-03
 -1.1817552e-04
  3.7703462e-04
 -2.7204766e-05
 -2.6632080e-04
 -2.2068706e-04
  2.6673288e-04
 -3.1884629e-02
 -2.3111481e-05
 -3.1133112e-04
  1.4892214e-05
  3.3301179e-04
  1.9205778e-03
  6.0790591e-04
 -2.0432717e-04
  9.0485983e-02
  1.3007155e-04
 -6.0469352e-05
 -1.7842480e-03
  1.7585573e-05
  1.2978941e-05
  8.4812947e-02
  1.9066259e-05
 -4.9460342e-04
  2.4467861e-04
  2.3224521e-03
  1.2031518e-01
  2.0275357e-04
  8.1127444e-05
  1.5583071e-04
  5.7705967e-03
  1.1018301e-04
 -9.1117201e-04
 -2.7666218e-04
 -1.0497706e-04
 -1.3500514e-03
  1.2666974e-04
  2.7660311e-05
  1.7969271e-04
 -4.3618341e-04
 -1.5077421e-05
 -1.5805753e-04
  4.9421524e-05
  7.5832213e-04
  3.1713917e-04
  4.2516124e-04
 -7.0877461e-04
 -6.1551519e-03
  6.4615620e-04
 -1.1812409e-05
  2.8058472e-01
  1.9924717e-01
 -4.2758553e-04
 -5.8428068e-02
 -1.1880986e-04
 -2.9937597e-04
  1.8079352e-04
 -1.4542664e-05
  4.7611931e-04
  7.4146257e-04
 -2.0584212e-04
  9.9787898e-02
 -1.5482507e-04
  3.7251954e-04
 -8.1375993e-06
  3.5171275e-04
 -1.5603328e-03
 -8.9231857e-05
  9.9436371e-03
 -6.3964792e-02
 -3.8382404e-05
 -1.9220565e-04
  4.8878994e-02
 -1.9229096e-04
  6.2389945e-04
 -1.7849115e-01
 -7.7345158e-04
  6.3228093e-02
 -2.7666595e-03
 -1.1229936e-02
  6.4219777e-03
  1.2257116e-04
 -4.9107516e-04
  3.2079525e-04
 -9.6721930e-04
  2.9270642e-04
  4.7897567e-05
 -3.3008753e-04
  2.0992503e-04
  2.6919227e-03
 -1.9566760e-04
 -3.8973703e-05
 -3.0011020e-04
  5.1660283e-04
  5.8532041e-04
  1.1824489e-03
  1.4672304e-03
 -1.4559051e-03
 -2.1742357e-04
  2.1689392e-04
  1.3246989e-01
  1.0633513e+00
  3.3771081e-05
 -3.3303276e-01
  7.4427420e-01
 -9.3931484e-01
 -7.5896002e-02
  1.6850245e+00
 -1.0947609e-01
  6.5073051e-05
  1.4723159e-04
 -3.9067847e-05
 -1.7141196e-04
 -1.2373041e-03
  2.2167689e-01
 -2.8947079e-01
  3.4307956e-03
  6.0448848e-04
  3.1872300e-04
 -2.3842784e-05
  3.4625602e-01
 -8.0394057e-05
 -5.1873159e-02
  4.6105266e-01
  6.7493139e-04
  3.4963212e-03
 -1.7808154e-01
  3.4489047e-05
 -8.3693855e-02
  5.1687217e-01
 -7.1517432e-05
 -2.1448578e-01
  2.2409482e-02
  3.1660017e-02
 -9.5393455e-01
 -1.9809042e-05
 -1.2815377e-04
  5.9283022e-05
  1.5090336e-01
  1.6446365e-05
 -6.5472388e-01
  5.8065064e-02
  5.5844015e-03
 -5.2114874e-02
  4.0064225e-04
 -3.2003190e-05
 -1.8304693e-04
 -2.4176965e-02
  1.6143113e-04
 -2.8941859e-03
  3.6956488e-05
  1.9571858e-03
  2.3857879e-02
 -6.2296655e-05
 -1.0917011e+00
  5.1739916e-02
 -1.1927485e-04
  3.1085141e-02
  1.7485967e-03
  7.1833730e-02
  5.6392927e-02
  2.1345541e-01
  1.5612283e+00
 -2.6876864e-05
 -1.1200411e-04
  7.2200455e-02
 -2.5923317e-04
 -1.3460875e-01
  2.7581239e-01
  3.2806703e-01
 -2.4204755e-04
 -1.1697900e-04
  1.7095027e-04
  1.2404814e-01
 -4.5553756e-01
 -7.1619252e-05
  2.2960049e-01
  2.6772267e-03
 -1.0274429e-03
  4.5119601e-01
  2.3078671e-01
  1.4560620e-02
  6.9999509e-02
 -5.9136406e-02
 -2.0538822e-04
  4.5454422e-01
 -2.0760804e-01
  7.4957694e-07
  4.6213886e-01
 -1.0383485e-03
  1.9453863e-04
 -2.7450864e-04
 -3.5009348e-01
 -3.3229540e-04
  4.0560757e-04
 -4.8533460e-01
 -1.9067980e-02
  1.0172313e-04
  1.1404829e-05
  2.9315828e-05
 -1.5225382e-04
  2.2144723e-03
  2.9404552e-04
  4.9685326e-04
  1.0277797e-01
  4.6302443e-06
  1.8557699e-02
 -1.3763143e-03
 -5.9458125e-05
  2.2381324e-02
 -5.8889971e-05
 -1.1516363e-01
  1.2469469e-02
  6.3660613e-04
  1.3147755e-01
 -1.0324629e-01
 -9.8126072e-01
 -6.6075343e-05
 -2.9032369e-04
 -1.1452685e-04
 -4.7272118e-04
 -3.5333430e-04
  3.5293162e-02
  1.6872160e-01
  1.3284100e-03
  6.6061580e-04
 -5.4811704e-04
 -2.3494581e-04
 -2.9808100e-02
  5.1438350e-05
  1.9875927e-02
 -8.1852349e-03
 -1.0052897e-05
  9.8156691e-02
  8.0050349e-02
 -5.6268013e-04
  7.3896442e-04
 -1.0701082e-01
  6.2446423e-05
  2.3010511e-04
 -8.7470852e-02
 -2.7531717e-02
  9.4190221e-03
  1.0817067e-04
 -1.2164297e-04
 -7.3312072e-04
 -1.0313363e-01
  6.1646773e-04
  1.2108389e-01
 -8.3666056e-02
  4.3828943e-04
  3.7105649e-04
  4.9744383e-05
  1.5059060e-04
  2.6078036e-04
  3.7958261e-04
  4.0746873e-04
  9.9471933e-04
  3.1639831e-04
 -4.8690505e-04
 -5.7624339e-04
 -9.4845112e-05
 -5.0339731e-04
 -1.9402262e-04
  1.5724989e-04
  4.3470311e-05
 -4.9654813e-04
 -3.9730154e-04
  2.2070213e-04
  1.1952480e-03
 -4.5195116e-05
  2.6883077e-04
 -3.0996132e-04
  1.5410758e-04
 -2.0780825e-04
 -8.6114247e-05
  7.9002915e-05
  4.6099196e-04
  1.1348374e-04
 -1.8042244e-04
  3.7549144e-05
 -5.2439386e-04
 -1.4483453e-04
 -6.1878462e-05
  2.1159385e-06
 -5.2135631e-05
 -1.6177590e-04
 -1.6659808e-04
  6.0019281e-04
 -8.7934750e-05
  1.5762319e-04
 -2.6864721e-04
 -1.5021117e-04
  2.3976120e-04
  5.7914585e-04
 -2.6333741e-05
 -3.2645947e-04
  2.6345890e-04
  1.7293899e-04
  6.4467040e-06
 -1.8292334e-05
  8.3815743e-05
 -2.8426090e-04
 -4.1725807e-06
 -2.2011041e-04
 -5.8034526e-05
  1.4036185e-04
  2.7950240e-05
 -4.1529962e-05
  1.6492313e-04
 -6.0308948e-06
  8.4453233e-05
  3.8086349e-05
  4.0235516e-04
  4.5676241e-04
  2.7388768e-04
 -1.0071361e-05
  2.2477540e-04
  5.2437161e-05
 -1.9397397e-04
 -4.4048930e-04
 -6.9930975e-05
 -1.7562052e-04
  1.9282338e-04
  8.3884934e-04
 -6.2076680e-05
 -1.4717052e-05
  5.9098622e-04
 -1.3631466e-04
 -4.3774035e-04
 -7.8896550e-04
 -2.1208976e-04
 -8.5202348e-04
  7.3325177e-06
  4.2382977e-04
 -3.4981331e-05
  4.1157404e-05
  8.6045242e-05
  5.6398083e-05
  1.3150786e-04
  1.0107460e-04
  5.8169109e-05
 -3.4505400e-04
  1.9267814e-05
 -7.8332430e-04
  2.7477180e-04
  2.0621893e-04
  7.5629519e-05
 -6.2608451e-05
  1.8830724e-04
  2.6658102e-04
  5.0502014e-05
  1.7560401e-04
 -1.2290025e-04
 -1.5275336e-04
 -2.2469637e-04
  1.4324245e-04
  1.4111832e-04
  1.3273391e-04
 -2.3079093e-04
 -9.6305019e-05
  1.6929646e-04
 -4.7782730e-04
  1.3548046e-04
 -2.9690628e-04
  9.5453775e-05
  4.7743553e-05
  1.9812565e-04
 -2.9993322e-04
  1.0659413e-04
 -1.1604529e-04
 -2.4362418e-05
 -8.9824467e-04
  1.2163300e-05
 -3.8809530e-04
  4.7426573e-05
 -2.0892992e-04
  1.1105781e-03
 -4.6109897e-04
 -7.9848782e-05
  4.5581528e-05
 -5.4943300e-04
 -2.3924912e-04
  3.7402468e-05
  1.7033333e-05
  3.4492911e-04
 -1.0388339e-04
 -1.0985364e-04
  2.0482372e-04
 -5.2708460e-06
  5.8397593e-04
 -4.3508245e-04
 -1.5578866e-05
 -1.7995855e-05
 -2.3810331e-05
 -1.0433684e-04
 -3.1790500e-05
  1.6946234e-04
 -5.0205248e-04
 -1.4391074e-04
  3.8187014e-04
  4.5395245e-05
  2.5215282e-04
 -2.1523291e-04
 -3.4949183e-04
  5.8703887e-04
 -5.9774022e-05
  5.1437473e-05
  2.2904747e-03
 -2.6749008e-04
  5.3541968e-04
 -7.2402479e-05
  3.0071187e-05
  2.2098186e-04
 -2.6899722e-04
  1.9670549e-06
  2.5879272e-04
 -3.0672993e-04
  9.2537692e-07
  1.8333497e-04
  1.1109220e-05
 -4.8231646e-05
 -1.6648686e-04
 -2.9694653e-04
 -1.6857441e-04
  5.2587191e-05
 -4.8210346e-05
 -8.7777655e-05
  7.6796721e-05
 -3.0098643e-04
 -8.7218628e-05
  3.6718181e-04
  1.1676228e-04
 -3.3417575e-05
  2.6840286e-04
  4.1867408e-04
 -4.6983740e-04
  6.6198112e-04
  3.8370326e-05
  4.6105823e-04
  6.6883775e-05
 -2.6815096e-04
 -2.2656946e-04
 -1.1683805e-04
 -1.1732980e-05
  2.2926362e-04
  3.3843267e-04
 -2.9284740e-04
 -1.8159689e-04
  4.1911819e-05
 -2.3355852e-04
  4.4121640e-04
  4.3416451e-04
  3.6866384e-04
 -4.4462518e-05
 -4.2333268e-04
 -5.6814053e-05
  1.2725718e-04
  2.7452799e-04
  3.4336546e-05
 -1.5734522e-04
 -2.0161508e-05
  2.9820576e-04
 -6.5328808e-05
  9.7441625e-05
  4.7071069e-04
 -7.5270730e-04
 -1.4814585e-04
 -2.7433838e-04
 -1.9513739e-04
  2.3394669e-04
  3.6136914e-04
  8.8367215e-04
 -2.8017149e-04
  4.3235274e-04
  6.2620157e-04
 -5.1739485e-06
  1.2393815e-04
  4.6163116e-04
  5.6763436e-04
 -3.4682016e-04
 -9.4604387e-05
  8.0611826e-05
 -1.0363713e-03
 -6.4638720e-05
  3.3840135e-04
 -4.6367808e-05
  1.9006152e-04
 -1.3336939e-04
 -5.9321069e-04
 -2.0887109e-04
  1.4220588e-04
 -9.9495985e-05
  1.3183457e-04
 -1.1474593e-04
  2.9670904e-05
  7.8036355e-05
 -1.3619527e-04
  1.2073305e-04
 -2.2724491e-05
  1.4611543e-05
  1.8030034e-04
 -1.0310308e-04
  4.0562041e-04
 -3.7964791e-04
 -3.4005154e-04
  5.6240591e-04
  4.1064568e-04
  3.4835775e-05
  2.0397959e-04
  6.0121558e-04
  4.0700863e-04
 -5.4469601e-05
 -1.1992984e-04
  6.0645374e-04
  2.5584004e-04
 -1.5079440e-04
 -1.1235040e-04
 -1.6284259e-03
  1.1322964e-03
 -4.0697603e-05
  5.2998052e-04
 -5.6790590e-04
  1.2569522e-04
 -1.6431490e-04
  2.8624799e-04
  3.8390822e-06
  6.9757385e-05
 -5.8883132e-04
  1.9235017e-04
  3.9613995e-04
  5.5873308e-05
  1.0204912e-04
  2.6784992e-06
  3.5949657e-04
 -1.8803490e-05
  2.2756973e-02
 -1.0766633e-03
 -2.5913132e-05
 -8.6682936e-05
  5.2095199e-01
  1.3840427e-04
 -1.6098496e-05
  8.0394588e-05
 -7.6959266e-05
  1.3096487e-04
  2.8718644e-04
 -2.9049031e-04
 -2.9922550e-05
 -6.1968894e-04
 -7.4624819e-05
  7.7679164e-05
 -2.2373404e-05
 -1.1822325e-03
 -4.7910848e-04
 -6.4025454e-02
 -6.4651787e-05
  4.3332865e-04
 -1.0033743e-04
 -8.0739492e-06
  2.5318155e-05
  4.3816613e-05
  2.5854789e-04
 -1.3715692e-04
 -1.9887129e-04
 -5.0912538e-05
  2.0555554e-04
 -2.7146228e-04
 -3.3733546e-04
  3.9196952e-06
  6.0860917e-04
 -4.2138730e-05
  5.1471889e-05
 -6.6352042e-04
 -1.9908386e-04
 -1.8254996e-06
  1.3951786e-06
 -5.7376450e-04
  3.1036392e-04
 -1.6522881e-05
  6.3096391e-05
 -2.1771691e-04
  9.9305958e-05
  2.2115164e-05
  4.4271554e-05
 -2.3873222e-04
  1.1911445e-04
  5.3521188e-05
  2.5027359e-04
 -1.3143635e-04
 -4.2039965e-04
 -3.2450855e-04
 -1.4167693e-03
  3.9688847e-04
  1.3140461e-04
 -3.4362639e-04
 -3.2929960e-04
 -2.9195927e-04
  1.2669394e-03
  3.3996164e-04
 -9.9839061e-04
 -4.4269036e-04
 -1.9723475e-06
 -7.0292772e-05
  5.8016522e-05
 -5.8668002e-04
  2.3351997e-05
 -1.6164751e-04
 -1.3123498e-05
 -7.3241957e-02
 -3.9466948e-04
  4.1914860e-05
 -8.8880472e-05
 -4.6702215e-05
  9.9176611e-04
  3.8724268e-04
  6.9117646e-05
  2.5830319e-04
 -1.9274661e-04
 -4.0226197e-04
  3.5331488e-04
 -3.9221175e-04
 -2.6726593e-05
  1.1493386e-04
 -1.9787880e-05
  1.7089257e-04
 -7.3633186e-05
 -3.1966600e-04
  2.9811857e-04
  1.4722750e-04
  5.6538382e-04
  1.0608799e-03
 -4.1268440e-04
  1.1790080e-05
 -1.2726367e-04
  5.4616470e-05
  1.9293367e-04
 -7.6858763e-04
 -5.0080608e-04
  5.3319171e-05
  9.3926564e-02
 -4.3383610e-01
  2.3313382e-01
 -2.6417086e-02
  3.5377111e-02
 -5.3448252e-02
  4.0565818e-03
  2.9790288e-01
  1.9823429e-01
  2.7395916e-04
  7.9148309e-04
  2.4341710e-01
 -2.3351908e-04
 -8.3147243e-02
  1.0665194e-01
 -5.4306668e-01
  4.7644712e-03
  5.3132779e-04
  4.9365721e-05
  4.3766693e-05
  6.9898902e-03
  1.3432224e-04
 -7.9821981e-02
  1.5224651e-02
  7.0987892e-04
 -7.6255710e-03
 -4.3780935e-01
 -1.3818860e-04
  5.3380587e-05
  7.4713480e-01
  4.7702462e-05
  1.2104677e-01
  2.5916353e-01
  3.9985296e-01
  9.1980109e-03
  4.3565974e-02
  1.1209405e-02
  1.5378757e-04
  2.3913126e-01
 -5.3361528e-05
 -4.1250840e-02
  9.6901610e-02
 -4.5260936e-02
 -3.7285856e-03
  3.2915396e-04
 -4.3177297e-05
 -9.4319010e-05
 -1.5747181e-01
 -4.0079374e-04
 -1.3652803e-01
 -8.9419307e-03
  3.2261301e-02
  1.6379471e-01
  1.4536109e-04
  6.8107573e-04
  3.5621150e-04
  9.6775057e-06
  1.5939678e-04
 -2.0471388e-04
 -5.5539829e-04
 -8.0842531e-04
 -5.4405355e-05
  6.4365617e-05
 -5.8060716e-04
 -3.9340899e-04
 -4.4458643e-06
 -1.4327929e-04
 -6.3632597e-04
  4.8590220e-05
  1.5829784e-04
  5.3257827e-04
 -9.3550952e-05
 -3.1142079e-04
  5.3344160e-05
  4.0473995e-05
 -3.2675180e-05
  1.6841691e-04
 -3.6529193e-04
  3.5499144e-04
  1.1767528e-04
  1.4799900e-04
  7.0002498e-05
 -1.1290852e-04
  1.4488805e-04
  4.0231057e-04
 -8.6629072e-05
  3.2631843e-04
  3.1785574e-04
  2.8588410e-04
 -3.9021141e-04
 -3.8396305e-05
  3.2646651e-05
 -7.4553136e-05
 -1.0570809e-04
  3.9583661e-05
 -9.1229897e-04
  1.0451106e-04
  3.2430366e-05
  2.3995377e-05
  2.9587471e-05
 -1.3539055e-01
  4.5603618e-05
  2.5773834e-04
  2.2776637e-04
  1.0887413e-04
 -7.5158587e-06
 -6.1034036e-05
  4.9014594e-05
  1.0002629e-05
 -2.7706806e-04
 -1.0233313e-03
 -2.5800263e-04
 -2.1855252e-04
  5.1181467e-04
  5.1721436e-05
 -1.7336441e-05
 -5.3182093e-04
  2.8260654e-05
  4.9404596e-05
 -6.4894208e-04
  1.2375118e-04
  5.7129585e-04
 -3.8743133e-04
 -4.2983601e-04
 -1.9522167e-05
  2.9399429e-05
 -2.4366313e-04
 -3.9701481e-05
  1.8871810e-04
 -2.5913349e-04
 -2.5856169e-04
 -2.1409683e-04
  3.7508577e-04
 -1.1718627e-04
  2.0660735e-04
  2.8478162e-04
 -1.0340462e-04
 -6.9405891e-05
 -2.3935882e-04
 -1.9555732e-04
  4.8178266e-05
  6.2394072e-05
 -6.5117807e-04
  1.2903856e-05
  1.7595875e-04
  1.0291400e-04
 -2.7968559e-05
 -2.4192684e-04
 -4.2436778e-04
 -1.0771755e-04
 -1.2610745e-05
 -6.2293164e-04
  4.7243235e-04
  7.6101290e-04
 -3.1770120e-04
 -3.2483629e-04
 -6.2942869e-05
 -1.0685408e-03
  6.2517112e-04
  2.0614875e-04
  3.8364433e-05
 -3.3772638e-04
 -8.1091719e-05
 -5.0258573e-06
  2.7054618e-04
  3.4518216e-05
  1.6646384e-04
  7.2889659e-04
  1.6669329e-04
 -1.0570871e-05
 -1.8882031e-04
 -3.3093651e-04
 -1.4264316e-04
  1.3630294e-04
  1.3403392e-04
  4.9036349e-05
 -1.2569000e-04
 -6.2470697e-04
 -1.9774119e-04
  3.5724544e-04
  1.9959234e-04
 -2.2040891e-05
  1.3539812e-04
  8.4956133e-05
  1.2680417e-05
  1.9235046e-04
  2.6301239e-04
  1.4409763e-04
  2.1599952e-05
  5.0367007e-04
  2.3798393e-04
 -1.7065495e-04
 -5.9881309e-05
  1.2371586e-05
  9.4001461e-04
 -2.1604267e-04
 -1.1289807e-04
  8.7716762e-05
  1.6155177e-04
 -6.7605870e-05
  1.9300039e-04
  6.7353387e-05
  5.3323281e-04
 -2.6593623e-05
 -2.9094022e-04
 -8.8272362e-05
  2.2413123e-04
  4.3837892e-04
  5.2832831e-05
  1.6143914e-04
 -2.5404230e-04
  2.2445232e-04
  2.1180842e-04
 -1.2283887e-04
  7.6186538e-05
 -4.0909898e-04
  3.1275972e-04
  1.8979419e-05
 -7.7831421e-05
 -4.1477557e-04
 -3.5825833e-05
 -8.4623866e-02
 -7.4774944e-06
  9.1044221e-04
  5.3289457e-04
 -2.2466607e-04
 -2.9492701e-04
 -1.6832069e-04
  4.3927642e-04
  7.6991302e-05
 -2.2109650e-04
 -2.6412902e-04
  1.8730602e-01
  3.2878548e-04
  3.4740983e-04
 -2.2181252e-04
  1.6769585e-04
 -9.4812212e-06
  5.5931720e-05
  7.6390068e-05
  2.5459914e-04
 -4.2864415e-04
 -3.3653594e-04
 -4.7855887e-05
  2.0928204e-04
 -8.9260124e-05
 -6.5094512e-04
 -1.2331706e-03
 -9.3188879e-05
 -1.9043672e-04
 -6.0600240e-04
  6.0426746e-04
  1.3396438e-05
 -1.1582287e-04
  2.3724206e-04
  3.8588326e-04
 -1.5844742e-04
 -1.2430413e-04
 -8.3940366e-05
 -1.5095783e-04
  3.6620302e-05
  3.2190699e-05
  5.9946997e-06
 -6.9384500e-05
  4.2278953e-05
  9.0193818e-05
  3.8360573e-05
 -2.4482960e-04
  1.2602031e-04
 -1.2776523e-04
 -2.8011683e-01
 -7.6285809e-02
 -4.3134641e-02
  5.1092613e-01
 -1.8920223e-01
 -3.5006484e-01
 -3.1185842e-01
 -3.4897685e-02
  1.4777258e-02
 -1.2138223e-04
  2.3671704e-04
 -7.5309433e-02
 -3.9498586e-06
  2.1059979e-03
 -5.2582932e-01
  9.1277532e-02
 -7.2970547e-02
 -6.8590103e-04
 -2.8663114e-04
 -8.1225857e-03
  3.6169212e-02
 -5.7312333e-05
  5.4621242e-04
 -1.9898206e-01
 -3.6112509e-05
 -1.3346995e-01
  2.6220648e-02
  3.0164942e-04
  2.5037117e-04
 -1.8811804e-01
  1.1305194e-04
  3.7110257e-01
  9.1012655e-05
 -3.9452543e-03
  3.3953393e-01
 -8.0699268e-05
  2.2904156e-04
  1.0405803e-04
 -3.2525975e-05
 -1.5200835e-04
  1.8096276e-04
  6.1503684e-05
 -2.5335148e-01
  9.2858195e-02
  1.4166001e-05
  3.2376737e-04
  5.8186508e-04
  3.1671452e-03
  2.0575462e-04
  8.6648541e-04
  4.0185147e-05
 -1.8334882e-04
 -2.4836548e-02
  4.2931646e-05
 -2.0179985e-04
 -1.2268986e-04
  4.6754074e-05
 -4.0616462e-04
 -5.2331281e-03
 -8.4603764e-04
 -2.4402810e-04
  1.2284097e-03
 -6.7809160e-05
 -2.1829996e-04
  2.0754419e-04
 -2.8071273e-04
 -5.3284064e-05
 -4.4324570e-05
  2.5323391e-04
  6.7045446e-04
  3.1076712e-04
 -4.9415365e-04
  5.6862042e-05
  1.7269651e-04
  7.8632132e-05
  3.0876661e-04
  2.5879903e-04
 -1.6308116e-04
  7.0397808e-05
  9.5891010e-04
  1.8909790e-04
  5.4187089e-04
  1.8933509e-04
  4.7235022e-04
  3.5363663e-04
 -5.0272589e-04
  7.0662959e-04
  3.9699502e-04
 -6.6937506e-04
  1.9792034e-04
 -5.3096499e-04
 -6.8412905e-05
 -7.9155552e-06
  2.3058515e-04
 -2.1048651e-04
 -7.3395704e-04
 -1.3768060e-04
 -2.5008575e-04
 -1.9707451e-05
 -2.6210971e-04
  2.9182949e-05
  1.2380663e-04
  1.7533063e-04
  4.7895298e-07
 -7.6615361e-05
  2.6390312e-04
 -1.5910043e-04
  7.4179392e-05
 -6.3873653e-04
 -4.1686057e-04
  1.1499380e-03
 -2.1805995e-04
 -8.3520776e-05
 -4.4319058e-05
  5.4507191e-06
  8.7536298e-02
  4.0367042e-04
  7.0142432e-04
 -6.6730492e-05
 -1.6458104e-04
  1.7280533e-04
 -6.7326846e-04
  5.1250454e-06
  2.4677219e-04
  4.4275683e-05
  1.9766499e-04
  7.0483703e-04
  3.9885344e-04
  1.3261758e-04
  5.9806608e-04
  1.8903110e-04
  6.4731721e-05
 -5.3371151e-04
  2.8613268e-04
 -2.1353534e-04
  1.3526305e-04
  1.2529650e-04
  1.9035894e-04
 -2.3984463e-05
  3.0133716e-04
  5.4056851e-05
 -1.2362355e-04
 -5.4737122e-04
  1.3905909e-05
  2.2671713e-05
 -4.1273076e-04
 -4.1925316e-05
  5.3007156e-04
  2.4990144e-04
  2.9032869e-04
 -1.0377270e-04
 -3.5659230e-04
  1.1041857e-04
  3.2680252e-04
  4.1583454e-04
 -2.4525632e-04
 -1.4038432e-04
 -1.0194799e-03
  5.1860032e-05
  4.7469343e-04
  7.0040296e-05
  1.0193127e-04
  2.6919928e-05
 -1.2900980e-04
  1.0847986e-04
 -1.7756733e-04
  1.3400594e-03
  6.2557403e-05
  1.2912483e-04
 -6.4780244e-05
 -2.3806420e-05
 -7.4850432e-05
  2.3867699e-04
 -1.6727556e-05
  3.2576612e-05
 -2.9522234e-06
 -4.0897470e-05
  8.2121743e-04
  7.6888164e-04
 -1.9937068e-04
  5.1395047e-05
  2.6250666e-04
 -1.7217288e-04
 -6.4103137e-05
 -2.7600303e-04
  4.3297661e-04
 -9.6081632e-05
 -3.8763744e-04
 -2.3400651e-05
  2.6441138e-04
  5.0379029e-05
 -8.9812092e-05
 -6.8902204e-06
  1.1928973e-05
  5.1418680e-05
 -9.7533430e-06
 -7.7773642e-04
 -1.7327699e-05
 -6.2247549e-05
 -5.7593941e-05
 -7.8455683e-05
 -3.1144603e-04
 -6.8243075e-04
  1.4174945e-04
  5.1887793e-04
  3.0531999e-05
  1.0886967e-01
  6.1728637e-04
 -4.9611253e-06
 -1.1235583e-03
  6.6891618e-05
  2.9664248e-04
  3.0709251e-07
 -2.7608185e-05
 -5.3129229e-04
 -7.5936921e-05
  4.8686800e-04
 -7.9928686e-05
 -7.5039698e-04
  2.2042533e-04
  1.6339346e-06
  8.8968426e-02
  1.2517758e-05
  3.0474566e-04
  2.0712090e-04
  4.5073693e-04
 -1.8749783e-04
  2.7249812e-04
  1.4638835e-04
  8.3924324e-06
 -1.1339062e-04
  5.7025038e-04
 -1.1071133e-04
  2.9649650e-04
  3.4173456e-04
  3.0525684e-05
  1.6374244e-04
 -2.5163940e-04
  5.8973703e-04
  2.9953738e-04
  5.7143823e-04
  4.5598063e-04
  2.6878060e-04
 -2.0863651e-04
 -1.2446623e-04
 -1.4828464e-04
  1.6027379e-04
  1.6301326e-04
  1.2358940e-04
 -1.2946131e-03
 -3.6437690e-05
  5.8429079e-05
 -4.8050223e-04
  3.0383823e-04
 -3.4073312e-04
  1.6334240e-04
 -1.7544918e-04
 -1.0936186e-03
  1.2948849e-04
 -6.8239468e-05
 -3.3354075e-04
  1.3246482e-05
 -1.4347285e-04
 -4.2615662e-04
  2.4265570e-04
  3.6931780e-04
 -4.7759037e-05
  5.0564634e-04
  9.3427498e-06
 -8.1907136e-05
 -2.2937769e-04
  2.5211251e-04
  2.3996754e-05
 -1.8250551e-04
 -6.0671053e-05
 -2.8165209e-04
  5.5951199e-07
  4.1306362e-04
  1.2243431e-04
  4.9613800e-04
 -1.3036931e-04
  3.5455968e-04
  1.1334787e-04
 -6.5147375e-05
 -5.0121912e-04
 -5.3211831e-04
  1.4066861e-05
  2.7436887e-05
 -3.5390776e-04
  2.2695621e-04
 -6.8848349e-05
  9.2819193e-03
  1.0676289e-04
  1.8118182e-04
 -1.4702155e-04
  3.9552306e-04
  2.8036418e-04
  1.0523782e-04
 -2.7048471e-04
  1.8709806e-04
  1.0580238e-04
  1.8661627e-05
 -5.2369061e-05
  1.0264501e-03
  2.5323412e-04
  1.4908002e-04
  3.2300878e-04
  1.6509905e-05
 -5.7987077e-04
 -2.3595970e-04
 -5.5469205e-05
  9.0956053e-04
  1.9038854e-04
  2.7396374e-05
  2.5941417e-04
 -2.6544492e-04
 -2.9512079e-04
 -2.2413919e-04
 -2.7470491e-04
 -5.7005836e-04
 -2.4055043e-04
  3.6364645e-04
  9.4517549e-05
 -6.2599778e-01
  1.6244089e-04
  1.1638478e-04
  8.9522648e-05
  6.1926234e-04
 -7.0023630e-04
 -1.2860505e-04
  2.9133784e-04
 -4.4161145e-04
 -6.5070832e-05
  9.0260903e-05
 -1.8827240e-04
 -7.8033459e-05
 -1.1551579e-04
 -1.6292611e-04
  5.2645366e-04
 -1.9943126e-04
  7.8013771e-05
  3.6389037e-04
 -2.7875492e-04
 -5.9739923e-05
  7.8983663e-04
 -2.2439167e-04
  1.6435269e-04
  1.0980380e-04
 -9.2697992e-05
 -2.3409043e-04
 -1.4779132e-04
  3.1087446e-04
 -1.4386350e-05
  1.3138184e-04
  1.5724763e-05
 -1.4040231e-04
 -1.7434626e-04
  1.2492818e-04
 -8.4294207e-02
  1.5995004e-04
 -7.9293022e-05
 -1.8279001e-04
  2.0528950e-04
 -2.2459042e-04
  4.2544593e-04
  2.3360908e-05
  5.0959487e-05
  9.4471499e-04
 -1.2352828e-04
 -3.8875616e-04
  4.0945696e-04
  3.7004342e-05
  4.8413303e-06
 -1.6976086e-05
  4.6979705e-05
  2.0607479e-04
  9.2211027e-05
  1.1556478e-04
 -8.9982362e-04
  4.8631839e-05
  4.8692463e-04
  8.9700770e-05
  1.1105093e-03
  7.7971275e-04
 -1.8538917e-04
 -4.1874853e-04
  4.9357496e-02
  1.9850554e-04
 -1.1063914e-04
  2.2106292e-04
  8.6220753e-06
  4.5224419e-04
 -1.3271578e-04
  2.1823955e-04
 -1.8554414e-04
 -2.3379123e-04
 -3.5146393e-05
  2.5505974e-04
 -1.5894033e-04
  1.0773658e-04
  3.0991202e-04
 -1.2847003e-04
 -2.2529534e-04
 -3.0871882e-04
  1.0398851e-05
  1.0377327e-04
 -2.1375126e-04
  3.4408376e-04
 -4.2583980e-04
 -2.2539034e-04
  5.6905311e-04
 -1.9029644e-04
 -6.4615248e-05
  2.1072982e-04
  1.8329547e-04
  3.2478079e-04
  3.1853892e-04
  4.2275504e-05
  1.0302863e-04
 -1.1690143e-05
  1.0284731e-04
 -3.4194434e-04
 -1.9480676e-05
  4.8109435e-04
 -1.0979225e-04
  4.5101423e-04
 -4.5944780e-05
  1.5882406e-04
  3.9927091e-04
 -6.4811681e-04
 -1.0113195e-04
  1.5262976e-04
  3.9311135e-04
 -1.5519145e-04
  2.4717857e-04
  3.5330857e-04
  1.5977639e-04
  8.4118816e-05
 -8.5522106e-04
  3.9074359e-05
 -1.4002679e-04
 -3.7899046e-04
  2.2420632e-04
  2.7270404e-05
 -1.5081858e-04
 -1.5102867e-04
  2.6377110e-04
 -2.0326753e-04
  7.0566071e-05
  2.6655960e-04
  6.2273808e-05
 -6.3363800e-04
  1.0508403e-04
  4.3018872e-04
 -3.9549021e-05
  1.1934217e-04
 -3.5902238e-04
  5.8978945e-05
  3.3615717e-05
 -4.9296394e-04
  5.9981574e-04
 -8.2400389e-04
  3.4839439e-04
  1.4818425e-04
  1.9171584e-06
  1.3929489e-04
  1.2560813e-04
 -2.6790556e-04
 -3.1724290e-04
  1.1472895e-04
 -2.9239117e-04
  2.2929178e-05
  9.5013872e-04
 -9.9786834e-05
  8.5039421e-05
 -5.9165608e-04
  1.7986291e-04
 -4.0777528e-04
 -1.7951489e-04
 -1.1887312e-05
 -8.1449121e-05
 -3.7606721e-04
  2.6713964e-04
 -6.1114988e-05
 -2.2547176e-05
  6.3024061e-05
 -8.4203402e-06
  1.0230294e-03
  7.6360207e-05
  4.9671985e-04
  7.7717076e-04
  3.8715662e-05
 -5.7136890e-04
 -1.1364908e-04
 -6.6452259e-05
  3.7955886e-04
 -2.0765632e-05
 -8.7378902e-04
 -7.5150187e-05
 -3.3060869e-04
 -2.9882841e-04
  1.0882292e-04
  2.9442724e-04
 -3.9942806e-06
  2.3013645e-05
 -4.2141107e-04
 -2.5496973e-05
  4.9321016e-04
  4.2695226e-04
  2.5924336e-04
 -4.5379985e-04
 -2.9653756e-04
 -6.1541697e-04
 -1.9543184e-04
  2.2701561e-04
  1.0745657e-04
  1.2421448e-04
 -1.2628204e-04
 -7.0110266e-04
  3.4290616e-04
 -1.1624621e-04
 -2.4160009e-04
 -4.0670231e-05
  3.0618315e-04
 -3.7851988e-04
 -8.9323876e-05
 -8.0528880e-05
 -7.3854113e-04
  4.2328628e-04
 -1.5364753e-04
  2.2800862e-04
  2.6745233e-04
 -3.6353036e-04
 -2.3998128e-04
 -3.8907427e-05
  9.2862203e-05
  1.3548479e-04
 -6.3789332e-05
 -1.2613615e-04
 -1.2254114e-04
  2.2462326e-04
  4.4767663e-04
  3.5960111e-04
  1.6110412e-04
 -2.5237404e-04
 -3.4274109e-02
  8.8292836e-05
  2.6080330e-04
 -5.1722809e-04
 -4.9040020e-05
  1.4169126e-04
 -3.3433793e-05
  5.1131952e-05
  1.9552743e-04
  2.0935795e-04
  1.3846834e-04
  2.8089021e-04
 -1.1991257e-04
 -2.9184626e-04
  1.2941942e-05
  1.7297879e-04
 -1.7890178e-04
  2.6565572e-04
 -4.0888813e-04
 -2.3751089e-04
 -2.2177921e-05
  8.8375578e-05
 -1.2032654e-04
 -3.7938327e-05
 -1.7493054e-04
  1.6418372e-04
  9.6805027e-04
 -2.6977234e-04
  3.0874502e-04
 -6.7024312e-06
 -1.4058913e-05
  1.8756250e-04
  1.3845242e-04
 -9.1073033e-04
 -2.7148408e-04
 -5.6110090e-03
 -4.6287055e-04
 -8.4039173e-04
 -7.3375867e-04
 -9.9045072e-05
 -5.8741361e-04
  7.4991112e-05
 -1.1439339e-04
  9.3324423e-05
 -7.0775095e-05
  6.5523382e-05
 -5.9728062e-04
  2.2169854e-04
 -1.4213524e-04
  1.0385558e-05
 -2.9631166e-04
  5.6972309e-05
 -3.6656580e-04
 -1.2266402e-04
 -3.1837699e-04
 -5.2536234e-05
 -1.0858333e-04
 -3.8008924e-04
 -4.6010318e-04
 -7.2208895e-05
 -5.7214198e-05
  2.2474622e-05
 -9.4830812e-06
 -8.9315530e-05
 -5.7242665e-04
 -5.8892329e-05
 -9.2360578e-02
 -2.3119056e-04
  2.9535926e-04
  2.6090714e-04
  3.4219632e-04
 -1.3084034e-05
  2.4629317e-04
 -3.5740840e-04
  2.2417291e-04
 -9.1433307e-05
  8.0540631e-05
 -1.6154590e-04
  1.5128944e-04
 -8.3620267e-05
  4.4462533e-05
 -7.1734088e-05
 -2.6709540e-04
  1.0846544e-04
 -3.7202743e-05
  7.4641965e-04
  5.1036372e-05
  3.2244049e-04
 -2.7427614e-05
  1.4168277e-04
  2.2938524e-04
  3.8703144e-04
 -6.6450570e-04
  6.4102490e-04
 -1.9412584e-04
  1.2570487e-04
  3.8852002e-05
  3.8446502e-05
 -2.0972396e-04
  1.4035152e-04
 -5.3434243e-04
 -7.2181254e-04
  1.1563565e-04
  1.8409654e-04
 -7.0777768e-04
 -3.2567401e-05
 -2.3419907e-05
  1.4388195e-04
  1.1881356e-02
 -9.5748333e-03
 -3.7278936e-04
 -1.7826766e-05
  3.0962261e-04
  2.0231411e-04
 -4.8009664e-04
 -2.5663108e-05
  6.9471418e-05
  4.9146605e-05
  1.0249636e-04
 -2.0017175e-04
  3.6257847e-05
 -1.4758618e-04
 -9.8872122e-05
 -1.7714311e-04
 -3.2812034e-04
 -1.7570489e-04
 -1.3923184e-04
 -1.9382022e-04
 -3.8617096e-04
 -2.7254850e-04
 -3.4314644e-04
 -6.9181740e-05
 -5.2297575e-04
 -3.9406717e-04
  1.0373365e-04
 -2.4032795e-03
  5.3926083e-06
 -7.5449454e-05
  2.0468406e-05
 -1.7822484e-04
 -9.4769690e-05
 -1.1131868e-03
 -1.8269822e-04
  1.0358587e-04
 -5.9295562e-04
  2.4252510e-04
  4.8025548e-05
  8.2387320e-05
  1.6211403e-04
  6.1350038e-05
 -4.5090317e-05
 -2.8927613e-04
  7.4319061e-05
  8.4442829e-05
  2.5652244e-04
 -1.9871895e-04
 -1.9537352e-04
 -5.0520703e-02
  1.4708031e-03
 -5.1624145e-05
 -5.9690315e-04
 -9.1787428e-04
 -1.1461709e-01
  1.5913588e-03
 -9.9845754e-05
  4.7697843e-04
  1.4991489e-05
 -3.3474757e-04
 -4.2307638e-05
 -9.2235830e-05
  7.2132076e-05
 -1.9464933e-04
 -5.3916732e-04
  2.2722733e-04
  1.8740147e-04
 -5.0919334e-04
  7.8929232e-05
 -1.9267318e-05
  3.6678932e-04
  2.7461012e-04
  1.7737135e-02
  4.9625927e-05
  5.3656817e-04
 -1.4432807e-03
  3.7966829e-04
  2.3121762e-04
  9.5413573e-02
  2.1700733e-04
 -1.3655752e-01
  6.2413943e-05
  6.6153593e-03
 -4.4206362e-02
  1.9986359e-04
  5.4425043e-05
 -1.3492869e-04
  3.3180483e-02
 -3.6990744e-04
 -2.7665734e-05
  4.0903178e-04
 -3.4981978e-04
 -1.4124345e-03
  5.1256942e-05
 -1.0844599e-03
  1.2470031e-04
 -1.1959761e-04
  2.9949513e-05
  1.3824085e-04
 -1.7370180e-04
  1.1093415e-04
 -7.2582945e-05
  1.5937179e-04
  4.1021200e-04
 -4.2682540e-04
 -4.0555638e-05
  2.3514589e-05
 -2.7859349e-05
  2.1650769e-04
  2.2117526e-06
 -1.5357778e-04
  1.1116860e-04
 -3.7713849e-05
  1.4084420e-04
  2.1137741e-04
  2.2988305e-04
 -1.6227088e-04
  1.0756457e-04
 -4.3011978e-04
 -7.5625678e-05
 -4.3116673e-04
  2.1283611e-04
 -2.1034475e-04
  1.5097501e-04
 -8.8400506e-05
  3.4041944e-04
 -2.5961905e-05
  1.9303602e-04
 -1.7933715e-04
 -1.4139578e-04
 -4.0371055e-05
 -4.9529359e-04
 -1.4131858e-04
 -1.8195405e-04
  1.0519951e-05
  2.1708380e-05
 -4.6018416e-05
 -3.8520523e-04
 -3.8990920e-04
 -2.9999364e-04
  2.4703098e-04
  2.3362895e-04
  7.0763999e-05
 -8.5190317e-05
 -1.9358256e-04
  4.8829993e-04
  8.7737368e-05
 -1.7104890e-04
  1.9713630e-06
  6.9954811e-05
 -2.7387726e-04
  3.5609308e-04
 -2.1493691e-04
 -2.2621028e-04
  5.7357491e-04
  3.0267617e-04
 -6.4439746e-04
 -1.6675286e-04
  7.0882475e-06
  3.3607241e-06
 -1.7125154e-04
  3.6529620e-04
  1.1512133e-04
 -2.8068468e-04
 -4.6847050e-05
 -2.8356399e-05
 -4.9179376e-05
  2.0022711e-04
  6.7700363e-05
 -9.9703640e-05
 -1.7314019e-04
 -7.1413342e-05
  1.1569205e-04
 -5.7052186e-04
 -5.4000010e-04
 -1.5584486e-05
  1.6365192e-04
 -1.1823365e-04
 -6.8048947e-04
 -4.7334295e-04
  8.9001900e-04
 -3.1969775e-04
 -7.9643267e-04
  8.9835760e-04
  8.6718344e-04
  1.2624178e-04
  3.9022627e-05
  1.1816469e-04
  8.8958150e-06
 -1.2535554e-04
  2.0779701e-04
  9.8729783e-05
 -6.4170690e-06
  1.1184147e-04
  2.0348340e-04
  1.4735055e-04
 -4.8499027e-05
 -7.6014348e-06
  4.8272599e-05
  1.4066852e-04
 -1.2838254e-04
 -2.0336812e-04
  8.7959814e-04
  6.5210268e-05
 -6.4268149e-04
 -6.1563798e-05
  2.4354226e-04
  6.8214000e-04
 -3.5460107e-05
  3.9504110e-04
 -3.8786797e-04
 -2.0466930e-04
  9.6327526e-04
 -1.3641297e-04
 -8.1542908e-04
 -5.4590806e-04
 -6.0717040e-04
  8.7559492e-05
 -5.8496753e-05
 -2.0102333e-04
 -5.8224534e-05
 -5.6598918e-05
 -4.6632427e-04
  3.2979989e-04
 -1.4055906e-04
  1.8322229e-04
  1.7133963e-04
 -9.1415182e-05
  4.8474147e-04
  2.9572977e-06
 -3.6427129e-05
  8.7366952e-04
 -1.5425983e-04
 -1.4065023e-04
  9.9241966e-05
  2.1304858e-04
 -6.2552065e-04
  1.5294654e-04
 -3.1161745e-04
 -1.3355081e-04
  2.9111150e-04
  4.6262742e-04
 -2.0197348e-04
 -2.7291462e-04
  1.9885514e-05
 -4.9499050e-04
 -1.2868436e-04
 -1.3492655e-04
  1.6110227e-04
  4.2236262e-04
  1.3767170e-04
 -5.8314780e-04
  1.1824183e-04
 -2.6181445e-04
 -6.6503935e-04
 -1.2871902e-04
 -1.2980489e-04
  3.3144610e-05
 -4.8420388e-06
 -5.4826011e-04
  2.4944908e-04
 -1.9519488e-04
 -1.0576641e-04
  3.3328970e-04
  1.6945459e-04
  3.9332834e-04
  2.2872950e-05
  3.7868260e-04
 -6.1835465e-04
 -1.9835422e-04
  1.0960366e-04
  1.4396154e-04
  2.1322731e-04
 -4.7181401e-04
  1.9961453e-04
 -3.1430249e-05
  2.4009787e-04
 -4.6725583e-04
 -2.6608084e-04
  3.5024856e-04
  2.5648519e-04
  2.0905220e-06
 -1.8171866e-05
  2.6435556e-04
  5.1711169e-05
 -3.1493671e-04
 -1.5207590e-05
  1.6094635e-04
  1.4942746e-02
  4.4661792e-04
  5.6722644e-04
  2.1295820e-04
  4.3227349e-04
 -3.8752821e-04
  2.3552078e-04
 -1.9499465e-05
  2.9467492e-04
 -6.7986825e-06
  1.9334901e-05
 -5.9084076e-04
 -2.2130196e-04
  4.9456314e-04
  3.0051569e-02
  1.4698241e-04
  9.7310968e-04
 -2.8281554e-04
 -6.1079008e-05
  3.8079679e-04
 -1.0590014e-04
 -1.0605680e-04
  6.9618225e-04
  1.7383727e-04
 -2.2102380e-04
 -4.2630808e-04
  2.3980117e-04
 -3.0407947e-04
  2.1221513e-05
 -2.0608342e-04
  6.7262496e-05
  1.0440673e-02
 -2.0927937e-01
  6.4784318e-02
  2.4771500e-01
 -1.7407831e+00
  4.3433055e-01
 -2.6440182e-01
  1.2684759e-01
 -1.5874770e-01
 -3.7623840e-04
  9.1009788e-05
 -2.2140984e-01
 -2.4074843e-04
  3.1338450e-02
 -3.7677217e-01
  1.7604789e-01
 -2.9404690e-02
 -8.1100303e-04
 -6.8965783e-05
 -6.0209124e-05
 -1.9332737e-01
  3.8200762e-04
 -4.0325111e-05
 -3.4540363e-03
  8.4114057e-05
 -2.1084477e-01
  3.5546643e-01
 -1.4061503e-04
 -2.5154350e-04
 -3.4634283e-01
  1.1924243e-04
  7.9073362e-02
  3.9748993e-04
 -4.3311518e-02
  8.5843675e-02
 -3.9505213e-04
 -1.5575880e-04
 -1.5883855e-04
 -1.4790207e-01
  7.4533054e-05
  9.4715124e-01
 -7.3242927e-04
  1.2949233e-01
 -3.9733252e-01
 -1.4728412e-04
  1.1663841e-04
 -1.0166857e-04
  7.2223996e-04
 -7.5707166e-04
  1.6737902e-03
 -2.7085055e-04
 -1.3261056e-03
 -1.5636577e-01
 -1.4865615e-04
 -5.1023367e-06
 -1.2674343e-04
  7.4077972e-05
 -1.0800770e-04
  2.1273251e-04
  2.9101386e-04
  8.4356783e-05
  1.6504862e-04
 -1.9270633e-04
  5.1341590e-06
  7.0267568e-05
  1.7379587e-04
 -1.2100062e-04
  5.0969329e-04
  3.4717048e-04
 -2.1894583e-04
  1.4953025e-05
  3.6667427e-04
  1.7331912e-04
  4.7581882e-05
 -2.4444933e-04
  1.8098549e-04
 -3.1234504e-04
  2.5811515e-04
  1.8959839e-04
 -3.8658819e-04
  2.3443702e-04
  2.7049589e-04
  8.5907042e-05
  3.3554239e-05
 -3.3725158e-04
 -3.0672981e-04
 -1.7535358e-04
  2.1422563e-04
 -1.0938564e-04
  1.7121567e-04
  3.1468962e-04
 -2.8805929e-04
  2.2254467e-04
 -5.2077783e-05
 -1.6330878e-04
 -1.6989511e-04
 -1.3983325e-04
  5.5339356e-04
  2.4493938e-04
  3.2752378e-05
 -7.5495758e-05
  5.3254253e-04
 -3.0627934e-04
 -2.9152812e-04
  5.9139373e-04
 -3.0506120e-04
 -1.8647393e-04
  1.7661529e-04
  4.5952129e-05
 -8.4541918e-04
  3.9860952e-05
 -5.2692027e-05
 -4.7881762e-04
  7.2125738e-05
  2.7247148e-05
  2.0923992e-04
 -1.4853420e-05
 -2.5909330e-04
  2.1191782e-04
 -4.6606656e-05
 -3.3693714e-04
  1.0111564e-04
  2.3082446e-04
 -5.4413243e-04
 -2.4021832e-04
  1.1590979e-05
  3.8472517e-05
  2.3361670e-05
 -2.4924357e-05
 -3.9869454e-04
  2.6519760e-04
  2.1388836e-04
 -2.3510332e-04
  1.1755231e-04
 -5.3664617e-04
  3.4154792e-04
 -6.2781741e-04
 -3.2358640e-04
  2.6358331e-03
 -2.3374114e-04
  1.6252146e-05
 -2.4952815e-05
 -3.5603207e-05
  3.5576805e-04
 -9.6290469e-06
 -2.5469947e-04
 -2.8442935e-04
 -1.2423290e-04
 -2.9169876e-04
 -5.0982013e-05
 -3.7397278e-04
 -3.5644730e-04
 -4.1876992e-04
 -1.0411502e-04
 -2.5092220e-05
 -6.3472707e-04
  5.5430613e-05
 -5.1112869e-04
 -1.7618548e-04
  5.5111863e-04
 -1.7060348e-04
 -6.8433270e-05
 -2.7293645e-04
 -9.8561561e-03
 -4.2683307e-05
  3.6314146e-03
  7.7704983e-03
 -9.5053300e-02
 -1.6517356e-01
 -3.8713440e-02
 -1.6713932e-01
  1.7384952e-04
 -1.3154114e-04
  3.8007629e-04
 -4.8973988e-04
 -2.8117778e-04
 -6.2018618e-05
  1.0448414e-01
 -6.5362983e-04
  6.3379522e-04
 -7.4651150e-05
  2.8479029e-04
 -1.5567316e-03
 -4.4871398e-04
  4.1416470e-02
 -1.8738137e-01
 -2.2155716e-04
  8.9627095e-02
  5.9637204e-02
  1.1173852e-05
  1.0921982e-04
 -1.8728925e-01
 -5.4514996e-04
  5.1451247e-02
 -7.0193172e-02
 -2.0203907e-02
  1.8805765e-02
  4.4538471e-04
 -2.4067154e-05
 -2.4372577e-05
 -2.0299055e-02
 -1.1353669e-03
  3.3818761e-01
 -4.0105308e-04
  8.5904161e-05
  7.8843540e-04
 -1.6735551e-04
 -4.1857242e-04
 -7.7321674e-05
  1.5339917e-03
 -1.2821248e-05
 -2.2454790e-04
  7.5890886e-04
 -1.0321642e-03
  1.1044409e-04
 -4.5493267e-05
 -2.4859619e-04
  1.9183992e-04
  5.8569165e-04
 -5.5283040e-06
 -1.3672769e-04
 -6.5134472e-04
 -6.4541504e-04
  2.5194662e-04
  2.4987754e-04
 -2.9543226e-04
  3.6016002e-04
 -2.5644846e-04
  8.7953173e-05
 -8.9994057e-05
  2.2286641e-04
  3.3491777e-04
 -4.1595596e-04
 -9.1859140e-04
 -2.2561083e-04
  5.5813801e-04
  9.5058713e-05
  5.6644960e-04
 -8.3538296e-05
 -2.3629593e-04
  1.4038842e-04
  1.6641250e-04
  4.8825168e-05
  2.9195001e-04
 -4.8030441e-05
  7.0470315e-04
  2.6672573e-05
 -1.6731575e-04
 -3.6993521e-04
 -4.6824600e-04
  4.2006702e-04
  3.7163435e-04
  9.1128441e-06
  7.0673268e-05
 -4.8029705e-04
 -3.7418914e-04
  2.4549139e-04
  1.5841136e-04
 -1.8880574e-04
 -2.9701501e-05
  6.0755585e-04
  9.8082994e-05
 -9.0943147e-05
  1.4750837e-05
  4.4385561e-05
 -3.3730408e-05
 -2.4495626e-04
 -6.1105238e-04
 -2.7367377e-04
  8.4773910e-06
 -1.5445326e-04
  9.2129565e-05
  2.4522794e-04
 -1.2782357e-04
 -6.0636532e-05
 -4.3516079e-04
  1.5989642e-03
  3.0418367e-05
  5.8549263e-06
 -5.8546389e-04
  9.8091426e-05
  2.8597141e-04
  3.5718709e-04
 -5.0951220e-04
  3.8675542e-04
  3.1017343e-04
  1.9006914e-06
 -6.8873269e-05
 -4.4597775e-05
  2.0378278e-04
  1.1819988e-04
 -8.2402075e-05
 -7.2068747e-06
  4.5734228e-05
 -1.9488062e-04
 -2.0126048e-04
 -2.0527617e-04
 -7.7253018e-05
  8.1332214e-04
  4.8327452e-04
 -1.3064342e-05
 -5.4672832e-04
  4.6756596e-04
 -2.9251081e-05
  1.0915425e-04
  9.1562244e-05
 -3.5964236e-05
 -1.8998548e-04
  1.9069163e-04
  2.4999390e-04
  4.8504988e-04
  2.5739218e-05
 -3.4994335e-04
  5.7953043e-04
  3.2790515e-04
 -9.0892398e-05
  3.2590097e-04
 -2.8684965e-04
 -5.8824126e-06
 -5.4752413e-04
 -7.7378791e-05
  1.7727664e-04
  4.5236948e-04
  3.0648621e-04
  5.3567678e-01
 -4.8377925e-01
  5.1868003e-04
  1.9601114e+00
 -6.5081894e-01
  2.0255002e-01
  8.2324737e-01
 -1.2676072e+00
  2.0406691e-03
 -2.8616025e-05
 -4.8142753e-04
  7.0611091e-04
  3.6194708e-06
  2.0664544e-03
 -6.7525902e-03
  5.6142455e-01
  4.6891996e-01
  3.6971236e-04
 -1.7732353e-04
  1.3922418e-04
 -4.5479870e-01
 -1.4197727e-05
 -2.6307570e-02
 -5.0135981e-03
 -1.9267766e-01
  6.5073565e-02
  3.2279629e-01
  1.8907615e-04
  2.7141173e-04
 -5.2664274e-01
 -1.6563736e-05
  3.1160077e-01
 -3.1730121e-01
 -2.0150082e-02
 -6.5312350e-01
 -3.1679250e-02
 -4.0296148e-04
  2.8923372e-04
 -5.7647657e-01
 -3.3122749e-05
 -1.4957094e-01
 -1.0005439e-01
 -3.2746550e-01
  6.9229841e-02
 -1.2436541e-04
 -2.5685981e-04
  4.1858375e-04
  7.1597554e-02
 -1.1277670e-04
  8.2717307e-02
  1.2189298e-02
 -1.7284170e-02
 -1.0934885e-02
 -3.0996722e-05
  2.4989460e-05
  1.3867121e-04
 -4.8174781e-05
 -1.2029066e-04
  3.7330369e-04
 -8.4425366e-05
 -1.8754596e-04
 -1.0235522e-04
 -5.4970739e-04
  5.5642089e-05
  2.0552933e-04
  2.8539490e-04
 -8.9228131e-05
 -1.4242965e-04
  1.0557270e-04
  2.4482096e-04
 -9.5804379e-04
  1.4843722e-04
  1.0170553e-04
 -8.9838737e-05
 -1.2980674e-04
  8.3890285e-05
 -3.4991226e-05
  4.4626382e-04
  2.1313375e-04
 -2.5694961e-05
 -1.0457650e-03
 -2.7473064e-04
  2.8643082e-04
  9.4710107e-05
 -4.6889423e-04
  3.7115293e-05
 -4.8826629e-04
 -5.1657291e-05
 -3.1629365e-04
  8.6401698e-05
  8.9694932e-04
 -1.3846812e-04
  3.1738789e-04
 -8.5744432e-05
  8.3693047e-04
 -1.7718202e-04
  1.6305984e-04
  2.5559618e-04
 -2.4030822e-05
 -1.0885103e-04
 -1.7001582e-04
 -8.1282196e-06
  2.8945360e-04
 -2.4570173e-04
  1.5872154e-04
 -3.8247104e-05
 -1.4559331e-04
  2.5899394e-04
  4.8899325e-04
  5.6565035e-04
 -7.3748306e-05
  2.2089812e-04
 -2.3054605e-04
  4.5945118e-05
  2.6344831e-06
  3.5952027e-05
  4.1666461e-04
  2.8146236e-04
 -6.8890595e-01
  2.9269236e-04
  8.3627849e-05
  7.2810139e-06
  5.7291478e-04
 -3.9332182e-04
 -9.4960538e-05
  4.0142408e-05
  4.4059729e-05
  6.6299242e-04
  5.1166577e-04
 -1.2420700e-04
  2.8546355e-04
  6.0103188e-04
 -3.5667785e-05
 -9.5004187e-05
  1.0478203e-03
  8.5096003e-04
 -7.1332630e-05
 -5.2039621e-05
  2.9130888e-04
 -1.0184470e-04
 -3.2155356e-05
 -3.1591218e-04
  1.8606904e-04
 -6.4141132e-05
  4.9357332e-04
  2.1010801e-05
 -4.1642974e-04
  3.0070325e-04
  3.1712611e-05
 -2.0668351e-04
  7.7731886e-05
 -2.8184080e-04
  2.8521154e-04
 -5.5439494e-05
 -8.3155908e-05
 -4.5098318e-04
  1.1567051e-04
 -1.4723506e-04
  2.8907091e-04
  5.8573783e-05
  3.2903838e-05
  4.6595497e-04
 -1.8190415e-04
  2.4912760e-04
 -3.2766635e-05
  3.6543261e-05
  1.7290392e-04
 -9.0618560e-05
 -4.1468218e-05
  1.7039954e-04
 -4.8275958e-04
  4.9319019e-04
  1.3068183e-06
 -7.9125261e-05
 -2.0229245e-04
 -1.0449137e-04
  4.8748076e-05
 -8.2257553e-04
 -1.8340802e-04
 -3.7722167e-04
 -7.2494673e-05
 -4.6671721e-05
 -1.0138674e-05
  1.8120398e-05
  2.2595283e-04
  2.3259780e-04
  4.2525009e-04
  1.4166327e-04
  5.6762679e-04
 -3.2870678e-04
 -8.5916335e-04
  3.0075299e-04
 -4.8301750e-05
 -8.0165883e-05
  6.2911492e-04
 -1.4883772e-04
 -1.7427861e-05
  1.8190859e-04
  1.1535810e-04
 -9.5950920e-05
 -3.2120731e-04
  3.0965178e-04
 -1.2774728e-04
 -1.1468696e-04
  6.2181651e-05
  5.4997334e-05
 -1.8645388e-04
  5.8043523e-05
 -3.6421872e-05
  3.3348144e-06
 -1.1478486e-04
  2.3703238e-04
  1.7690564e-04
 -6.5457731e-05
  1.7863521e-04
 -4.4589920e-04
 -5.7658286e-05
 -1.6177837e-04
 -3.2974486e-04
  3.9280869e-05
  8.3872925e-05
  3.8100412e-04
 -1.0607255e-04
 -7.2532581e-05
  2.1535221e-05
 -8.7015513e-05
 -4.1475496e-04
 -2.6395835e-04
 -5.2909996e-05
  5.6008812e-05
 -1.2170956e-03
  1.1140132e-04
  6.6372915e-04
  3.4810387e-04
  2.0218526e-04
 -2.0945499e-05
  2.5335699e-04
  2.1705200e-04
 -9.2636437e-05
 -1.0939597e-04
 -1.0884246e-04
 -2.3365117e-05
 -1.7199309e-04
 -1.1129146e-04
  1.6418070e-04
  6.8156434e-05
 -4.4154565e-04
  4.1807198e-04
 -3.0208155e-04
  2.0669031e-04
  7.9174136e-04
 -1.1092158e-04
  3.2026840e-06
 -7.9852412e-05
  2.1571424e-05
 -1.6135538e-04
 -1.7248139e-04
  6.1089190e-04
  4.3706619e-04
  4.1329833e-05
 -9.4477655e-05
 -1.8611517e-04
  2.5439658e-04
 -3.3876411e-05
  1.8676318e-04
 -7.9989686e-06
 -5.6406029e-04
  6.2786457e-05
  1.1071903e-01
 -1.1995988e-05
 -1.3703095e-04
  2.8592831e-04
  2.4321940e-04
  1.7402890e-04
 -6.9951806e-05
  9.2812057e-05
  4.4415635e-04
  7.5847246e-02
  4.1250285e-04
 -3.8252753e-04
 -1.5260059e-05
  1.0531829e-04
  3.9366735e-04
 -1.0281672e-04
  5.4343021e-04
 -4.3338657e-04
  9.0149679e-04
  1.2358546e-04
  4.1001537e-04
 -4.7492606e-04
  1.3458761e-04
 -2.7597259e-04
  3.3652832e-04
  2.9353730e-04
 -1.9684887e-04
 -2.1461250e-04
 -7.8936127e-06
  4.0358436e-04
 -2.0414554e-04
 -5.1900399e-05
  3.5551001e-04
  1.3631603e-04
 -4.2395295e-05
  3.0107894e-05
 -4.2828964e-04
 -3.9167647e-04
  1.4369424e-04
 -3.4130030e-04
  4.2005221e-04
 -6.3267515e-05
  3.6073293e-04
 -2.0060885e-04
  1.8927827e-04
  1.2786880e-04
 -4.5881397e-04
 -9.6513257e-05
  4.8225696e-04
 -3.2003623e-04
 -6.3285063e-04
  5.8380404e-04
 -2.6279777e-05
  1.7830756e-04
 -3.8473299e-05
 -1.2270124e-04
 -1.6349911e-04
 -4.6286022e-04
 -1.8514821e-04
  4.2509819e-05
  9.0444250e-05
  1.0911329e-02
 -5.8142923e-05
 -2.9507809e-04
  3.4831151e-05
  4.4724281e-04
  2.2975795e-04
  1.4153171e-04
 -1.8394223e-04
  1.0906190e-04
 -1.5791961e-04
  4.7253663e-04
 -5.3489546e-04
 -1.2705576e-05
 -2.3213654e-05
 -5.9013884e-05
 -1.5323324e-04
 -1.7174588e-04
  2.5293313e-05
 -1.4193583e-02
  5.4326614e-05
 -3.7581334e-04
  5.5394747e-04
 -1.7071881e-05
 -5.7545752e-05
 -6.5643730e-04
 -7.1722287e-05
  2.5625568e-04
 -2.6534090e-04
 -3.6447882e-04
  1.3309208e-04
 -2.9729371e-04
 -1.3659882e-03
 -2.3661525e-05
 -3.7103451e-05
  1.6794428e-04
  1.6309919e-04
 -6.4186309e-04
 -2.2529865e-04
  1.1384587e-05
  1.3480855e-04
 -4.4741995e-05
 -2.7642000e-04
  1.9765444e-04
 -2.8004806e-04
  4.8668523e-04
  1.0324529e-04
 -4.0519270e-04
 -1.4064721e-04
 -1.3435920e-03
 -5.1901290e-05
 -6.3861121e-06
 -1.4960460e-04
 -9.9925361e-05
  5.0356797e-05
  3.7407849e-04
 -1.9438541e-05
  2.6586821e-04
 -9.9613804e-05
 -2.3493099e-04
 -4.6483378e-04
 -3.8313138e-04
  1.0244401e-04
  4.9103354e-04
 -2.1527777e-04
  8.0657424e-05
  6.5008452e-04
  2.6567641e-04
 -9.4276742e-04
 -7.7589561e-04
  5.3157211e-05
  4.5459848e-05
  3.2272044e-04
 -4.8236665e-04
 -4.9585581e-04
 -1.9049013e-04
  1.0226657e-04
 -4.6819292e-05
 -1.8725919e-05
 -6.5528904e-05
  1.7895843e-04
 -4.5139939e-05
 -6.5982249e-04
  5.9150741e-05
 -1.3236499e-04
  9.0555513e-05
  1.7697622e-04
 -1.9453606e-04
  3.4945374e-04
 -1.3258863e-03
 -2.3944830e-04
  4.8072936e-05
  5.5272230e-05
  2.0717684e-04
 -4.4279892e-04
 -1.2901337e-04
 -3.0003692e-04
  2.1459787e-04
 -3.4329275e-04
 -9.4986521e-05
  5.8015820e-04
 -2.2471754e-06
  5.2979353e-06
 -1.1882615e-04
  3.4411700e-05
 -1.3214543e-03
  4.4191373e-04
 -1.1511967e+00
  5.9702415e-02
  4.9353454e-02
  1.3972714e-04
  3.9428110e-06
  2.5333326e-05
 -1.4443738e-04
 -1.2463916e-04
 -1.2309763e-04
 -7.9955607e-05
  8.8737547e-02
 -1.9903667e-04
  4.4386229e-04
 -8.8671666e-05
 -9.7630596e-05
  4.6962511e-02
  1.7027928e-03
  2.7065448e-04
  2.6554184e-04
  3.5097930e-04
 -2.1448119e-04
 -7.4076437e-05
  9.5683827e-05
 -3.7435844e-04
 -1.4141385e-04
  8.3626532e-05
 -2.0489886e-05
  7.2869757e-04
  1.7203129e-05
  8.0762584e-05
  2.2524036e-04
  3.4040638e-04
  2.6128998e-03
 -2.9349497e-01
 -1.4084093e-04
 -2.8376590e-04
  5.7023735e-04
  6.1824376e-04
 -1.5093693e-04
  1.7310159e+00
 -2.3907665e-04
 -1.1527581e-04
 -1.9515090e-04
  3.5970134e-04
 -1.9331125e-04
  6.2486477e-05
  5.9158137e-06
  3.4792494e-05
  2.9812285e-01
 -4.1312310e-01
  6.2587237e-01
 -9.7954351e-01
 -5.6111836e-01
  4.7661169e-04
  4.9331164e-05
 -2.8435841e-05
 -6.8862289e-05
  9.7529240e-02
  6.2622391e-02
  4.6749462e-04
  1.0021465e+00
 -2.3346828e-04
 -1.4499552e-04
 -2.5353523e-02
  1.0203728e-01
 -5.9443146e-01
  8.2239099e-02
 -2.4651812e-04
  4.7516805e-04
 -1.0595050e-01
  4.2536248e-02
  4.6389112e-05
  7.6655306e-05
  3.3342047e-04
 -6.1156165e-02
  7.3788397e-05
 -2.8592264e-02
 -1.9494936e-01
  2.5350049e-01
  2.3101980e-05
 -3.4924262e-04
  1.3507980e-01
  7.1205293e-05
 -5.9411979e-01
 -2.3218369e-04
 -3.4894420e-05
 -4.3617332e-01
 -1.1257502e-04
  5.0177099e-04
 -1.1421266e+00
  1.9816663e-04
 -3.6874411e-05
 -1.3501755e-05
  4.0219555e-04
 -5.1258288e-02
 -1.8830377e-01
  2.4076867e-04
  1.5364273e+00
 -6.0382187e-01
 -1.2562701e+00
 -5.8231622e-01
 -1.7165897e+00
 -4.8646312e-02
  2.9863939e-01
  1.1797458e+00
 -4.0470484e-01
 -2.9211757e-01
 -2.9105080e-02
  3.6177080e-02
  2.5194523e-01
 -3.3724728e-01
  2.8867977e-05
 -3.0215234e-01
  9.1853501e-05
  2.1213911e-01
 -5.3089559e-01
 -2.7683225e-01
 -8.5306466e-02
 -4.6320776e-05
 -3.9197937e-01
 -1.4923346e-04
  9.4711900e-02
  5.1731127e-04
 -9.6037567e-02
 -6.5052502e-02
 -2.9160661e-01
  5.0161016e-01
  1.8240480e-05
  1.4522523e-01
 -2.2095102e-01
  6.6100341e-01
  5.9117516e-05
 -8.5357405e-02
  2.9615813e-01
  1.7055820e-01
  3.6075515e-01
 -6.2370789e-03
  3.6540583e-01
  2.4403478e-05
  6.6241525e-02
  2.8834620e-04
 -6.1346895e-05
  7.5905898e-04
 -2.7969995e-04
 -8.3128743e-02
 -7.4514501e-05
 -4.6192495e-06
  5.1382696e-04
  2.6600927e-03
 -4.1236093e-05
  1.1820500e-01
 -4.1846123e-01
 -7.1284431e-01
 -1.9116083e+00
 -4.2442736e-01
 -4.0044409e-01
 -2.5666361e+00
  1.2456083e+00
 -2.6346979e-01
 -6.4283550e-01
  1.6750026e+00
  2.5260272e-02
 -4.2898726e-01
 -7.1582800e-01
 -6.1624724e-01
 -1.8780336e-01
  1.8362880e+00
 -9.8610377e-01
 -3.0045304e-01
  1.3914217e+00
 -8.0411948e-02
 -1.0428220e+00
 -4.8297080e-01
 -3.4672025e-01
 -5.7626140e-01
  7.0867401e-01
 -1.5359882e-01
 -1.7888658e-03
  1.8070851e-01
  2.0524774e-01
 -9.1297847e-01
 -8.1306100e-01
  6.5940112e-01
 -1.9987579e-01
  6.2462963e-02
 -8.8825345e-02
  5.1401830e-01
 -1.5766200e-01
 -3.3154693e-02
 -4.8222920e-01
 -6.3360971e-01
  2.1024828e-01
 -3.2788089e-01
 -1.0161690e-01
  5.7872015e-01
  4.7666371e-01
 -2.2632372e-01
 -2.1123283e-01
  2.2948861e-01
  2.6841860e-03
 -3.1068814e-01
  1.8805009e-01
 -5.2209079e-01
 -1.3628085e-01
  2.9572898e-01
  3.3742876e-04
  1.4049008e-01
 -2.3135203e-03
  5.1882741e-04
 -9.2542377e-06
  7.6600903e-05
 -1.1325849e-04
 -4.3803047e-02
  1.7796911e-02
  2.3596638e-04
 -3.2541586e-05
  3.1611564e-06
  7.5060510e-05
  1.4423940e-05
 -7.0656133e-05
  4.1330390e-04
 -1.0472911e-03
  3.2640783e-05
  1.3538060e-04
  4.4000574e-04
  4.5652752e-04
  1.3638801e-04
  6.7296758e-05
  1.1143833e-04
  8.2863105e-04
 -8.1222206e-06
 -5.5231497e-04
  1.0565093e-04
 -3.9476153e-04
 -5.2762640e-05
  2.9434741e-04
  1.0968419e-04
 -9.1528834e-04
 -9.8509336e-05
 -1.7088981e-04
 -4.8949107e-05
  3.4962653e-04
  5.8118149e-04
  1.5029467e-04
  4.0956790e-04
 -7.2297099e-04
 -3.9568596e-04
  6.5064477e-04
  1.4566915e-04
  5.8816295e-05
  7.8029849e-04
  3.0987585e-04
 -3.9536686e-04
 -1.8835838e-04
  2.7178072e-05
 -1.4614281e-05
  5.3039548e-04
  1.1029784e-04
 -2.9380602e-04
  7.8604621e-04
 -5.9078711e-01
  1.9186406e-04
 -2.6638224e-04
  1.0745003e-05
  1.2357489e-05
  1.7539052e-04
  3.1840441e-01
  2.2249240e-03
  4.3209515e-05
 -9.7975746e-05
  1.3375490e-04
 -1.5609048e-04
  1.9726342e-05
 -5.9952676e-05
  1.7026575e-04
 -1.3774773e-03
  9.3757946e-05
  5.7811901e-04
 -3.3406474e-04
 -8.5796666e-05
 -1.6455264e-04
  7.0623406e-05
 -6.3355663e-05
 -2.0506387e-04
  1.1411827e-04
  1.7959501e-04
 -3.1518086e-04
  1.1119773e-04
  1.1273855e-04
  8.7530432e-05
  3.3819230e-04
  1.3707970e-04
 -2.9260060e-04
 -4.9522496e-05
  1.0663184e-04
 -9.1467932e-04
  1.6990924e-04
  3.7198581e-04
  9.9339918e-04
  2.4813478e-04
  5.5843986e-05
  4.5304383e-05
 -2.3083754e-04
  3.7259824e-04
 -7.0082024e-05
 -6.4181170e-04
  9.2483766e-05
  2.0359176e-04
  1.6558626e-04
 -1.9476883e-04
 -2.6788656e-04
  2.8397969e-04
  3.2639786e-04
 -1.1722772e-01
  1.0700160e-01
 -1.8991888e-02
  3.6665687e-04
 -8.8221626e-05
  2.0076772e-04
  1.5500863e-04
 -1.8745901e-01
 -3.3803694e-02
 -4.9936859e-04
  2.3316046e-05
 -1.3143162e-04
  4.3069024e-04
 -2.2295248e-02
 -2.7104898e-04
 -4.7331385e-04
  9.7149699e-05
 -3.8030930e-04
  7.5239321e-04
  6.8420055e-04
  2.0763110e-02
  3.1993026e-05
  1.2167586e-04
  5.1631907e-04
  5.3701916e-04
  2.8521309e-04
 -1.0779808e-04
  1.8344285e-04
 -8.6550981e-06
 -8.7805223e-05
 -4.6793609e-03
  3.1115397e-04
 -1.1263239e-03
  7.9562960e-05
 -6.6345651e-04
 -1.1316391e-04
  7.2444287e-05
  9.6265016e-05
 -2.5157194e-04
  2.8628885e-04
  8.9860820e-05
  9.2564551e-05
 -1.1558436e-03
 -4.8881333e-04
  8.6957079e-05
  1.9909958e-04
  2.5021954e-04
 -4.5712249e-04
 -5.8883211e-06
 -3.8391714e-05
  2.1179697e-04
 -1.8826642e-05
  2.2673931e-04
 -2.3594783e-05
  2.6350209e-01
 -6.1903670e-02
 -2.8077203e-01
  5.7929778e-01
 -8.9746222e-02
 -1.2817832e-04
  1.1594734e-02
 -6.8860546e-02
 -8.3316946e-01
 -3.4919117e-02
 -9.9705294e-02
  2.8042447e-02
  5.5223614e-01
 -2.0161200e-01
 -9.3259569e-03
 -3.1392920e-01
  1.0809216e-03
 -2.3063800e-04
 -1.6811634e-04
 -3.5061056e-03
 -3.3732609e-05
 -1.4766027e-05
 -9.1369642e-04
  1.9904415e-04
 -1.9753433e-03
  2.8400516e-04
 -1.1695796e-02
 -3.5491059e-04
 -3.0998595e-03
  3.5433486e-02
 -1.4401852e-03
  1.0887292e-01
 -4.0518519e-02
  7.4414566e-02
 -1.3849197e-04
 -6.5482316e-05
  6.2236007e-02
 -1.1388925e-04
 -1.6510504e-04
 -1.4359991e-03
  1.3852923e-01
 -4.7732362e-01
  3.3924840e-05
  1.1734461e-04
  3.9649504e-04
  5.8943867e-03
 -2.3841324e-04
 -2.9440882e-04
  1.5226981e-04
  9.5357635e-04
  1.4474783e-04
  4.6572916e-04
 -2.1307751e-04
 -5.8664917e-04
  1.6656726e-04
 -4.8994916e-06
 -3.0348502e-04
  1.7954988e-05
 -4.2162655e-04
 -8.5246976e-04
  3.2090783e-04
 -2.4019498e-04
 -1.2519016e-04
  1.7218404e-04
  4.2914944e-05
  5.9659680e-05
 -6.9284777e-04
 -2.7595277e-04
  2.5797344e-04
 -6.6907983e-04
 -1.5898923e-04
  1.5586497e-04
 -2.4703951e-04
  3.4409223e-04
  5.0343142e-04
 -1.5986450e-04
  8.0169120e-05
 -4.6794975e-04
 -8.4525127e-05
  6.4119435e-05
  3.6995902e-05
 -4.5943988e-04
  6.2098610e-05
 -1.8407800e-04
  2.7336783e-04
 -8.5250453e-05
  5.8566325e-04
  2.8609538e-05
  8.3690096e-04
  1.7687042e-04
  2.1343585e-04
 -5.3304952e-04
  2.1919984e-06
  1.5326375e-04
 -6.3418454e-05
 -4.2714364e-05
  1.4353418e-03
 -2.0979923e-04
 -1.4059136e-04
 -5.7455455e-04
 -6.2579650e-04
 -7.5377949e-04
  1.3838449e-04
  1.2395401e-03
  2.1121126e-04
  2.7011204e-04
  3.1283449e-05
 -1.7498109e-04
 -1.1073967e-04
  8.7966287e-04
 -9.5515352e-05
 -1.3943391e-04
  2.2240334e-04
  3.6681704e-05
 -8.3670304e-05
 -1.0855641e-01
  2.5970518e-04
  5.8041562e-05
 -2.1999687e-04
  1.7356669e-04
  1.6700686e-04
 -1.7285265e-04
 -3.4159839e-05
  5.2807946e-04
 -2.9883545e-04
 -5.6630018e-04
 -3.3682820e-05
  1.3029265e-03
  1.8895710e-04
  8.8005050e-05
 -2.1543317e-04
 -1.6461815e-04
  4.4953438e-05
 -2.6447175e-05
 -2.5628848e-04
 -1.1925086e-03
 -9.1701955e-01
 -6.9373637e-04
  2.1183530e-04
  5.2510918e-04
 -2.0645208e-04
 -4.2552676e-04
  4.9506291e-04
 -5.6782673e-04
  1.2647824e-05
  4.1398813e-04
  3.4772453e-05
 -7.0184359e-04
 -5.8023754e-04
  3.2538423e-04
  4.7032788e-04
 -2.3735811e-03
  1.1353541e-04
 -3.8729238e-04
  2.7923723e-04
  1.2615926e-04
 -5.5388195e-05
  8.7222725e-04
  9.4434334e-05
  2.2596614e-04
 -4.3812786e-05
 -2.6702884e-04
 -1.7346928e-01
  1.3160013e-01
 -1.3201612e-01
  2.6084276e-04
  1.4145219e-01
 -2.6552158e-04
 -1.2652485e-01
 -6.5494943e-01
 -5.1155615e-01
 -2.2177410e-06
 -5.2345360e-05
 -1.4094595e-04
  4.1525320e-05
 -4.8464570e-02
 -2.1490551e-04
 -7.1357368e-05
 -4.9185175e-03
  4.8636544e-02
 -3.0192552e-04
  3.8526312e-02
  2.0053070e-02
 -1.5903277e-04
  9.3306962e-04
  7.6032688e-06
  2.9063164e-04
  2.1243881e-05
  4.2978281e-04
  4.9889425e-04
 -9.4038091e-04
  4.0819991e-04
 -1.7225425e-03
 -7.8505918e-04
 -1.3871808e-04
  2.6979554e-04
 -1.0570291e-03
 -4.5559066e-04
  2.0592293e-05
  2.0510431e-02
 -1.8451334e-05
  4.1933201e-04
 -2.5862039e-04
 -1.2053372e-03
 -2.6166474e-04
 -5.5766597e-02
 -2.7626660e-03
 -4.2759239e-05
  2.8878983e-05
 -7.8991428e-04
 -1.6369132e-04
  9.4233685e-05
  7.4626980e-05
  2.7342044e-02
  1.7983518e-03
  3.8666508e-04
  6.1200804e-04
 -2.4824360e-04
  7.1083734e-05
  3.8539605e-05
 -3.3034687e-04
  1.9763933e-04
  6.2292951e-05
  1.6390542e-04
  7.3039402e-05
  2.5814257e-05
 -2.7294588e-04
  1.5291637e-04
 -1.6316553e-04
  1.4145624e-04
 -2.5925899e-04
  4.7876540e-05
 -2.2853662e-06
  2.9663490e-05
 -6.2021682e-05
  1.1391434e-05
 -1.1881701e-04
  8.7910984e-04
 -2.4724222e-05
  3.2417415e-04
  4.1474888e-04
  3.3290652e-04
 -1.0904707e-04
  1.1938535e-04
 -2.6743941e-04
  1.1821653e-04
 -3.8165334e-04
 -4.9819791e-01
  5.9091795e-04
  7.2022958e-05
  2.7534488e-04
 -8.8138557e-05
  5.2859199e-05
  1.2574532e-05
  1.8630916e-04
 -2.7086193e-04
 -7.1097631e-05
 -2.4886979e-04
 -6.1176607e-04
 -3.0066885e-05
  4.8504042e-04
  1.1619685e-05
  4.8657083e-05
 -9.5149830e-05
 -5.5728119e-04
  3.8150247e-04
 -1.5755086e-05
  1.5567853e-04
  1.2133245e-04
  7.3335168e-04
  1.7913367e-04
  4.6808909e-05
 -4.5761518e-04
 -2.2219987e-04
 -7.6431810e-05
 -1.1641969e-04
 -3.3059536e-04
  6.1593833e-04
 -4.5722464e-04
 -1.3195004e-04
 -5.3952384e-04
  1.0694233e-04
 -2.0302070e-04
  8.9053786e-04
  9.9892110e-05
 -9.5717533e-04
  2.5838680e-04
 -3.6196591e-04
 -1.5626111e-04
 -4.0956558e-05
  6.9040409e-04
 -6.3945836e-04
 -6.6276401e-04
 -3.1590069e-04
  1.7650257e-04
  7.6837441e-06
  1.1315467e-04
  2.7469947e-04
 -3.7773669e-04
  4.5125838e-04
  2.5766820e-04
  5.3032691e-04
 -6.9750720e-05
  4.5024048e-05
  5.4508844e-05
  1.2882127e-04
 -1.5619266e-04
  3.9296798e-04
 -3.9802323e-04
 -3.5089324e-05
  1.1965367e-04
  2.6026758e-04
 -1.4760955e-04
 -1.1776153e-04
 -4.0394440e-04
 -1.3361323e-05
  1.0213545e-04
 -2.4291003e-04
 -1.4704106e-04
 -4.1988574e-04
  8.1139890e-04
  5.3575836e-06
  3.8620911e-04
  5.5802015e-05
 -9.8255730e-01
 -3.0992663e-01
 -3.0152580e-01
  9.6824694e-01
 -5.0278193e-01
  7.2135025e-01
 -2.4029808e-01
 -2.3541737e-01
  5.2354157e-01
 -1.1342541e-01
 -2.1847937e-01
  1.0981316e-01
  2.4421154e-01
 -6.3317752e-01
 -2.2027917e-01
 -2.2020951e-01
 -6.6250598e-01
 -2.8441164e-01
 -8.4822059e-01
  1.2114612e-01
 -7.7115990e-02
 -1.7550329e-03
  2.0849836e-01
  1.7721617e-01
 -1.2193568e-01
 -5.8101571e-01
 -2.5666031e-01
 -3.4339617e-03
  3.5201493e-01
  4.9462600e-04
 -7.0334578e-01
  1.1349327e-01
 -1.1587250e+00
  1.5991164e-04
 -1.3046035e+00
 -2.3841134e-01
  7.1677491e-02
  4.0665141e-04
  1.3904125e-04
 -5.1172626e-01
  3.6094111e-01
 -2.0523275e-01
 -5.2478129e-01
 -7.5361091e-01
  2.1086579e-04
  3.7278539e-01
  2.0270089e-02
 -1.9076440e-02
  1.5169963e-02
  2.0518461e-02
  3.1889352e-01
  3.8033731e-02
  8.6244605e-02
  1.6348128e-01
 -3.7095314e-04
 -2.6821119e-01
  1.3579917e-04
  4.5078000e-04
 -1.1181072e-05
  3.3869714e-04
  1.0916258e-04
 -1.7116057e-02
  8.4971031e-04
 -4.9307471e-04
  5.0153240e-04
 -2.1077211e-03
 -3.6888002e-04
 -8.4067479e-04
 -1.2191902e-04
  9.2871465e-05
 -1.7313345e-04
 -3.5287696e-04
 -2.4237840e-04
 -1.1378044e-04
 -3.2249410e-04
 -2.2865617e-01
  4.0275746e-04
  1.5689884e-04
 -2.4663049e-04
 -3.7011935e-04
 -5.7720765e-05
  2.1573183e-07
 -2.4662534e-04
 -7.6502285e-05
 -1.0453543e-03
 -9.5809628e-05
 -1.2113318e-04
 -2.6179290e-05
 -1.7873656e-03
 -7.0948672e-04
  2.0029618e-04
 -3.5340030e-04
 -1.3339432e-04
  1.5819907e-06
  1.0911385e-04
  5.8431039e-04
  8.6558677e-05
  1.0014500e-04
  1.5933894e-05
  5.4801436e-04
  4.0746186e-04
 -4.3647250e-04
  4.4894859e-04
 -2.0887246e-04
  3.2784307e-04
  5.0309516e-04
 -2.0756454e-05
  7.2853247e-05
  2.6418807e-04
  9.1488007e-03
 -7.9018780e-04
  5.7814835e-04
 -5.5870210e-04
  1.3945405e-03
  1.8993919e-04
 -4.4236649e-02
  1.7061969e-03
  1.7080094e-05
 -3.5172299e-04
 -3.7944861e-04
  8.0068981e-05
 -3.5615748e-04
 -1.0106287e-05
  3.4019915e-05
 -2.3835055e-03
 -2.1003847e-04
 -1.6069470e-03
 -9.0691414e-05
  9.4955775e-04
  1.8627931e-04
  1.6270642e-04
 -1.5060950e-04
 -9.2100374e-05
 -4.5133804e-04
 -7.2545296e-04
  1.1153206e-04
 -3.4290369e-04
 -4.1842097e-04
 -1.2259334e-04
  5.7103236e-05
 -1.1405622e-03
  6.7398819e-06
  5.9737184e-05
  7.4966869e-04
  8.3027509e-05
 -5.7439579e-06
 -5.4646347e-04
 -2.9469363e-04
  1.3211108e-04
 -7.3897501e-04
  4.3028980e-05
  1.9915047e-04
 -3.5811399e-04
 -2.6639694e-04
  1.6833426e-04
 -2.8827288e-05
  2.6546026e-04
 -8.2170276e-04
  5.5684661e-04
 -2.1200362e-04
  6.4491127e-05
  4.9486331e-04
  5.8814965e-04
 -1.9789099e-04
 -4.8810637e-04
 -7.0772832e-04
 -1.8496049e-04
  1.2461480e-04
  3.4391126e-03
  2.4703299e-04
 -9.2981085e-05
 -8.1204176e-05
 -8.3617480e-05
  1.7451883e-04
  1.0860573e-04
 -5.4929147e-05
  1.8971173e-04
  1.6724272e-04
  9.7923250e-05
 -2.1893387e-04
 -1.4216622e-04
 -5.6371238e-04
  1.0671133e-04
  2.7221299e-04
  4.3760945e-05
  7.7173946e-04
  5.5265328e-04
 -4.8152963e-04
 -7.1653241e-04
  7.3597119e-05
 -7.8902222e-06
 -2.4136284e-04
  1.6976859e-04
  2.6463921e-04
 -1.8299257e-04
 -1.0372011e-04
  4.5480025e-05
  1.0197125e-04
 -3.0595373e-04
  1.6658982e-04
  9.1611821e-04
 -9.4954303e-05
 -2.0355207e-04
 -3.3763499e-04
  1.7609919e-04
 -4.4876346e-05
  8.8382527e-05
  1.8433075e-04
  3.9794206e-04
  5.3406438e-05
  2.7437927e-04
  9.3816299e-05
  9.0684516e-05
  1.6206126e-04
 -2.9460064e-04
  1.1151393e-04
 -3.3912593e-01
  1.4190769e+00
  7.5234415e-04
  1.1489534e-04
  1.1922635e+00
  3.1687738e-04
 -8.9127618e-01
 -1.5570304e+00
 -3.4414408e-01
 -3.1360405e-04
 -2.1066151e-04
  7.7955566e-02
  1.6729136e-01
 -4.8386148e-04
 -4.8466650e-04
 -2.1613686e-04
  1.1109950e-02
  2.1588800e-03
 -3.9101951e-04
 -1.0123607e-03
 -6.2841559e-03
 -9.7100128e-05
 -2.2580468e-03
 -1.8236038e-04
 -3.0198199e-04
 -3.3716345e-04
  5.2972755e-04
 -1.4313926e-04
  2.5895708e-05
  9.4918696e-06
 -4.3488375e-04
 -4.8925125e-05
  1.9353209e-04
  4.3191836e-04
  6.6724559e-04
  5.5186363e-04
  2.7262971e-03
  1.3317342e-02
  8.4171433e-04
  4.4064946e-04
  3.8539222e-04
 -2.1345984e-06
  2.6263908e-01
  6.3861902e-05
 -2.3599416e-04
 -2.0267125e-04
  1.9413220e-04
  5.2963379e-03
 -2.9412322e-04
 -5.8774714e-04
 -1.3436568e-04
 -3.0872558e-04
 -3.2918502e-04
  8.2690858e-05
  1.2952207e+00
  1.0958898e+00
  3.3045566e+00
 -1.4228312e+00
  9.2391688e-01
  1.1641200e+00
 -5.9853131e-01
 -1.0442516e+00
 -1.9668241e+00
 -1.6025636e+00
 -1.5317905e-01
 -1.0099734e-01
 -7.2239852e-01
 -5.2201456e-01
 -2.9195037e-01
  1.6544287e-01
 -4.8856363e-01
  2.0551232e-01
 -7.7006854e-02
  4.8116139e-01
  2.6960090e-01
 -4.6898246e-02
  7.4292094e-01
  2.3722272e-01
 -5.7037002e-01
 -1.4981356e+00
 -5.2065257e-02
  5.1971007e-02
  8.4291259e-03
  8.1407446e-03
 -2.4671707e-01
  3.4380671e-01
  1.5284863e-01
 -1.1627205e-01
 -6.8998611e-01
 -8.9637971e-01
 -7.7090214e-04
  1.4307086e-01
  2.3222063e-02
 -2.8053883e-01
 -1.0922371e-04
 -1.3109468e-04
 -1.9456354e-01
 -1.4968020e-01
 -1.0406462e-01
  1.3033290e-01
  1.0915266e-05
 -4.0668997e-01
  1.8799849e-03
  4.7598548e-02
  1.6679104e-04
  1.6070828e-01
  2.1100323e-01
 -1.1059563e-04
 -1.8211961e-01
 -8.5297063e-02
  7.7267706e-02
 -2.4971180e-03
  1.4699772e-02
 -1.1701364e-03
 -1.1448212e-01
  1.4078097e-02
  6.4238340e-01
  1.7107074e-04
  6.1007875e-05
  1.2385818e-03
  1.3954059e-04
  1.4460589e-03
  5.4657506e-04
 -6.3277977e-05
 -1.5858567e-04
  1.2630208e-03
  5.7727171e-05
 -1.7896024e-04
 -5.6186892e-02
 -8.3264051e-05
  1.8759350e-04
 -7.2459708e-04
  5.8684160e-04
 -1.7951640e-04
  7.6075469e-04
 -5.6400843e-04
  8.5016910e-04
 -9.4767602e-06
 -2.8675754e-04
 -1.3742924e-03
  3.0880771e-04
 -6.5329732e-06
  5.1044958e-04
  3.7692294e-05
 -1.1475632e-03
 -4.0871510e-04
  5.0296821e-06
 -1.0162936e-04
 -3.2123080e-03
  1.0072294e-03
 -3.9425457e-04
  3.7186761e-05
  5.6646654e-04
 -1.1938800e-01
 -2.1673499e-04
  2.1873592e-04
  2.3779920e-05
 -5.0702377e-04
  1.1400115e-04
  1.2231852e-04
  1.1282886e-04
 -4.6364937e-04
 -1.8541307e-04
 -2.5257430e-05
  2.3474367e-04
 -1.2404754e-04
  2.3478782e-04
  1.4863857e-04
  3.4950524e-05
 -3.1307023e-05
  1.1578699e-04
 -1.4899066e-05
 -1.2908920e-04
  7.9448735e-05
 -2.4117026e-04
 -3.0365691e-04
  9.4806062e-05
  7.3400483e-06
  9.2286430e-04
  1.8058860e-03
 -3.6913023e-04
  3.3801064e-04
 -1.5377805e-04
 -4.5227993e-04
 -2.9534948e-04
 -1.7133100e-04
  5.3774980e-05
 -2.8921835e-04
  5.3764251e-04
  6.0198555e-04
  1.1543622e-04
  4.7305835e-04
  2.4827419e-05
 -3.6878617e-05
  2.6620348e-05
  1.4776003e-04
 -4.0725019e-04
 -9.5622148e-05
  8.8826969e-04
  6.9563946e-05
  6.4674369e-04
  9.3303948e-05
  1.7656969e-04
  4.2605223e-04
 -1.8896164e-04
 -1.5926696e-04
 -6.7981331e-05
 -2.1900727e-04
 -2.9679394e-04
 -1.3959866e-04
  7.1577885e-04
 -3.2370543e-05
  1.4977988e-05
  1.1496090e-04
  9.1731454e-05
 -8.9412986e-04
  5.6775510e-01
 -2.5812602e-01
  8.6271608e-01
 -1.4954761e+00
  7.0751292e-01
 -5.5257040e-01
  4.6389814e-02
 -1.2866826e-01
 -7.1808115e-02
 -9.8736631e-04
 -1.3490130e-04
 -8.4184784e-01
 -8.3345897e-02
  5.0854331e-01
  1.2559488e-01
  1.6590821e-03
  5.5703002e-01
  1.7030717e+00
  3.8370422e-01
 -8.3325225e-01
 -7.1835673e-01
  7.9204804e-01
 -4.1202936e-04
  9.8029974e-05
  5.6132436e-01
  9.6064085e-01
  1.4511712e-01
 -9.3348436e-02
 -1.6222443e-01
 -4.8049903e-04
  2.0818764e-01
 -1.6579981e-01
  3.9015222e-02
  3.5663974e-02
  1.0588897e+00
  1.4972505e-01
  2.3378124e-03
  2.2904666e-03
  1.2792446e-02
  8.2489789e-02
  5.3278368e-04
  2.7601400e-01
  6.8655588e-02
  4.2691094e-01
  2.2667383e-01
 -1.9748913e-01
 -2.7308553e-01
 -1.5096451e-04
 -2.2133524e-04
 -2.6570889e-03
  2.1061367e-05
 -1.8848278e-04
 -8.2810130e-04
 -1.3029593e-03
  2.0302065e-04
  1.4968273e-01
 -8.9012014e-05
  1.7230283e-03
  3.8957666e-04
  3.5697164e-04
 -5.1348393e-06
 -8.9056440e-02
  8.8285148e-02
  3.6727302e-04
  1.0500044e-04
  7.1785355e-05
  2.8363691e-04
 -1.0528419e-03
 -1.4425061e-03
  4.6711302e-04
 -4.9619330e-04
  3.9754254e-05
 -1.7146910e-04
  3.2176572e-04
 -1.3148909e-05
 -9.3386341e-05
  2.8062984e-04
  4.7931168e-05
 -4.1419524e-04
 -1.1861476e-04
  2.1006807e-04
 -4.0020150e-04
  2.7049420e-04
 -1.0730360e-04
 -3.2773780e-05
 -1.7975051e-04
 -1.9191351e-04
  1.4134888e-04
 -1.1981418e-03
 -2.7069461e-04
  1.7782653e-04
  8.7698060e-04
 -5.8554427e-04
 -1.5392562e-04
 -2.0578169e-04
  4.2157943e-04
 -2.7419024e-04
 -3.9484364e-04
  4.2346252e-05
  9.2150376e-04
  2.7950687e-04
  3.4174041e-04
 -1.1109033e-05
 -3.0109446e-04
  6.6421831e-05
  6.5961045e-05
 -7.4495835e-04
 -2.2324745e-04
 -3.7047177e-04
 -9.6851378e-05
  2.9122026e-04
  4.7394107e-04
 -1.1942658e-04
  2.9639926e-04
  6.6702654e-05
 -1.0941703e-03
  1.7444140e-04
  1.7199219e-04
 -2.3365527e-04
 -5.2841852e-04
 -2.0297585e-04
  5.3612853e-04
  7.4286800e-05
 -2.2185083e-04
  3.5455538e-04
 -2.4814848e-04
 -4.4258588e-05
  3.0976292e-04
 -1.1884302e-04
  1.8076248e-04
  8.0184123e-05
 -1.0078284e-04
  3.7013085e-04
 -1.3356704e-04
  1.2768412e-05
  6.7880965e-04
  4.8582166e-04
 -2.1263077e-04
 -5.2270904e-04
 -1.9284710e-04
  3.6625488e-04
  3.8679436e-04
  7.4356847e-04
  9.3204479e-05
 -2.5135127e-04
 -3.0622113e-04
  1.3981745e-04
 -1.2233327e-04
  4.3217567e-04
 -2.9083897e-04
  5.8168056e-04
 -3.2150737e-04
 -5.1914118e-05
  5.0851470e-04
 -1.0429406e-04
  1.4455355e-04
 -2.9401406e-05
  1.6460035e-04
 -8.9938712e-04
 -3.0026320e-04
 -2.3211433e-05
  3.0946631e-02
  5.8862323e-01
 -1.5236264e-03
 -6.3587502e-02
  2.0098877e-04
 -7.1874881e-01
 -5.4317832e-01
  5.3574041e-02
  6.6515034e-01
  8.9834183e-01
  9.1623006e-05
 -1.4152493e-04
  3.6277168e-04
  5.8945359e-05
 -4.7599431e-04
 -7.1900497e-05
 -1.2573077e-04
 -2.5917834e-03
  1.2643378e-04
 -7.1460410e-04
 -1.5013132e-04
  3.2280083e-04
  1.7442890e-04
  5.2707885e-05
  1.3918374e-04
  3.0476325e-05
  2.5453484e-05
 -1.0411009e-03
 -1.6663250e-04
  9.4625699e-05
 -2.6245651e-05
 -5.7457160e-04
  2.0023349e-04
 -8.6608823e-05
 -2.4036097e-04
 -9.7949884e-04
  5.8325866e-05
  2.0816785e-03
  8.2304323e-04
  1.1371502e-03
 -1.9047534e-04
  3.5668066e-04
  2.3097017e-04
 -3.4824244e-04
  2.2472464e-04
 -8.5247989e-04
  3.7042602e-04
  1.2044879e-04
 -4.6450419e-05
  4.7670197e-04
  4.6889516e-04
  1.1883656e-03
  1.4905860e-05
  1.6853235e-04
 -4.4172113e-05
  2.2232620e-02
 -7.4387646e-01
 -1.0061295e-03
 -2.8570890e-04
 -4.6869015e-04
  4.1026482e-04
  8.1153138e-04
 -3.1963727e-01
 -2.1997918e-03
  3.2564491e-04
  9.2825037e-05
  1.5587643e-03
 -3.6181873e-04
  1.4024017e-04
  2.9272842e-04
  1.7493962e-04
 -1.6890123e-04
  4.8078786e-04
  1.5609827e-03
  3.0511161e-05
  5.4518273e-04
  3.2525422e-05
  4.1523372e-04
  6.4647056e-06
  4.6801768e-04
 -3.9505670e-05
  9.2652299e-05
  1.1045107e-04
  6.2806217e-04
  1.1712705e-03
  1.6938410e-04
  8.1064609e-05
 -2.5619611e-05
  4.7178935e-05
 -6.1092804e-05
 -1.7520651e-04
 -1.2967705e-03
 -1.6262897e-04
  6.9324546e-05
  2.0995934e-04
  5.4800056e-04
  1.7582859e-04
  3.3731011e-04
 -1.9974912e-04
 -1.7496134e-04
  3.0435875e-04
  4.4024223e-06
  1.2725441e-03
 -6.3660533e-05
  1.6928335e-04
 -1.3156299e-03
 -4.6467857e-04
 -4.6594150e-04
 -6.3798018e-04
  3.9784593e-04
 -1.4375118e-04
 -6.2161744e-05
  5.0498460e-05
  1.1973283e-04
  1.4002747e-02
  3.6766756e-04
  4.2822890e-06
 -1.5964937e-04
 -9.8373901e-05
 -1.2984739e-04
  3.0459239e-04
 -4.3203359e-04
  7.8637291e-05
  6.6050392e-04
  1.6335551e-05
  5.2601792e-04
 -3.2754862e-04
 -2.3875209e-04
 -3.2801261e-05
  2.2380742e-04
 -2.5505325e-04
 -5.0592829e-05
  6.1179104e-05
 -4.6055409e-04
 -3.4014516e-05
 -2.5588031e-05
 -3.1156069e-05
 -2.6463089e-04
 -9.4919524e-05
  1.3564662e-04
 -7.0629278e-05
  2.1720436e-04
 -9.1318645e-05
 -6.0475002e-05
 -1.0074909e-04
 -9.4954722e-04
 -1.2366580e-05
 -3.0754341e-04
 -8.0108963e-04
  1.8404533e-04
  1.6882908e-04
 -3.3252203e-04
 -1.2269597e-04
 -3.6713522e-05
  2.0573096e-04
  6.1588187e-04
 -6.1398587e-04
  3.2552143e-05
  3.2235356e-04
  1.7084742e-04
 -3.3735452e-04
 -4.4156460e-04
 -1.9156876e-04
 -1.1347760e-03
 -2.3216753e-04
  1.6133080e-03
 -4.6965902e-04
  1.5705512e-04
 -8.5816551e-05
  1.7177180e-04
  5.5545400e-04
 -1.0205136e-03
 -1.2214847e-05
 -3.7580333e-04
  1.6144445e-04
  3.7584101e-05
 -1.8770339e-05
  6.2089664e-04
 -4.5757910e-04
  2.0368800e-04
 -5.8575877e-04
 -3.6846503e-04
 -4.4825667e-04
  7.3270370e-05
 -1.7044874e-04
  4.0309070e-04
  3.2933717e-04
  3.1846506e-04
 -1.2369915e-04
 -5.7961693e-04
  4.5886601e-04
  5.0518109e-05
 -7.1846262e-05
  6.7193655e-06
 -2.0165570e-04
  5.0524273e-04
  6.4311508e-04
  3.1748492e-05
 -8.7479653e-05
 -1.9869016e-04
 -3.0427324e-04
  4.5830040e-04
 -1.2877626e-05
  7.2818715e-05
 -8.0897764e-04
 -1.3418879e-05
  1.4290535e-03
  9.7316130e-05
 -5.6594086e-04
  6.0581115e-05
 -5.5106368e-04
 -5.1030575e-04
 -7.5051423e-05
 -8.4948534e-04
  3.5026902e-04
  1.8807458e-04
 -7.2964362e-04
  5.4249944e-05
 -4.1115747e-04
 -4.2352552e-04
 -6.9657501e-05
  2.6025917e-04
 -5.8902689e-04
  5.5420853e-05
  9.1320704e-05
  3.9219842e-05
 -1.6912783e-04
  4.6531460e-04
  2.8980330e-05
  1.0733607e-03
 -4.0415992e-04
 -3.6668949e-04
  3.7867966e-04
  4.0378148e-04
  2.2161321e-04
  1.4273514e-04
 -2.4419752e-04
  2.4815850e-04
  8.5763995e-06
 -4.3388900e-05
  1.2829545e-04
 -2.2021320e-04
  4.7028247e-05
  1.0071460e-04
  3.5433412e-05
 -1.1280792e-04
 -4.8608732e-04
 -2.3222245e-04
  1.8146994e-04
 -1.1624562e-03
 -7.3630676e-05
  3.5062525e-04
  4.9302238e-05
  5.3219940e-04
 -3.7318179e-05
 -9.4001723e-04
 -2.6766065e-05
  1.9085976e-04
  4.5036414e-04
 -2.5515374e-05
 -3.2359669e-05
  2.4321230e-04
  4.7742611e-05
  1.4717743e-05
 -7.3188125e-06
 -1.4689213e-04
 -3.2171412e-04
  4.4885057e-04
  2.7318571e-05
  5.4293347e-04
 -2.8880133e-04
 -3.3618718e-01
  1.6036288e-04
 -2.1028987e-05
  6.9567436e-06
 -1.5942921e-04
 -5.0391362e-04
  2.2999350e-04
  1.8145773e-01
  8.6865868e-05
  2.0918758e-04
 -2.3300093e-04
 -7.2082120e-04
 -2.6629859e-04
 -4.7937292e-04
 -6.2969513e-05
  3.5396288e-04
 -2.7821508e-05
  1.9126960e-04
  1.2204564e-04
  1.6964323e-04
  3.9846220e-04
 -2.9995177e-05
  2.1908473e-04
  6.2172208e-04
 -8.1064158e-05
  2.9452614e-05
 -6.1153702e-04
 -1.3006278e-04
 -2.2932046e-04
 -1.8180819e-04
  5.5090502e-05
 -3.1848537e-04
 -3.2410688e-05
 -5.4490601e-04
 -5.0372000e-05
  3.1113505e-04
 -2.1260410e-05
  1.9454927e-04
  1.5237962e-03
 -2.2249184e-05
 -4.5364074e-04
  4.7421118e-04
 -8.0244988e-04
  2.7474621e-04
 -4.7649508e-05
 -4.7203423e-05
 -1.8043336e-04
 -9.7765776e-05
  4.5326079e-04
  4.0856461e-04
 -1.2868155e-04
  1.8106945e-04
 -3.0652616e-05
  9.2543563e-04
  8.7872937e-02
  3.9814264e-01
  8.0001920e-02
 -3.1168726e-01
 -6.5794632e-02
 -2.4032564e-01
 -9.7002992e-03
  3.1314835e-01
  3.2971501e-01
  1.9168322e-01
  6.2420672e-01
 -4.4473642e-03
  6.0327711e-05
  7.8970800e-08
  2.4812802e-04
  5.7338262e-01
  3.9839704e-02
  2.3733370e-02
 -2.4546109e-01
 -6.5131225e-02
  7.1135531e-05
  3.0084781e-03
 -1.1183102e-01
  2.9559361e-04
 -7.5236058e-01
 -2.0967187e-01
 -1.8821022e-03
  1.5480606e-01
  3.4924969e-01
 -2.7414734e-02
 -3.6270589e-02
 -3.4181189e-04
  9.9612203e-05
 -4.3251552e-04
 -5.4002374e-01
  1.1889633e+00
 -2.6570199e-04
  1.4172521e-01
  4.6227887e-01
 -3.0483175e-03
  3.4754914e-05
  1.6232791e-04
 -2.5651773e-04
 -3.1944845e-04
 -3.2076341e-04
  2.6024660e-04
 -3.6120664e-02
 -3.3615157e-03
  1.0150917e-03
  2.5180716e-03
  1.9714376e-03
  1.6734913e-02
  3.3510136e-04
 -6.2103929e-05
 -6.6562393e-04
  2.8048876e-01
  1.6464408e-04
  2.7188624e-04
 -3.8445654e-04
 -6.3764834e-05
 -2.7464260e-03
 -1.9126475e-01
  9.8642590e-04
 -1.4772282e-04
  4.8107299e-04
 -1.5969465e-04
 -9.1049180e-05
 -1.5279936e-03
 -4.3726954e-04
 -8.1086968e-04
 -3.6301257e-04
 -1.0457351e-03
  2.2865171e-04
  1.3976640e-03
  2.5174423e-04
 -4.5927512e-04
  5.2191506e-05
  1.8906927e-05
 -5.3860038e-04
 -2.6407329e-04
 -5.1741552e-04
  1.5562693e-05
  1.1687377e-05
  6.9653126e-04
 -5.3402229e-04
  5.5350369e-04
 -4.0061557e-04
  1.0873785e-04
 -1.3390355e-04
 -2.2060092e-04
 -2.3175562e-04
 -1.4475749e-04
  4.8231614e-05
  2.3568258e-05
  5.5604149e-05
 -9.6577272e-04
 -1.6373134e-04
  9.2938008e-06
 -2.4413044e-05
  9.6962496e-05
 -2.2635204e-04
  2.4877763e-05
 -4.0664145e-05
  1.6519465e-04
  3.8740147e-04
 -8.1187223e-05
  1.3861523e-04
  2.6980115e-04
 -1.4555847e-04
  2.8160212e-04
 -5.6182215e-04
 -1.1509820e-05
 -1.4223630e-04
  3.4198168e-04
  2.9963028e-04
  1.3154424e+00
 -1.7738978e-04
  1.1509142e-04
 -9.4426592e-05
  1.4442237e-04
  5.0542632e-04
  2.4066774e-04
 -1.1121237e-04
 -4.0246494e-05
 -7.3255949e-05
 -3.8451672e-04
  3.5150206e-06
  2.5356494e-04
 -2.5968597e-04
  6.7814355e-05
  9.1092376e-04
 -4.5709676e-05
  2.3965056e-05
 -4.3060826e-04
  4.9209707e-06
 -8.2033439e-05
  2.2696285e-04
 -2.2912585e-05
 -1.4067457e-04
  3.9229044e-04
 -9.2037080e-06
 -5.3586782e-04
  3.0580511e-02
 -2.0931340e-05
 -5.4987850e-05
 -4.4753490e-04
  4.4585144e-05
  1.2211991e-04
  1.4138994e-04
  5.2624655e-06
  1.1094231e-04
  3.9336255e-06
  5.4555247e-04
 -3.5231197e-04
  6.8606844e-04
 -3.2960994e-05
  2.3201307e-04
  2.7517803e-04
  4.1314765e-04
  8.5495827e-05
  2.3452575e-04
 -4.4143289e-05
  1.3716040e-04
 -1.2272618e-04
 -8.0015579e-06
 -1.9645455e-04
  1.5436776e-04
 -1.6331227e-04
  3.4582891e-04
 -9.2688526e-05
  7.8512006e-05
 -1.3744640e-04
  1.4483086e-04
  9.8404696e-04
  3.0369774e-04
 -2.7812488e-04
  2.0423038e-04
 -2.5066899e-04
 -3.0392528e-04
 -2.5683147e-04
 -6.1371189e-04
  1.5545278e-04
 -1.2339253e-04
  8.5675107e-05
  3.3231944e-04
 -7.5944141e-04
 -8.5243933e-05
  2.3600838e-05
 -5.2387360e-04
  1.7456498e-04
 -1.6415916e-01
 -1.9135112e-04
 -2.6736202e-04
 -1.0138805e-04
 -5.0162111e-05
 -1.2147352e-04
 -1.2749563e-04
  1.4176720e-04
 -1.1270668e-04
  7.8172452e-05
 -1.2561265e-05
  4.7078452e-04
  3.1656242e-04
 -6.0263963e-05
 -2.5301968e-04
  4.6654520e-04
 -4.0229704e-04
  2.5985338e-04
  1.4504230e-04
  4.3437249e-04
  1.0758212e-04
 -2.8478005e-04
  5.4199866e-04
 -1.0013309e-04
 -5.5555570e-01
 -7.8046891e-05
 -3.7905753e-02
  8.9972213e-02
 -1.5814140e-03
  9.0057503e-05
  4.4461600e-03
  3.1507510e-04
 -4.0940623e-04
 -3.2926303e-01
 -6.6132059e-05
 -1.3852028e-04
  2.0517985e-04
 -1.2680443e-04
 -3.1560394e-05
 -1.1634582e-03
 -1.8642945e-03
 -1.4521234e-04
  3.4513061e-05
  2.7550934e-04
 -1.4311337e-04
  6.2063913e-04
  1.0018547e-03
  1.2389453e-04
  2.4836132e-04
  6.6852756e-04
  1.0940318e-04
  7.3980009e-05
  1.7275827e-04
 -1.8245775e-04
  1.9950907e-04
  1.1443850e-01
  8.3987197e-06
 -1.0739816e-04
 -6.7644560e-04
  2.2865820e-04
 -7.3932600e-04
  1.3278604e-05
  2.2091715e-04
  2.5147074e-04
 -4.3999022e-04
  2.2599642e-04
  4.7799165e-04
 -9.2854629e-05
 -1.5618440e-04
  3.7298052e-04
 -1.4592971e-04
  7.6484127e-04
  4.0085203e-04
 -1.5054317e-04
  2.5283871e-04
 -3.6298213e-04
  4.0569503e-04
 -9.7976685e-05
  2.9632213e-04
  1.4831431e-04
 -9.3648792e-05
 -4.2710930e-05
  2.9069168e-04
  7.8570866e-04
  2.4562338e-04
 -7.7428267e-06
  2.2554010e-05
  2.1969229e-04
 -6.5196777e-04
 -1.6389985e-04
  7.2104676e-04
  2.6624560e-04
 -2.7090075e-04
 -1.6410464e-04
  2.9905722e-04
 -1.6997884e-04
  8.5167419e-05
  4.0349150e-05
 -1.3584188e-04
 -2.0364761e-04
  6.2547369e-06
 -4.6100569e-04
  2.7481187e-04
 -1.4467198e-04
 -9.7177392e-05
  5.0104918e-05
  7.3522337e-05
 -2.7103038e-04
 -2.1298636e-05
  1.5086941e-04
 -2.3909454e-04
  2.2333775e-04
 -1.0806288e-05
 -8.8217127e-04
 -3.3715478e-04
  2.9610097e-04
  3.2774819e-04
  4.3666369e-04
  8.5289590e-05
  1.7264138e-04
  3.8961251e-04
 -6.0489172e-05
  5.7963567e-04
 -1.3114499e-05
 -4.2381536e-04
  9.0944386e-06
 -2.2391161e-04
 -7.7679353e-05
 -2.5554654e-01
  2.2887385e-05
  4.9185910e-04
  9.1624403e-05
  3.3374529e-04
  5.0461738e-05
 -2.6424811e-04
  2.0059595e-01
 -9.5704019e-02
  3.6537487e-02
 -1.7155069e-01
  4.6822876e-03
  5.1113416e-02
 -6.1782777e-02
  7.1841250e-03
 -4.0535018e-04
  2.5686630e-04
 -4.8921252e-06
  5.4694050e-05
 -1.5429801e-01
 -5.1284567e-03
  2.2138006e-04
 -6.0987245e-02
  1.0375175e-05
 -1.0283953e-03
  3.3964451e-02
  8.6359289e-03
  2.1131457e-04
  6.9072255e-04
  3.5581996e-03
  4.4523727e-04
 -8.7159179e-04
 -3.1812802e-02
 -5.9321173e-05
  2.9691317e-04
 -3.1352302e-04
 -2.2317478e-02
  2.1336238e-04
 -2.9628028e-03
 -1.2971577e-04
 -1.0172080e-01
 -2.0384507e-01
  6.8089968e-05
 -4.1525296e-04
  3.6886847e-04
 -2.6350208e-02
  1.6336550e-03
  2.8982043e-04
 -1.2613679e-04
 -1.5198737e-03
  4.4484692e-05
  2.4431513e-03
 -7.8787336e-05
 -5.9788284e-04
  3.1267721e-02
  4.6397083e-05
  5.4501090e-04
  3.1145725e-03
  4.7080495e-04
  1.3931806e-04
 -4.5765270e-04
 -5.4840823e-03
  1.6768226e-05
  8.6226202e-05
 -4.7100644e-04
 -7.9183659e-04
  6.9798434e-06
  2.6343536e-04
 -3.5579316e-04
  1.7082556e-04
 -3.7092448e-04
  1.3358465e-04
  8.2773448e-05
 -1.9813169e-04
  5.1108492e-04
  1.8580159e-04
 -7.2383104e-05
  2.0098792e-04
  7.5735769e-04
 -3.7259911e-04
 -1.7109833e-04
 -5.3720531e-04
  5.4673532e-05
  2.1862536e-04
 -4.6167427e-04
 -6.6164743e-05
  3.2448085e-04
  8.7303569e-04
 -3.2726926e-05
 -7.1576032e-05
  3.9752536e-05
 -9.2580463e-05
  3.8851509e-04
  2.9582903e-04
 -1.7689729e-04
 -5.6747737e-04
 -7.9885685e-05
 -8.5698091e-05
  2.8726363e-05
  5.7236111e-04
  7.6816468e-05
 -2.4385239e-05
 -6.9804970e-05
 -1.8285695e-04
 -8.0110207e-05
  1.0413902e-04
 -3.0163635e-04
  1.6750897e-04
  1.9248389e-04
 -5.9205876e-04
  7.6129181e-05
 -5.3599757e-05
  2.0587107e-04
  1.8340810e-04
 -7.7586577e-05
  1.6382572e-04
  1.2879456e-04
 -2.6264478e-04
 -5.7591154e-04
  5.1311182e-04
 -3.7060777e-04
 -8.7468470e-05
  3.9522443e-04
  1.7889263e-04
  3.5386148e-04
  6.0948450e-04
 -2.1029207e-05
  5.4876675e-04
 -5.0436519e-04
 -4.6609824e-05
 -2.0733640e-04
  2.3914539e-04
 -2.2841917e-04
 -5.1661016e-05
 -2.8528596e-04
  3.2938831e-04
 -2.6446904e-05
 -3.3793040e-05
  1.1863105e-04
 -4.7129890e-04
  9.5902824e-06
  1.2445456e-04
  8.5335712e-05
  1.7228119e-04
  7.0368045e-04
  3.6963201e-04
 -2.6392736e-04
  4.6147950e-04
 -2.4574040e-04
  2.8290763e-04
  1.8640133e-04
 -1.9754624e-04
  9.5371157e-04
 -1.1701156e-04
 -2.3387560e-04
  9.0906055e-05
  9.4947456e-05
  1.1436265e-03
 -8.5767254e-04
  1.6658391e-04
  1.4906116e-04
 -1.9610222e-04
  1.0448089e-04
  5.0226339e-05
 -1.5246592e-04
 -1.7808726e-04
  2.7288040e-04
  2.6191195e-04
  1.6756009e-04
 -2.5836200e-05
  5.8611680e-04
 -2.5011771e-04
  1.0993175e-03
 -6.1104662e-04
  2.0254975e-05
 -3.4780952e-04
 -7.2011416e-04
 -2.9340625e-05
 -1.0339040e-04
  4.8809474e-05
  3.1016860e-04
  7.7062729e-04
  4.7460321e-04
 -5.1801366e-04
  8.2542392e-05
  4.6136757e-04
  1.2499983e-04
  4.1609153e-04
  4.5999704e-04
  5.4833115e-05
 -3.6717916e-04
  2.8814774e-04
  3.4515304e-04
  3.4615481e-05
 -1.8712797e-05
 -4.2684138e-04
 -1.2632358e-04
  8.9677706e-05
  4.6534277e-04
  2.6808225e-04
 -3.9697901e-04
  3.1519163e-04
 -3.7184381e-04
  1.4498625e-04
 -2.2324859e-04
 -1.8944542e-05
  2.3474398e-05
  7.8331016e-07
 -4.9323495e-04
 -6.6305562e-05
  2.7582370e-05
  4.9313587e-01
 -9.2742179e-04
  1.3973206e-04
  2.8175514e-04
  6.3114963e-04
 -3.8491326e-04
 -2.5760516e-04
  1.1902794e-04
 -1.3195448e-04
 -4.8806480e-05
  2.2974014e-04
  4.4062905e-05
  1.2935506e-03
 -4.4809107e-04
  5.8769842e-04
  7.6882570e-06
  2.3515864e-07
  5.5124216e-05
 -6.4049807e-04
 -7.4154272e-04
 -1.4510480e-04
 -1.5603993e-04
 -2.5625437e-04
 -8.7996799e-05
 -1.8184047e-04
 -4.5264800e-04
  2.3178667e-04
  1.2818348e-04
 -3.6403578e-04
  1.8583325e-05
  6.8658985e-05
 -1.1172447e-04
 -1.9913646e-04
  8.9241168e-04
  3.7676885e-04
  1.9162684e-05
  1.6069281e-04
 -3.4608526e-04
  8.3260704e-04
 -1.3635742e-05
 -2.0265309e-04
  1.1476820e-04
 -2.3929041e-04
  5.9797411e-04
  7.5664699e-05
 -7.4953877e-04
 -1.5289381e+00
  2.2214216e-04
  3.1309588e-05
 -2.6541096e-04
  4.0429721e-05
 -1.9351799e-04
 -2.4377801e-03
  7.8840960e-05
  3.8937104e-04
  1.2694922e-05
  1.1854042e-05
 -3.6790239e-04
 -7.0171205e-05
  1.0834452e-03
  6.6445582e-04
 -1.9224684e-04
  7.4957678e-04
 -1.3143518e-04
  2.0349091e-04
 -8.5914551e-05
 -1.6720097e-04
  2.0250867e-04
 -2.9391000e-05
  2.4440963e-04
  7.4902367e-05
  7.4419804e-05
  8.7699227e-05
 -1.7221400e-04
 -1.4462300e-04
 -2.1440601e-04
  1.9501323e-04
 -3.9386563e-04
 -8.1530371e-04
 -6.0909573e-04
 -3.5817872e-04
  1.4805258e-04
 -3.0006203e-04
 -4.0559212e-04
  2.9073202e-04
 -2.9201026e-04
  4.6524886e-04
 -1.2182856e-04
  3.6062629e-04
  4.8903580e-06
  2.3019034e-04
 -2.8639761e-04
  9.0812048e-04
  1.4928938e-07
 -2.3392892e-04
  7.6006691e-05
  7.0422502e-05
 -9.8906276e-05
 -4.0331410e-04
  5.8396017e-05
 -2.7159663e-04
 -5.2169623e-04
 -3.5488865e-05
 -4.4328283e-04
  1.1812427e-04
 -1.9169656e-04
  3.5996526e-04
 -3.8681983e-04
  2.7445020e-04
  1.2654135e-03
 -5.8233131e-06
 -2.9505775e-04
 -1.1498741e-04
  8.9430221e-04
  5.1987119e-04
  2.5959892e-04
 -6.7393048e-05
  3.1330460e-04
 -7.5715761e-05
 -4.5442117e-05
 -2.6406627e-04
 -7.3738798e-04
  5.0260604e-04
  2.8821849e-05
 -6.5667235e-04
 -1.0611161e-04
  6.0943159e-05
 -3.7100070e-04
 -6.4145273e-04
  7.2245777e-04
  1.6675094e-04
  5.2894342e-05
  1.2487515e-04
 -5.6467848e-05
 -3.6117484e-04
 -5.8406702e-04
  2.2615235e-04
  2.0949918e-04
 -3.9167625e-07
 -2.8184362e-04
 -5.1334960e-04
 -2.5668950e-04
  4.7087775e-05
 -2.0290570e-05
 -6.6618680e-04
 -4.2086476e-06
 -2.0259307e-05
  3.7143455e-04
 -9.8454257e-05
  6.6788903e-05
  1.5075398e-03
 -7.8272635e-05
 -3.7286609e-05
 -2.1270597e-04
  4.3462394e-04
  8.0726633e-05
  1.9260572e-04
 -1.1398463e-04
 -8.5612490e-05
  2.1356813e-04
  1.3719696e-04
  2.8817763e-04
  2.1114358e-04
 -1.9314716e-04
 -1.4220474e-04
  5.0995459e-05
  1.9593281e-04
 -6.8446102e-06
  3.1262240e-04
  2.0264185e-04
 -4.1121635e-05
 -9.0414032e-05
  1.8157496e-04
 -2.3724210e-02
  2.7575126e-01
 -2.7079225e-01
 -2.4693107e-04
 -3.1872353e-01
  2.0338425e-03
  1.0098077e-01
 -7.3195547e-02
 -3.2737810e-02
 -2.4063704e-05
 -1.5231544e-04
  2.3008639e-04
  1.2382446e-04
 -3.6459461e-02
 -2.8891133e-03
 -2.1800185e-04
 -4.7608442e-03
  1.1507095e-01
 -1.2979779e-04
  1.3296507e-01
  2.6172188e-03
 -2.3509422e-04
  7.1856717e-04
 -5.7152702e-05
 -1.9540729e-04
 -2.5959703e-04
 -1.0467957e-02
 -4.7699374e-05
 -1.5866883e-04
 -4.0941057e-04
 -3.0037328e-03
  2.2523678e-04
 -7.2513579e-04
 -1.8289718e-01
 -9.1050737e-02
 -1.0389785e-03
 -4.4219117e-04
  3.8602535e-04
  3.9307831e-04
 -1.0386155e-02
  7.8400510e-05
 -2.6866421e-03
 -9.1569615e-04
 -1.7673978e-04
 -1.1627669e-04
  1.8771427e-03
  8.0329330e-05
 -1.7079717e-03
 -1.0659573e-05
  7.2898365e-05
  2.8220448e-04
  4.2012980e-04
  9.6616852e-05
 -7.7133975e-04
  9.8965758e-01
  8.3407581e-01
  3.0612677e-01
  2.1136882e+00
 -8.2711369e-02
 -9.9310565e-01
 -1.7132034e+00
  2.8640094e-01
  1.3894416e+00
  6.8338484e-02
 -6.4973348e-01
  1.4351740e-01
  1.9570254e+00
  3.5526913e-01
 -9.6158379e-05
 -1.4328955e+00
  1.2784481e-01
 -5.4222709e-01
  4.2722360e-04
 -4.2292679e-05
  5.4916424e-01
  5.2348578e-01
 -1.1760444e-02
  1.2773511e-04
 -3.7594432e-01
 -1.1681873e-01
 -5.0762105e-01
  4.3133613e-01
 -7.0281249e-01
  6.1798590e-01
  7.3330992e-01
  7.1604156e-01
  7.9873419e-01
 -3.9435384e-01
  5.8204110e-04
 -4.0601835e-01
 -3.5505064e-04
 -2.0419283e-01
  3.0436936e-01
  6.5563303e-01
 -7.6803225e-01
  3.0454064e-06
  4.6197936e-01
 -1.4270413e-03
 -1.5104669e-01
  1.3291249e-02
  2.1148153e-01
  2.5791824e-01
 -1.2524457e-04
 -1.6647649e-04
 -6.9810236e-03
 -2.0790681e-04
 -1.0830448e-05
 -3.8641971e-04
  1.5506985e-04
  2.1334006e-04
 -2.9115018e-04
 -4.8622816e-05
 -6.4957167e-06
 -4.5539628e-06
  1.2980288e-04
 -6.8647263e-04
  1.0327890e-03
  1.3808676e-04
  8.9921508e-05
  3.7894165e-04
 -5.9792364e-04
 -3.7752400e-04
 -3.2137134e-05
  1.4326914e-04
 -1.1156938e-03
 -4.1939845e-04
 -4.2637012e-06
 -3.2517646e-04
 -5.3052965e-05
 -2.1330985e-04
  3.4639317e-05
 -3.2358814e-04
  4.8880628e-04
  2.9617897e-04
 -4.2565737e-04
 -7.7864499e-04
  1.6257960e-04
 -2.5020557e-04
  1.1759403e-04
  6.2178835e-05
  2.0834066e-04
  9.2554466e-05
  3.6111276e-05
  3.9464963e-04
  2.3576242e-04
  3.8587773e-04
 -2.0385970e-04
 -7.3335285e-04
 -4.2736810e-04
 -3.2306334e-04
  4.7593232e-04
  3.9337301e-05
 -1.6589489e-04
 -2.2577839e-05
 -4.1053796e-04
  1.0535480e-04
  1.1106540e-04
 -1.5730411e-04
 -2.5666843e-04
 -8.4456155e-04
  9.9987214e-05
  7.3515391e-04
  1.0418744e-03
 -2.6685948e-05
 -2.9422512e-04
  2.2290929e-04
  4.5709364e-04
  6.0928363e-05
 -5.2383868e-04
 -2.4972379e-04
 -4.5249672e-04
  2.1744508e-04
 -2.5318726e-04
  4.9715930e-01
  8.2795494e-05
 -5.2654982e-04
  3.0420409e-04
 -3.9534285e-04
 -1.8762605e-05
 -2.5791675e-04
  6.1831747e-06
 -2.2183290e-04
  7.3909752e-05
  8.3499122e-04
 -9.4739611e-05
 -4.0246418e-04
  1.1112185e-04
 -1.6922584e-04
  2.7024481e-04
  5.2129419e-04
  1.0859688e-04
 -6.8740046e-04
 -7.1381677e-05
 -5.1026145e-05
 -3.3138055e-04
 -2.0441068e-04
 -4.8858969e-04
  4.4754916e-04
 -1.5658190e-04
  1.2711301e-03
 -2.4056713e-04
 -8.2902559e-05
 -8.9581386e-05
 -2.7265589e-04
 -1.1056415e-05
  3.4989505e-05
 -4.4325076e-04
 -8.2539183e-05
 -7.4891682e-04
 -8.1832428e-04
 -5.9913532e-07
  4.6720193e-04
 -1.8469048e-04
 -2.1337728e-04
 -8.6495955e-04
 -2.4553877e-04
 -4.7224265e-01
 -1.7647339e-02
  1.2543514e+00
  1.3641484e+00
 -3.0383614e-01
  2.5700361e-01
 -8.1451058e-02
  3.5270444e-01
  1.2012920e+00
 -2.9418166e-03
 -2.8556955e-01
  1.4180249e-01
  3.2788885e-01
  3.9224155e-02
  2.9945394e-01
 -1.1918086e-01
  1.0708940e-01
 -1.6633813e-01
 -4.6234429e-02
 -2.0273866e-01
  5.9877628e-01
  2.9245567e-01
 -1.2321414e-01
 -5.4407541e-05
 -3.7437388e-01
  9.7037837e-02
 -2.0088659e-01
 -6.1983746e-01
 -4.9114686e-01
  1.4540549e-01
  8.6868070e-03
  3.0033145e-04
 -2.8641419e-02
 -1.5580069e-01
 -7.5517302e-05
 -3.1912318e-01
 -1.3668001e-01
 -5.0919789e-01
 -4.2867795e-02
  7.1745674e-04
 -1.9926585e-01
 -1.0090710e-03
 -1.5146673e-02
 -3.2533618e-04
 -2.3036720e-03
  2.1518899e-04
  6.2388327e-04
 -9.0800799e-02
 -1.9093593e-04
  1.4199602e-03
  2.1366328e-04
  1.0042698e-01
 -6.1274745e-04
  6.2412597e-05
 -2.7451265e-04
  2.6284001e-04
 -4.4579786e-04
 -1.5490035e-02
 -5.1636816e-06
  6.0629613e-05
  1.6937229e-04
  7.4955280e-04
 -7.3151074e-05
  3.6815600e-04
 -2.3009809e-04
 -2.7447371e-04
 -4.1136425e-04
  2.0762082e-04
 -3.2465588e-04
  7.3043653e-04
 -4.9908389e-04
 -8.2382765e-05
 -4.0571376e-05
 -1.6756960e-04
  1.8840391e-04
 -2.1519064e-04
 -3.1385102e-04
  4.2869753e-05
 -7.8986333e-05
  3.6823985e-04
 -2.0194454e-04
  4.5288738e-04
 -5.5970321e-04
 -7.2341150e-05
 -2.8447251e-04
  2.6912717e-04
 -1.9119809e-04
  2.5193256e-05
 -6.3574844e-04
  4.5598432e-04
  6.9337670e-04
  3.8482531e-04
 -7.6556834e-04
  1.1150901e-04
  1.0479850e-04
  3.3289235e-04
 -6.6525949e-04
  5.7010264e-05
 -2.4698462e-04
 -1.2262409e-04
  9.0479865e-05
 -6.5583497e-04
 -2.5716319e-04
  5.7987077e-04
 -1.0797505e-03
 -2.5855371e-04
  2.6753524e-04
  2.1514697e-04
  2.0410681e+00
  6.6278362e-01
 -1.5505365e-01
  4.0466986e-03
  4.3182468e-01
  3.8438272e-01
 -2.2156093e-01
  2.9216719e-01
 -4.3760842e-01
 -3.4025434e-04
 -6.6623145e-01
 -1.4170773e+00
  3.6294669e-01
 -9.8639764e-05
 -4.9406051e-04
 -8.6546040e-01
  1.0493595e-01
 -3.7438920e-01
  2.5655717e-01
 -1.2387417e-02
  1.7133953e-01
  2.8198874e-03
  1.6206287e-02
  3.2082756e-04
  3.9986143e-01
  2.2968622e-01
 -5.1920611e-04
  6.6761710e-02
 -1.4647098e-01
 -8.1666681e-04
  3.1965814e-05
  2.8700370e-01
 -1.5080094e-01
  6.6906524e-01
  2.1010262e-01
 -6.4060994e-05
  1.2305765e-01
 -6.5578677e-02
 -1.0677011e-01
  6.9115858e-04
 -3.4110283e-04
 -4.7196509e-04
  9.9879935e-02
  1.3221349e-04
  2.9933384e-01
 -1.3571929e-03
 -1.4321241e-04
 -8.2870968e-02
 -3.3362122e-04
 -2.3435378e-04
  3.4040576e-04
 -2.0551955e-04
  2.5677503e-04
 -4.9751095e-04
  3.5192832e-05
  1.8856286e-05
  5.2270357e-04
 -1.6480190e-04
 -3.1673248e-04
 -6.4714794e-04
 -3.5594899e-04
  8.2098192e-04
  2.9490798e-04
  3.9572835e-05
  6.5899651e-05
 -2.8555351e-04
  1.2300703e-04
 -3.2637938e-04
  1.0354434e-03
 -9.6498337e-04
 -2.9143394e-04
 -2.3381759e-05
  5.4869748e-04
 -4.2358672e-04
  6.2715364e-05
 -2.8152472e-05
  1.1113566e-05
 -1.3483618e-03
 -1.0697163e-05
  5.2213832e-04
  2.1990151e-04
  2.4557934e-04
 -1.1182431e-04
 -7.7982448e-05
  1.5540380e-04
 -1.9032635e-04
 -1.6773543e-04
 -1.6234354e+00
  3.1693757e-04
 -1.1090326e-04
 -6.3549663e-04
 -2.5998356e-04
 -6.1946991e-04
  1.6242906e-04
  1.0079144e-03
 -8.6877400e-05
 -4.6100413e-06
  2.2853918e-04
  2.5927939e-04
  2.0124028e-04
  5.9108570e-04
 -1.5683567e-04
 -1.2781622e-04
  1.0747230e-04
 -2.2485465e-04
  7.9476566e-04
 -9.2282586e-05
 -3.3730516e-04
 -9.8146808e-01
 -5.1852512e-01
 -1.3075237e+00
  1.3699461e+00
 -1.6982977e+00
 -6.8612494e-02
  1.3892357e-01
  7.6727730e-01
  1.7176272e+00
  9.5925409e-01
 -7.2065204e-01
  9.2779857e-01
  6.5770976e-02
  7.4983442e-01
  3.6324716e-01
 -1.7006795e+00
  1.5518734e-01
 -1.2459743e-01
  9.0607250e-01
  7.5840515e-01
 -4.9820629e-01
 -2.9452685e-02
  6.0206038e-01
 -1.5981881e-01
 -4.6615604e-01
 -3.8993064e-01
 -6.6552266e-02
  2.6612246e-01
 -4.0382162e-01
 -3.8084105e-01
  5.0870681e-01
 -5.9977055e-01
  2.4498992e-01
  1.0903405e+00
 -1.0710935e-03
  3.0376101e-01
  4.2505729e-01
 -8.9461043e-02
  1.6992805e-03
  5.6954396e-01
 -1.6858904e-02
  1.5657243e-01
  7.2787687e-02
  7.9239748e-05
  2.7640724e-01
 -6.7732297e-02
  4.3674117e-01
  5.5479344e-02
 -1.2005305e-01
 -1.5751581e-01
 -1.8287948e-04
  2.0499079e-01
 -2.8804799e-03
 -4.5269141e-03
  3.0347960e-02
  1.2313439e+00
 -3.9309598e-05
 -6.2345160e-04
  1.3127935e-04
  2.5866914e-01
 -2.5582308e-04
 -6.4411523e-07
  6.2373894e-01
 -6.6810846e-04
 -5.2893898e-05
  4.1001849e-02
 -2.9261838e-04
 -4.2710567e-04
 -4.7715570e-04
  1.9513712e+00
 -3.2532215e-01
 -5.3080969e-04
 -7.1702714e-05
  1.6026796e+00
  5.0610004e-05
  1.8099586e-04
 -1.6200485e-03
  4.0220007e-01
 -2.1409173e-04
 -1.1566714e-03
  1.4643520e-04
  6.7054399e-04
  1.0891982e-02
  4.9861084e-04
  5.4689951e-04
  8.6578453e-04
  1.1020441e-03
  3.1896628e-04
  3.3746834e-05
  8.5635547e-05
 -7.2391435e-05
  4.7088644e-05
  2.0520219e-04
  2.2829599e-04
 -2.4721373e-04
 -1.7102838e-03
 -2.5160640e-01
  2.9231887e-04
  6.2599883e-04
  2.1699740e-01
 -1.2523748e-04
 -1.1742419e+00
  7.5162694e-05
  7.4831891e-01
 -3.2807729e-01
 -1.7078357e+00
 -1.4057781e-01
  1.5596052e-01
 -3.1216860e-01
 -3.5265043e-01
  1.8041954e-05
 -9.9492870e-02
 -3.2372001e-01
  1.7366046e-02
 -3.3720984e-04
 -1.0042876e+00
 -1.1980171e-01
 -1.7410231e-01
  8.9253117e-05
  1.8509807e-01
 -6.1975342e-01
  2.1198992e-01
  8.0401034e-05
  6.0506654e-01
 -2.2067347e-01
 -4.0904477e-05
 -1.8154207e-01
  2.9288387e-01
  2.8816226e-04
  6.3545965e-02
  3.2314260e-02
 -2.2652589e-01
 -6.0228330e-01
 -1.5578757e-01
 -1.1698705e-01
 -5.6991552e-04
 -3.6371282e-01
  2.9943773e-04
 -4.1955632e-01
 -7.1423984e-04
 -1.2944690e-03
  5.7319280e-02
 -6.5666735e-02
 -6.9852773e-04
  4.8086347e-04
 -3.8991949e-01
  8.5570085e-01
 -3.1136928e-02
  3.9775899e-04
  8.3747685e-01
  1.5573076e-04
  6.8049049e-01
  2.9551605e-02
  1.3740222e+00
  4.3392224e+00
 -8.0808572e-02
 -4.3226933e-04
 -2.3955123e-01
  1.3861520e+00
 -1.0424656e-04
  1.5121304e-04
 -3.0964649e-01
  1.5039463e+00
 -1.3822730e-03
  7.6120096e-04
 -1.2102024e-01
 -5.8735251e-01
 -2.0013635e-01
 -1.0466118e-01
 -9.2804790e-01
 -1.2734034e+00
 -3.9958331e-04
 -3.9008334e-02
  5.0167024e-01
 -1.5061982e-01
  8.3236746e-04
 -2.4284584e-04
 -1.6708143e-01
 -4.2045826e-01
 -1.1916675e-01
 -2.4633927e-04
 -4.7431415e-01
  1.3316493e+00
 -3.4117617e-02
  5.6859541e-01
  1.3233359e+00
  9.6431762e-02
  1.3238941e-01
 -4.4163078e-01
  1.7138865e+00
 -3.0364534e-01
 -7.2722906e-01
 -1.1002515e-01
  1.4147787e+00
 -7.0032638e-01
  1.0935241e-04
  5.0787255e-04
 -1.2135223e+00
  1.5757763e+00
 -3.1815484e-02
 -1.0536591e-05
 -7.0450693e-01
 -1.2570993e+00
 -2.0797595e-01
  1.8310229e-01
  1.0261990e-01
  1.1107632e+00
  1.3795301e-01
  8.2999701e-03
 -1.4049538e+00
  7.7077504e-03
 -4.1815747e-02
 -8.2489109e-01
 -3.1076670e+00
 -2.4754434e+00
  6.0609601e-02
  8.6192198e-02
 -1.0987688e-05
 -7.3121530e-01
  2.2667235e-01
  5.9365273e-02
  8.2497567e-01
  1.6308028e+00
 -6.6126219e-04
 -4.4197109e-01
 -1.5031564e+00
  6.3709632e-02
 -8.7759190e-04
 -5.4240727e-04
 -2.5688725e+00
 -9.2607033e-01
  6.9684465e-05
 -4.1768825e-04
 -6.7690659e-01
  1.2213627e+00
 -3.0764981e-04
 -5.9483282e-04
  6.8060738e-01
  1.1573691e+00
  5.4724616e-05
 -7.6770229e-04
  7.0127571e-01
  4.8569667e-01
 -1.0509332e-04
 -2.3167254e-04
 -2.8448844e+00
 -6.6346264e-01
 -1.0237117e-04
 -3.2134823e-04
 -5.8650398e-01
  1.5352381e+00
 -1.5138549e-03
 -3.3390368e-04
 -4.1335642e-01
  1.6773705e+00
  1.8470413e-04
  4.5267392e-05
  1.8140313e-01
  5.2416891e-01
 -1.8271201e-05
  2.0083717e-04
  9.1395992e-01
  7.3185188e-01
 -1.2811203e-02
  1.2069020e+00
  1.0741330e+00
 -2.8328782e-01
 -1.1990330e-01
  6.5472350e-02
 -3.2006924e+00
 -1.9869564e-01
  8.2809061e-01
 -1.3186256e+00
  2.2438664e+00
 -1.3290136e+00
 -6.3687786e-02
  2.0857431e-01
  1.0529388e-01
  6.0838240e-01
 -4.8864037e-02
  2.5395107e-01
 -1.8038468e+00
 -2.8747216e-01
  5.2919090e-03
  5.4418184e-02
 -6.9550341e-01
 -8.6777061e-01
 -9.4900483e-01
 -4.7054771e-01
 -1.2531086e+00
  1.6622907e-02
 -1.4796739e-02
  1.0704285e-01
  9.8786932e-01
  4.4058746e-01
  1.2160647e-02
  1.6327980e+00
  7.0063651e-01
 -4.2806774e-01
  3.2001868e-01
 -5.4498130e-01
 -1.7746673e+00
  1.3291956e+00
  6.8708402e-03
 -2.9261631e-04
 -1.6314075e-04
 -5.6083735e-02
 -1.9039872e+00
  6.6972023e-01
 -1.6603736e+00
 -4.1867846e-01
 -2.5994974e-01
 -1.4719917e+00
  1.7937553e+00
 -5.5944157e-01
  1.3252268e+00
 -6.9486552e-01
 -6.0194832e-01
  1.7034936e+00
 -6.6820681e-01
  1.7482069e-01
  5.7484025e-01
  5.2293104e-01
  1.5634311e+00
  8.8536787e-01
 -1.5557526e-01
 -1.0952798e+00
  2.1940908e+00
  9.3303907e-01
 -4.0032497e-01
  5.4325515e-01
  9.8590136e-01
  1.1541034e+00
 -1.0438018e+00
  2.9605243e-02
  5.8742338e-01
  9.6719843e-01
  1.6748836e+00
  6.0488278e-01
  2.4524437e-05
 -2.0064741e-04
 -2.0961211e+00
  1.1652243e+00
  1.6006847e-01
 -4.8462063e-02
  8.2326299e-01
  1.2710202e+00
  4.3554530e-03
 -6.7305195e-01
 -1.0023252e+00
 -2.3799778e-03
 -5.1287532e-01
 -4.3376261e-01
 -2.0826794e-01
 -7.5470591e-01
  3.5162649e-01
 -1.0882165e-01
 -3.3085840e+00
 -9.0303876e-02
  1.1175320e+00
 -3.5036672e-02
 -1.4538977e+00
  4.4129854e-01
 -1.0488459e-01
 -1.6616176e-01
 -9.4414347e-01
  4.2818922e-01
  1.8572563e-01
 -2.7964842e-01
  3.3688791e-02
 -2.4773073e-01
  1.4085546e-03
 -1.2530354e+00
  1.3452150e-01
 -1.6613635e+00
 -1.9837638e-04
 -4.9057635e-03
  1.0406845e+00
 -3.3460286e-01
  1.6143663e-01
  5.7413149e-01
 -8.8603902e-01
 -2.6740484e-02
 -6.8350397e-02
 -3.8544897e-02
 -1.2411648e+00
  1.5238502e+00
  5.4060487e-04
 -9.5486604e-02
  2.2763617e+00
  2.7764755e-01
  4.5000702e-01
  5.5043027e-04
  3.1224206e-01
  1.6450292e+00
  4.2223189e-02
 -4.2607027e-01
 -3.1910565e-01
  3.2672733e-01
 -1.9598975e-04
  2.3604241e-01
  1.0479410e+00
 -1.9507539e-01
  6.0990602e-02
 -5.9974742e-01
  7.3550785e-01
 -7.4561691e-01
 -1.4542668e+00
 -2.5064057e-01
  1.1132341e-01
 -1.5048473e+00
  6.3200034e-02
  6.2306750e-01
 -3.7443149e-01
  6.8950725e-01
 -1.6077765e+00
  6.6273069e-01
  7.9072908e-02
 -4.1464549e-01
  2.2042563e+00
 -1.1318631e+00
  2.8656435e-01
 -6.5130419e-01
 -1.3405214e-03
 -1.4928929e+00
 -2.7221029e+00
 -2.1608822e-01
  2.7670616e-01
 -6.4686209e-01
 -2.2923200e-01
 -1.4094347e+00
  2.5024280e-01
  6.0820526e-01
  2.4882725e-01
 -1.1168284e+00
  1.1542312e+00
  6.2460721e-01
  1.2601125e-01
 -6.3838720e-01
  6.7961043e-01
  1.5714835e+00
 -1.1567459e+00
  1.8897301e-01
  7.7356882e-02
 -4.4035915e-01
  5.6232244e-01
  3.9954779e-01
  7.5495765e-05
 -1.9755855e-03
 -3.4291453e+00
  5.6133077e-02
  2.2813667e-02
  1.6870668e-04
  2.0943103e+00
 -6.4131838e-01
  4.6838332e-02
 -1.8454464e-01
 -7.6802306e-02
  6.5846562e-02
  4.5126464e-04
 -6.9374937e-01
 -1.2443398e+00
  9.1882092e-01
  3.2983068e-01
  1.1048334e-02
 -5.2816159e-01
  9.6035969e-01
 -2.3788210e-02
 -5.0475728e-02
  1.9954581e+00
  1.3237220e-01
  1.3166186e-01
 -2.2258639e-01
  5.5208671e-01
  8.8336575e-01
 -9.9880609e-04
  1.0442589e-01
 -1.3545130e-01
  7.2894400e-01
 -1.6615080e-04
  1.0144737e-04
  1.3773773e+00
 -1.4432036e+00
 -1.0390832e-03
  4.2100481e-04
  6.7679815e-02
 -1.9574011e-04
 -1.4036585e-04
  3.9928015e-02
  1.4922721e+00
 -8.2039773e-01
 -2.5960174e-04
  9.4422292e-05
  3.6260192e-03
 -6.1639328e-02
 -4.2378597e-02
  2.6458525e-04
 -3.1699955e-01
 -8.5294533e-01
 -1.9483322e-04
 -1.3650366e-04
  5.4350471e-01
 -4.7890779e-01
  4.1783281e-04
  1.9156309e-06
  8.5991520e-01
 -1.2684392e+00
  5.4532491e-05
 -1.3502296e-04
 -1.1429038e-01
 -3.5295233e-01
 -1.6420886e-04
  1.2999319e-04
 -2.8143612e-01
  4.3896091e-01
 -1.1947764e-04
  2.8815963e-05
 -5.0899339e-01
 -4.8214319e-01
 -9.9112862e-05
  1.8250099e-01
  6.0040247e-01
 -4.1975104e-04
 -2.2213404e-04
 -1.6317445e-04
  4.0828776e-02
 -2.4717328e-01
  8.7088709e-05
  1.6610210e-06
  1.1872418e+00
 -8.8069957e-01
  4.7417739e-04
  7.2322687e-04
 -2.8384998e-01
  7.9212375e-02
  2.6891660e-04
  1.9958598e-04
  1.4063158e+00
 -3.4536642e-01
  1.0051991e-04
  3.5782560e-04
  1.4642515e+00
 -2.0870389e-03
 -3.6646688e-04
 -6.0765492e-04
  4.6342965e-02
 -1.0236609e-01
 -2.8263390e-04
 -7.2986899e-05
  7.6763439e-01
 -1.3798688e-01
 -1.4349158e+00
 -1.9762752e-04
  5.1532871e-01
 -2.3974296e-01
 -6.3190714e-02
  1.8269833e-03
  2.7392786e-02
 -3.2074013e-04
 -4.1644165e-01
 -1.3972956e-02
  7.3019016e-01
  4.0760763e-02
 -1.3209645e+00
 -2.1064003e-01
  7.5500369e-01
  8.7275600e-01
 -2.4336114e-04
  2.9821730e-01
  1.9115973e+00
 -7.0753030e-02
 -9.0756631e-01
 -1.3770780e-01
  1.7476679e+00
  1.8368756e-02
 -1.2417115e+00
  6.4680159e-01
  9.3023235e-01
 -6.7860353e-01
  1.1051222e-01
  7.1584815e-01
 -9.5958090e-01
  4.3873349e-01
 -8.1188279e-01
  4.9008006e-01
 -8.1521785e-01
  2.6709616e-02
  3.8053014e-04
 -2.7810736e-04
 -7.4617666e-01
  1.7405435e+00
  1.8788343e-04
 -3.8709841e-04
 -1.5082872e-01
  8.3389157e-01
  1.6963335e-05
  2.2413641e-04
 -1.5422090e-02
 -1.4318353e-01
 -1.6583610e-04
 -2.4700310e-04
  6.8522829e-01
 -6.1170179e-01
  5.6498709e-05
 -5.1273836e-04
 -4.7118995e-01
 -1.7570699e+00
  3.9007624e-05
  8.0646852e-05
  9.4113749e-01
  8.7647237e-02
 -3.5809178e-05
  3.9727933e-05
  2.7769473e-01
  2.7220466e+00
 -8.3698236e-05
 -4.7820035e-04
  8.6166948e-01
  6.0754377e-01
  2.3878849e-04
 -8.3191862e-04
 -4.0014583e-01
  2.4740721e-01
  4.9344194e-04
  1.0081490e-01
 -1.1994684e+00
  1.1906414e+00
  1.5550602e-05
 -5.0633890e-04
 -1.3975430e-01
 -5.4075208e-04
  6.7517580e-04
  3.2508641e-04
  7.1347183e-01
  6.0322288e-02
  9.3956463e-05
 -1.8586644e+00
 -5.3622864e-02
 -1.6332396e+00
  5.8049080e-04
 -6.2350590e-02
 -7.3758268e-01
  2.9653412e-01
 -3.5481618e-04
  1.6400993e-01
  2.5190234e-01
  1.0751315e-01
  8.7146612e-04
 -1.0188087e+00
 -7.5129622e-01
 -1.3485740e+00
 -6.9740729e-04
 -1.7273912e-02
  1.5087301e-01
  3.8604388e-01
  1.6151510e-02
  4.4592956e-01
  4.7978805e-03
  1.9125339e+00
  1.4735706e-01
  1.0963869e+00
 -4.0680054e-01
 -1.1939053e-04
  1.5489951e-04
  4.1196549e-01
  1.3887980e-04
  8.8887355e-05
 -2.4321968e-04
 -1.1140524e-03
  2.1847298e+00
 -3.1896633e-01
  1.6568759e-01
 -9.3826568e-01
  5.0234509e-01
  6.6837913e-01
  3.3016192e-06
  1.7082217e+00
  4.6177801e-01
  2.2597286e-04
  1.6619617e-01
 -2.4339399e-01
  3.8367224e-01
 -1.7692131e-01
  4.4253115e-03
 -8.3666784e-01
  3.8080007e-01
  3.7020183e-01
 -4.0429997e-05
  1.5844160e+00
 -3.0835733e-02
 -1.9408125e-01
  2.9650667e-01
  3.3477074e-01
  1.7134976e+00
 -8.2369894e-01
  5.4497540e-01
 -7.5388528e-02
 -4.4841877e-01
 -1.0077776e+00
 -2.4684198e-04
 -1.1687667e-01
 -4.7957844e-01
  1.9406166e-02
  6.2324297e-01
  3.1453663e-01
  3.7825826e-01
 -8.0743082e-02
 -7.0336908e-05
 -1.3746362e+00
 -2.7380973e-01
  1.2260526e+00
  6.1703986e-01
  5.8990465e-03
 -1.0858185e+00
 -6.2261701e-01
  5.3654856e-04
 -2.9268273e-04
 -3.3766574e-01
  1.1895392e+00
  1.6325544e-01
 -3.4304681e-01
 -1.1177003e+00
  1.2224087e+00
  5.3812325e-01
  6.5684449e-03
  2.2104509e-02
  8.8095790e-01
 -1.9046442e-01
 -4.1951784e-01
 -1.7435132e-01
  5.6542224e-01
  1.2312218e-04
  6.6244102e-01
 -5.9804606e-01
 -3.6217007e-01
 -7.7894080e-04
  8.9699566e-02
  7.4471861e-01
  2.1752163e-05
 -1.9248051e-04
 -4.8146222e-04
 -8.3827317e-01
 -1.3706280e+00
 -1.4632110e-05
  9.7295171e-01
  6.0063541e-01
  1.1166033e+00
  2.5188140e-04
  6.4996916e-01
  1.6834261e+00
 -7.4453259e-01
  1.1372849e-04
 -1.2163750e-01
 -5.8462965e-01
 -1.2147012e-01
 -9.8594660e-03
  5.9282464e-01
 -2.6706216e-01
  2.8650658e-02
  7.0823915e-02
  1.0658480e+00
  1.3205998e+00
  4.9590480e-01
 -2.5036857e-01
 -9.2831999e-01
  1.8441099e+00
  4.2147771e-01
  3.7007549e-01
 -1.1879621e-01
  6.3797969e-01
 -8.5601670e-01
 -6.7605026e-05
 -1.8443663e-04
 -8.5508463e-04
 -9.1124266e-06
  2.1796809e-01
 -8.3563551e-02
  1.3544285e+00
 -3.3764893e-01
  1.5536524e-01
 -4.6635527e-02
 -4.0510061e-01
 -2.5568548e-01
  8.6734843e-05
  1.3740563e-01
  7.6518900e-04
 -6.6069588e-05
  5.7350540e-01
 -2.0407981e-01
  1.0296530e+00
 -1.9652431e+00
 -5.9701479e-03
 -2.4829020e-01
  3.7138343e-01
 -1.8322107e-03
  4.6883106e-01
  2.6314774e-01
 -2.6028514e-01
 -7.0141608e-01
