nep4 2 O Ga 
cutoff 8 4 219 32
n_max 4 4
basis_size 8 8
l_max 4 2 0
ANN 30 0
  3.3458407e-05
 -2.6082523e-06
 -1.7916747e-05
 -1.5730711e-05
 -2.5082656e-05
  1.0487086e-04
  7.3286906e-06
 -1.9064824e-05
  3.0517851e-05
  8.5880538e-04
 -1.0874866e-05
  5.4025611e-05
 -1.3523088e-05
 -4.6915616e-06
  1.3340975e-03
  4.5773304e-05
  1.3885336e-05
 -1.8449315e-05
  2.9544932e-05
 -3.7552372e-06
 -7.2346622e-05
  3.7881298e-05
  2.5314699e-05
  1.6337085e-06
  1.2540696e-05
  3.8379047e-05
  6.3092288e-05
  1.4193048e-06
  1.9525556e-05
  5.4793858e-05
 -1.2418700e-05
 -1.6872799e-04
  2.3687866e-05
  3.1697191e-04
 -1.2597225e-05
 -3.4973265e-05
 -4.4627282e-05
  9.2445707e-06
 -3.2388951e-05
  1.1255132e-03
  2.4926709e-05
 -6.0061680e-06
  4.6614387e-05
  3.2968630e-04
  9.1369577e-05
  2.2281627e-05
 -1.5518961e-05
  3.7129197e-05
 -3.5708865e-06
  8.3168612e-05
  1.1113563e-07
 -6.5980072e-05
  1.5479460e-05
 -8.6266670e-04
  1.3223990e-04
 -3.9781982e-05
  5.0212828e-05
 -3.7552447e-05
 -2.5951473e-05
 -7.4536023e-05
 -5.4906609e-06
  7.4283280e-06
  4.4076673e-06
  2.7414163e-07
  4.0557301e-05
  8.2113227e-05
 -1.9843943e-05
 -1.0511020e-04
  8.2242923e-06
 -1.7689132e-05
  6.2548286e-05
  6.9586378e-05
 -3.5239370e-06
  5.7646880e-06
  4.4072522e-03
  3.3387741e-07
 -1.7893259e-07
  9.9959150e-05
  3.5345849e-05
 -1.1525860e-04
 -3.3227265e-05
  4.3415228e-05
 -2.0247637e-05
 -7.7880159e-06
 -5.1845032e-06
  1.8464220e-03
 -4.7415269e-06
  1.7245817e-05
 -5.6592253e-05
  2.5579786e-05
 -1.6410466e-01
 -1.6806127e+00
  9.7901267e-01
 -6.2994361e-01
  7.7603531e-01
 -1.1040756e+00
 -2.7398282e-01
  9.0637147e-01
 -5.8136058e-01
 -3.6220368e-02
 -2.9730650e-02
  3.5126094e-02
 -5.7559882e-05
  3.9970201e-01
 -9.2246586e-01
 -2.7959226e-05
 -6.7084104e-02
  4.5869097e-02
  2.5626296e-01
 -4.5723855e-01
  2.3520426e-01
 -7.7505392e-05
 -4.0725671e-02
  2.1595958e-01
 -2.0791709e-03
 -2.1295320e-02
  8.8526495e-02
 -7.5271848e-05
  5.1013803e-01
  2.9093525e-03
  1.1886428e-03
 -8.8226434e-04
  1.8646271e-04
  3.9869844e-04
 -7.3885552e-05
 -1.0163790e-04
 -9.1299480e-05
 -9.0709521e-04
  1.2148025e-04
 -6.7923243e-06
  6.2036401e-05
 -2.9842509e-05
  1.8854111e-05
 -1.1950830e-04
 -4.6175592e-06
  1.3604298e-06
  2.4729678e-05
  1.0269776e-05
 -2.9371035e-06
  3.4545539e-03
 -1.5500098e-05
  6.7925721e-06
  1.8682485e-05
 -9.3900859e-08
  5.7193673e-05
 -6.4955685e-07
 -7.6347251e-06
  8.6237975e-05
  1.7996759e-05
  2.9571895e-06
  1.6106123e-01
 -2.6698973e+00
 -1.5668510e-01
  1.2057149e-02
 -1.9874798e-01
  1.0607183e-01
  1.6494539e-01
 -1.1460903e-02
  1.9822353e-06
  7.1286151e-05
 -1.0596561e-03
 -6.4088531e-02
  3.8105911e-01
  5.3460253e-03
 -1.9483948e-02
  1.0589922e-02
 -3.0002414e-04
 -4.6608642e-02
 -3.4375172e-02
 -2.1644337e-02
  6.5735485e-03
  8.7150285e-05
  6.1441760e-04
  3.3444416e-05
  1.7821394e-05
 -4.3521992e-05
 -4.3981206e-02
 -1.9858626e-05
  1.0883808e-05
 -1.5766130e-01
  2.4074789e-03
 -1.3121908e-06
 -6.0763294e-05
  5.3731073e-06
  9.1750926e-06
  1.1033384e-05
  9.1359306e-07
 -7.4310460e-06
  2.3975814e-04
 -1.7400353e-05
  2.3928435e-05
 -4.8557928e-07
 -1.0088439e-07
  4.6518348e-05
 -3.6765452e-06
  2.3791039e-05
 -2.9654220e-06
  1.1974507e-05
 -6.5840031e-05
  4.5085530e-06
 -4.1996851e-03
  1.0930028e-04
  7.4533750e-06
 -1.2491233e-04
 -2.0308433e-05
  8.1484568e-06
  3.2679269e-05
  5.2993320e-04
  1.3746593e-05
 -3.9352526e-05
  1.5185213e-02
 -3.9003015e-01
  2.4624201e-02
  2.2809257e-01
  4.3042392e-01
  3.6847800e-01
  2.4830246e-01
  1.1947275e-04
 -2.4147397e-01
 -1.1172852e-01
  4.6227872e-01
 -1.2803590e-01
  7.5895625e-01
 -7.4047798e-01
  1.7139553e-01
  4.5692635e-04
  2.1981206e-02
 -2.5465718e-04
 -1.9992913e-01
  1.7571305e-03
  2.1407688e-02
  2.7693963e-02
  2.6919663e-01
  2.8028426e-01
  6.6805020e-02
  5.8557536e-05
 -3.7463315e-02
 -1.2696004e-02
  5.0755662e-01
 -5.7851240e-02
 -8.4106106e-01
  1.0292214e+00
  3.1462097e-01
  8.9906919e-01
 -2.3824192e-04
 -1.8088324e-02
  6.7536845e-03
 -1.0126799e-04
 -9.4087327e-01
 -2.5863257e-01
  5.1783943e-01
  1.5290205e-01
 -2.4660213e-01
 -8.6120039e-01
 -1.3472810e-01
  2.5542103e-02
 -1.4736241e-01
  1.1868832e-01
 -1.0894578e+00
 -1.2623034e-01
 -2.8455672e-03
  3.6256410e-02
 -1.1663298e-01
 -9.3463349e-01
 -2.6755331e-03
  2.5958464e-01
  4.6332285e-02
 -6.7219720e-04
 -3.3093438e-01
  3.5937929e-01
 -3.8712751e-05
 -1.6833381e-05
 -4.6631754e-05
  3.7055572e-06
 -1.5866595e-05
  4.4679098e-05
  1.8277960e-05
  8.8334145e-06
 -6.2435356e-05
 -9.3185909e-06
 -9.6762604e-05
  3.9830909e-05
  1.8933517e-04
  3.0589938e-05
  2.4192210e-05
 -1.9558764e-05
 -1.3701001e-04
 -6.8231693e-06
  3.1630045e-06
  2.3970178e-04
 -1.1082589e-05
 -1.3689304e-04
 -1.6012347e-05
  1.6339271e-06
 -7.8074745e-06
 -6.2064850e-05
 -1.8104090e-04
 -7.4516138e-05
  1.6233020e-05
 -3.7289767e-05
 -1.1027125e+00
  6.0306066e-01
  4.6612069e-01
  1.7503830e+00
 -3.3902747e-03
 -7.7152610e-01
 -1.5073566e-02
 -1.0842493e-01
 -1.7108779e-02
 -2.0994097e-01
  2.6503250e-01
  6.3185401e-02
 -1.9567323e-01
 -9.0126574e-01
 -3.3932430e-01
 -7.2856106e-02
 -2.8584961e-02
  9.6833371e-02
 -6.8541408e-01
 -8.8996941e-01
 -2.9253876e-01
 -1.8118595e-01
 -7.0171297e-02
  2.0567872e-02
 -3.4541011e-01
  2.0050961e-01
  2.7142283e-01
  2.7889222e-01
 -1.5144168e-01
  2.2968575e-02
  5.3135533e-05
 -1.8903141e-06
 -3.9368097e-05
 -3.9699302e-05
 -2.9134759e-04
  2.2191958e-05
 -8.7967574e-06
 -5.0992610e-05
 -1.2437704e-05
  4.7727430e-05
 -3.3123945e-04
 -1.8080616e-03
  1.7396211e-04
  9.8134587e-05
 -3.5733472e-05
 -2.1823911e-05
 -1.2792346e-05
  2.9598617e-05
 -2.6832735e-05
  1.1417595e-05
 -4.4102821e-05
 -9.0674963e-05
 -4.8621864e-06
 -5.9517133e-06
 -3.3232654e-04
  2.4668104e-04
  6.2842868e-05
  3.6713491e-06
  2.6450471e-05
  2.2055083e-03
  4.4231376e-01
 -1.8388024e-01
  4.6777418e-01
  3.5574177e-01
 -4.4698928e-02
 -1.4319556e-04
  2.3078597e-05
  1.8328542e-01
 -3.7436614e-05
  4.7331142e-01
 -2.8411539e-02
 -3.2677467e-04
 -2.7615076e-04
 -3.4126639e-02
 -2.5217456e-01
  2.7094167e-04
  2.0082544e-01
 -2.3557607e-02
  5.9051734e-01
  4.8335144e-01
 -2.2182830e-04
  1.2611941e-04
  1.1115810e-01
  7.5736444e-04
  7.3853783e-02
 -1.1020812e-04
 -4.6800642e-04
  6.1639287e-07
  1.9008882e-04
 -2.8873920e-03
  4.8314944e-02
 -1.2237786e+00
  3.0658257e-01
 -8.5027963e-01
  1.5175583e+00
  5.4175825e-07
 -1.2257757e-01
  9.8534131e-01
  3.1281406e-01
  8.6701792e-01
 -1.9812849e-01
 -4.8714168e-02
  3.0427853e-05
 -1.8137971e-01
 -1.9325212e-01
 -6.6362059e-01
 -1.0193869e-03
 -4.7078893e-02
 -3.7406206e-01
 -1.5852594e-01
  3.2274613e-05
  3.7705875e-05
 -3.5526285e-01
 -3.4881231e-01
 -5.5840876e-02
  5.3150980e-05
  1.0718261e-03
  4.7405260e-06
 -9.9359602e-02
  1.7463042e-01
  5.2691153e-06
 -8.2732580e-04
  1.6631326e-05
 -9.4439565e-06
  8.8543893e-05
 -5.7003825e-05
  1.7887371e-05
  7.6948481e-06
  2.1851993e-05
  1.9155175e-05
 -1.5129851e-06
 -2.0782440e-05
 -1.1048040e-04
 -6.8847639e-06
 -2.1800416e-04
  2.1442812e-04
  2.3782068e-06
 -1.8342375e-06
 -1.0221474e-05
  1.5624964e-05
  2.4264327e-05
 -3.0030706e-05
  1.5741534e-05
  3.2327698e-05
  4.9654205e-05
  7.3092660e-06
  4.8100872e-05
 -1.9228153e-04
  2.8437904e-05
  8.9457346e-05
 -3.8213974e-01
  1.3340911e+00
  5.6482607e-01
 -2.1134992e+00
 -1.9393346e-01
 -8.5853654e-01
 -1.3627789e+00
  1.2508839e+00
  2.1403344e+00
  5.4327244e-01
 -5.1104939e-01
  6.6230953e-02
  3.4972399e-01
  8.3851457e-01
  1.1116853e+00
  2.8743264e-01
  3.3948377e-01
 -5.7471561e-01
  1.2623051e+00
  1.7212514e+00
  1.2436132e-01
  5.7711147e-02
 -1.3045410e+00
  1.7797968e+00
  5.0906491e-01
  8.8975087e-02
  6.5523900e-02
  2.8494641e-04
  4.3394011e-01
 -3.1066167e-01
  2.9535916e-01
  1.6818082e-04
 -3.7910810e-01
  4.6031468e-02
  2.9881277e-05
  1.4995204e-04
 -1.3157635e-02
  3.1472662e-06
 -2.5226432e-06
 -2.1051068e-04
  4.8986194e-04
  4.5707258e-03
  4.5143079e-06
 -1.9212885e-05
 -4.6548659e-05
  3.7183359e-05
 -5.3104688e-04
  1.9281857e-05
  1.2852600e-01
 -1.2365788e-03
  3.9618586e-05
  4.0998002e-05
  8.9531059e-06
 -7.8898323e-05
 -2.4632389e-05
  1.8220195e-05
  3.8015805e-05
 -4.4467274e-06
 -2.6609117e-05
 -8.7644912e-05
 -4.3213610e-03
 -9.2901580e-02
 -9.5997417e-01
 -4.3746993e-01
 -1.6925415e-02
 -7.9100799e-05
 -1.4711164e-05
  5.5428892e-01
 -2.8463131e-02
  9.3699647e-03
  2.8702224e-04
 -5.2363052e-05
 -2.6792662e-02
 -2.4178649e-01
 -6.7595994e-01
  4.8388682e-02
  1.2604480e-04
 -1.3710578e-02
 -7.4124977e-02
 -5.5506572e-02
  1.8364887e-01
  3.5132296e-05
  1.2534440e-01
 -2.5180265e-05
  8.6349328e-06
 -4.5830142e-04
 -8.3519888e-05
 -1.0169768e-05
  1.9267000e-01
 -3.7350266e-03
  5.6474149e-02
  7.5171098e-05
 -1.9104086e-01
  3.5343736e-02
 -8.0725506e-02
 -3.0079254e-05
 -4.1459774e-05
 -7.9429540e-04
 -5.9291337e-06
  6.6379369e-05
  4.9763485e-03
  1.3251421e-05
  1.4369359e-05
 -2.8009630e-05
 -1.1950131e-04
 -1.8339738e-04
  7.2918701e-05
  1.7076242e-04
  6.7125431e-05
 -5.1136309e-04
 -1.6318675e-02
 -4.0848486e-06
 -1.8348075e-04
 -9.4612893e-05
  9.6427611e-05
  8.8183158e-05
 -1.8709774e-05
  2.8549175e-04
 -8.0695354e-05
  6.3514351e-05
 -1.3514392e-05
  3.7324138e-05
 -4.0507923e-05
  1.0914076e-05
  5.6713245e-05
  1.0298782e-04
 -1.1422361e-04
  5.1409751e-04
  2.1053993e-04
 -1.7424525e-05
 -7.3390038e-05
 -1.3056070e-05
 -6.9601811e-05
 -4.0139566e-05
 -3.5848122e-03
  5.9135773e-06
  2.3231110e-05
  9.7166803e-06
 -1.4953976e-05
  2.7218947e-04
 -1.1856794e-04
 -2.6418364e-05
 -1.1643574e-05
 -3.2583589e-04
 -2.7008440e-05
 -5.5372366e-03
  8.0807949e-05
  7.9872107e-06
 -1.1507604e-05
  1.4818282e-05
 -7.7898749e-06
  7.5566581e-06
  5.6626956e-04
 -1.0494483e-04
  5.8330386e-04
 -2.9569192e-06
  2.2111966e-05
  1.6310824e-04
  2.5034219e-03
 -3.1594445e-05
  5.9938156e-05
  6.8556765e-06
  5.4349257e-05
  6.0898945e-04
  1.5672122e-05
  5.0968705e-05
  1.7342034e-04
 -3.6423673e-05
 -7.6515371e-06
  1.2879495e-06
  1.4189467e-05
  6.9601840e-05
 -6.6286743e-06
  3.2483105e-05
  4.6521105e-05
 -8.8506413e-06
  2.9685907e-05
  6.6539169e-06
 -2.5752284e-05
 -6.4159045e-05
  2.7206410e-02
  6.4550173e-01
  3.9458141e-01
 -4.2212757e-01
  4.5564836e-01
 -1.9828936e-01
 -6.6071330e-03
 -1.0055594e+00
  2.1450733e-01
 -1.0531022e-01
 -8.0872573e-02
  4.2009615e-05
 -6.6986620e-02
  9.0290196e-02
 -2.9661337e-01
  4.3868225e-02
 -4.3500092e-02
 -9.7139138e-01
  1.6318240e+00
 -1.9500512e+00
 -3.4660705e-05
 -5.8806846e-03
 -4.4575819e-01
  1.6523594e-01
 -4.0753826e-01
  5.8057882e-05
  1.8365532e-01
  1.5140279e-05
  7.4576366e-01
 -1.1636443e+00
  1.9519679e-01
 -1.1167472e-05
 -8.7361142e-02
  7.6408610e-02
  4.2672309e-06
  5.2661951e-05
 -2.1947862e-05
  4.5691864e-05
 -1.6795585e-04
  2.5861317e-03
  5.2083265e-05
  1.5340525e-05
  2.3823898e-06
 -6.2360150e-06
 -4.7454401e-04
  5.7684965e-06
  3.3973629e-05
  5.5927310e-05
  3.6405509e-05
  1.6433117e-06
 -2.3905517e-05
  7.7712575e-06
 -8.4498251e-06
  2.4864416e-05
 -3.4419671e-05
 -1.1942294e-05
  2.2469361e-04
  1.0077823e-04
 -1.0777414e-05
  2.8669703e-05
 -3.0773219e-05
 -1.4556421e-04
 -1.3283592e-05
 -2.4942684e-04
  9.2497885e-08
 -1.2045648e-04
  3.6108759e-04
 -5.6516761e-05
  5.6459202e-04
 -3.0739723e-06
 -4.0456660e-05
 -1.1735496e-05
 -5.9235385e-06
  5.8228229e-06
  1.1019890e-05
  8.5238949e-05
 -3.0017522e-06
  3.7469650e-05
  1.5053811e-04
 -5.7600730e-05
  5.9050853e-06
 -1.9952966e-05
 -4.3112304e-06
 -1.5815509e-04
 -2.9838173e-05
  2.2576845e-05
  3.2012293e-05
 -2.6342868e-05
 -2.1211081e-05
  5.5373901e-05
 -2.8956552e-05
  9.0060092e-04
  3.4853620e-05
 -7.3900910e-06
 -2.3860834e-04
 -4.3071672e-05
  1.6246955e-03
  8.0358834e-05
 -1.7339986e-05
 -2.1321641e-05
  1.7155497e-05
 -2.9501325e-05
  6.7185787e-03
  1.2388252e-06
  7.1138653e-05
  1.1131917e-03
  6.1061910e-06
  1.3912613e-05
  5.0055518e-05
 -2.7352153e-05
  8.8250299e-06
 -5.0764186e-03
 -4.1678260e-05
 -5.1480793e-06
  2.0993287e-04
  3.3092034e-05
 -4.0906620e-05
  4.0271192e-05
 -1.5551785e-05
 -8.2855922e-06
  3.9552385e-01
  2.8383589e-01
 -5.4006833e-01
 -2.7382746e-01
 -6.0365003e-02
  8.1436110e-06
 -2.1111740e-01
 -7.8038019e-01
  3.4092513e-01
 -2.3801470e-01
 -2.4414923e-02
 -4.0015253e-01
 -9.4801337e-01
  1.4570792e+00
 -1.4810878e+00
 -5.0505072e-01
 -6.5145142e-02
 -2.5115177e-01
  1.0031803e+00
 -1.1534594e+00
  1.2661815e-01
 -1.4435935e-01
 -1.7951131e-02
 -1.0275068e+00
 -3.4590337e-01
 -2.0399874e-02
  5.1977295e-01
  2.7655473e-05
 -4.4647908e-01
  9.4852537e-01
 -3.9657199e-01
  7.1806413e-01
  1.4907714e+00
  1.8951510e+00
 -1.0885413e+00
 -6.5732770e-02
 -9.5140357e-03
  1.3357006e-01
 -2.2064030e-05
  1.5527384e-01
  2.3215261e-01
  9.3633324e-02
 -3.7283713e-01
 -1.3305977e-01
 -5.8025020e-01
 -5.1689427e-04
  6.3807708e-03
 -1.3515356e-01
  3.7109145e-04
 -4.4283754e-01
  6.5912842e-05
 -8.0920994e-02
  2.1086440e-05
 -2.4555936e-01
 -1.6740148e-01
  2.7084234e-03
  1.4551197e-01
  9.8185197e-02
  4.6545867e-02
  3.9039843e-02
  2.6838836e-01
  1.8686445e-04
 -9.3867467e-04
 -8.8971339e-02
  1.8478103e+00
 -1.2340969e-02
  1.1135620e-02
  2.2285420e-05
  5.5097630e-03
 -2.6345710e-04
 -8.2532972e-02
  2.4523013e-03
 -1.1907549e-04
  1.4378025e-02
 -1.2526654e-02
  2.3965111e-01
 -4.3676078e-05
 -2.6355633e-03
 -2.4349323e-01
 -1.0825515e-04
 -1.4687631e-01
 -1.7199277e-04
  1.0276184e-03
 -5.0247614e-03
  1.2965207e-01
 -3.1391162e-01
 -6.9085538e-02
 -3.5841432e-01
  2.2994252e-01
  6.9991429e-03
 -9.1584856e-03
 -4.6659956e-05
  4.4713601e-02
  5.0242721e-05
  2.0898961e-02
  1.0121668e-05
  1.6639231e-05
 -2.9058336e-05
 -2.5894223e-03
  6.3304789e-05
 -2.9707782e-05
  3.8732360e-05
  7.8357252e-06
 -1.2354122e-01
  3.2092827e-05
  1.7531231e-03
  2.7734248e-05
 -3.3094894e-04
 -2.4789126e-04
  1.2325174e-05
 -7.2753181e-05
  2.1445034e-05
  4.7428487e-04
 -1.7744889e-05
  6.1615377e-05
  1.1759295e-05
  3.8916984e-05
 -9.5629948e-04
  6.3395186e-05
  1.8889037e-05
 -1.1971922e+00
 -2.2351210e-01
 -5.1977468e-01
 -8.0076214e-03
 -1.2099098e-01
 -5.4069322e-01
 -1.5646442e-04
  8.4759755e-05
 -9.6362197e-01
  1.1292803e-05
  1.9261357e-04
  8.0394588e-05
  6.5158420e-05
  1.0400651e+00
  6.9019145e-01
  3.9090565e-01
  5.8428484e-01
 -9.9366233e-02
  7.2149336e-02
  6.9451302e-01
  2.1835502e-02
 -3.7306319e-05
  7.7356599e-02
  4.3999895e-02
  4.0396955e-02
 -2.1640945e-03
 -5.8154733e-06
  3.0278764e-04
  7.0628542e-01
  9.4420604e-02
 -3.7788061e-05
  1.3272275e-07
  6.9811664e-05
 -4.3773669e-01
  3.7893846e-05
 -8.6832764e-03
 -1.0772607e-04
  2.0032668e-02
  3.5563520e-01
 -7.5800390e-06
 -1.0131932e+00
 -2.0390498e-05
 -2.2532023e-01
  1.1026700e-01
 -2.0285390e-05
  9.0693629e-01
  1.0698042e-06
  6.5482266e-02
  7.9507146e-05
  5.0893083e-04
  8.9139630e-06
 -8.7058371e-01
  2.8719613e-05
 -3.5561538e-05
  3.1319163e-05
 -3.3038657e-03
 -2.2692349e+00
  6.3933447e-02
  7.2768089e-05
  1.0304673e+00
  3.0456811e-05
  6.2206400e-06
 -7.5479540e-05
 -7.6561558e-01
  5.0773881e-05
  1.1299957e+00
  3.7979382e-05
  1.4273021e+00
  3.2935286e+00
  6.3386101e-06
 -1.5358905e+00
  2.1641936e-05
  6.3446599e-01
 -9.2904955e-01
  1.2977118e-05
 -1.6902047e+00
 -2.1623671e-01
  6.6630191e-01
 -2.4218674e-01
 -2.1992044e-05
 -8.7095192e-05
 -7.7007562e-01
 -2.1463296e-01
 -1.1699506e-01
 -3.8022532e-05
 -1.3199897e+00
 -6.7665154e-01
  1.0514642e+00
 -1.3182522e-05
  6.9690651e-01
 -7.0184098e-05
 -4.5426361e-05
  8.9953194e-04
 -2.5317020e-04
  1.7752930e-03
 -2.1935279e-05
 -2.5210658e-05
 -6.6413741e-05
 -1.0265895e-04
 -3.6016012e-05
  5.3488966e-05
  2.4160281e-06
 -7.3518863e-06
  6.8875932e-05
  3.0562827e-05
 -7.8888279e-06
 -3.5885409e-05
 -6.0748728e-04
  2.1588616e-05
  1.4149521e-05
 -6.9808661e-06
 -4.7387159e-04
 -3.0463254e-06
 -9.5387816e-04
  1.1572487e-05
  4.2314609e-04
 -3.5800171e-05
  2.0078581e-04
 -4.1987428e-06
 -1.1237624e-04
  8.9392744e-02
  1.5551588e-02
 -1.5688809e-02
 -2.4789216e-01
 -7.5478479e-02
  9.7852680e-06
  2.6187018e-04
  2.1041244e-05
  6.5344431e-02
  6.6234008e-04
 -1.2055602e-04
 -3.4314518e-05
 -1.6552093e-03
 -8.5165404e-05
  6.8884512e-04
  8.3356654e-06
 -1.3340743e-04
 -7.4567448e-05
 -4.1343112e-05
  3.5709494e-05
  2.3282575e-05
 -2.0319586e-01
  1.1603688e-04
  8.8052248e-06
  4.4393251e-04
  3.3203728e-06
 -2.5015061e-05
  5.1283860e-05
  3.3462093e-05
 -2.4292625e-04
  3.2279906e-05
  1.7459086e-01
  2.0375233e-05
 -5.2593565e-05
 -3.6274796e-05
 -6.9369758e-06
  1.6179956e-05
  1.5581058e-05
  3.8427155e-05
 -1.6542497e-05
 -5.9961199e-05
  1.1515027e-03
 -2.1554445e-04
  1.5613758e-05
 -1.2429340e-05
 -7.4148724e-05
 -3.7327223e-05
 -9.7161783e-06
 -1.3402175e-05
 -6.9451329e-05
 -1.0048357e-05
 -1.1339509e-04
 -1.3453335e-05
 -1.0258001e-04
 -3.3173063e-05
  8.6164473e-05
 -8.5671309e-06
 -4.0952786e-05
  9.6440162e-06
  1.1558572e-05
 -2.2677124e-05
 -1.4404565e-01
  4.4790337e-05
  9.4092108e-02
  3.3122653e-04
  1.0355116e-03
 -6.5724023e-05
 -9.6038304e-05
 -1.0363910e-04
  9.6383947e-06
  5.3591757e-06
  1.9815698e-04
  7.7906798e-04
 -8.5307211e-06
 -1.9338792e-03
  3.7988721e-04
  1.9442541e-05
  1.6171473e-06
 -1.1791893e-05
  4.5023527e-05
 -3.0934967e-05
  2.9567229e-03
  9.7063996e-05
 -4.5587887e-05
 -1.0214879e-05
 -3.8940516e-06
 -1.8977857e-05
 -1.1725342e-03
 -1.9333405e-05
  3.3886940e-04
  1.9285177e+00
  2.7304298e-01
 -4.7218892e-01
  3.7261226e+00
  5.5490804e-01
  4.4563130e-06
  3.8167870e-01
 -1.8420310e-01
  1.6207140e-02
 -2.0046673e-05
 -8.1437044e-02
  4.1386372e-01
 -1.5652636e-01
  1.8757096e-01
 -7.2629765e-02
  4.2238194e-04
 -2.1937597e-01
 -1.3915490e-01
  1.2797819e+00
 -4.7108904e-01
  7.5647640e-01
  7.4568623e-01
 -3.9358982e-01
  1.2535982e-01
  4.3376470e-01
 -1.3291660e-03
 -1.0092858e-02
  1.5705664e-05
 -1.3890494e-01
 -1.7555538e-04
 -6.9796777e-05
  3.2730535e-05
  6.0259186e-05
 -2.9078601e-05
 -2.6109602e-04
 -1.4948815e-05
  1.1366209e-04
  1.7089143e-06
  7.9943740e-05
  1.6144866e-03
 -2.3745438e-03
 -3.6563939e-05
  4.1728370e-05
 -4.7681351e-05
  2.6368376e-04
 -1.0055332e-04
 -5.7275943e-04
 -4.1666000e-05
  4.0419593e-05
 -1.0142674e-05
 -1.4427822e-05
  2.6504704e-05
 -6.7797271e-05
  2.1033107e-05
 -2.2599239e-04
 -1.8307182e-05
  4.4012934e-04
  3.2477466e-05
 -6.6976230e-05
  2.3862303e-05
 -3.8527156e-05
 -5.9296475e-05
  8.3401690e-05
  9.7066797e-05
 -1.9923347e-05
 -2.5569887e-03
 -2.6850245e-04
  3.6583333e-06
 -7.1441755e-04
 -1.4363945e-05
 -1.8458528e-05
  8.5110732e-05
 -8.6122636e-05
  3.4472308e-05
 -1.8598923e-06
  1.2018556e-04
  1.0014392e-04
 -1.2112667e-05
  5.0507110e-06
  2.4720243e-06
  5.1731691e-05
 -3.0413898e-05
 -3.6386607e-04
 -6.1408850e-06
 -7.8155415e-04
 -1.7117931e-05
 -3.4999615e-05
  9.5998757e-07
 -1.5438087e-05
  1.9538868e-03
  1.2347618e-03
 -1.2036237e-05
  8.3227613e-05
 -4.6390064e-06
  1.9389505e-05
  1.0986361e-04
 -9.4410607e-06
 -7.6444636e-08
 -1.2445732e-05
  1.8636973e-05
  8.9546711e-06
  1.4952649e-05
 -2.1385986e-06
  3.3393786e-05
 -6.7578119e-05
  4.7397328e-04
  1.2357303e-04
 -1.8237878e-04
  2.3140485e-06
 -9.0862222e-06
  1.1153126e-03
  3.1843304e-04
  1.1762875e-04
  3.3375061e-05
 -1.2480522e-06
  7.3400456e-06
  2.4306404e-03
 -1.8002647e-05
 -2.6777295e-06
  1.0043084e-04
  9.7366489e-02
  2.1131271e-01
 -1.4553523e-04
 -5.6678859e-06
  5.5440925e-02
  1.0829055e-05
 -3.7884474e-05
  2.1878926e-05
 -7.4302661e-06
  1.6901873e-03
  9.1677257e-06
 -1.5236402e-04
 -7.7438242e-05
  1.9023357e-05
 -9.5261334e-05
 -1.6078203e-04
 -1.1663978e-03
  4.9872422e-05
 -2.1092080e-04
  4.7385029e-06
  2.1398461e-03
 -2.1395877e-04
 -1.1886678e-04
  1.1421302e-05
  1.9572055e-05
 -2.9534135e-06
  4.6060552e-05
  8.9317567e-05
 -9.0577914e-06
 -2.8362281e-05
  1.3655816e+00
 -5.0882429e-01
  2.6435772e-01
  7.0886648e-01
 -2.5992364e-01
  3.3510000e-01
  5.5573654e-01
  5.0582799e-05
 -1.5341535e-01
 -8.0456835e-01
  1.2461137e-01
  4.3260330e-01
  1.9890653e-01
 -8.2291931e-02
  1.0010527e-05
  1.1524067e-01
  3.5461420e-01
  6.2387794e-01
 -1.4197449e-02
  8.0273770e-02
 -4.6853828e-01
  1.4503413e-01
  3.3427566e-01
  4.6214637e-01
  1.1743286e-02
  1.2893922e-03
 -4.7558229e-02
  8.6867381e-05
 -2.3986487e-01
  6.5054633e-02
 -6.3522202e-01
 -7.1749419e-01
 -1.2684198e-01
 -1.8224500e+00
 -9.7548825e-01
  7.9673395e-05
  2.1884827e-01
  2.9224983e-01
  4.8608553e-02
  9.6627242e-05
  5.2543026e-01
 -5.2396674e-02
  5.7936400e-02
 -8.9350820e-01
  1.0589403e-01
 -7.4886239e-01
 -7.9206884e-02
  6.6255242e-01
 -7.4897861e-01
  2.8775933e-01
 -9.0379721e-01
 -2.3126249e-01
  7.5487173e-01
  4.9173000e-01
  3.8698046e-03
  1.7057240e-02
 -1.4128903e-01
  2.5879628e-05
  3.5325164e-01
  3.0392945e-01
  1.6706070e-05
 -2.4948725e-03
  1.8537868e-04
  1.5806212e-06
 -3.3747518e-05
 -6.7987690e-05
  7.2834613e-05
  3.6463643e-05
 -8.9148518e-05
  4.2697520e-06
  8.8983192e-04
 -1.7306393e-05
 -3.4929959e-05
 -2.6495034e-05
 -1.4631873e-05
 -1.3694746e-04
 -1.1489950e-04
 -4.5524623e-05
 -2.9814069e-04
 -8.5018255e-06
 -2.6836329e-05
  2.8553099e-05
 -3.8607770e-05
 -5.5465502e-05
 -3.6357833e-05
 -4.9097685e-05
 -6.1364403e-06
 -2.1166048e-05
 -7.5163938e-05
  1.1996631e-04
 -5.2403393e-05
 -1.4647801e-03
 -1.2346216e-05
 -1.0636282e-04
  6.7080700e-06
 -1.2244164e-05
  3.9227278e-05
  5.0741005e-06
  9.1947377e-06
  2.2537763e-06
 -2.8275483e-04
 -9.8105062e-05
 -2.9932435e-05
 -4.0297040e-05
  1.1473328e-05
 -7.2355295e-05
 -6.4840715e-05
 -4.0148469e-05
 -1.7986551e-05
 -2.5228786e-05
 -2.7047811e-04
  2.0964633e-05
 -1.5764086e-05
 -1.1731774e-05
 -4.7737162e-06
 -3.6171492e-05
 -4.4274173e-05
 -3.4390545e-05
 -3.0249513e-03
 -6.0683971e-05
  1.2524795e-07
  3.3788503e-05
  1.6974602e-05
 -2.5078832e-06
  6.6271639e-08
 -3.7066435e-05
  3.3998228e-06
  7.5532048e-06
 -8.1117687e-06
  1.4505472e-05
 -3.1057039e-06
  7.8073645e-05
 -1.9409775e-04
  1.0304823e-04
  5.9265338e-05
 -4.9506896e-05
  9.1139787e-05
  2.1691310e-05
  1.0895618e-04
  1.0290446e-05
 -2.0692481e-05
 -2.1147460e-05
 -8.6708940e-05
 -2.9962965e-05
  3.7317168e-06
 -1.7130608e-04
 -9.6429349e-06
  1.2732771e-05
  2.8275075e-05
  4.1568569e-06
  4.2086893e-05
  4.7845380e-05
 -4.4404615e-06
  3.9250637e-05
 -4.4617373e-05
  2.0143587e-05
  3.2172076e-05
 -5.4499229e-05
  2.9396062e-07
 -6.7816945e-05
  9.9607067e-05
  6.6260676e-05
 -4.6532009e-06
 -2.6249149e-05
 -1.2489025e-05
 -7.9483070e-06
  2.5467278e-07
  9.0172049e-05
 -1.2947705e-04
  1.2058775e-05
  1.6810276e-05
 -2.9115891e-04
  4.4388005e-05
 -5.9658261e-05
  2.6560016e-04
 -3.1143569e-05
  2.7789304e-04
  7.3073588e-06
 -2.2881411e-05
 -1.3181867e-04
 -4.7335753e-01
 -4.9364910e-01
 -9.5431191e-01
 -5.4268682e-01
 -7.3052335e-01
 -4.0704543e-03
  1.8570133e-02
  1.6797721e-01
  4.0021634e-01
  5.2878051e-05
  1.4071184e-01
  2.7920789e-01
 -2.3426737e-04
  1.0456257e-03
 -2.5576551e-04
 -1.3887161e-01
 -1.3494951e-03
  3.0874321e-01
 -1.6300714e-01
  3.4797465e-04
 -1.4046952e-01
 -4.4325108e-05
  8.5864298e-02
 -4.0254128e-04
 -5.0834515e-05
  6.9046370e-03
  2.5840182e-02
 -8.6645523e-05
  2.0119040e-01
  1.2118228e-04
 -8.4909523e-05
 -8.6415894e-05
 -5.7224993e-06
  3.2969805e-05
 -8.8032841e-04
  3.8674993e-05
  8.1759405e-05
 -7.0260197e-05
  6.6121822e-05
  1.1292238e-04
  5.4601380e-05
 -1.2245751e-04
 -3.1997934e-06
  1.1856713e-05
  1.8888151e-05
  9.7415272e-05
 -1.4201036e-05
 -1.5371059e-04
 -2.7789123e-05
 -4.3482512e-05
 -9.3213843e-05
 -1.2564701e-05
  3.6744864e-03
 -3.3834083e-05
 -7.1252507e-06
 -1.4755575e-05
 -1.2673681e-04
 -1.3079171e-05
 -3.3455715e-05
  4.4300018e-06
  7.5261989e-05
 -2.5892444e-04
  5.5694360e-05
 -7.8337616e-06
 -3.8428883e-05
  9.6000702e-05
  5.7154812e-06
 -3.4795103e-06
  9.1155016e-06
  6.6506589e-05
  2.5703992e-05
  4.9565319e-06
 -2.0431475e-05
 -9.8454930e-06
 -1.3180742e-06
  8.7807575e-06
  4.8249767e-05
  1.8692373e-05
  3.0524909e-05
  1.4585321e-04
 -1.7853425e-05
 -3.7789669e-06
 -6.7095429e-04
 -1.5741623e-05
 -2.0892543e-05
 -7.4213740e-06
  4.0888277e-05
 -7.0771188e-05
  3.8389011e-05
  6.2697123e-05
 -1.3978663e-05
 -1.8967693e-01
  1.5417274e-04
 -7.0015483e-02
  5.1571499e-04
  1.4854099e-05
 -1.6124473e-05
 -1.1938891e-03
 -2.1670935e-07
 -6.9677201e-04
 -1.4099103e-04
 -2.8144712e-05
  8.9834051e-05
  6.1164155e-06
  3.6657533e-05
  3.1797990e-06
 -3.1768050e-04
 -3.2569849e-05
 -1.9808637e-04
  1.7159013e-05
  2.9448944e-04
 -3.5814359e-05
  1.6955240e-04
 -3.3956108e-05
  6.9924645e-05
  6.7352580e-06
 -3.5613943e-05
  1.0447052e-03
 -4.8178430e-03
  1.0190129e-04
  6.0576225e-05
  5.3738975e-05
  1.8815977e-05
 -6.9807335e-05
  2.9758516e-05
 -1.2062353e-07
 -2.5641368e-04
 -1.7156653e-04
 -2.8703327e-05
  1.2144918e-05
 -3.2029642e-05
 -8.2087252e-05
  3.0443509e-05
 -2.2962964e-05
 -3.0348603e-05
  6.7990327e-06
  7.7256609e-06
  5.0004150e-05
  6.9852038e-05
  4.4990425e-06
 -1.3100446e-04
  4.7250131e-05
  2.6048383e-06
 -2.8141119e-06
  3.0275705e-06
 -6.7118424e-05
 -7.6252152e-05
  1.5317941e-05
  1.3603469e-05
  1.6633856e-05
  7.1422291e-01
 -3.2454050e-01
  7.3566604e-01
 -6.0192382e-01
 -6.8471330e-01
  2.3205839e-01
 -4.9782649e-01
  2.3041708e-04
  3.0776665e-02
  2.8170174e-01
 -1.7347352e-01
 -3.2053828e-01
 -3.0325940e-01
  5.0503789e-03
 -8.0090889e-04
 -7.4311276e-04
 -1.4280051e-01
 -4.5772919e-01
 -1.2533134e+00
 -1.7760270e-06
 -3.0190228e-02
 -9.4428962e-01
 -2.2059634e-01
 -1.2090594e-01
 -4.4695594e-04
 -5.5618642e-05
 -1.0613846e-03
  6.1839623e-05
 -1.5622558e-01
 -1.4011966e-03
  6.5467262e-01
  7.8804183e-01
  2.8107777e-02
 -8.2923377e-01
  2.5342774e-01
  2.2475571e-05
  7.3782954e-05
 -3.7622091e-03
 -8.8483637e-04
 -3.5121851e-02
  1.5716869e-04
  3.9042473e-02
 -5.4871780e-05
 -1.0166711e-05
 -3.3685661e-05
 -9.0072150e-05
  1.9057537e-05
  3.1244999e-03
  2.1382566e-05
 -5.0273742e-05
 -8.0459735e-08
 -1.4949284e-01
  6.7821624e-05
 -2.3858580e-05
 -2.0398367e-05
  5.6488975e-06
  7.1551814e-04
 -2.2575019e-05
 -2.0638375e-01
  2.6145495e-05
  8.0728649e-05
 -1.6810714e-04
  6.6269031e-06
 -3.4841511e-04
 -1.3656630e-04
 -1.9511162e-01
  3.5553976e-04
 -3.9255337e-06
  8.4441912e-05
 -7.3922376e-07
 -1.2161904e-04
  3.8825124e-06
  3.3954939e-06
  2.7111322e-05
 -3.2776959e-05
  1.8990229e-06
 -7.6740755e-05
 -2.0348451e-05
  2.9335424e-04
  4.6339901e-05
 -6.4525673e-05
 -2.5320012e-05
  1.8520465e-06
 -6.2273348e-06
  1.1396984e-05
 -4.0613374e-04
 -3.6731933e-04
  5.3645566e-05
 -1.4505922e-05
  1.7603696e-05
  1.2297907e-03
 -3.2549444e-01
  4.5063356e-01
 -4.5760580e-06
  1.3759632e-01
  3.1526183e-04
  5.1155708e-05
 -1.5149241e-06
  3.0410605e-05
 -2.3056484e-05
 -1.1377952e-05
  3.3003997e-04
  7.4382311e-05
 -3.8490279e-04
  9.5988093e-05
 -3.6251793e-05
  2.8601415e-03
  2.0193809e-05
 -2.0483178e-06
 -1.9486710e-04
  5.5630831e-08
 -2.7698983e-05
  9.3784416e-03
 -1.1549831e-05
  3.5764097e-05
  2.5215348e-07
  3.0571480e-06
  2.6989419e-05
 -6.9124006e-05
  1.2848552e-05
 -9.1192824e-01
  4.1523290e-01
  1.0196452e+00
  4.6866637e-01
 -2.5164273e-01
 -2.0763793e-04
 -1.6828538e-04
  6.0347761e-06
  1.1850672e-04
 -1.1750928e-05
  4.5983084e-06
  9.1270910e-04
 -2.2886406e-05
  6.2994164e-05
  5.2970834e-05
  2.5075696e-02
 -3.8938961e-05
  1.9790597e-05
 -7.2338835e-06
  1.2054056e-04
  2.6865283e-03
  1.1172299e-01
  1.1167379e-04
  3.6901593e-01
 -1.3420786e-04
  5.0011422e-05
 -2.5793088e-05
 -8.2456885e-05
  5.7004004e-06
  1.1567331e-04
 -4.6722947e-05
  1.1114788e-03
 -1.8339761e-04
 -7.3150889e-04
  1.0103983e-04
 -3.3244603e-05
 -3.7593869e-05
 -1.8515051e-05
 -2.1438673e-05
  2.1332761e-04
  5.7860601e-05
  9.9061683e-05
  1.5284166e-03
  1.3188179e-05
 -8.8527959e-05
  6.7952519e-06
 -4.7400834e-05
  3.5090859e-05
  4.5069508e-05
  3.7834613e-04
  1.3519663e-03
  6.4455180e-06
 -6.5113759e-06
 -3.6690293e-05
 -2.6933458e-05
  1.0424598e-04
  6.2893218e-05
  1.2358527e-05
 -9.7903621e-06
 -2.9587389e-05
  2.2305187e-06
  1.8859567e-03
  3.6302356e-03
 -7.2722189e-04
  3.6757943e-01
  3.9387865e-05
 -1.0980169e-05
  4.6432401e-06
 -1.4848968e-06
 -1.7445120e-04
  5.2773808e-06
  5.6245931e-06
  3.0708878e-05
  5.8855414e-05
  5.5986646e-05
  5.7387975e-04
  1.1079068e-05
 -5.5236023e-06
 -4.0628001e-05
 -7.1200274e-04
  5.0805658e-05
  7.3339854e-04
 -5.0003482e-06
  2.8502717e-04
  2.4722873e-05
  5.8829311e-05
  1.8623983e-05
  5.1633679e-06
  4.1556432e-05
 -3.4470293e-05
 -1.3454644e-04
 -9.2936887e-07
 -3.3855707e-05
  9.5784881e-06
 -4.8551650e-05
  2.9675977e-05
 -1.3541969e-04
  8.9292080e-06
  1.7167231e-04
 -6.7911358e-05
  1.8124692e-05
  2.0291334e-06
 -7.5844284e-05
 -6.9289013e-06
 -2.2047487e-04
 -1.0214850e-03
 -3.6170768e-05
 -1.9859215e-05
 -6.6325221e-05
  1.9817637e-05
 -6.3937536e-05
 -1.4479118e-05
  2.4217386e-05
  4.1550145e-04
 -2.0163673e-06
  3.2371590e-05
  1.4722445e-04
  2.8238874e-06
 -5.9600454e-05
 -4.0014609e-05
 -1.2893829e-05
 -1.2002334e-04
  1.5954465e-04
 -4.0062441e-05
  1.2692636e-05
  6.0046700e-06
  6.3068022e-05
  5.6354023e-05
  8.3286304e-06
 -9.0520894e-05
 -5.3417811e-04
 -4.1374869e-06
  1.9363824e-06
 -3.5695241e-05
  2.1772257e-07
 -3.4448021e-04
  7.6859560e-06
  5.4133544e-04
 -1.0288325e-06
  1.9168651e-04
  4.8835369e-05
  5.4167500e-05
 -6.9234142e-05
 -4.6001613e-05
  3.1866231e-05
  4.4584023e-05
  8.5565625e-06
  1.8108594e-05
  4.3616683e-04
 -4.3641841e-05
 -1.2175316e-01
 -2.1125685e-01
 -2.1664597e-01
  8.6047657e-02
 -1.3568500e-01
 -9.3934497e-05
 -4.9819332e-04
  5.2794348e-04
 -5.2178389e-04
  6.6575781e-04
  4.6993289e-04
  2.9603421e-04
  1.4806578e-04
 -1.6939632e-05
 -3.0391766e-03
  1.1664165e-04
  3.8721820e-04
  1.6277804e-04
  1.0821369e-04
  1.3086901e-03
 -9.2912060e-06
  3.6657769e-03
  5.0846819e-02
 -2.8804126e-05
  2.2928602e-04
 -1.0988740e-04
 -3.2595133e-05
 -1.0608093e-04
 -7.3734554e-05
 -3.6837178e-06
 -1.4513045e-05
 -2.1271230e-04
  8.9169836e-05
 -2.8028564e-05
  1.2344263e+00
  2.9131646e-05
  4.9436258e-06
 -1.0322634e-04
  1.3306120e-01
  1.3405068e-01
 -1.1306829e+00
 -3.6191872e-05
  2.9221941e-05
  7.7160594e-06
 -1.1525395e-05
 -4.9560121e-01
  8.7453613e-05
 -4.8272817e-05
 -5.7124198e-05
 -1.3741572e-05
 -6.9083446e-01
  4.6678615e-01
 -1.8570056e-04
 -2.1801634e-02
  3.7858811e-01
 -2.5858651e-04
 -6.0566756e-05
  7.1538789e-06
  2.3630693e-05
 -1.9050948e-02
 -7.6363055e-04
 -4.5023614e-01
 -3.3860701e-01
  2.3053566e-01
 -1.7454220e+00
 -7.6748402e-06
  1.0508936e-05
  2.8344294e-02
 -4.7038656e-01
  2.1565256e+00
  2.2445035e+00
  4.6221176e-04
 -2.5108619e-05
  8.6750799e-05
 -6.7695160e-05
  1.4660609e+00
  8.3588129e-06
  1.2294542e-04
  2.4684760e-01
  1.7707559e-04
 -1.1844726e+00
  6.0362983e-01
 -3.9112655e-04
  4.3150988e-01
  6.1728704e-01
 -2.2300868e-04
  2.7662593e-01
 -2.2404976e-05
  1.0292004e-04
  6.6504443e-01
  1.7683046e+00
  2.1001673e-01
 -1.8984886e-01
 -5.1063025e-01
 -8.7103450e-01
 -1.4966273e+00
 -4.2738014e-01
  7.7641970e-01
 -1.3091930e+00
 -3.3265734e-01
  1.4371076e+00
 -1.4191043e+00
 -3.1721762e-01
 -9.5994800e-01
 -1.3810908e+00
  7.0912111e-01
  5.3161633e-01
 -5.7103640e-01
  1.6632739e-01
  7.2476959e-01
  6.0278332e-01
 -2.1163575e-02
  5.3067976e-01
  3.4549457e-01
 -6.1067784e-01
  2.9646701e-01
  2.0167892e+00
 -8.9720478e-03
 -7.5079091e-02
 -4.4463855e-01
  1.1910298e+00
 -2.4645483e-01
  1.3585368e+00
  3.9057624e-01
 -1.5543498e+00
  2.3355554e-01
  5.0048697e-01
  4.9172610e-01
 -9.0676242e-01
 -8.5707836e-02
 -1.7339220e+00
 -8.2558972e-01
 -1.3264173e+00
  1.0664830e+00
 -5.3636312e-01
  1.0589749e+00
 -8.7013650e-01
  3.2382295e-01
  1.4972168e+00
  1.2023971e+00
 -2.1109645e+00
 -1.1571310e-01
  1.1614678e+00
  5.0180507e-01
  2.3467965e-01
  4.8836115e-01
 -8.9968961e-01
 -4.2384529e-01
  1.2315335e+00
  2.3769369e+00
 -2.7612793e-01
  1.1953806e+00
 -7.0342429e-02
 -7.1355686e-02
  4.4193894e-01
  1.8786952e-01
 -1.0444345e+00
 -1.7622514e+00
  1.6950166e+00
  3.5138637e-01
 -1.0942730e+00
  1.8562051e+00
  1.2168431e+00
 -1.3733794e-02
 -6.7500818e-01
  3.8162184e-01
  6.8719679e-01
 -5.8182780e-02
  1.8523451e+00
  2.8901844e-04
 -3.3044131e-03
  2.9542798e-01
 -2.4353199e+00
 -1.0071070e+00
 -1.8462318e-01
  1.3933061e+00
 -1.7625525e+00
  6.5329790e-01
 -3.5107976e-01
 -6.5890223e-01
  1.5206373e+00
 -1.1644059e+00
 -5.1849283e-02
 -1.3786002e+00
  9.9639463e-01
  1.4962820e+00
 -1.4593196e+00
 -4.4499981e-01
 -1.0095569e+00
 -3.5900947e-01
  2.9974241e+00
 -2.8461128e-01
  6.6480964e-01
 -8.6851519e-01
 -4.2429253e-01
  1.2222368e+00
 -1.4829382e+00
 -1.0436174e+00
 -4.9130365e-01
  5.3884965e-01
 -4.0247110e-01
 -2.3263736e-01
 -2.1708815e-01
  7.3762226e-01
 -7.9211545e-01
  8.3765346e-01
 -1.4484590e+00
  3.9922634e-01
  2.3243337e+00
 -2.3862252e+00
  1.4151735e+00
 -1.3701469e+00
  2.2513661e-01
  7.8367662e-01
 -3.9256784e-01
  2.3480489e+00
 -2.9894357e+00
  1.7708788e+00
 -2.2366683e+00
  5.6938642e-01
 -9.1177452e-01
  1.6484082e+00
 -4.5466629e-01
  2.6071219e-02
  6.3960683e-01
  4.9287015e-01
  1.3105337e-01
 -1.2980093e+00
  1.2352939e+00
  3.8726464e-01
 -8.0702049e-01
  4.0158346e-02
 -5.4313785e-01
 -3.5529751e-01
 -2.7435011e-01
  7.6330215e-01
  1.0545869e+00
  1.4256268e+00
 -7.9423405e-02
 -3.0584161e+00
 -5.4825473e-01
  1.5095559e+00
 -8.1322175e-01
 -3.1168649e-01
 -1.6278429e+00
  5.6507021e-01
  6.3714790e-01
  3.0526781e-01
  4.4122028e-01
 -7.5272602e-01
 -2.1940694e+00
 -2.8665299e+00
 -1.3436756e+00
  9.0407073e-01
 -5.2128184e-01
  7.6984340e-01
 -1.2678390e+00
  6.0222056e-02
 -1.8788394e+00
  1.9423845e-01
  1.7103285e+00
 -2.3314576e-01
 -8.9483726e-01
 -5.7396394e-01
  1.6581759e+00
 -6.9226062e-01
  6.3666588e-01
 -2.2131498e-01
  8.9793706e-01
 -1.6930747e+00
 -1.1000996e-01
  8.3505070e-01
  6.9353390e-01
  6.6128987e-01
 -1.2531723e-01
  1.5680872e-04
  1.6263971e-01
 -2.4903775e-05
 -4.6759291e-05
 -1.7534399e-01
  1.0838112e+00
 -7.8360701e-01
 -6.8228740e-01
 -5.1266986e-01
  1.1241210e-01
  4.4750929e-01
  5.4209627e-02
  3.3390881e-03
 -2.5386062e-01
  3.2229489e-01
 -5.5097640e-01
 -9.0430230e-01
  1.1326776e+00
  1.1034924e+00
  7.5428009e-01
  5.6048971e-01
  1.5626999e+00
  7.8197539e-01
 -2.0658515e-01
  6.8626273e-01
 -2.6571780e-01
  3.4276325e-01
  1.2525909e-02
  6.5373212e-02
 -1.3401411e-01
 -6.5701360e-01
  1.9368243e-01
 -7.4226439e-01
 -8.6393125e-02
 -3.8547522e-01
 -1.1719632e+00
  1.3580118e-06
 -1.9564129e-01
  2.5953530e-05
 -3.6200785e-05
  7.2765267e-01
 -7.1578252e-01
  5.9991099e-02
 -4.8490769e-01
  7.0348687e-02
 -4.1539943e-01
  1.7309369e+00
 -4.8940256e-01
  9.5314252e-05
 -1.9259610e+00
 -6.6205955e-01
 -2.4970137e-01
  2.8573138e-01
 -2.7168700e-02
 -2.5304227e-05
 -7.6494455e-01
 -8.3433712e-01
 -1.2456239e-03
  1.0119704e+00
 -5.7715338e-01
  1.0886365e-01
 -8.7840325e-01
 -8.6939566e-02
 -1.5494594e-02
  7.3723868e-02
 -8.0708528e-01
 -1.0368491e+00
 -7.5963342e-01
  4.9268413e-01
  9.7443175e-01
  1.1828109e+00
  9.0251982e-01
 -6.4959127e-01
  6.4905936e-01
 -1.7082387e-01
  1.6772758e-03
 -5.0474852e-01
  4.4870955e-01
  3.9884391e-01
  1.7084283e-05
 -2.3539886e+00
  2.9647425e-01
 -1.6678929e-01
  1.1391233e+00
 -9.0675473e-01
 -5.0271273e-01
 -1.9159494e-01
 -5.6554538e-01
 -1.4875420e+00
  4.1405389e-01
  4.3922579e-03
  6.9708782e-01
 -9.9826419e-01
  8.2898110e-01
 -3.1171703e-01
  5.4618222e-01
  7.1145231e-01
 -5.3535980e-01
 -8.5933381e-01
 -1.9939136e-02
  6.4869267e-01
 -7.0768654e-01
 -1.0511785e+00
  9.3693531e-01
 -1.0038535e-02
 -9.4573355e-01
  8.6361480e-01
 -2.4295850e-01
 -3.2087526e-01
 -4.9783269e-01
  6.6927451e-01
  3.4988363e-05
 -1.3299054e+00
  1.0843467e+00
 -8.6961383e-01
 -1.9090191e-01
  2.3926848e-01
 -6.6647536e-01
  1.6770102e+00
  3.2652402e-04
  3.2634416e-01
  8.9276031e-02
 -3.0545250e-01
 -9.5141195e-02
  5.2012384e-01
 -8.0413914e-01
 -9.0855193e-01
 -9.0720989e-02
  5.1306123e-01
 -1.8161001e+00
 -5.4011035e-01
 -3.8247039e-05
  9.7056341e-01
 -5.7763422e-01
  7.8340310e-01
 -3.4792021e-02
  4.9086174e-01
 -1.5916136e-01
 -3.6743239e-01
 -1.0103791e-01
  3.2290989e-01
 -7.2505176e-01
 -3.2285807e-01
  5.5311170e-06
  4.3985838e-01
 -2.3760636e+00
  5.1061256e-04
  6.8797184e-05
 -1.1448135e-01
  1.1308932e+00
 -4.6089062e-06
  3.3719447e-05
  7.4328864e-01
  9.1669738e-01
 -6.4851649e-02
 -5.5031615e-01
 -1.5068675e+00
 -2.5340066e+00
  2.7892739e-01
  3.0057094e-01
 -2.2330002e-01
 -9.0230870e-01
 -1.4612953e-04
 -5.1789045e-01
  8.5517365e-01
 -1.3246430e+00
 -3.0402261e-01
  1.9055912e-02
  1.2506099e+00
 -6.8325377e-01
  1.0828754e+00
 -2.0240469e-01
  9.0647206e-02
 -1.0671551e+00
 -6.1026919e-01
  1.4993919e-04
  4.1166551e-02
  4.1166551e-02
  4.1166551e-02
  4.1166551e-02
  4.1166551e-02
  1.1403790e-01
  1.1403790e-01
  1.1403790e-01
  1.1403790e-01
  1.1403790e-01
  9.1207892e-02
  9.1207892e-02
  9.1207892e-02
  9.1207892e-02
  9.1207892e-02
  2.8949864e-02
  2.8949864e-02
  2.8949864e-02
  2.8949864e-02
  2.8949864e-02
  1.4033274e-02
  1.4033274e-02
  1.4033274e-02
  1.4033274e-02
  1.4033274e-02
  1.0441303e-01
  1.0441303e-01
  1.0441303e-01
  1.0441303e-01
  1.0441303e-01
